1194 128
1272 0.093370445 0.041660003 0.0029408582 -0.12853506 -0.002016926 0.1551593 0.04166968 0.04464332 -0.08819818 -0.0026460818 0.20468415 -0.0743424 -0.1334923 0.065882176 -0.16428241 0.059790935 -0.07646896 0.06885555 -0.05095521 0.1679442 0.1439995 0.080906026 -0.080216646 -0.115914695 -0.082473874 0.012133266 -1.6359585e-05 0.17702621 0.0069005718 0.07724682 -0.06984053 -0.123763874 0.08693467 -0.11224341 -0.15612042 0.0019448779 0.15289477 0.07596935 -0.16800968 -0.095800586 0.09843773 0.11810731 -0.11861828 -0.04707559 0.07156733 0.14129962 0.018581714 0.035167504 -0.04731667 -0.04467391 0.06269669 -0.11637174 0.18465942 -0.05968074 -0.15022953 -0.0023297935 0.12613535 -0.02202571 0.033197 -0.013553638 -0.055520136 0.079450674 0.056209784 0.036367815 0.08977886 0.02206745 0.3044436 -0.068449534 -0.09310159 -0.09102047 0.081334636 -0.14645098 -0.03822495 -0.27640632 0.088171944 -0.109601766 0.021919431 -0.06970601 -0.07709079 -0.04620643 -0.17534901 0.031483978 -0.0068136 0.08108935 0.16410273 -0.060911305 0.1409044 0.24534023 0.010451111 0.16100381 -0.0937386 -0.015492631 -0.10407022 0.10145162 -0.010890075 0.14482667 0.18366477 -0.120128326 -0.060613938 -0.058067977 -0.041473694 -0.0025974177 0.011047765 -0.09113872 -0.05724875 -0.016119942 -0.024221541 0.06441727 0.0061854557 0.013117636 0.018559802 0.058819834 -0.16048989 -0.14297412 -0.021028254 0.14546935 -0.03920754 -0.11416901 0.053111985 0.2908148 -0.02962959 -0.13761395 0.108182125 0.098781735 -0.11947793 -0.07599566 0.087041765 -0.045645323
1327 -0.05471724 -0.017102458 -0.042211853 -0.18516211 0.0073998217 0.19677424 -0.063035205 0.12008034 -0.02359581 0.050799977 0.14193621 -0.1964193 -0.0868925 0.10345816 -0.09032713 0.15412402 -0.038937546 0.06564628 -0.0833129 0.14205839 0.057133663 0.11419925 -0.114663646 -0.15866184 -0.05944456 0.0018409209 0.014230263 0.24900578 0.002316882 0.084019974 -0.09668274 -0.041805785 0.09922686 -0.07198119 -0.08664354 0.1072914 0.22200128 0.035108607 -0.13614367 -0.030799756 0.09628252 0.05087727 -0.13674188 -0.010677803 0.017641885 0.05914376 -0.021644516 0.04473898 -0.028824762 -0.036876936 0.11574779 -0.20854697 0.14036 0.028352413 -0.072742164 0.027612975 0.21818978 -0.042986497 -0.14050235 -0.009146026 0.02170564 -0.0107198 0.15479572 0.02122457 0.10341401 -0.042581085 0.24174742 -0.044787902 -0.099962905 -0.017152071 -0.03624847 -0.02966563 -0.15741882 -0.11642513 0.13498218 0.0031593337 -0.008811076 -0.09626242 0.062506266 -0.021027738 -0.19550554 -0.012269564 -0.02585773 0.23462649 0.25336385 0.009980025 0.1566769 0.15442656 -0.044014487 0.14330778 0.026059812 0.031124474 -0.06288907 0.16819413 0.038779978 0.07326949 0.111010425 -0.0892654 -0.027462762 -0.028129987 0.05424282 0.041166175 0.12335313 -0.094402574 0.09978645 -0.060066465 -0.0055720843 0.15389417 0.056319185 -0.06309514 -0.048291128 0.024007432 -0.16886273 -0.06235092 -0.08019395 0.097568505 -0.17027898 -0.08348477 0.07917768 0.10376796 -0.03681738 -0.2027538 0.15925986 0.0986047 -0.17882171 -0.05172979 0.02692641 -0.120792225
1407 -0.08734513 -0.016933098 -0.06640173 -0.1428215 0.03442671 0.20836903 0.0515711 -0.12185566 -0.039602757 0.11997408 0.20625605 -0.210735 -0.20408075 0.11601741 -0.14016668 0.0746328 -0.12141152 -0.06858388 -0.0067728893 -0.0043414044 0.12223733 0.12661883 -0.30513743 -0.1963014 -0.05320764 -0.10409086 0.009031226 0.1378196 0.102892086 -0.08677919 -0.04455149 -0.029789098 0.15563782 -0.047388293 -0.037544597 0.016673364 0.1246531 0.1969325 -0.19822086 -0.120941594 0.20717034 0.05786586 -0.16293302 0.041308664 0.0061258394 0.12327609 -0.14521205 -0.0033601685 -0.076560944 -0.012013588 -0.007882914 -0.06757551 0.3525907 -0.14152275 -0.083743475 -0.09652271 0.3746184 0.058570422 -0.067197606 0.17307815 0.041095197 0.040862136 0.009701077 -0.048781846 0.18282819 -0.017729888 0.18446015 0.012032887 -0.0021696761 -0.07851952 0.015399846 -0.26318234 -0.000661116 -0.2712855 0.05152231 -0.018548824 0.06557692 -0.17375344 0.054884538 0.025859619 -0.09138893 -0.035686716 -0.13831179 0.17766559 0.2590747 0.042943828 0.0405451 0.0894523 -0.05791967 0.20674723 0.04868514 -0.010164746 -0.025007324 0.1117283 0.010600748 0.13731399 0.13606755 -0.07544287 -0.06616682 0.10535239 -0.007824579 0.06073862 0.1356995 -0.02975083 0.012213552 0.041741297 -0.017855305 0.09088144 -0.08068919 0.051385064 0.08969167 -0.11303963 -0.21690212 -0.01567945 -0.10099883 0.120007426 -0.060265083 -0.05571372 0.19485131 0.1259179 -0.060413685 -0.12767686 0.050256185 -0.016677216 -0.061015867 -0.012613277 0.017291015 0.014452142
1116 -0.014597521 -0.079307556 -0.03366835 -0.10408367 0.014965551 0.09906424 -0.0025398764 0.10506935 -0.10616704 -0.107888766 0.0632835 -0.11594613 -0.1704106 0.18028463 -0.02494745 0.17669226 -0.068889104 0.00800808 -0.01795655 0.0628272 0.06840153 0.028205317 -0.051589955 -0.094234705 -0.013154877 0.073126115 -0.16595453 0.30228826 -0.0050985417 0.11664346 -0.040507223 0.040086795 0.06389895 0.015592262 0.00575835 0.005759646 0.093590744 0.023449989 -0.1985003 -0.17154564 0.13326131 0.06772229 0.04874996 -0.013320045 -0.034887288 0.02041352 0.21617419 0.0019816728 0.018915996 0.1306542 0.052964427 -0.1446975 0.11822579 -0.13110016 0.013525351 0.012929133 0.070454285 -0.027828436 0.10143941 0.046191167 0.042392917 0.006354549 0.13041872 0.101542115 0.18162957 0.004001102 0.04831326 -0.019868033 -0.09656912 -0.0036282912 0.04360163 -0.09132501 -0.020506721 -0.18586852 0.22949904 -0.20035495 0.0054047545 -0.17969331 0.049705565 0.06375195 -0.106694534 0.01858488 -0.026267441 0.25212574 0.16545677 -0.16478294 0.024565013 0.12993696 -0.07908489 0.0442743 -0.10769676 0.09310233 -0.01859708 0.11483438 0.009843872 0.2930443 0.19249733 -0.1079917 -0.12922281 -0.021901265 -0.007585064 0.034163292 0.09339683 -0.046786707 -0.050301626 -0.07107909 -0.047697235 0.07240762 -0.11944998 -0.01608983 0.003597039 -0.050951406 -0.13531004 0.02751732 -0.039756548 0.1560706 -0.012662429 -0.1481596 0.13356172 0.17792599 0.04551926 -0.054732595 0.07615892 0.17584951 -0.10751482 -0.09337726 0.14909072 -0.21731983
1172 -0.029442022 -0.06319086 -0.11144607 -0.13057673 -0.0026811014 0.1656744 0.0660025 -0.14649366 -0.11685088 0.29045796 0.1428896 -0.24190667 -0.17592277 0.078099675 -0.14516588 -0.07480338 -0.17993793 -0.06104001 -0.22246392 0.13040574 0.12815288 0.14265363 -0.23784629 -0.04730288 0.053591352 -0.09568037 0.04151828 0.08920273 0.013782429 -0.10527321 -0.14886403 -0.1399721 0.19257076 -0.103765 -0.09046889 -0.14103515 0.23618792 0.15850516 -0.10266505 0.039067443 0.20267482 0.08256032 -0.037478205 0.1475934 0.060934518 0.19327408 0.005146291 -0.17569035 -0.033084095 0.024026977 0.06045534 -0.16682631 0.20269382 0.010179941 -0.16744187 -0.11866341 0.27978766 -0.050541542 -0.0962961 0.18249765 0.07992685 -0.08522911 0.08553174 -0.012263581 0.05863914 -0.040596593 0.13092832 -0.034086283 -0.07040949 -0.045518246 -0.01625789 -0.22495897 -0.18169175 -0.28399566 0.17415415 0.090440676 0.007023426 -0.113396384 0.07909279 0.031878963 -0.12272006 7.437618e-05 -0.120792985 0.122868806 0.2487195 0.04888059 0.0558934 0.17560877 -0.07698743 0.28591406 -0.028401587 -0.032881297 -0.027627263 0.19799891 0.008689279 0.1099462 0.071639806 -0.10528488 -0.11080664 0.052771743 -0.13795555 0.045050774 0.12261367 -0.010300932 0.032846052 -0.09645301 -0.13018534 0.11064026 0.053534918 -0.044921156 0.0037111954 -0.11078882 -0.14878973 -0.26083112 -0.021343771 0.1819346 -0.0919893 -0.032302856 0.20947456 0.25244698 0.08791324 -0.065869614 0.078288786 0.01041262 -0.05907722 0.06849454 0.17035984 -0.0850819
1316 -0.017194895 -0.052793417 -0.01636858 -0.09481 -0.007858902 0.18107383 0.21234779 0.11829284 -0.10899561 0.07233875 0.0028881298 -0.011950921 -0.18280484 0.084219016 -0.06960714 0.08892798 -0.17382182 0.14228974 -0.045016054 0.067933366 0.14188084 0.08229084 -0.09102261 -0.20562886 0.07435271 -0.11698861 0.054152668 0.12090457 0.06348509 0.14676453 -0.13894919 -0.08308974 0.2349506 -0.005866994 -0.04159092 0.069456905 0.116531424 0.1426804 -0.23371536 -0.065870315 0.1240588 0.027328165 -0.24035789 -0.093190625 -0.015699219 0.07394077 0.10984216 -0.09449073 -0.07196134 -0.15585665 0.19836812 -0.16393878 0.301256 -0.091321975 -0.20766605 -0.03617482 0.23486908 -0.03135103 0.096608415 0.060121436 -0.08239043 -0.017172556 0.10698052 0.114016466 -0.0023294382 -0.11691062 0.1882746 0.13548042 -0.17928372 0.0078140255 0.103710264 -0.05007228 -0.19173981 -0.22721328 0.1066522 -0.025915902 0.024307255 -0.07048972 -0.002872096 -0.14764957 -0.15329282 0.055904526 -0.1186352 0.09293026 0.27027905 -0.027827684 0.03970292 0.20213373 0.037812427 0.16319476 0.09505253 0.07327504 -0.07370916 0.07332625 0.12720534 0.10400719 0.076130785 0.03734758 0.11193707 -0.0702537 -0.04854678 -0.018539147 0.21745545 -0.031045813 -0.00063809834 -0.05506752 -0.0565862 0.10752326 0.124604166 -0.040594734 -0.012438853 -0.053864334 -0.07929604 -0.10474688 0.095686905 0.053331323 -0.009659488 -0.10442099 0.23431274 0.33905923 -0.1244329 -0.1156997 0.03329724 -0.056987103 -0.16319454 -0.117891304 -0.08667752 0.0108886985
1329 0.18335283 0.013666742 0.0014585757 -0.10038809 0.017417721 0.1634372 -0.06883753 0.12857927 -0.10579265 -0.06399474 0.075534075 -0.12655488 -0.1405985 0.11416495 -0.020617383 0.13692576 -0.20241894 0.014992927 -0.01381579 0.053579208 0.23231262 -0.13355486 -0.038724493 -0.1732507 -0.07831177 0.0009960321 -0.25034136 0.20435926 0.023070524 0.08946263 0.048726268 -0.069937505 0.28012297 -0.0031842212 -0.18607225 0.09619194 -0.03248806 0.09721311 -0.16917239 -0.16328815 0.07720059 0.12266425 -0.14430085 0.042700864 0.10292625 0.026129011 0.105548605 -0.10331082 -0.11049669 -0.044338457 0.20325103 -0.009943952 0.23417121 -0.048485264 -0.20559545 0.014052664 0.18166633 -0.029391512 0.0022002256 0.10300454 -0.23114401 -0.10929233 0.13255069 0.014343731 0.10992235 0.0021304924 0.1385821 -0.042689193 -0.09850289 0.070082895 0.0048357816 0.058516264 -0.05868856 -0.09346913 0.12823415 -0.12180769 0.06984254 -0.15437984 -0.035880856 0.08331213 -0.1267258 0.07917468 0.03772963 0.24982233 0.25463122 -0.04843274 -0.02909195 0.0804061 0.04207047 0.12524797 0.0038957775 -0.049411364 0.11607821 0.12721726 -0.105158776 0.079890035 0.0021116147 -0.038856145 -0.027246054 -0.19639938 -0.062230434 -0.06328236 0.09151041 -0.08896018 -0.0048781396 -0.022382094 -0.002418765 0.020940805 0.07769058 0.17647675 0.06473418 -0.04203756 -0.20939438 -0.0889905 0.0020816864 0.02679877 0.023020573 -0.11174534 0.007884875 0.049085435 0.040304855 -0.08340649 0.05932434 -0.01657184 -0.030096171 0.078101926 0.039304804 -0.07552936
1306 -0.032614693 0.06552625 -0.007965959 -0.08273585 0.03111469 0.26367852 -0.01296498 0.021623341 -0.04744231 -0.13896538 0.11829365 -0.05406347 -0.06766711 -0.0017290548 0.108326785 0.11479498 -0.066278376 0.14865072 -0.0075895577 0.1782443 0.19467 0.051992018 0.013355672 -0.2395135 -0.030300464 0.038375225 -0.112688236 0.3279017 0.13284653 0.19389343 -0.05871008 -0.041518785 0.012141395 -0.018926462 -0.05662103 0.09504393 0.29774353 0.12678958 -0.20262092 -0.11251882 0.14968218 0.1749427 0.09499192 0.034660667 -0.00021103986 0.075624585 0.14579612 0.04761832 -0.09651257 0.03624886 0.24893652 -0.040456597 0.20497468 -0.074274495 -0.02084614 0.023016015 0.12106624 0.027948668 0.032494117 -0.0069481344 0.08973333 0.0012871926 0.086780824 0.11548007 0.056394406 0.030764714 0.12408372 -0.10200024 -0.062204175 -0.09300554 0.021564268 -0.19306758 0.07258698 -0.08029591 0.2714458 -0.1658502 0.0099388445 -0.22247845 -0.0013055034 0.09690246 -0.0373676 0.10839892 0.019339068 0.10885495 0.0839594 -0.12198771 0.1867063 0.08858348 -0.03517631 -0.11214365 -0.07600579 0.051307533 0.090934366 0.121474564 -0.03460116 0.07391888 0.05857053 -0.20370567 -0.11000583 -0.1492851 -0.21391094 -0.027534092 0.17260993 -0.07374442 0.029551392 -0.12656622 0.068478666 0.09783153 0.025326323 0.08700236 0.07509512 0.109184854 -0.14073177 -0.11788258 0.047857028 0.27784616 0.0065364246 -0.08910717 0.0580489 0.07402078 -0.019292763 -0.11333417 -0.0020018346 0.1712124 0.0070637404 -0.046963442 -0.05551183 -0.08376246
1293 0.19229984 0.09896734 -0.024984263 -0.18223242 0.022995284 0.028438522 0.08175875 -0.013111737 -0.08006145 0.041349 0.117870055 -0.16568379 -0.15029569 0.1906408 0.030445114 0.08697122 -0.14392382 0.044863805 0.12907138 0.141331 0.010973939 -0.0905408 -0.03729014 -0.13530202 -0.13083276 -0.03109282 -0.04793026 0.3229067 0.06737552 0.11958503 -0.08258592 -0.153203 0.25093055 -0.19608024 0.021773875 0.093434475 0.08764392 0.08846294 -0.1901068 -0.12577496 0.042184755 0.148613 -0.24398991 -0.0355433 -0.0742028 0.0046197358 0.08013078 0.03660297 0.013040753 -0.0027061237 0.13474256 -0.15649073 0.21535796 -0.15452237 -0.081182174 0.065391295 0.10776703 -0.07164235 0.02110511 0.14943583 -0.16795646 0.11510151 0.1984053 0.071113 0.08204342 -0.08201259 0.13080151 0.054207485 -0.136787 -0.08814508 0.03533926 -0.065170564 -0.2387365 -0.2841661 0.21806484 -0.082748726 0.2525617 -0.009221365 0.07085727 -0.05207738 -0.25445047 0.10574601 -0.09687391 0.20713675 0.21400194 0.08040055 0.14939465 0.101401374 0.023597889 0.016442027 0.113361485 -0.015151817 7.667636e-05 0.074548244 -0.007958115 0.22825928 0.050536178 0.117491424 -0.117099494 -0.075039595 0.035931405 0.007969577 0.12687783 0.102069035 0.098141134 -0.029135408 -0.010459659 -0.026632717 0.0021366223 -0.05955453 0.0150615545 -0.0073326435 -0.17747043 -0.10684706 0.15862712 0.2505344 -0.07875645 0.034338295 0.018845567 0.19958287 0.0751279 -0.20124681 0.12788141 -0.066280365 0.16883047 0.017230306 0.10047246 -0.10255799
1404 -0.008973427 -0.057322916 -0.13635658 -0.26232058 0.03305141 0.22018808 0.121995844 0.025267957 -0.16692008 -0.12577124 0.1983605 -0.08611638 -0.06703223 -0.025405573 -0.06348232 0.1717489 -0.013503543 0.0037092604 0.041569103 0.109824575 0.025468854 0.02125034 -0.15955783 -0.20898192 -0.046524905 0.053905293 -0.1383995 0.20077398 -0.060283832 0.10928082 -0.09156348 0.018256655 0.07759604 -0.14090496 -0.10836826 0.18577638 0.15318026 0.057646748 -0.19645427 0.017309334 0.027081016 0.060892563 0.023749076 0.06287129 -0.07951102 -0.047601186 0.048168 0.025729178 -0.14642651 -0.03966462 0.17629385 0.040735163 0.07830417 -0.09667884 -0.008918207 0.009336896 0.08678462 -0.15416865 -0.04000641 0.02019391 0.17544867 0.07634432 0.12951007 0.12086819 0.24786218 -0.016683338 0.046578087 -0.074150726 -0.15134978 -0.02809995 -0.05183354 -0.10430123 0.0066220313 -0.24906014 0.15475127 -0.15590273 0.03637934 -0.18295021 -0.06182219 0.110362366 -0.22000627 0.034778133 0.14359313 0.25640082 0.07638765 -0.18889037 0.11767408 0.23655815 -0.06930716 0.048249796 -0.03192638 0.028001226 -0.06067657 0.06968169 0.1276034 0.10341093 0.06305604 -0.07704119 -0.14223184 -0.16102578 0.007273215 0.15956809 0.16881517 -0.0049594115 -0.016432943 -0.12774931 0.054058596 0.14258038 0.057909448 0.011347927 -0.009505833 0.110967055 -0.119090736 -0.12117953 -0.04095465 0.252781 -0.061941765 -0.1703664 0.021604018 0.13852727 0.024356805 -0.011528805 -0.00550839 0.020288214 -0.12744164 0.049599 0.034206454 -0.0511082
1103 -0.087160215 -0.10169661 -0.055612374 -0.02498918 0.07058873 0.22181527 0.036576364 -0.052427247 -0.11532375 -0.05975934 0.31671602 -0.1870208 -0.100378454 0.11672286 -0.086764276 -0.025506206 -0.28132248 -0.00507883 0.0264593 0.20323518 -0.09291235 0.118810095 -0.13829324 0.046187136 -0.049676478 -0.14449058 -0.050788224 0.1308432 0.025174983 -0.101751946 0.07434961 -0.1591123 0.12848286 0.034929555 0.06482995 -0.0071932566 0.09984114 0.116578676 -0.098869585 -0.042308692 0.021350859 -0.06299736 0.016612124 0.14048524 0.0597338 -0.004056538 0.10953434 0.09199229 -0.068308525 0.13764864 0.02577104 -0.09333951 0.14851406 -0.048766173 -0.028109401 -0.11597526 0.011843683 0.0059660207 -0.10657337 -0.025906766 -0.16764365 -0.026452292 0.26779163 0.081059836 0.20456041 -0.12616839 0.23345089 -0.17294809 -0.22259392 -0.123803675 -0.0028914823 -0.12888369 -0.1160128 -0.23572966 0.17240995 -0.16228189 0.041443743 -0.07402037 0.025061602 -0.19939965 -0.25868645 -0.17800869 -0.07378098 0.19349475 0.3223636 -0.061685912 -0.072037324 0.13620444 -0.004402039 0.328965 -0.010990993 0.061881762 0.014325606 0.076280765 0.084152356 0.12780462 0.25938344 -0.1375318 -0.18059379 0.07289972 -0.15042803 0.055316243 0.043727238 0.042043068 0.040262993 -0.15591621 0.023938466 0.17365187 0.04614238 -0.12030659 0.06652952 0.0317513 -0.18234682 -0.09995385 0.06633459 0.16268416 -0.17956337 -0.11076444 0.14838193 0.16265434 0.15511124 -0.13232104 0.009009163 0.17769872 0.0669939 0.0044829473 0.04170003 -0.075712435
1421 -0.033570137 -0.012023549 0.042321898 -0.050891556 0.05214715 0.020505687 -0.024177363 0.19286276 -0.12798181 -0.17482498 0.16593596 -0.18920688 -0.0050636665 0.08846506 -0.10715312 -0.07531754 -0.07839553 0.06726613 -0.06506832 0.12981069 0.13600701 -0.10621918 -0.022969132 -0.16337293 -0.2475935 -0.0027322692 -0.070375346 0.13216978 -0.015704324 0.028102087 -0.087528706 -0.0029682831 0.034711495 0.022172017 -0.025255214 0.018562622 0.14512444 0.043257058 -0.1453251 -0.052131627 0.1382046 0.0069533517 -0.054388303 -0.016125374 -0.0042336746 0.10051939 0.12092045 -0.023126114 0.084573 -0.13431457 0.21749179 -0.061654445 0.33916253 -0.04726168 -0.14958967 0.052906174 0.16232194 0.17298822 -0.04560002 0.050315008 0.043546155 0.09835629 -0.07190937 -0.2650534 0.0038379664 -0.10585587 0.1802262 0.0004584437 -0.12016984 -0.103530385 0.027392672 -0.095797725 0.014245624 -0.33599484 0.29197153 -0.12579934 -0.026073692 -0.006965595 -0.07330529 -0.07874388 -0.129261 -0.024635458 -0.026566016 0.17746891 0.045446306 -0.10728827 0.11421261 0.24918091 -0.031743642 0.0651952 0.12913418 0.00207464 -0.15527672 0.18961196 0.061163 0.18540417 0.13944772 -0.10400752 -0.19547184 0.22228077 -0.11456725 0.011527774 0.05091892 0.063116014 0.18036325 -0.15203403 0.041706797 -0.0490862 0.15634838 -0.0015013501 -0.087487996 0.089674495 -0.15965259 -0.10588896 -0.12597404 0.12919535 -0.07019301 -0.20281202 0.08114675 0.20195569 -0.101210535 -0.26478732 0.0024399753 0.26727796 -0.117803805 0.13158649 0.14273179 0.09797043
1237 -0.18311726 -0.07454062 0.068682685 -0.03598345 0.073956944 0.066786945 -0.08184686 0.032445654 -0.066166274 -0.02996266 0.018857887 -0.12094866 -0.16228013 0.14690195 0.005577964 0.09331319 -0.10891028 0.12856936 -0.010233183 0.14711532 0.14773114 0.07562251 0.040075228 -0.1026966 -0.042512055 0.003942048 -0.11210343 0.21675187 0.0096120145 0.09061352 -0.12436649 -0.14917694 0.035330903 -0.0860665 -0.12851675 0.05890819 0.06994713 0.17410251 -0.031242657 -0.08274678 0.011141505 0.073485136 0.012843695 0.11669907 0.0842059 -0.025026204 0.081088185 -0.09808251 -0.09174244 0.01675714 0.092518866 0.018964246 0.102861546 0.024332838 -0.19414033 0.05823333 0.16545214 0.04913553 0.10813093 0.055673197 0.031710695 0.23321971 0.17156544 0.18449047 0.15996172 -0.007374286 0.08792233 -0.08316731 -0.088093355 0.05584195 -0.048762932 -0.14541075 -0.1083219 -0.16673034 0.15952522 -0.14058119 -0.07068713 -0.022854695 0.049531545 0.11002307 -0.12569588 0.1484467 -0.0663345 0.16253257 0.12072962 -0.03350687 -0.08890997 0.16504252 0.021309195 0.08112185 0.02047312 0.02283984 -0.008410345 0.22064447 0.013757779 0.25459832 0.15626305 -0.07665733 -0.1300313 0.027873384 0.084155925 0.09030103 0.022447675 0.042899385 0.0054621343 -0.08191724 0.04566185 -0.019154578 0.052616827 -0.050498277 0.055754125 -0.035936728 -0.16864668 0.11343394 -0.14849131 -0.01714249 -0.03862299 -0.22597761 0.2644074 0.075409204 0.07137909 -0.06970756 0.02091902 0.051962294 -0.1908984 0.014756131 0.122850664 -0.1299154
1276 -0.037426863 0.14693916 -0.010262886 -0.042346343 0.11398382 0.10351993 0.06250107 0.096689045 -0.16026907 -0.057673734 0.15441865 -0.101581395 -0.02098755 0.19471684 0.04275393 0.21584623 -0.33267993 0.002876503 -0.033848584 0.1840668 0.20756473 -0.010132504 0.0044789007 -0.33650312 -0.044911522 0.023247149 0.1651266 0.15597041 -0.14257409 -0.05605283 -0.12614849 -0.16882434 -0.01208878 -0.051842008 -0.075276956 0.103120334 0.13864776 -0.010916997 -0.071195394 -0.3687348 0.13515262 0.055283114 -0.07868495 0.010418927 0.0044924966 0.19838415 0.078521185 -0.029416265 0.0116967885 -0.0082276305 0.06913703 -0.052565526 0.16936396 -0.14921208 -0.18513249 0.112262815 0.18942049 -0.024832383 0.04602543 0.0056480016 -0.1419831 -0.093516275 0.047303498 0.07509763 0.19463184 0.075624555 -0.040038336 -0.014522868 -0.11637976 0.010806409 -0.047735926 -0.14850812 0.08675064 -0.26912642 0.25890136 -0.085596494 0.07275989 -0.29958925 -0.11609584 -0.15017332 -0.12644404 -0.018804496 0.025816234 0.012479851 0.17525579 -0.16910034 -0.021008244 0.08107432 -0.07046477 0.12926541 -0.07590523 0.0150838895 -0.18346797 0.16757236 0.2053731 0.12639454 0.12346005 -0.16316181 -0.20248415 0.1253236 0.033600926 -0.0891954 0.11074521 0.21367784 0.015959736 -0.09499227 -0.041523084 -0.00050884864 0.04753213 -0.11112402 0.068793945 0.14120539 -0.1328518 -0.07601445 -0.027319793 0.17600882 -0.104890496 0.06656865 0.17999145 0.24884577 -0.027434055 -0.009747313 0.07828729 -0.04012816 -0.08928085 -0.21366838 0.07621956 0.016438663
1156 -0.01841138 -0.11246334 -0.0066802325 -0.01987614 -0.046850868 0.1017514 -0.018649695 0.066858254 0.056509916 0.07502744 0.044524413 -0.16724825 -0.17908728 0.14322041 0.021499613 0.25605416 -0.06964391 -0.04635047 -0.054078855 0.0145239895 0.21032031 0.020566426 0.055598844 -0.05040034 -0.15238202 0.085182056 -0.12954406 0.13647413 -0.005652716 0.058148865 0.083806954 -0.07720777 0.22204956 0.075069584 -0.09234658 0.06823357 -0.17594141 0.055862363 -0.1507111 -0.0845504 0.016249739 0.023706252 -0.08004476 -0.026319433 -0.07837359 0.14773051 0.20371625 0.034186333 -0.16941756 0.040202137 0.22293401 -0.10883933 0.23379086 -0.21344963 -0.04723756 -0.115610145 0.029544553 -0.022764688 0.028957928 0.01498365 -0.2516365 0.09840651 0.14513186 0.1763844 0.23285201 -0.13787934 0.24637513 -0.07340821 -0.21965882 0.050120916 0.10592978 -0.025558602 -0.0040321653 -0.18684892 0.18146728 -0.01876537 0.020774197 0.012436239 0.12000972 0.0568957 -0.11283874 0.051880244 -0.005608799 0.16675988 0.26541883 -0.023069242 -0.048739254 0.25454316 -0.11097499 0.13618103 0.25364822 0.07805519 -0.016245969 0.35958564 -0.017324943 0.19402055 0.10614372 -0.0690178 0.031945612 0.05257857 0.12370182 -0.15113573 0.00125036 0.031076482 0.04065498 -0.09240769 0.0209582 0.18087184 -0.034201965 -0.03042938 -0.028944641 -0.046538875 -0.27399752 -0.104010336 -0.114395484 0.092243016 -0.08263067 0.056449365 0.010627235 0.3084536 -0.008832551 -0.058688875 0.0364095 -0.0172234 0.126385 0.06486356 0.09925735 0.054737918
1308 -0.037385408 0.08229736 0.045186237 0.14163241 -0.05058239 0.100850105 -0.03219097 0.07919628 0.017083101 0.087990575 0.070468836 0.0100125605 -0.07240736 0.042975787 -0.05475235 0.20656092 -0.21452974 0.14652546 -0.02504697 0.13227484 0.047733206 -0.038984463 -0.16254021 -0.13532563 -0.003971524 0.08835468 -0.17538042 0.26300004 -0.09582614 0.108240865 0.0044348515 -0.0011364827 0.12959488 -0.056477476 -0.1503584 0.003424052 -0.011548592 0.08326337 -0.039954036 -0.042803466 0.1171728 0.06973974 -0.065858275 -0.062786765 0.15458837 0.088388674 0.09626946 -0.10487748 -0.077683136 0.18233353 -0.009488023 -0.08668422 0.096769 0.0040936256 0.018519893 0.10815521 0.26042888 -0.033982124 0.009071052 0.021499496 -0.14156123 0.19001079 0.021220664 0.023765821 0.058346763 0.02527687 0.04669908 -0.21546616 -0.13356932 -0.09540559 0.0052514104 -0.2673744 -0.14319369 -0.149641 0.18312597 -0.1226288 -0.045980964 -0.12418737 -0.0354471 0.12715788 -0.12749082 0.26382738 0.021886518 0.2265687 0.1740585 0.03356153 0.15215631 0.08231902 -0.06596453 0.05078726 -0.079234965 0.013881139 0.0056946417 0.19178128 0.0871647 0.12531969 -4.8235583e-05 -0.10857738 -0.09795317 -0.20445356 -0.00623742 0.03912847 0.07560506 -0.011401737 0.0349525 -0.044741802 -0.02765522 0.0798551 -0.070430234 -0.023108365 0.08719901 0.061452024 -0.09421989 0.07817549 -0.057931162 0.094075054 -0.06627148 -0.098993205 0.17031826 0.093387514 0.05833315 -0.024890361 0.08333479 0.0031366516 -0.03990193 0.0025947478 0.042277455 -0.044422686
1287 0.052612185 -0.039238073 0.08266077 -0.14693598 0.1039539 0.009889034 0.12814665 0.0059855855 -0.08684456 -0.01871221 0.1842049 -0.038112298 -0.11103624 0.18314111 0.101359956 0.08758904 -0.15881851 0.10203924 -0.22327922 0.07794912 0.1932402 0.055444095 -0.044025723 -0.26328927 -0.013933523 0.033316556 -0.06420232 0.2710673 -0.19760309 -0.046152834 -0.13015 -0.15041342 0.09828406 -0.06881975 0.015170298 -0.05298896 0.1558282 0.0071232924 -0.05109639 -0.016068144 0.21330038 -0.0874399 -0.25980705 -0.09584593 0.08146095 0.20755644 -0.090076 0.021082409 -0.10871315 -0.09701419 -0.052659027 -0.14791185 0.051198963 -0.069528885 0.060929976 0.2654302 0.2846639 -0.13270362 -0.059918717 0.047819942 -0.20915487 0.028892484 0.15315777 -0.012733174 0.07942068 0.103697814 -0.044624258 -0.08779902 -0.014416378 0.07143679 -0.00042466394 -0.08879562 -0.052985765 -0.25617272 0.27570283 0.0025669711 0.0905741 -0.130291 0.07375119 0.19044493 -0.04425018 0.33184496 -0.13298753 0.1092308 0.20844066 0.017546913 0.012404978 0.07105551 -0.14799076 0.1715485 -0.16871801 -0.04327144 -0.07085442 0.1526245 0.034055457 0.08481627 0.029487992 -0.011105186 0.05717152 0.12729107 0.12822008 0.03603991 0.009876074 0.07800299 0.038815245 -0.23396446 0.0055302484 0.06983793 0.08165573 0.0068613156 -0.18281858 -0.05401194 -0.18448061 -0.109445065 -0.26195914 0.32775998 0.0722213 0.041573636 0.113708325 0.023616552 -0.057209883 -0.039302636 0.04653527 0.055544935 -0.33170336 -0.10448708 0.3413222 -0.035243828
1140 -0.055838402 -0.098118424 -0.038581252 -0.07707482 0.12744014 0.19625208 -0.15557113 0.16863611 -0.14143 0.1231262 0.06701152 -0.025169527 -0.10939768 0.064898096 -0.024410633 0.15046507 -0.0852213 -0.06083712 0.08626535 0.16654386 0.048251174 0.119211204 -0.038423188 -0.2460873 -0.015094721 0.008638418 -0.18082023 0.26796347 -0.1052558 0.13243647 -0.008531682 -0.14636575 0.077990755 -0.04780863 -0.049393065 0.029226074 0.01970976 -0.019763052 0.072698705 -0.109252416 0.09066662 0.04134416 -0.108336195 -0.00082351477 0.045013186 -0.021602033 0.14103267 -0.048685048 0.096455544 0.04916697 -0.0172179 0.040425945 0.18154106 -0.15350349 -0.08966631 0.10640367 0.03797953 0.08659808 0.08796099 0.10605405 -0.050563086 0.045210842 0.0371697 0.03997497 0.010916822 -0.066091575 0.13292725 -0.18969263 -0.22339861 -0.15309367 0.09339922 -0.14914677 -0.09141179 -0.20184633 0.13680524 -0.14772795 0.0074607157 -0.04764576 0.048867323 0.04179983 -0.18353383 0.13969265 -0.08260942 0.21845318 0.12580174 0.01295368 -0.03796795 0.009054813 0.0047821477 -0.0678589 -0.006963484 0.048974834 0.011129981 0.104251884 0.03509333 0.059432335 0.09188864 -0.18925656 -0.13747014 -0.17456292 -0.15156223 -0.022030616 -0.020015806 0.07188894 -0.058275893 0.0031851544 -0.03394214 0.076041564 -0.05475873 0.17556801 -0.13056897 -0.055687975 -0.12756352 0.04807828 -0.07768663 0.13387868 0.024391105 -0.088889904 -0.01041472 0.08192391 -0.042821065 0.0521928 -0.017850416 0.1569235 0.01813174 -0.016053652 0.14754915 -0.095171824
1145 -0.07684968 -0.11141807 -0.093195185 -0.09804148 0.04250762 0.1044102 -0.11887879 0.108563125 -0.17140138 -0.00047369878 -3.567624e-06 -0.03223446 -0.17768483 -0.06558618 -0.06707637 0.26030418 -0.11676551 -0.030055312 0.0031234145 0.1455556 -0.029035738 -0.06657021 -0.020194706 -0.21618389 0.01523132 0.0013174402 -0.11203986 0.26571795 0.076883994 0.16966778 -0.0012600373 -0.07386164 0.03261961 -0.09966587 -0.13864163 -0.048250277 0.05524932 0.072169565 -0.2039915 -0.059987623 0.071468726 0.02382298 -0.10259481 0.026993953 0.095845774 0.026725324 0.11526892 0.03428828 -0.09367896 0.1685564 -0.035754915 -0.058356572 0.070828035 0.05779482 -0.0067386073 0.16757086 0.08797844 0.025907334 -0.01656836 0.112499826 -0.048130434 0.057984922 0.0027275267 0.025873875 0.11530102 -0.053482693 0.2188121 -0.25289997 -0.16116223 0.0085399 0.167222 -0.08294123 -0.009676185 -0.18465501 0.04948965 -0.15199022 -0.042114105 -0.12173645 0.056567423 0.17258224 -0.11926822 0.095997386 -0.13826199 0.17354114 0.11875696 0.039340828 -0.01288153 0.056615446 -0.0901259 -0.0795953 -0.0125739565 0.04453697 0.100341365 0.06333836 0.068879455 -0.008957249 0.1441739 -0.16228326 -0.17289992 -0.101527445 -0.061637305 -0.03788582 -0.091449775 0.05461408 -0.024660083 -0.084010795 0.027026128 0.06447936 -0.105633326 0.010547711 -0.020867178 0.1177416 -0.107144184 0.08605796 -0.119069725 0.09266973 -0.004282855 -0.1602782 0.074374646 -0.10212727 -0.002134332 -0.055986617 0.015784893 0.11625375 -0.050125025 0.008470719 0.051982835 -0.10753643
1164 -0.024118993 -0.0746908 0.010501357 -0.08633739 0.037482955 0.116394535 -0.09287921 0.19812934 0.028503757 0.16658908 0.12031284 -0.14570099 -0.18547387 0.04920812 0.0038246773 0.045452766 -0.032910068 -0.009419693 -0.056808054 0.14681673 0.09915078 0.13660248 -0.12219814 -0.2806 0.042283963 0.03716397 -0.044430774 0.11833701 -0.048537385 0.004515352 -0.027454374 0.051549543 0.039173134 -0.020925917 -0.1564928 -0.06571581 0.091260284 -0.0062919366 -0.075587325 -0.20867583 0.099853195 0.0026245832 -0.13564743 0.044882428 -0.03748891 0.14980438 -0.046579845 0.043743372 -0.060580328 -0.023414114 0.11433251 -0.057298668 0.20787053 -0.001818974 0.03607196 0.0079251565 0.26570958 -0.006244453 0.0006013498 -0.0091452105 -0.1443526 0.045207046 -0.14993156 0.0017929942 0.26674968 0.070250615 0.181084 -0.22296494 0.057818685 0.07527874 0.021710582 -0.17004058 -0.165624 -0.103039004 0.17803003 -0.22696081 -0.07097742 -0.06709985 -0.10942334 0.20727144 -0.08140502 0.1191 -0.12941502 0.12500855 0.1651252 -0.052000385 -0.03327002 0.10771181 0.025624346 0.0070902393 -0.006190342 -0.021302806 -0.032822855 0.063922204 -0.07852425 0.0668108 0.16380166 -0.11483436 -0.18539998 -0.15572804 -0.1632124 -0.015121292 -0.058699127 -0.036992036 -0.038083408 -0.09552364 -0.14858884 0.1523164 -0.041235957 0.023549706 -0.13445513 0.0686129 -0.1477055 -0.021659603 -0.11537839 0.17437616 -0.08085203 0.07587728 0.038702577 0.12709858 -0.019133573 -0.05345301 -0.1051033 0.15432085 -0.26141995 0.12802733 0.017555783 -0.14850396
1413 0.051548082 -0.08281496 -0.047014426 -0.13330698 0.03161064 0.18881997 0.026513826 0.13714105 -0.07486581 -0.075641505 0.04282892 -0.15680435 0.04253097 0.036186352 0.06293602 0.082999595 -0.14175427 0.09235273 -0.02097872 0.14865726 0.04597454 -0.013618394 -0.20962535 -0.24417356 -0.094930895 -0.008292642 -0.18785274 0.28660205 0.023300098 0.16369383 -0.014501665 -0.0295091 0.20281658 -0.18855058 -0.051727388 -0.044531412 -0.01940436 0.07421688 -0.17031538 0.05783105 0.02242062 0.15203297 -0.022313837 0.13451405 -0.040470168 -0.07528899 0.08607185 0.06776291 -0.030078826 0.10461621 0.15312102 0.05080045 0.19844855 -0.01663068 -0.063931905 -0.06284515 0.10618423 0.022540767 0.10085017 -0.103311926 0.05356665 0.12079481 0.018802285 0.07580531 0.058544178 -0.08376896 0.10744866 -0.12089665 -0.2814198 0.021103423 0.08631291 -0.111949235 -0.03458239 -0.22752465 0.17370579 -0.1702487 -0.09683389 -0.11254987 -0.0884436 0.09413008 -0.039551828 0.067730404 0.00502317 0.18507025 0.23095836 -0.07101228 0.035717428 0.014845815 0.055344567 -0.042853057 0.020715255 -0.032914393 0.034398746 0.16245522 0.11203775 0.013198909 0.12552784 -0.16600254 -0.08152336 -0.103414044 0.019254373 0.015687251 -0.03181643 0.20925644 -0.01826655 0.038027614 -0.07098289 0.013263806 0.08491747 0.05751857 -0.026245825 -0.008885601 -0.16944546 0.009685209 -0.025374893 0.08206718 0.06732343 0.0014805477 0.071690306 -0.003326666 -0.06547858 -0.11161038 -0.015652882 0.12275694 -0.18139733 0.1037476 0.026541667 -0.10104958
1271 0.007797165 -0.060000625 -0.01864897 0.08321451 0.06052782 0.12357237 -0.027135659 0.11209617 -0.09787601 0.100835405 0.027201654 -0.060940865 -0.15453751 -0.042831674 -0.022275014 0.08123109 -0.046116605 0.065489255 -0.02328467 0.1368466 0.18457414 0.0679585 0.013635521 -0.20537184 0.039795924 0.02704815 -0.1860214 0.24855733 -0.0328615 0.15096404 0.118762344 -0.028897494 0.18156649 -0.021700619 -0.07570631 0.07463334 0.046363458 0.005713694 -0.11477036 -0.01830817 0.030902551 0.10774073 0.01648311 0.08341757 0.08505216 0.13907753 0.03405216 -0.024550596 -0.13390292 0.101919584 0.036005042 -0.03100506 0.12779887 -0.025860826 -0.015205694 0.036475286 0.10654182 -0.057390727 0.07777803 0.10688833 0.0056406246 0.034122642 0.046342038 0.08648927 0.016954122 0.021092443 0.105036646 -0.17042154 -0.14016198 0.06750909 0.09120276 -0.10937684 -0.13353129 -0.15458801 0.12674154 -0.1445518 -0.09769419 -0.1409475 0.055435717 0.13216886 -0.13971281 0.10346472 -0.049222123 0.26403046 0.1938935 -0.09039186 -0.015538898 0.03675133 0.100257754 -0.022739222 0.034796257 -0.017121792 0.041061785 0.16621685 0.07003315 0.04188624 0.07180437 -0.22892609 -0.16489953 -0.06979063 -0.038899094 0.06683924 -0.12338391 -0.057916075 0.008115962 -0.0023539017 -0.019450352 0.012368402 0.027189516 0.05533967 0.055552036 0.07314763 -0.18413317 0.05010799 -0.08859077 0.13870673 0.11206829 0.008022622 0.14453381 -0.0018209321 -0.058457978 -0.025166081 0.029622125 0.19632983 -0.089434 -0.027172951 -0.009023877 -0.07673159
1370 0.03175967 -0.116197824 -0.088554785 -0.0890328 -0.023881048 0.07983108 -0.07576383 0.11177941 0.014031919 -0.024461567 0.110357076 -0.02852089 -0.15854561 -0.020435058 -0.027796442 0.11512392 -0.038952965 0.048563924 -0.08426779 0.15732865 0.12178082 0.0047411555 -0.07581484 -0.11060089 0.015971709 0.11929072 -0.12520804 0.26558173 -0.055158947 0.09256087 -0.019946955 0.0425176 0.172877 -0.092790805 -0.014182062 -0.026246045 0.11741548 -0.018260723 -0.018731372 -0.07883054 0.09371058 0.10541673 0.047269195 0.07131474 -0.0079109315 -0.0018925766 0.062739626 -0.043450326 -0.074174635 0.032693774 -0.0132454485 -0.004573404 0.22171526 0.0013579878 -0.10732885 -0.013040764 0.19037193 -0.062252656 0.05020443 0.060201745 -0.052916806 0.12846279 -0.03149439 -0.08113375 0.049691066 -0.0066684973 0.1129837 -0.1936607 -0.12994985 0.034282375 0.05865061 -0.19785328 -0.10765933 -0.043888308 0.14506222 -0.1599258 -0.024339939 -0.09631618 0.018714793 0.15269539 -0.3010038 0.22012845 -0.031769417 0.13101964 0.27973086 -0.061349567 0.03897197 0.10069141 -0.03128447 -0.08813256 -0.0587641 0.02467919 -0.041762095 0.12841097 0.038543593 -0.031151256 0.100251354 -0.19320549 -0.04758618 -0.09657336 0.030735299 -0.16165967 -0.0003947219 0.121623054 0.08771585 -0.129127 -0.027102165 0.05270239 -0.07927455 0.09199557 0.034374487 0.061257236 -0.11595219 0.071659766 -0.08795062 0.115096614 -0.034634534 -0.10764515 0.13187431 -0.06190118 -0.086475335 -0.06997189 0.014216206 0.19226828 -0.10359978 0.006008886 0.040534567 -0.11977514
1297 -0.00040778745 -0.1087681 -0.006885974 -0.053680226 0.011536199 0.016801845 -0.09996209 0.017173164 -0.11254759 -0.18288879 0.13661695 -0.09331008 -0.08059723 -0.018233996 -0.0056607733 0.15350328 -0.021549173 0.06004355 0.016020494 0.06322866 0.036849108 -0.009047895 -0.018714145 -0.07275228 0.099534266 -0.022147376 -0.14269562 0.18634796 -0.121245414 0.15539089 -0.0942654 -0.031415857 0.17598045 -0.1308145 -0.046468716 -0.0025462413 0.053876888 0.035838738 -0.20099223 0.017592613 0.12025041 0.02489999 0.012129964 0.06576486 0.100661136 -0.08532642 0.15623876 -0.031218626 -0.02997321 0.05309076 0.14084151 -0.06050569 0.21418402 -0.06875142 -0.12449653 0.019845158 0.15443926 -0.001340735 0.00097129185 -0.051602557 -0.009953626 -0.1022842 -0.056986306 0.019218657 0.11599607 0.0695721 0.1936369 -0.13021559 -0.16231985 0.034538306 0.0722976 -0.20466882 0.012993419 -0.19211735 0.13769372 -0.22424388 -0.007186594 -0.15678054 -0.04224485 0.06540747 -0.15925771 0.08100879 0.1264639 0.20760724 0.15976872 -0.006430208 0.06903804 0.14200734 0.00834435 -0.12331958 0.056005787 0.026976312 0.028447961 0.045924664 0.04108692 0.026108561 0.06348661 -0.25400487 -0.17730272 -0.14179355 -0.051948987 -0.007964681 0.03980824 0.00951037 -0.04614924 -0.08207435 -0.021453101 0.097824804 0.040565807 0.08608879 0.11306846 0.13012947 -0.21216455 0.039261878 -0.1245061 0.02120206 0.07165002 0.019510457 0.005917201 -0.010449865 -0.14312495 -0.1384104 0.026799586 0.18794952 -0.12259319 -0.039341025 -0.012437223 -0.08668147
1167 -0.053190727 -0.043171998 0.04742966 -0.12555094 -0.030588847 0.14871973 -0.14734904 0.13748719 -0.10652592 -0.13430452 0.023397492 -0.03870547 -0.20619509 -0.00096983026 0.025423514 0.2610418 -0.11950268 0.07156268 0.080437995 0.14974602 -0.017401185 0.086246006 -0.13219558 -0.14420083 -0.014815172 0.016203362 -0.17050561 0.21793327 -0.048106328 0.004088856 0.020996783 0.025258252 0.0763993 -0.0045495736 -0.22342718 -0.11524464 0.029579556 0.040459614 -0.14938127 0.011728921 0.06256068 0.04960657 0.11677513 -0.050408274 0.1311603 0.03311448 0.029586123 -0.08592322 -0.027166795 0.18163757 -0.032418005 -0.08035858 0.17543246 -0.07443659 -0.027657734 0.13418812 0.03687712 0.07477959 0.035507396 0.0095073 -0.048427243 0.055507947 0.14896227 0.06999952 0.20586242 0.046590086 0.12360922 -0.2063584 -0.0633156 -0.11602854 0.20557863 -0.0812154 -0.09104473 -0.10521453 0.08144724 -0.22695269 -0.034982 -0.11784691 0.07672107 0.17409606 -0.16670029 0.111694984 0.10837596 0.21536815 0.19653557 -0.018661112 0.05094034 0.13938607 0.009852822 -0.13832484 0.025470335 0.043079577 0.025197607 0.21486536 0.10077605 -0.08407566 0.1241072 -0.15412074 -0.13187131 -0.0048722313 -0.12621498 -0.04968386 -0.043027926 0.02275795 -0.04327507 -0.055136777 0.01700965 0.059506364 -0.027054556 -0.01994726 0.044426724 0.020818692 -0.10453943 -0.00072915375 -0.08562442 0.020523055 -0.012041671 -0.09923423 -0.009147307 0.08771764 -0.109306216 -0.030310648 0.1088933 0.12760243 -0.080554344 -0.058833517 0.10120545 -0.09301483
1286 0.01227805 -0.16091621 0.05714606 -0.027235037 0.05660759 0.013897355 -0.0667793 0.06214371 -0.097979516 0.028139085 0.026409402 -0.1100667 -0.1685807 0.07387465 0.024720138 0.1395559 -0.0730742 0.017079074 -0.06941554 0.21319954 0.08187141 0.190794 -0.0017819899 -0.18234262 0.025450941 0.05879871 -0.25108072 0.2869358 -0.115147 0.04156868 -0.008863827 -0.05378366 0.107207336 -0.057492368 -0.12897372 -0.05216341 -0.0043318663 -0.020495458 -0.10524455 0.019823398 0.11191353 0.0668759 -0.023787424 -0.06196049 0.016655218 0.00560711 0.09097909 -0.040984053 0.0016096792 0.004312312 0.08414702 -0.0926197 0.12956505 -0.013436382 -0.04693545 0.09518651 0.04395034 -0.108231544 0.0444139 0.032963187 0.08657612 0.05107039 0.036633573 0.03527365 -0.0010592412 0.020336179 0.065949395 -0.18867652 -0.26651028 -0.08568539 0.22603323 -0.121232964 -0.06680813 -0.091025025 0.1564928 -0.110431865 -0.17863002 -0.05928894 -0.09722266 0.16587172 -0.2091918 0.15434012 0.01712817 0.15651676 0.13017549 -0.07707699 -0.028662786 0.13781323 -0.006328541 0.027674269 -0.07113762 0.033327248 0.07322221 0.10344028 0.08005218 0.12609914 0.1027184 -0.102185205 -0.15845253 -0.16563189 0.036000118 -0.089398324 -0.042210177 -0.073986255 0.05199863 -0.037204325 0.050274495 0.18161157 0.11479564 -0.022988291 0.0080269 0.13145646 -0.17124614 -0.025178064 -0.11316458 0.014349056 0.05283462 -0.09451151 0.004394155 -0.011527302 -0.014499544 -0.090171725 0.041691806 0.14193533 -0.08270603 0.035100874 -0.019225063 -0.073103964
1390 0.071492374 -0.029714946 0.053781897 -0.053492654 -0.029499598 -0.01916227 -0.10718647 0.14919588 0.028404752 -0.020420685 0.098874524 -0.13489963 -0.04526479 0.10354604 0.04087605 0.26401252 -0.08858394 0.0052225236 0.14394252 0.08729806 0.07565422 0.043428052 -0.012331564 -0.20833395 -0.050296616 0.007946287 -0.078641385 0.21674275 0.04253326 0.12511064 -0.045832947 0.028291306 0.2324666 -0.103373036 -0.100693636 0.110368095 -0.04231227 -0.013085188 -0.1448229 -0.06468515 0.071430095 0.06631181 0.011985053 -0.05446992 0.071219936 0.05838036 0.12743294 -0.14412698 -0.10672422 0.01688459 -0.035448685 -0.06358838 0.18923213 -0.16879728 -0.08652868 0.0715643 0.08019513 -0.14693467 -0.08964481 0.039712004 -0.030174648 0.054520115 -0.032650214 0.03383576 0.21177992 0.04538623 0.14938226 -0.1622019 -0.10554631 -0.10989067 0.085841835 -0.17258549 0.00085723464 -0.06965435 0.20278552 -0.20178616 0.021881277 -0.2638797 0.013398616 0.074822105 -0.13758846 0.014978742 -0.058858976 0.29894286 0.29725224 0.04150609 -0.057093494 0.00369448 0.054160904 0.04145497 0.05026057 0.14805597 0.124670744 0.109790705 0.02766157 0.043435488 0.09699234 -0.16841893 -0.11558518 -0.21932034 -0.038344555 -0.034477677 0.004957911 0.01562818 -0.058461726 -0.046382368 0.005265943 0.09201286 -0.08801061 -0.03810973 0.027738435 0.07266586 -0.026234755 0.0311568 -0.004672089 0.11970735 -0.053729933 -0.15049605 -0.053246904 0.008411221 0.003574883 0.096369185 -0.07247345 0.0144954035 0.07293388 0.04599971 0.12916276 -0.0880174
1144 -0.06605487 -0.07063706 -0.07557253 -0.01322189 0.10483684 0.11421301 -0.0839827 0.21807471 -0.063172445 0.0684615 0.09378753 0.09641099 -0.034912325 0.13340078 0.00888043 0.19885303 -0.13056721 0.023618434 0.038213633 0.1349154 0.13207783 0.012096255 0.032179948 -0.20288388 -0.076237604 0.0095644 -0.26587707 0.22907218 -0.021101763 0.2096811 0.04084285 0.04041375 0.12488663 -0.014630407 -0.08057454 -0.028458815 0.110582784 -0.026776824 -0.10304754 -0.05339856 0.09093304 0.07823981 -0.09601638 0.0017864729 -0.017786236 0.03488393 0.025386319 -0.06335721 -0.026799636 0.0652886 0.11347763 -0.0764643 0.13524042 -0.07064978 -0.13608083 -0.0065869633 0.04386057 -0.0229545 0.040478483 0.034190383 -0.0029273855 0.06380385 -0.1011555 -0.04028179 0.22999205 0.028391726 0.055648398 -0.15103525 -0.25380734 -0.031211317 0.09964466 -0.12926778 -0.16438696 -0.13660923 0.15051007 -0.17466904 0.005717433 -0.10822009 0.021172484 0.19903874 -0.1164675 0.1579559 -0.06978465 0.20570967 0.17024386 0.051566806 0.011145455 0.049371433 0.043341693 -0.018271545 -0.0014430082 0.039335452 -0.0049327663 0.12904328 0.09158384 0.052351523 0.15274018 -0.0661878 -0.057150632 -0.0656237 0.020541413 -0.08398394 -0.009706039 0.11892867 -0.046309166 0.04876279 -0.028421994 0.085077725 0.038651433 -0.0787714 0.023053262 0.038532693 0.027933931 0.10494041 -0.05424083 0.07107855 0.12758629 -0.09868153 0.0039893393 -0.04151038 -0.111409016 -0.08098446 0.08243813 0.14551891 -0.06176242 0.03011079 0.10386394 -0.04298183
1367 -0.12000261 -0.08260523 0.07484876 0.009249036 0.022918351 0.032778908 -0.07851451 0.20232897 -0.073058136 0.01431668 0.081482 -0.031295855 -0.115612835 -0.067999505 -0.019937437 0.14195322 -0.05068329 0.054615147 0.0014181719 0.054085635 0.09445185 0.07538888 -0.023188323 -0.11513976 -0.04639156 0.10978265 -0.22595559 0.21691138 -0.0635234 0.12554511 -0.07942202 -0.11740621 0.044372622 -0.055416055 -0.013563412 0.00021961893 0.09151011 -0.06946378 -0.090429544 0.0030072639 0.1787494 0.10835953 -0.019420955 0.012535853 -0.06805525 0.059537835 0.035023883 -0.08531452 -0.080477715 -0.016415097 0.10441242 -0.031450104 0.22095424 -0.030697625 0.03753199 0.02619672 0.093085594 -0.006661705 -0.015325958 0.015646309 0.040788773 -0.013525661 -0.04787825 0.031276193 0.08230065 0.023172315 0.13966998 -0.19083795 -0.08429001 0.009923472 0.007160208 -0.106694214 -0.06541554 -0.24058262 0.20390078 -0.14978915 0.013616138 -0.10823154 -0.057890948 0.17189601 -0.110420115 0.09218737 0.09720278 0.30357647 0.14184898 -0.16432656 0.03604525 0.08369679 0.0034654452 -0.10285933 0.009397742 0.21578671 0.11862127 0.15118939 0.027011532 0.09909095 0.15035082 -0.11245875 -0.12881236 -0.14346321 -0.07150084 -0.010746706 0.045848396 0.083491065 0.023199124 -0.073111646 -0.08720743 0.118453406 0.02222414 -0.07018216 0.022238743 -0.032631613 -0.18675727 0.040281244 -0.06782852 0.13239019 0.03967159 -0.036687672 0.15887502 0.10880754 -0.010495521 0.053120077 0.15317345 0.20819175 -0.10986595 0.068631046 0.0099218665 -0.10667577
1348 0.15563244 -0.035605565 0.030006703 -0.09757562 0.06421809 0.23086876 0.050301448 0.072480924 -0.09663002 0.04613997 0.005915378 -0.06997588 -0.15581885 -0.03682693 -0.09032305 0.06580331 -0.02964244 -0.08458575 -0.14081043 0.07210441 0.053288225 -0.0019901483 -0.048535816 -0.069067605 0.027406525 0.075646766 -0.12100707 0.25720653 0.109237164 0.01708624 -0.016243944 0.028724115 0.24981517 -0.020800596 -0.15596493 0.06773195 -0.019873727 0.055249434 -0.2165014 -0.14492537 0.10335382 0.115696155 -0.2670364 -0.028237356 -0.004303757 -0.04216786 0.020964773 -0.118859954 0.0059952047 -0.028774057 0.21367988 -0.08212729 0.3524908 -0.038497012 -0.18304044 0.03582785 0.15268642 0.10314658 0.073818676 0.084438056 -0.1982277 -0.068604715 0.06463551 0.04517365 0.07049542 -0.030174362 0.19025669 -0.10636357 -0.29608706 0.04232951 0.19324946 -0.012204748 -0.039189197 -0.109739676 0.16290814 -0.05177798 0.062134914 -0.047725245 -0.1436766 -0.04515084 -0.096654 0.121266805 0.042680457 0.22525656 0.37958336 -0.07104674 -0.05059293 -0.060586788 0.11539702 0.04188911 0.028482074 -0.12884602 0.18025374 0.12052257 0.04070503 -0.028561415 0.033836853 -0.068576775 -0.044008765 -0.22486915 0.0568616 -0.071092755 -0.01241467 0.038529757 0.12559518 -0.15062878 -0.08652576 0.17685978 0.03769813 0.011878506 0.07611175 0.106295325 -0.14136128 -0.16309352 0.050320193 -0.08914657 0.13604316 -0.01666812 -0.11387598 0.08518905 0.08348627 -0.14456144 0.14979859 0.1019626 -0.017006747 0.0039024316 0.27004272 0.09642825
1238 -0.02131597 -0.03481064 0.023798961 -0.00039582804 0.02857973 0.15454385 -0.1298556 0.22324964 -0.11731154 0.04377973 0.012014719 0.01577667 -0.15387002 0.029625237 -0.009760031 0.1072929 -0.06755512 0.1296397 -0.02637812 0.1600594 0.091159485 0.05046677 -0.103289455 -0.25946498 -0.039165027 0.034710348 -0.0911965 0.33578944 -0.02359888 0.08545148 -0.0050939242 -0.0742576 0.16329962 -0.17328463 -0.15897556 0.002232306 0.050843764 -0.050114457 0.036823645 -0.04673551 0.041628197 0.04612216 -0.031836916 0.02822997 0.12180144 0.021842536 0.045892846 -0.03181213 -0.004956605 0.14415042 -0.016040593 -0.08413827 0.123043194 -0.08923813 0.019824091 -0.067793325 0.04809167 0.0117513 0.096362345 -0.03681755 -0.076525696 0.12284863 -0.012021843 0.00618113 0.11871692 0.027231291 0.22290894 -0.15960911 -0.13239807 0.010591192 0.07177313 -0.14226186 -0.03444254 -0.16729975 0.068100214 -0.21280766 0.049282655 -0.15064883 0.036242124 0.12830953 -0.17110024 0.08494451 0.057080496 0.23724318 0.2270087 0.034374364 0.037133195 0.07906979 -0.09443972 -0.029405002 -0.08518192 0.053682957 -0.07119553 0.038219783 -0.03691805 0.027579835 0.10400585 -0.19090109 -0.16406766 -0.14385091 -0.07299153 -0.037050325 -0.036905758 0.16025606 0.0033373665 -0.07950295 0.013163571 0.048458356 -0.0021445535 0.030173218 0.017725607 0.12543516 -0.104098685 0.038063798 -0.100958414 -0.00075041235 0.014473709 -0.072802894 0.022136994 -0.010193831 -0.0617411 -0.0036406168 -0.013960868 0.1041376 -0.050046787 0.043312214 0.07043828 -0.015571733
1146 -0.010992194 -0.11743867 0.1229691 -0.032860752 0.0006688331 0.012168801 -0.054882206 0.26066092 -0.059466828 0.016597847 0.1051141 -0.046276584 -0.15937091 0.009691181 -0.028554566 0.10238357 -0.058042075 0.046532836 0.07214159 0.10491967 0.14222723 0.1883629 -0.023339508 -0.13833594 -0.039701305 -0.02814328 -0.19323514 0.2869801 -0.07322402 0.1377759 0.033733428 0.061685387 0.017225519 -0.06624897 -0.10036948 -0.030558713 0.05052134 0.021743305 -0.13999543 -0.0051201675 0.07257617 0.07264624 0.11152996 0.112829454 -0.02938541 -0.0468025 0.030417442 -0.15253927 -0.03916276 0.14002971 0.12836854 -0.022497062 0.14653973 0.04637971 -0.075048864 -0.04910275 0.18799666 0.011563301 0.015186258 0.033365924 -0.0509652 0.05510161 0.0736538 0.09338755 0.0013919651 0.097339705 0.17429334 -0.23189701 -0.07137035 -0.11633479 -0.041397072 -0.11076135 -0.13663577 -0.15122432 0.052397005 -0.18431573 -0.011954467 -0.082878746 -0.08732056 0.17540401 -0.2676354 0.09910842 -0.025536137 0.326499 0.11582128 0.07385071 0.005935541 0.07919729 0.13093688 -0.045626324 -0.07429762 0.004459032 -0.029606469 0.16178894 0.031178093 -0.015789308 0.15540494 -0.12254682 -0.10838944 -0.13744345 -0.00072994403 0.0052136835 0.03342911 0.1357975 0.03367506 -0.12444198 -0.0783822 0.05985926 0.02600035 -0.05144637 0.07519594 -0.05033184 -0.041718446 0.03543944 -0.04328798 -0.053235427 -0.05728039 -0.14625171 0.12170387 0.15829797 -0.09853807 0.062005393 -0.056208298 0.0964061 -0.07912611 -0.063247114 0.017500024 -0.079768784
1197 -0.029590497 -0.13099258 -0.004293787 -0.095600925 0.020683309 0.11530941 -0.081167124 0.08890567 -0.05585547 8.831993e-05 0.12762362 -0.10852777 -0.16731648 0.03260962 -0.07410336 0.21395162 -0.06226758 0.049891394 0.03647985 0.04267879 0.19420965 0.043144133 0.011491645 -0.13351716 0.03485859 0.08157589 -0.074900195 0.12092789 0.053107504 0.17581187 0.105196424 -0.072420046 0.18322743 -0.14752567 -0.040747795 -0.03096541 -0.010468616 -0.056102447 -0.019227074 0.011948011 0.0026858812 -0.010250379 -0.019936122 -0.044952165 0.052833263 -0.017514938 0.16820697 -0.1280611 -0.049752817 0.07863508 0.10301866 -0.052827727 0.16932894 0.016725613 -0.1174965 -0.040566195 0.22603974 -0.05669794 0.017961007 0.074113555 0.078849465 0.09154716 -0.00690807 -0.012913527 0.1396469 0.061265472 0.18723953 -0.19009526 -0.17788513 -0.077743106 0.038133014 -0.14245424 -0.008480315 -0.09534284 0.099081434 -0.23570153 -0.01019271 -0.013744212 -0.07560202 0.25477374 -0.09968615 0.07899375 0.05381369 0.3138797 0.19294772 -0.05293133 0.040610544 0.0019507867 0.09617563 0.045782555 0.05783772 0.031355727 0.07822792 0.10762096 0.044692412 0.016679084 0.16872834 -0.061001174 -0.19793116 -0.08099423 -0.046150137 -0.09775854 -0.0075978087 0.045879092 0.09941936 -0.03342261 0.15455498 -0.023925994 -0.06681712 0.06721247 0.15137587 -0.032551676 -0.19379042 -0.049307317 -0.0033203461 0.03823695 0.01009079 -0.08550953 0.1115717 -0.032778032 -0.124987625 0.017635608 0.0019357776 0.11721077 -0.124237 0.07142887 0.055229455 -0.09981064
1273 -0.066171594 0.02182109 -0.037005536 -0.102035575 -0.052593786 0.24937537 -0.13738684 0.13266116 -0.07312362 -0.16398507 0.1597923 -0.1713642 -0.1817315 0.03708364 0.11939816 0.151604 -0.028420119 -0.049318723 0.09435755 0.11800348 0.116007976 0.1379728 -0.03858565 -0.11125043 -0.006220177 0.09883901 -0.16375041 0.25932437 -0.06620574 0.13289313 -0.029775782 0.030318186 0.1553966 0.00092707126 -0.06633747 0.026119793 -0.006629671 0.06437003 -0.084391646 -0.031615596 0.015866548 0.04741914 0.060440388 0.061657373 0.07327032 0.033283643 0.07416041 -0.054551475 -0.11505964 0.051493123 0.00052084686 -0.11318017 0.2608209 -0.017244734 -0.048367586 0.09477099 0.09038384 0.030948615 0.0061103236 0.038140405 0.063183516 0.09317214 0.081740014 -0.03402075 0.027969688 0.1129746 0.16718936 -0.21639362 -0.14143986 -0.07468707 0.13488594 -0.12304712 -0.11590508 -0.11197619 0.048943955 -0.13259135 -0.017313022 -0.081328444 -0.003729933 0.07692154 -0.15229334 0.19057447 0.03816787 0.13652955 0.20211792 -0.11107864 0.02204323 0.06590908 0.016771553 -0.026286665 0.0855817 0.037065458 0.017570179 0.074765846 0.033079606 0.04662132 0.19300452 -0.091201 -0.14895272 -0.07194178 -0.011682873 0.02410063 -0.117670976 0.08291737 0.07165813 -0.09398657 0.025666231 0.08657331 -0.054711558 -0.026267024 0.07097233 0.08844191 -0.12505916 -0.013943592 -0.1509195 0.06486647 0.11336972 -0.09852328 0.095806375 0.039542012 -0.05882291 -0.06825292 -0.0037305332 0.07244131 -0.014244145 -0.019172696 -0.0028712556 -0.04772405
1352 -0.06977399 0.016923787 -0.06438765 -0.048253704 0.013338106 0.19014826 -0.10342751 0.1315073 -0.060278025 -0.067680806 0.02182912 -0.07027256 -0.036415618 -0.077956736 0.03153465 0.090691626 -0.021699976 0.033045653 -0.020144796 0.17770313 0.102001205 0.14187853 0.06494268 -0.09317127 0.027924892 0.08990499 -0.14139405 0.28563014 -0.08305905 0.12132962 -0.095696226 -0.030343577 0.15302303 -0.058191508 -0.025142366 0.16615792 0.060366057 0.113989994 -0.045940656 -0.1221365 0.1157295 0.08380984 -0.025338016 0.09110984 0.076536894 0.033017173 0.13961336 0.012853282 0.058628626 0.046280272 0.015040569 -0.06079226 0.19543023 -0.072132275 -0.11833169 0.124563925 0.17658833 -0.046495922 -0.01785278 -0.04755234 -0.0020336316 0.04361437 -0.024365125 0.077493615 0.1051967 0.027139414 0.20357226 -0.22008686 -0.15798238 -0.09864422 0.062343363 -0.092068315 -0.25177664 -0.15824753 0.24991663 -0.14586169 -0.07247786 -0.06316757 -0.06140507 0.056346975 -0.058484625 0.03753741 0.024292538 0.19520189 0.19247696 -0.084717326 0.033728957 0.09533826 -0.007670263 -0.17112097 0.05457379 0.036832694 0.034211516 0.03227016 -0.046125818 0.052586455 0.10804254 -0.28126922 -0.11848157 0.0060335062 -0.11810017 -0.05206657 -0.09370156 -0.022372631 0.08340643 -0.059929702 -0.05423481 0.09114582 0.034361817 0.04040668 0.030749086 0.088179685 -0.06635642 0.04601126 -0.0017019016 0.016453836 -0.10481807 -0.10567529 0.052726656 0.053395174 -0.08736291 -0.039604574 0.02744056 0.14176759 -0.06264505 -0.029279416 -0.031706978 -0.18144254
1128 -0.13125846 -0.13138437 -0.000307377 -0.07017797 -0.013686257 0.1705585 -0.061614048 0.13255148 -0.16404818 -0.061157644 0.03685242 0.06456563 -0.17482333 -0.043325514 -0.1343674 0.012820528 -0.049780235 0.010625973 0.08951116 0.08298168 -0.0044014035 0.049988247 -0.06970035 -0.21694386 0.061954703 -0.02225775 -0.17693546 0.31993893 0.05654342 0.1866093 0.032318402 -0.06365056 0.104831465 -0.15664329 -0.04427518 -0.048247106 0.043454107 -0.0356617 -0.048490066 -0.07297368 0.007189115 0.09374029 0.03568121 0.0008264781 0.07396956 0.074836135 0.062001273 -0.12955378 0.023956444 0.13742867 0.20419101 -0.007717695 0.22297065 0.020934453 -0.022811055 0.076440044 0.13469139 -0.03581229 0.04963287 -0.043627217 -0.031619184 0.054002713 0.0014532756 0.08280429 0.1599599 -0.043147583 0.16141786 -0.024929533 -0.17562479 0.012247267 0.14226311 -0.18697311 -0.040242307 -0.1858774 0.08079899 -0.06316017 0.066249385 -0.074518576 -0.024386635 0.14935476 -0.14618137 0.19958529 0.07544301 0.15534772 0.20735055 0.08583498 -0.09991285 0.073201 0.022961874 0.07450446 0.07846607 -0.012615094 0.08257452 0.05453695 0.02935814 0.030531 0.101140864 -0.33684355 -0.13153581 -0.10833738 -0.09165143 0.047357664 -0.028581271 -0.0711762 0.11354093 -0.11151033 0.10794698 0.037955146 -0.032101035 -0.061304137 0.099456504 0.04454118 -0.054489218 0.08333358 -0.119841695 0.06429968 -0.06528312 -0.082539186 0.06559503 0.050650246 -0.1865219 0.01566848 -0.012755115 0.17337205 -0.07376843 0.08108722 -0.044313237 -0.03169038
1323 -0.066511124 -0.011685932 0.09323248 -0.06092765 -0.022594076 0.0031193115 -0.03287272 0.048869964 -0.055644225 0.07509417 0.10939318 -0.05725491 -0.08949083 -0.030804934 0.03588823 0.1153959 -0.08335668 -0.025719171 0.10193155 0.028984893 -0.053395998 0.2028849 -0.1660506 -0.09654252 -0.07123935 0.0709424 -0.095325045 0.24867703 0.057091188 0.20390926 -0.06439945 -0.055823065 0.2027258 0.005005089 -0.08568886 -0.15603732 0.23545761 -0.07029696 -0.056100026 -0.05255852 0.1786586 0.18344572 -0.06293879 0.07556893 0.19740489 0.017106304 0.10780905 -0.03173131 -0.07044538 0.16461918 0.06794669 -0.0134797115 0.17175873 -0.10962582 -0.06371506 -0.0117968945 0.20304038 0.015060402 0.080084525 0.012866753 -0.09722521 0.14456001 -0.06220269 0.056209587 0.22019878 0.10964709 0.26125523 -0.18670271 -0.15911557 -0.10658978 0.1000231 -0.14425148 0.101548806 -0.08290834 0.108167894 -0.18751809 0.027474586 0.0012795721 0.005902371 0.13517267 -0.17873073 0.09727518 0.010353411 0.19484918 0.18939023 0.008005679 0.032981336 0.26267114 0.05819261 0.080401726 -0.06825531 -0.025224756 -0.111496724 0.13210957 0.045514148 0.19770734 0.067630254 -0.1055445 -0.008095932 -0.08759072 -0.004499949 -0.050516997 -0.18722133 -0.028649429 -0.003063135 0.01485432 0.06210676 0.09390727 -0.050319277 0.0068956926 0.029676568 0.08746242 -0.114855625 0.002853804 -0.27516323 0.057927087 0.041738853 0.0893719 0.09880376 0.06202504 -0.28836206 -0.0502877 -0.017194044 0.05360315 0.056205902 -0.06396704 -0.1474119 -0.062064737
1189 -0.11066914 -0.13284364 -0.09195403 0.02815166 -0.0058104214 0.15944564 0.04200503 -0.005310501 -0.05650801 -0.118760765 0.11505023 -0.13782915 -0.12433689 0.08262102 -0.08479798 0.08813262 -0.07287541 0.10485644 0.12874798 0.11372535 0.09464169 0.0381888 -0.010954104 -0.37150252 0.04295785 0.013030502 -0.16152631 0.17264411 0.0019488764 0.22497389 -0.060340926 -0.09301172 0.07948258 -0.048394226 -0.061986048 0.066917874 -0.112263985 0.061967827 0.016580211 0.08229246 0.110700265 0.014033262 -0.057281803 -0.11115719 0.017064445 -0.02989478 -0.01320768 -0.06107077 -0.002476871 0.0787694 0.15853159 -0.111197226 0.2364245 -0.106493466 -0.14376113 -0.003767648 0.17608029 -0.1419643 0.0925349 0.12767641 0.0025172052 0.07079625 -0.12266637 -0.0405941 0.14541356 0.05482601 0.073680975 -0.11580907 -0.1908586 -0.012915828 -0.022171788 -0.09665778 -0.104441084 -0.38163844 0.06691905 -0.06820928 -0.09090523 -0.1670688 -0.00035061705 0.07985668 -0.00830394 0.077815615 -0.17469518 0.1580411 0.2909082 0.0048209964 -0.032066382 0.09911251 0.03704797 -0.012254347 -0.021076584 -0.0062282206 -0.11276978 0.035950918 0.07108926 0.0492297 0.089548826 -0.19370385 -0.12671992 -0.22081622 0.021372244 0.034281667 -0.05676209 0.030396871 -0.15916185 -0.025493002 -0.026714489 0.016860168 0.011487562 0.1147116 0.01927526 0.0020574091 -0.111412615 -0.06922171 0.006411015 0.09359268 0.043201923 -0.06294397 -0.025203796 0.15009573 -0.12668017 0.092343405 -0.0827837 0.08183654 -0.1004848 -0.026932273 0.036143154 -0.073248535
1356 -0.12455168 -0.0719273 0.02139778 -0.04312568 0.07564026 0.0054842136 -0.053717893 0.056551658 -0.091217645 -0.008875978 0.10532468 -0.16218983 -0.11158486 0.061330684 0.036034595 0.15364116 -0.016664546 -0.040250693 -0.07131967 0.149677 0.05519232 0.04548067 0.051763367 -0.12079654 0.03771931 -0.07631158 -0.16917595 0.14064296 -0.046703324 0.1499103 0.0072563603 -0.086253904 0.055567365 -0.039178237 -0.03567331 -0.044584066 0.07791885 0.021416549 -0.11685348 -0.0150304735 0.14516456 0.042384487 0.011083795 -0.07674436 0.0055504306 -0.073629 -0.011409833 -0.100263074 -0.12850972 0.049937043 0.13868158 -0.10343404 0.1644596 -0.17092405 -0.007502017 0.053662248 0.1791356 -0.068163246 0.06146188 0.03035627 -0.06594413 0.061689515 -0.089946 -0.010523961 0.1268494 0.093291804 -0.013727749 -0.11498606 -0.17564577 -0.060561854 0.14688927 -0.18414891 -0.048457023 -0.10116481 0.12038122 -0.095421925 -0.018337 -0.15336116 0.0016879622 0.09559303 -0.16666523 0.16239975 0.023453172 0.37957987 0.26862013 -0.096013114 0.02792061 0.106374644 0.13954024 -0.03933117 0.049136955 -0.017031755 0.06456211 0.0244363 0.16545326 0.098237075 0.17074527 -0.12229497 -0.065011136 -0.23718165 0.0761879 0.07640385 -0.038105883 0.07337635 0.044340238 0.043699518 0.017502043 0.107463636 0.031432785 -0.14985266 0.14571936 -0.06375096 -0.15324691 0.021051096 -0.036859546 0.17206328 0.02096763 -0.11600182 -0.020846209 -0.033490952 -0.015374137 -0.05963152 -0.053236477 0.13810122 -0.15006086 -0.0020694167 0.05296397 -0.18315162
1199 -0.079372294 -0.09301034 0.014353229 -0.12908427 0.060764182 -0.0738257 -0.09611337 0.24147908 -0.17419823 -0.15360698 0.023501463 -0.033913583 -0.123191714 0.018350042 -0.13510075 0.07329966 -0.06939212 0.001077991 -0.031497665 0.057825316 0.065369055 0.12619439 0.08580702 -0.06301177 -0.01844296 0.067034826 -0.18632156 0.18080488 -0.017836684 0.17799133 0.04976244 -0.057624947 0.018007165 -0.08322886 -0.066643074 0.08516859 0.1355231 -0.07047516 -0.17301933 -0.028824726 0.12118267 -0.024068031 -0.10651151 -0.10055694 0.16922946 -0.11971118 0.09328262 0.022832237 0.06816821 0.09855159 -0.0490882 -0.06280306 0.15233731 0.015915066 -0.0733571 0.14616357 0.14181285 -0.049800485 0.08107389 0.071403414 -0.037973277 0.10563137 -0.09460431 -0.014075479 0.116582066 0.07372798 0.10945419 -0.27650392 -0.13072567 0.018172326 0.049801636 -0.13882501 -0.09927483 -0.14157876 0.06568702 -0.19138283 0.016138913 -0.12538464 -0.057734717 0.15566453 -0.23470177 0.15605763 0.006716974 0.24106662 0.055706706 -0.025667531 -0.03399013 0.10000743 0.11085495 -0.017924191 0.0787643 -0.06745227 -0.07568195 0.1443499 -0.018639397 0.09789828 0.18915603 -0.17610216 -0.15946831 -0.14758576 -0.027189678 0.02505229 0.09365848 0.10753685 0.10093862 -0.14539742 0.06797356 0.07282282 0.018167272 -0.06560579 0.07539588 0.15043853 0.035200797 0.002696656 0.00028134382 0.005586438 0.0117149325 -0.068120696 -0.014738297 0.045205887 -0.083631426 -0.12264298 0.111611575 0.1937827 -0.0425308 0.019142114 0.05384854 -0.13899899
1368 0.04121418 -0.12938683 -0.024933431 -0.03594639 0.049136475 0.13618137 0.028820064 0.17853259 -0.050916333 -0.054070726 0.17847939 -0.09574232 -0.08592325 0.09063613 -0.03633264 0.14235875 -0.082872726 0.007497401 -0.016857428 0.11425755 0.100486 0.006901387 -0.053800527 -0.18475159 -0.030515162 -0.040511206 -0.14769344 0.25567433 -0.044168606 0.06786657 0.077383846 -0.08012033 0.10055343 -0.0419082 -0.054135144 0.016760413 -0.03448928 -0.068658024 -0.10776611 -0.03519954 0.04055321 0.028766649 -0.04550415 -0.05326544 0.060452763 0.061135046 0.14180005 -0.09065983 0.003428083 -0.023378884 0.12382074 -0.107091166 0.13173781 0.03888554 0.00048132718 -0.112413116 0.061953243 -0.025774589 0.020753842 0.11043003 -0.0479314 0.15270033 0.005020889 -0.14380355 0.14392644 0.05100706 0.046382006 -0.1883093 -0.20315857 -0.09080279 0.004931391 -0.23734123 0.054848526 -0.16033113 0.17426033 -0.21160519 0.07696275 0.016585037 -0.1221017 0.16537176 -0.19665721 0.16414757 0.062353045 0.18561997 0.17322262 -0.17374021 -0.01028319 0.058305062 -0.01926638 -0.13526538 0.052547567 0.09113441 0.10739221 0.26940972 0.032172512 0.1357777 0.1549948 -0.13922079 -0.18336463 -0.10406273 -0.02970972 0.030581145 -0.027379816 0.09564616 -0.043733116 0.024607167 0.11538944 0.0027938546 0.11134566 -0.040528387 -0.039207462 0.007622461 -0.011946454 -0.030295642 -0.08333746 0.006528889 0.08770024 -0.08839736 0.06696728 -0.022824373 0.0133975325 -0.08481091 -0.028676966 0.05837014 -0.12919936 0.0024694402 0.1068221 -0.088611156
1249 -0.1474038 -0.092828 0.062357333 -0.0075775553 0.06470424 0.077049345 0.050977647 0.1441679 -0.16960275 -0.03509501 0.10897242 -0.034821715 -0.14776844 0.054173112 -0.017379584 0.245135 -0.14717436 0.038613316 0.026174791 0.09497623 -0.02857599 0.030416265 0.07582486 -0.23146565 -0.019568376 -0.044491295 -0.19263016 0.3717972 0.088490896 0.1320542 -0.06640349 0.06886324 0.115781605 -0.03134439 -0.07902963 0.08436743 -0.069523655 -0.066225246 -0.1866241 -0.061475605 0.11068231 0.13570786 0.07560906 0.005301211 0.15567055 -0.090919934 0.15359284 -0.19026436 -0.05811095 0.056362733 0.027812678 0.06912535 0.1690706 -0.063152686 -0.14624406 0.2638667 0.025537316 -0.013736988 0.06838233 0.039799992 0.0070820423 0.08985591 0.09179235 -0.03569758 -0.059910458 -0.0828059 0.08501936 -0.14500831 -0.16320115 -0.09508155 0.14209431 -0.13175452 -0.06793417 -0.12296739 0.10937482 -0.057908922 -0.08864778 -0.08723747 -0.13053267 0.08095792 0.005671748 0.11888253 0.053624295 0.2749598 0.2450696 -0.06646648 0.015996622 0.027736587 -0.0053786407 -0.10514993 0.012529237 0.045269605 0.05980263 -0.008642684 0.016293386 0.06664276 0.2532056 -0.08994984 -0.09426007 -0.09367927 -0.11573637 -0.058668282 0.012389871 0.05252553 0.06883292 -0.06243884 0.13615447 -0.015755916 0.01681599 -0.046212442 -0.0062447046 -0.013090641 -0.112749375 -0.09043586 -0.1822026 -0.07216909 0.027819684 -0.07533738 0.043885496 -0.0042863786 0.014631797 -0.14997894 0.0804241 0.16017005 -0.14040975 0.05355112 -0.028140426 -0.14623354
1200 -0.020163402 -0.0980834 0.05903543 -0.04353628 -0.05815458 0.17041714 -0.09496136 0.049487393 -0.23240346 -0.049845353 0.08206894 -0.026343018 -0.033904478 0.03269189 -0.1682486 0.17733134 -0.063654825 0.01188589 -0.04600026 0.064014316 0.123438746 0.23871073 -0.12109987 -0.25062203 0.029551586 0.035123724 -0.09159443 0.14291473 -0.04650967 0.10030262 -0.06287549 0.07078225 0.19808444 -0.01444361 -0.19882226 0.098508984 0.0024396377 0.0498946 -0.05079274 0.026211718 0.03541955 0.021403564 -0.0005349759 0.030026453 0.02702956 0.080654025 0.082393885 -0.0023261432 0.06834122 0.11694969 0.0483548 0.013321568 0.249656 -0.026919294 0.075067125 -0.03287362 0.16528006 0.0034170123 0.018960832 0.07743175 -0.09590153 0.09546412 -0.03763453 0.06778608 0.19804189 0.011502625 0.1835196 -0.21565574 -0.18611503 -0.009535052 0.12871629 -0.17786276 -0.18460894 -0.14484756 0.17057753 -0.076706015 0.010033023 -0.16677257 -0.062000643 0.14047077 -0.027238365 0.15266249 0.062585525 0.21536653 0.0868093 -0.10600993 -0.0494508 -0.009727792 0.009977865 0.035551503 0.0067871935 0.08852356 0.006541216 0.0014053247 -0.0032791218 0.03927411 0.18417384 -0.18467098 -0.123893164 -0.012891407 -0.0015239713 -0.062456254 0.020564664 0.08620442 -0.037742667 0.023403674 0.092192434 0.001852368 -0.02424084 -0.004457153 0.09357194 0.08131221 -0.023556476 0.018804798 -0.14982782 0.079972364 -0.00043163958 -0.06870508 0.020238163 0.06274353 -0.13818453 -0.01427811 0.027689567 0.19461776 -0.0962231 0.02827701 -0.09898344 -0.15115765
1055 0.011693363 -0.16533867 0.041911606 -0.2836065 0.021334913 0.21834445 0.215227 -0.012930348 -0.012058351 0.1137475 0.30651772 -0.05073311 0.021108544 0.0069605713 -0.12827292 0.16097346 -0.14514196 0.07389484 -0.044599038 -0.048316304 -0.019393636 -0.019606438 0.14478049 -0.116052024 -0.0357518 0.119372524 -0.073474295 0.04422236 0.23179139 0.029519456 0.1764435 -0.22296517 0.21747343 0.21096438 -0.054254055 0.12792909 0.06456656 0.013335743 -0.19332711 -0.056392457 -0.023271907 0.061768726 0.03983666 -0.13235582 0.13446723 0.03036546 0.15103598 0.050601177 -0.14350186 -0.09754494 0.07591458 -0.07090508 0.18424477 -0.009784813 -0.18270771 0.2877638 -0.034488305 0.060228474 0.056594294 -0.14622629 0.010862331 -0.0061960975 0.08929399 -0.012140426 0.15039171 0.0056454157 0.21921799 -0.1698087 -0.15245304 0.14086029 0.07075255 -0.11265946 -0.021947123 -0.2385597 0.29023236 0.08519864 0.049898148 -0.0825308 -8.159631e-06 -0.013077624 -0.1828487 -0.014325865 -0.13656272 0.14881346 0.3094275 0.08795281 -0.20267023 0.17067833 -0.08708357 0.11910413 0.10007796 0.028710129 0.043569606 0.26329792 0.043181755 0.021163689 0.1246087 -0.16948622 0.043499805 -0.14369051 -0.13463998 -0.15262713 0.12584129 0.13964897 -0.024529655 -0.12161629 0.061163552 0.03947414 -0.25759542 -0.16649285 0.004567127 0.078671046 -0.107929215 0.092936054 -0.12194739 0.10766489 0.08943884 -0.04276294 0.08685875 0.26658797 0.017446639 -0.038967807 -0.083517864 0.103780955 0.0068559977 -0.13804121 0.20853351 0.036890306
1277 -0.12786177 -0.072757356 0.031672608 -0.026674114 -0.011859421 0.08387419 0.029343478 0.12461948 -0.106765404 -0.042454075 0.045542534 -0.028740631 -0.15715392 0.03322666 -0.16180041 0.05044907 -0.03538742 -0.028462067 0.06400172 0.15271598 0.024414562 0.12219021 0.08338245 -0.21377358 0.09010594 -0.019291583 -0.19990057 0.18473852 -0.033249825 0.14533684 -0.026241472 -0.09643197 0.2257437 -0.12219002 -0.06213507 -0.01762492 0.023267956 0.033041578 -0.087987095 -0.117607474 -0.045868594 0.09695877 -0.045810577 0.0015044053 0.18570958 0.006864052 -0.059237067 -0.112394676 -0.10893449 -0.050375313 0.118753426 -0.067081 0.17498726 0.018308159 -0.043177225 0.08131694 0.19820528 0.004142458 -0.09765254 0.15255135 0.075097434 -0.010177392 0.07237371 0.0033054012 0.07204639 0.07746221 0.15003377 -0.18996373 -0.18051605 0.009101363 0.01660838 -0.10421459 -0.11843599 -0.21313043 0.140035 -0.17634116 -0.0654178 -0.0089615565 -0.0151921455 0.07383628 -0.09271078 0.15991268 0.064743735 0.1782831 0.14739913 -0.22455032 -0.10309561 0.033305112 -0.052144747 -0.16428334 0.03672811 0.06851019 0.07408673 0.06824128 -0.023298193 -0.01308803 0.040216822 -0.098064594 -0.013563868 -0.079329476 -0.026560534 0.13795793 0.0069652065 0.02327667 0.09841068 -0.024517808 -0.030883336 0.11304438 0.10011187 -0.036023565 0.062464535 0.16493836 -0.16641231 0.0746659 -0.11736798 0.063926205 0.08400199 -0.08391011 0.1116066 0.13497883 -0.09616902 -0.0030513292 0.0707701 0.18062228 -0.09188562 0.029226968 0.09517932 -0.09786353
1147 -0.16084169 -0.10359776 -0.0004199812 -0.14220779 0.03988048 0.025006393 0.0025012756 0.1726606 -0.13756935 0.0043863417 0.07820455 -0.056396414 -0.27886602 0.026779078 -0.089132875 0.016846206 -0.046351172 0.05935796 0.054124165 0.16228674 0.022583121 0.06424338 0.16171767 -0.15323052 -0.11346699 0.15630525 -0.11585644 0.14964952 0.00083529897 0.10901409 0.0335077 -0.077391066 0.1612526 0.046701018 -0.09362248 -0.019742055 0.12892652 -0.017263899 -0.18264805 0.062165882 0.054784745 0.02468298 -0.108605154 -0.002601541 0.08946739 0.055036765 0.057292636 -0.08186085 -0.20422255 0.07013007 0.07912275 0.0028416435 0.11028624 -0.12505789 -0.07892352 0.036566835 -0.021923387 0.00055203016 -0.02837239 0.22103104 -0.08083551 0.083036475 0.033114586 -0.06020275 0.0050569377 0.09801678 0.15023987 -0.19844554 -0.17336012 -0.15502727 -0.034008835 -0.24151532 -0.06608018 -0.23534046 0.10779058 -0.14845824 0.03978009 -0.12373846 -0.093925856 0.113682196 -0.093923174 0.06570645 0.00822421 0.23049954 0.16219267 -0.03329105 -0.020895373 0.02718234 0.088741824 -0.06869025 -0.072671525 0.0016467064 0.0162869 0.14821835 0.061916534 0.06308498 0.11454613 -0.08992906 -0.017191691 -0.10832318 -0.04771983 0.0738063 0.011591225 0.11312923 0.018132562 -0.08338373 0.07644781 0.018289613 -0.0282576 0.032800417 0.0013715537 0.23070869 -0.116314575 0.012226776 -0.11486022 0.063642435 0.08053617 -0.05513825 0.15485816 0.012334442 -0.02236596 -0.033488918 -0.05800967 0.12292932 -0.09327539 0.16452073 0.13394098 -0.071192004
1283 -0.09629743 -0.1933321 0.035735346 0.03204482 -0.11841184 -0.020348866 0.09825476 0.047631126 0.054902304 0.025920063 0.06182664 -0.20265107 -0.06857182 0.09378029 0.041845933 0.23774715 -0.18504296 -0.054078367 0.039161805 -0.0371443 -0.077503264 0.052201606 -0.08451193 -0.11669235 -0.038003393 0.10402089 -0.012138407 0.18388444 0.28619596 0.032099552 -0.018143 -0.14587809 -0.054098856 -0.08544504 -0.05951015 -0.014410581 0.12146473 0.16766536 -0.21792072 -0.105555885 -0.08803984 0.027819375 -0.25303206 0.045207355 0.06473382 0.0075233504 0.057305682 -0.09963165 0.09967821 0.101119325 0.11497551 -0.10984285 0.2359667 -0.11480862 -0.048110265 0.21380118 0.15879469 -0.009073518 -0.13275062 0.015984176 0.19513871 0.030796124 0.07998754 -0.1511985 0.1011071 0.035582192 0.22181928 0.01701395 -0.14362475 0.004907426 0.049806047 -0.17809017 -0.055895843 -0.19244562 0.34483498 0.080288395 -0.013728092 -0.08270454 0.0046945787 0.042792823 -0.14274149 0.03128919 -0.060003705 0.21391724 0.15821509 -0.097908564 -0.102968335 0.29779238 -0.34826347 0.043210164 -0.03102608 0.011638905 -0.08150096 0.21826375 -0.01355385 0.19304267 0.02748026 0.038238294 -0.1713602 0.17457263 -0.07639239 0.1177574 -0.041509002 -0.009949184 0.19368033 -0.1437553 -0.03262526 -0.033408113 0.13103095 -0.034964792 0.14383121 -0.040123228 -0.066537365 0.061417386 -0.023045402 0.18510161 -0.046643913 0.12838998 0.19863865 0.17904086 -0.024337584 0.082445785 0.13431121 0.17256445 -0.16717969 0.0041400804 0.09912241 -0.08924378
1406 -0.015731815 0.06376602 -0.013760039 -0.21016854 -0.017674979 -0.054562636 0.07245076 0.008114444 -0.008898292 0.033704627 0.115659446 -0.122657 -0.034200948 0.12809294 0.07684577 0.18263756 -0.13041101 0.098092675 -0.22830941 -0.07680511 0.14589532 0.040792275 0.10728039 -0.09429889 -0.07338449 0.2417184 0.018176878 0.24841489 -0.1428532 -0.011848796 -0.14149356 -0.17151067 0.20441702 -0.021607839 0.022083672 -0.010011706 -0.017258922 -0.03988601 -0.15819009 -0.0021546765 0.13376743 0.1266867 -0.20474333 -0.14586581 0.15925887 0.13710743 0.19144619 -0.08337481 -0.14936666 0.013009618 0.14284235 -0.0077496506 0.20824252 0.039600756 0.07505848 0.1408098 0.2556108 -0.08034438 0.1420341 0.037125804 -0.21911529 -0.04660368 0.04481084 -0.032958914 0.15413378 -0.004180349 0.038419243 -0.083996594 -0.073921554 -0.06837271 0.053791605 -0.14600185 -0.12304669 -0.30793533 0.07379347 0.12458771 0.11862683 -0.06603356 0.18191929 0.2187696 -0.07106103 0.14734912 -0.051393587 0.18715447 0.32982722 -0.13493946 0.031131946 0.039193545 -0.012794967 -0.07028875 -0.19057652 -0.2702936 0.09858435 0.13299376 -0.028947404 0.14007089 -0.0016914548 -0.091953434 -0.0669792 0.18104981 -0.039559234 0.035679135 0.020034576 0.09094959 0.11139053 -0.045504965 0.07785316 0.12620799 0.020997198 -0.061329935 0.060731363 -0.053501345 -0.09684733 -0.21422243 -0.2547464 0.16119188 0.001273021 0.09591733 0.025826724 -0.06753529 -0.14273705 -0.062136993 0.008578533 -0.0061094784 -0.15073952 -0.005231058 0.24825111 0.030191703
1259 0.013372429 -0.096111946 -0.026645193 -0.1404283 0.05137015 0.10145346 -0.06718551 0.08654111 -0.0681064 -0.026551772 0.037593246 0.0024655277 -0.15779206 0.10067805 -0.040086843 0.11102015 0.0051340032 0.019563315 -0.006294501 0.06626136 0.02947192 0.09143979 0.1064508 -0.106069714 -0.15565285 0.042097446 0.0009904351 0.23074126 -0.07811094 0.1864103 -0.10674389 -0.050738372 0.08681474 -0.053853296 -0.124386765 0.09999561 0.0092223 -0.010224808 0.044342596 -0.053824566 0.15071875 -0.0603123 0.054609474 0.016898466 0.10900276 -0.04514511 0.12201352 -0.18585333 -0.16742747 0.03557688 0.0684347 -0.09322669 0.21467762 0.0054284995 -0.21525499 0.02782894 -0.030997371 -0.07176719 -0.04231104 0.076700374 -0.11360113 0.13564774 -0.043130536 0.030867532 0.12138705 -0.022480264 0.15403074 -0.19581571 0.037813615 0.037451133 0.012292329 -0.15841268 -0.13086352 -0.27623186 0.27086845 -0.21378107 0.07915348 -0.11140902 0.016001577 0.066251956 -0.20175783 0.024573285 0.016324516 0.21391651 0.15846941 -0.012527039 -0.05453626 0.16333039 -0.12959136 -0.08895567 0.1752627 0.036983874 0.02880884 0.14482029 0.03303747 0.08214242 0.053356078 -0.19564319 -0.095666476 -0.09592714 -0.12672167 0.019407872 -0.09266141 -0.019292617 -0.07507701 -0.08898019 -0.07498632 0.03410384 0.14077051 0.05416898 0.030221961 0.087159544 -0.11966484 0.081252396 -0.12828183 0.00057504314 -0.14754774 -0.07673552 0.07020797 0.084756166 -0.17718652 -0.015052827 0.023580115 0.10872143 -0.08568201 0.1186834 0.063479275 0.0647162
1085 0.053268325 -0.091521055 0.08644751 0.018517097 0.018666232 0.061415642 -0.028054181 0.12505743 -0.13802953 -0.052765116 0.14786652 -0.057850085 -0.21853282 0.102836415 -0.10096602 0.20147471 -0.0575957 0.043069076 0.07086358 0.14933543 0.19459777 0.0651067 -0.07669813 -0.17335734 0.019883802 -0.03958806 -0.014132044 0.24804507 0.10499648 0.05326199 -0.061604813 -0.16785969 0.0894745 0.04734674 -0.092997745 -0.13699879 -0.057164796 -0.03924065 -0.097350895 -0.05919129 -0.0037362971 -0.020498354 -0.062446482 -0.12478643 0.036185436 0.04455377 -0.032570392 -0.039459884 -0.117302 0.11350997 0.19622082 0.09879621 0.26265615 -0.12509172 -0.10140087 0.090923876 0.13429222 0.066501565 0.035858624 -0.11501909 -0.0173544 0.06865964 -0.05830042 0.079741925 0.17245689 0.015077305 0.14805354 -0.1926768 -0.12514666 0.051849555 0.14509039 -0.18418664 -0.06992888 -0.20791566 0.10444308 -0.25222215 -0.045024097 -0.21830745 -0.120352164 0.048671674 -0.2325946 0.15397803 0.02092897 0.245303 0.19937967 -0.04864647 0.037967704 0.25096917 -0.034629613 0.01828318 0.028239597 0.035587847 0.0059243664 0.079121046 0.0028949357 -0.21486045 -0.024954477 -0.02617057 0.040803857 -0.037499297 -0.04202987 -0.17691171 -0.11547024 0.09749643 0.03404417 -0.007381856 0.095931835 0.027180707 -0.07585074 0.040796828 0.0011349155 0.18662088 -0.106950894 -0.018692091 -0.036119614 0.12574022 0.055511963 -0.0783427 0.059390858 -0.16123599 -0.058015235 -0.15472835 -0.098810874 0.12107452 -0.028170861 -0.0013937893 0.06753986 0.14107734
1073 -0.10740031 -0.07702448 0.044607263 0.047248527 0.08068948 0.18551052 -0.02823707 0.14270031 -0.051534925 0.029251125 0.08111775 -0.048762877 -0.16049865 0.009275808 -0.01816136 0.20414579 -0.10017187 0.019950982 -0.032012478 0.1669431 0.14482334 0.05450805 -0.02350223 -0.021852639 -0.08452417 0.067613736 -0.17598017 0.3022493 0.100400634 0.14719646 -0.028444517 -0.052261308 0.16297968 -0.053363863 -0.106272645 0.19237542 0.032430027 -0.005568468 -0.21941894 -0.051786203 0.010452764 -0.035441376 0.038077906 0.099234216 0.050848935 0.118684255 0.032705754 -0.082363896 0.044061575 0.058337342 0.079815306 -0.044856407 0.088022776 -0.16801284 -0.09565358 0.11236131 0.057281163 -0.046910476 0.0690071 -0.0011805524 -0.019404953 0.0999566 0.009493641 -0.04683207 0.1455508 -0.087094754 0.1422494 -0.16589326 -0.06662803 -0.14268394 0.14421138 -0.12684128 -0.15516211 -0.12596907 0.056436896 -0.1645221 0.007983751 -0.06603466 -0.07680544 0.19749323 -0.18872505 0.0981959 0.09734477 0.33998373 0.25984076 0.006908833 0.02778677 0.08241354 -0.08240333 -0.07376903 0.041659202 0.09677083 0.06841444 0.00017568299 -0.020522404 -0.008627003 0.10417671 -0.13243079 -0.051066782 0.017279845 -0.07269132 0.069697365 -0.062417816 0.0827292 0.009010668 -0.004418007 0.02890092 -0.09594673 0.055032987 0.0724356 0.06215158 -0.0029977895 -0.12332196 0.033564694 -0.09585388 0.040090885 -0.052718196 -0.007932679 0.084155165 -0.07425621 -0.22998992 0.050097365 0.0015339722 -0.04931113 -0.06015435 -0.016192067 -0.048651997 -0.09199075
1262 -0.09749698 -0.09747197 0.0030214903 0.029922633 -0.0061077066 0.066465326 -0.13223355 0.035108857 -0.118337855 -0.026660927 0.067947984 -0.09417527 -0.14237158 -0.099955976 0.03382628 0.13686302 -0.024182726 0.06623926 0.037688598 0.05185167 0.071245916 0.113691166 0.040352374 -0.1661913 -0.0019629365 0.06453489 -0.16224219 0.21063896 0.004594997 0.013987939 0.10543335 0.04005054 0.07508444 -0.22077993 -0.05652376 0.019777603 0.036588434 -0.0745971 -0.28894547 -0.037128776 -0.042729422 0.029320639 -0.12523653 0.092360385 0.04783458 0.028081689 -0.0075440733 -0.055415902 -0.13488033 0.13241439 0.14716235 -0.061243545 0.1401126 0.023808068 -0.05599012 0.08462843 0.21644671 -0.1258312 -0.026258262 -0.05624875 -0.063672036 0.13472585 -0.05243312 -0.063598484 0.053896345 -0.021458978 0.1736761 -0.22452453 -0.16531295 -0.058895994 -0.006814719 -0.17201501 -0.11417642 -0.16386944 0.19205293 -0.123721875 -0.054154754 -0.068732865 -0.046175122 0.10390295 -0.1649272 -0.047045995 0.069937415 0.2610518 0.16728592 -0.12533373 -0.0036560895 -0.05608004 0.0035420004 -0.097612344 -0.11042048 0.033403512 -0.025142029 0.21906349 0.11824633 0.057374675 0.14680012 -0.10607508 -0.18213275 -0.004246045 -0.0061921217 0.098168865 0.16501068 0.016795842 0.038227364 -0.10357181 -0.02192968 0.05511087 0.05328658 -0.03340479 0.19052899 0.15044 -0.10848689 0.09793203 -0.19353239 0.00834162 -0.07919939 -0.028709624 -0.002303189 -0.05591045 -0.03658829 0.029810214 -0.039096225 0.04290622 -0.12621085 0.044670865 -0.01976665 -0.018878724
1339 -0.035420902 -0.132143 -0.035518277 0.03228134 0.037113592 0.19044034 -0.120963134 0.07425367 -0.16061354 -0.054086693 -0.003079608 -0.10093436 -0.07876275 0.022529908 -0.061380148 0.18813081 -0.03910392 -0.0029753067 -0.064798966 0.086099416 0.086113565 0.09603657 0.043271143 -0.22731476 -0.07694894 0.08168401 -0.13367195 0.27864468 -0.029018097 0.013694997 -0.1046825 -0.0041166497 0.14614148 -0.03207012 0.0993229 0.15516657 0.021143902 -0.17751986 -0.13717617 -0.10798605 0.089905396 0.08647461 -0.0050069178 -0.0059164427 0.10358277 0.0141831385 0.12994695 0.06483472 -0.07116593 0.024617033 0.1535932 -0.034365743 0.105075635 -0.16473873 -0.05381517 0.08793767 0.06351041 -0.035929635 0.030983318 0.12172978 -0.0146488305 0.030651456 0.034904182 0.0046220617 0.15213221 -0.045370404 0.10431171 -0.3041342 -0.062705964 -0.016499901 0.16147082 -0.06905409 -0.06577733 -0.2287013 0.03974911 -0.18137853 0.052369233 -0.10447728 -0.019771557 0.049179677 -0.24452654 0.17780067 -0.0024772584 0.30796492 0.08007744 -0.08031495 -0.010493193 0.028603647 -0.09511424 -0.03140711 0.07258566 0.033176593 -0.055862658 0.10649866 -0.039561037 0.073106885 0.080070496 -0.13669133 -0.123240285 -0.015587915 -0.054182604 0.025564909 -0.1190146 0.043239247 -0.09603388 0.010089325 0.014462052 0.1162031 0.04174016 -0.02963796 0.098810464 0.1711673 -0.0003626022 -0.002693315 -0.07586391 -0.0038330927 -0.082878165 -0.15435594 -0.01982736 0.077155255 -0.03947266 0.014467964 -0.07402168 0.087108456 -0.0016075952 -0.009864876 0.0038539032 -0.091243945
1082 -0.16784385 -0.12208961 -0.0822726 0.054773957 -0.024534374 0.0596747 -0.082427084 0.14902887 -0.11434585 0.076062985 0.030275926 -0.04358736 -0.07932 -0.10807432 0.13989456 0.23088853 -0.10269869 -0.01022245 -0.004036687 0.15650564 0.08625175 0.015327813 0.03313243 -0.06954559 -0.06033259 -0.019195562 -0.16889685 0.14775349 0.10489112 0.23959118 0.112694986 -0.110089816 0.100220576 -0.10688904 -0.070629366 -0.06515403 0.116757855 0.010908316 -0.09710458 -0.025202518 -0.08375936 0.14518483 -0.1410636 0.034981925 0.12924312 0.075872816 0.20888996 -0.11309875 -0.034014422 0.103289224 0.037553065 -0.10933278 0.15083042 0.046266057 -0.04183245 0.07026878 0.057954006 -0.04894865 0.12090936 -0.0006171986 0.118533224 0.05609174 0.038436577 -0.06270105 0.18645838 -0.1190537 0.17557158 -0.191459 -0.12520541 0.030602355 0.1436017 -0.13104096 -0.057101287 0.0011938525 0.13902944 -0.16228467 -0.027179755 -0.11899247 0.04692788 0.099273875 -0.21133777 0.050175518 0.107437424 0.17202596 0.21860112 -0.07075794 -0.013216376 0.033835016 0.02201822 -0.06578238 -0.04749727 0.05424328 0.05118852 0.14961639 0.055585764 -0.023772314 0.21901906 -0.0047484757 -0.1340732 -0.093807004 0.052869488 -0.061351143 -0.151704 0.12034459 0.051772423 0.07239637 -0.044606943 0.034224786 0.00028373837 0.07976142 0.013269977 0.055596136 -0.075309195 0.06356283 -0.20330256 0.10263143 -0.0068290704 -0.16397849 0.09899462 -0.0025536136 -0.29657227 -0.036256637 0.121494606 0.112652086 -0.16391677 -0.045348987 0.1147662 -0.014128899
1325 -0.080412105 0.0651088 -0.025576785 -0.031697564 0.12756962 0.06922836 0.2787381 -0.09006628 -0.2718067 0.05921443 0.07643818 -0.10234223 -0.32938707 0.04740981 0.173298 0.17526953 -0.4434207 0.10560113 -0.1954532 0.21635444 -0.076220624 0.062221937 -0.14951256 -0.42776334 0.08403197 -0.08182195 -0.017575482 0.06506655 -0.099770896 0.014389394 -0.038871612 -0.025720246 0.026449753 -0.03618764 0.100409694 -0.004474259 0.10457865 0.099147804 -0.17691286 -0.07570248 0.08949307 -0.03314702 -0.20622179 -0.081835456 0.082769796 0.027939238 -0.031755697 -0.09585833 -0.017495416 0.06890343 -0.040731117 -0.3107586 0.30739254 -0.19835061 -0.3018798 -0.18148121 0.15696609 0.015831685 -0.018200308 0.0022116504 -0.15729067 0.015011787 0.12077418 -0.08746955 -0.1057218 -0.019268174 -0.10067521 0.09775158 -0.1348462 0.015873102 -0.18218225 -0.12035188 -0.24528731 -0.11577853 0.24898164 -0.23454829 0.174963 -0.1676452 -0.058540333 -0.025456555 -0.22904196 -0.18746331 -0.17581466 0.0069306046 0.180645 -0.17118128 -0.016988916 0.12386898 0.03680299 0.3998459 -0.2006079 0.118728876 -0.23767334 0.20870261 0.019801049 0.18731357 -0.059953097 -0.06979583 -0.12026273 -0.01622635 0.015331095 0.16280949 0.30806515 0.28294432 0.15685286 0.17932075 -0.16187695 0.18054941 -0.088630125 -0.027690804 0.03105081 0.03277663 -0.12891985 -0.20955053 -0.08788746 0.18829508 -0.16623053 -0.07494999 0.04348416 0.2828295 -0.11064867 -0.05251091 0.24220842 -0.02113629 -0.016529035 0.068491176 0.046911377 -0.1882402
1106 0.04568209 -0.045367707 -0.018271457 -0.015056051 0.017411014 0.2217409 -0.04516245 0.058657326 -0.2040925 0.011530557 0.13458532 0.0005361453 -0.15868866 -0.095697686 -0.07255039 0.18486616 -0.08440398 -0.07885111 0.021826528 0.11741688 -0.009586872 -0.02529715 -0.08350354 -0.335031 0.22933725 0.08165715 -0.14495185 0.19796522 -0.054833867 0.061038747 -0.03538505 -0.1319339 0.13711937 -0.1676551 -0.060239404 -0.054110195 -0.012214921 -0.11015981 -0.096856184 0.0035620492 -0.043912213 -0.06495112 -0.075220525 -0.03533881 0.15008447 0.0027856883 0.09884241 -0.17710738 0.03675491 0.0421953 -0.015086846 -0.04291503 0.14434019 0.07036412 -0.14277522 0.05310183 0.08113257 -0.07037001 -0.15722027 0.09137223 -0.008395309 0.030443659 0.034151245 -0.09883123 0.22112292 0.10566906 0.24905817 -0.07340081 -0.013632539 -0.14859734 -0.008811729 -0.16932775 -0.025282556 -0.14613944 0.13680021 -0.2993512 0.014315745 -0.0090712905 -0.07088596 0.049428355 -0.1596182 0.08396191 0.084891155 0.22256435 0.2576101 0.01763381 -0.040904664 -0.041909557 -0.0774804 -0.052868344 -0.022375394 0.013644103 0.0006307423 0.13554198 -0.012460696 0.11667657 -0.0026799787 -0.21936926 -0.02858751 -0.26630008 -0.04124349 -0.008648257 -0.12487196 0.07989777 0.12274506 -0.063716725 -0.12378083 0.0963621 0.14871296 -0.09541778 0.042917654 0.15209247 -0.059768565 0.030105261 -0.02697372 0.02517522 0.065089874 -0.23628922 0.14394866 0.084518135 -0.08766053 0.025912108 -0.07058967 -0.0066777417 -0.033459924 0.10511381 -0.02373734 0.011519038
1089 -0.050383795 -0.084339425 0.07411082 0.0638602 0.10231477 -0.033546157 0.015103779 0.06901553 0.08443912 0.066927046 -0.09492797 -0.12776059 -0.12358203 0.01622465 0.11248348 0.083361164 0.011232564 -0.055519193 0.13510346 0.03919334 0.16454238 0.07453592 -0.1255403 -0.24011478 -0.00412605 0.1692464 -0.19124107 0.25221705 -0.088339165 0.04303719 -0.06046407 -0.051010482 0.15897971 -0.12962627 -0.051688295 0.0037645958 0.15148526 0.22327167 -0.16895798 -0.00082144805 0.089272216 0.0980929 -0.18749385 0.05257979 0.025154939 0.11725908 0.07133368 -0.08597149 -0.2488122 -0.10523385 0.07884961 0.024249425 0.22269239 0.0560019 -0.25998175 0.23119138 0.23432244 0.104518846 -0.019103019 0.14032763 -0.17213653 -0.026069025 0.035234585 -0.08009666 -0.09281337 -0.0054143993 0.1992811 -0.08221311 -0.049414903 -0.15885316 0.18522693 -0.16707347 0.040229835 -0.26103148 0.18529236 -0.1173425 0.088090464 -0.032132003 0.13230443 0.1929197 -0.21586996 0.09437391 -0.0938458 0.1606989 0.050701167 -0.24099454 0.03530191 0.16219965 0.022958059 0.20267065 0.079341754 -0.05139024 -0.039779853 0.02273771 0.10018334 0.039696395 0.12615399 -0.06194657 -0.09433084 0.019624077 0.13465743 0.075185195 -0.044900216 -0.055683002 -0.09778297 -0.025187174 -0.007301406 0.11965841 0.124711156 -0.10729637 0.16485055 -0.004102191 -0.20836894 -0.034274653 -0.03299139 -0.21147162 0.0144104995 -0.29764697 0.1175635 0.17734767 -0.12752622 -0.23888093 -0.07628997 -0.0297586 0.019181173 0.048851747 0.10247414 0.046296377
1226 -0.045559037 0.12241747 -0.028512621 0.018791383 -0.018040696 0.07188966 0.03922732 0.07089177 -0.015720487 0.09823346 0.04192254 -0.050172515 -0.22137061 -0.012654688 -0.13407995 0.15633482 -0.015417393 0.07527055 0.053997617 0.028940558 0.19274367 0.08569138 0.023359997 -0.09042656 -0.113991015 -0.015964506 -0.20353664 0.18355261 0.014838782 0.17630345 -0.085852705 -0.06311524 0.12290785 -0.062918 -0.09655611 0.061831187 -0.023955278 -0.109489545 0.009882456 -0.10144007 -0.029532218 -0.046980657 -0.10323293 -0.01432982 -0.01056006 0.09720659 -0.09279781 -0.02367608 -0.05474839 0.0993113 0.025317546 -0.11003591 0.20405574 -0.13126278 -0.09850054 0.06990836 0.13530995 0.04129068 0.047674116 0.025865069 -0.102333546 0.10635832 -0.021151807 0.14453757 0.10044198 0.03842404 0.2651971 -0.38910326 -0.10906999 -0.009775459 0.030924771 -0.05979221 -0.09305088 -0.21136054 0.12408767 -0.0933763 -0.03653397 -0.12252594 0.05771959 0.17883064 -0.10966481 0.11519464 0.005225813 0.2877008 0.076043285 -0.04320596 0.061907515 0.05879177 -0.04556854 -0.08186975 0.026687793 0.035781853 -0.07257428 0.107915424 -0.122446604 0.15215608 0.18112628 -0.18286492 -0.13355003 -0.05630016 0.05796746 -0.111191645 0.06350506 0.045781918 0.017495127 0.013371024 -0.03786067 0.020363381 0.025219223 -0.00035814135 -0.04856487 0.11564907 -0.114388265 -0.016376631 -0.17534414 0.12748566 0.055504523 -0.06231049 0.05766554 -0.042045325 -0.082244724 -0.02939587 -0.058276262 0.20703705 0.026259614 -0.03304313 0.16560397 -0.13497736
1101 -0.049742367 0.031481385 0.19395545 0.037324563 0.011494507 -0.060050063 -0.017632188 0.16520278 -0.15309109 0.0064601228 0.17967035 0.03149416 -0.12548095 -0.0072361636 0.018045543 0.14682014 -0.17115453 0.06045465 0.04966024 0.06883215 0.13378131 -0.023679513 -0.025586976 -0.16175437 0.016433632 0.076260544 -0.022164844 0.2045148 -0.07245996 0.120255 -0.05693808 -0.104882225 0.15567967 -0.083287105 -0.22447014 0.015653871 0.026352903 -0.029909398 -0.16164072 -0.038288485 0.018716307 -0.049725782 -0.08684689 0.045886394 0.275173 0.0150181465 0.10004189 -0.15491219 -0.26860917 0.13817862 0.06430786 0.02381142 0.14667556 0.0785199 -0.01918085 0.14864232 0.19112672 -0.00608466 -0.07037766 -0.13140403 0.041839506 -0.001016555 -0.03891651 -0.079196066 -0.08052876 0.08431955 0.08857056 -0.17196676 -0.121534 -0.04496967 -0.023201061 -0.25425896 -0.14183699 -0.093048364 0.15532187 -0.12678546 -0.12753126 -0.22300781 0.12088733 -0.04117101 -0.21396121 0.12776625 -0.0042710267 0.2905697 0.15581653 -0.019609613 0.029311439 0.08816606 0.043372132 -0.06856957 0.024855888 0.01521764 0.04738233 0.06425481 -0.047770012 0.04549506 0.08935896 -0.12024886 -0.056213062 -0.018070757 -0.02245828 0.020464154 -0.08668285 0.17191519 0.122677684 -0.11969292 0.101546295 0.20341595 -0.025843773 -0.09647442 0.08760461 0.14958964 -0.07922615 -0.02073744 -0.024268346 0.107821666 0.020685868 0.040512532 0.036441255 -0.030574664 -0.06825262 -0.042967994 -0.15916824 0.094329156 -0.11768372 0.061775956 0.16983853 0.010781046
1341 -0.09218555 -0.002462808 -0.1064971 -0.16082971 -0.006687995 0.21814953 0.065113515 -0.0052548344 -0.11406045 0.005101317 0.11640594 -0.07842759 0.014886666 0.0867723 -0.095642544 -0.028252248 -0.10291472 -0.010045589 -0.06325105 -0.030133462 0.08139905 0.018671155 -0.103098094 0.15276748 0.016666504 -0.0135564385 0.09743704 0.21421593 -0.07938417 -0.006247331 -0.13582835 -0.16421492 -0.056533214 -0.17865227 0.10697871 -0.22549245 0.1636259 0.2436727 -0.1815991 -0.0014514526 -0.004965157 0.12372954 -0.12452866 -0.0033030203 0.13265961 0.25412038 -0.03725065 -0.08546164 -0.12703007 0.14300637 0.16520166 -0.23963895 -0.0075016995 -0.29107398 -0.13870497 0.030972099 0.1588285 -0.2981031 0.09926941 0.16518293 -0.008513591 -0.0155327 0.5186172 0.071872056 0.102890655 0.3658129 0.33738387 -0.027309619 -0.108588606 -0.02391559 -0.0040153274 -0.22607294 -0.00928344 -0.25032148 0.06374272 0.094817735 0.036111474 -0.15299746 0.031982683 -0.3356031 -0.28647196 0.021444924 -0.1277515 0.17647906 0.10610801 -0.18971673 -0.11690482 0.19752716 -0.1784664 0.30111197 0.08469747 -0.22405678 -0.17793316 0.23721729 0.08539375 0.30299902 0.08202391 -0.10984465 -0.08111595 -0.0023298217 -0.09310256 -0.03691421 0.12368422 0.03360247 0.04542453 -0.06594254 0.17171457 -0.10091407 0.029122489 0.034371167 0.1360311 0.11158181 -0.10612199 -0.20025206 -0.081095636 0.073691994 -0.07149132 -0.049337685 0.1168439 0.14657743 -0.1808394 -0.5574113 0.02502168 -0.033524457 0.06396288 -0.15960684 0.12065754 -0.106988855
1398 0.17713852 0.06904199 -0.20855354 -0.11828824 -0.039964356 0.2710378 0.1261251 0.12114793 0.08497025 0.12714563 0.25769565 -0.051553234 -0.035430953 0.16977353 0.24370326 0.027075274 -0.11935836 0.014396132 -0.03247427 0.121109605 0.08918251 0.062387932 -0.08819387 -0.061755832 -0.08382874 0.28464732 -0.027579835 0.266025 -0.12378857 0.11851528 -0.029432531 -0.15963651 0.03971459 -0.32028452 0.08977835 0.047913976 0.15600805 0.114343934 -0.021218821 -0.052352276 0.10165614 0.06869667 -0.29822138 -0.10722823 0.27710056 0.004226593 0.05705532 0.027949382 0.12851208 -0.027311742 0.12091442 -0.06833824 0.18880573 0.082086265 -0.00014890512 0.045178756 0.25339887 0.0063172234 -0.033156794 0.041463103 -0.106315166 0.10627277 0.24282342 0.019892624 0.13848257 -0.28209507 0.19813871 -0.050388437 -0.18529524 0.14250828 0.09279441 -0.4028471 -0.38130713 -0.26795402 0.09132337 0.078541115 0.09146196 -0.21406877 0.11673561 0.03996737 -0.16436125 -0.051640056 -0.10881773 0.10677378 0.17639592 -0.15131965 0.0069945985 -0.082620986 0.004404207 0.15442619 -0.15053645 0.065931186 -0.18632054 0.07048483 0.21312667 0.12955156 0.06674639 -0.043676812 0.008129571 -0.1082143 -0.06665375 0.22935382 0.008213527 -0.06257406 -0.2174603 -0.12011969 -0.14347139 0.01193034 0.22288348 0.06550992 -0.12967396 -0.09879012 -0.023071688 -0.1693337 0.011032395 -0.046995252 -0.022560075 -0.018857762 0.07163437 0.110767536 -0.15871333 -0.082019694 0.02348081 -0.04844316 0.08472411 -0.25980258 0.35167342 0.04836996
1246 -0.075830705 -0.13446967 0.022953732 -0.166073 -0.034606297 0.19745465 -0.094077684 0.033661574 -0.19355811 0.041052822 0.08542801 0.056874286 -0.06838307 0.04339262 0.004416348 0.15157574 -0.14183633 0.14893429 -0.04474738 0.18449028 0.101423845 0.07961844 0.1743963 -0.18825218 -0.06726196 0.010897061 -0.08909914 0.24166477 0.011153344 0.15298048 -0.029309137 -0.045565303 0.070685096 -0.025679942 -0.057063114 0.07060979 0.10909464 -0.01303993 -0.042475305 -0.10328114 0.11417515 0.14060831 0.04682713 0.03791399 -0.0036283934 -0.050140288 0.066500254 -0.03202186 -0.006103322 0.15300633 0.010017748 -0.052219316 0.2850433 -0.033286203 0.07557766 0.004945714 0.3068407 0.0135508785 0.032524824 -0.017475847 0.010907891 0.119781576 0.0810271 0.09708309 0.023344155 0.1043432 0.12336467 -0.27776456 -0.18326227 -0.10018954 0.007916709 -0.07844923 -0.095531985 -0.13935177 0.16144167 -0.04836136 -0.07157662 -0.1667626 -0.049407303 -0.037846923 -0.21340372 0.111178346 -0.08246589 0.1261292 0.11634579 -0.068925686 0.04415409 0.011016582 0.05974901 0.021012126 0.10025265 -0.17487621 -0.018256254 0.17299913 0.08667431 -0.038956836 0.07966044 -0.16434352 -0.07364326 -0.080406725 -0.09501699 -0.13843824 -0.2186808 0.06488385 0.05583364 -0.0063813394 0.021939564 0.04037383 -0.008499434 -0.03185932 0.08763722 0.040702716 -0.09490162 0.108952574 -0.11542356 0.023347922 0.05491513 -0.016872467 -0.023210172 0.0061365548 -0.09518363 -0.057459846 -0.02845094 0.08313951 -0.16599585 0.13755542 0.052453015 0.096516944
1417 -0.11217299 -0.09280378 -0.04396045 -0.014957024 0.12646179 0.06607153 -0.14227949 0.16925532 -0.07093476 0.0015440362 0.029671628 -0.1111237 0.079748906 -0.08361618 -0.021713069 0.2343864 -0.115222245 -0.0036996475 -0.108822726 0.28092822 0.06136626 0.19113304 -0.031157028 -0.2772899 0.0359739 0.11465945 -0.2908166 0.17639823 0.10271755 0.1170154 -0.020562695 -0.06707994 0.093167126 -0.018102111 -0.053556107 0.22445378 0.08409483 -0.106777914 -0.118628636 -0.00040005354 0.00790752 -0.010466449 0.022524701 -0.14480853 -0.0012457516 0.16070469 0.006493987 0.06394937 -0.12250218 0.05316312 -0.030286297 0.053445537 0.18809058 0.018411389 -0.016409244 0.092350736 0.24205308 -0.01777756 0.13876103 0.14950307 0.10252233 0.12196002 0.15082778 -0.0009098923 0.1141582 0.042009998 0.106338315 -0.2068934 -0.06506607 -0.09479583 0.0062787537 -0.16080499 -0.17204928 -0.14987475 0.1273501 -0.022662027 0.028717892 -0.07917935 -0.116287895 0.05467277 -0.21039729 0.13910452 -0.024074722 0.063197464 0.115359224 -0.027767317 -0.058757424 0.09207306 -0.047633696 -0.0142298145 0.117427245 0.045347333 -0.017484633 0.03664095 0.096184485 -0.016837865 0.15579636 -0.13387635 -0.13842909 -0.06469673 0.0138588045 0.056106992 0.04523996 0.23267987 -0.035608154 -0.041424744 -0.019435272 0.14867394 0.09004397 -0.04524064 -0.015286857 0.0066472194 -0.072277434 0.12915944 0.025682492 0.054977775 0.11168374 -0.042247213 0.09394304 -9.11755e-05 -0.04740857 -0.11177195 -0.026331082 0.13384244 -0.05623504 0.11952181 -0.113996826 -0.16254243
1117 -0.05955761 -0.1153277 -0.058657046 -0.0058732918 -0.10243592 0.1336264 -0.014604396 0.18017566 -0.07261244 -0.104550876 0.12694365 0.11519126 -0.02769429 0.17321377 -0.12840086 0.23063113 0.048039075 -0.09799419 0.013080616 -0.01621858 0.08785543 0.022424087 -0.014064394 -0.26589394 0.03615606 -0.00016897186 -0.16414714 0.22465838 -0.050937947 0.20863952 -0.06118958 0.06415139 0.101182505 0.09272335 -0.041162964 0.01128158 0.016636897 -0.027022257 -0.22263306 0.057248224 0.073054604 -0.036693573 -0.100969344 0.052303754 0.14549652 0.031248339 -0.004892923 -0.070790716 -0.015011046 0.10634524 0.105731145 0.007850914 0.23633808 -0.0077924533 -0.05837214 -0.063018076 0.20058313 -0.12053767 0.24518386 -0.07491739 0.009009552 0.10869732 -0.012775375 -0.05873277 -0.018085703 0.05734536 0.08421148 -0.19239894 -0.16173594 -0.082603514 0.17738813 -0.1556999 -0.20020808 -0.12025227 0.21043922 -0.10223462 0.14922944 -0.22270077 -0.12996234 0.10887613 -0.020267367 0.05708354 -0.04559929 0.18323699 0.04998038 -0.044983413 -0.03622236 0.040664256 0.008124585 0.018275715 -0.10767872 -0.05477072 0.010982736 0.09332581 0.046584807 0.13149929 0.13991927 -0.14778674 -0.11358191 -0.12262849 -0.12823717 -0.0716044 0.048276354 0.059852112 0.076025076 -0.046871793 0.12737486 0.099493004 0.012949248 -0.07008803 0.10603151 0.011686595 0.0027983314 -0.0075256075 -0.0368778 0.062298395 0.024556026 -0.10665508 -0.03859997 0.061802834 -0.19921133 -0.05149997 -0.05303579 0.18197092 0.041713633 -0.020199286 -0.002834483 -0.13485229
1418 -0.18825704 -0.13757505 -0.0015611567 -0.13105142 -0.09348667 0.1312071 -0.08969852 -0.021601452 0.048929326 -0.03797791 0.17619754 -0.09359578 -0.17309219 0.08562008 0.04032376 0.29789302 -0.1347066 0.047244888 0.0111243315 0.060926944 0.13861342 0.11856338 0.016022153 -0.08173969 -0.050562594 -0.0013698313 -0.16364124 0.103023745 -0.051506195 0.021556687 -0.09455224 0.017830217 0.00233098 0.058247156 -0.0677502 0.10094738 -0.01347944 -0.012192425 -0.19433616 -0.09935222 -0.03306081 0.06971042 -0.015688341 0.032272566 0.017465774 -0.0016236341 0.025578445 -0.11095866 0.02339884 0.08088281 0.18994717 -0.1139285 0.20904008 -0.15702789 -0.14120929 0.16441673 0.21984361 -0.08190403 -0.04262011 0.1534532 -0.080012165 0.046599213 -0.024353998 0.0885282 0.09226318 0.07563885 0.04929974 -0.23707592 -0.19938089 -0.062695764 0.07435703 -0.15845835 -0.07777222 -0.20042346 0.22567521 -0.23269883 0.040781103 -0.21114062 0.05460629 0.09289549 -0.058493823 0.15860456 -0.003073679 0.19570829 0.10755711 0.010638587 -0.22161166 -0.20741189 -0.07051813 -0.035512883 0.058253154 0.04055549 -0.06882393 0.04350918 -0.00014712237 0.18292938 0.03179279 -0.18677503 -0.047633268 0.10173614 -0.0816589 0.07590588 0.049139272 -0.026479533 -0.0152450185 -0.15845019 -0.006002052 -0.011193594 0.009106589 -0.17940822 -0.14040303 0.21094373 0.008449931 -0.0600675 -0.10685775 0.034500882 0.09589851 -0.0034055035 0.046684742 0.012968058 -0.077534184 0.071851656 -0.05154659 -0.036369875 0.037412275 0.12239935 0.038387466 -0.073723875
