1194 128
1272 -0.23323606 -0.10997686 -0.02828596 0.0663971 -0.08995102 -0.0633662 -0.089758225 -0.1637182 0.15673433 -0.043233767 0.11846088 0.023651605 -0.011384987 -0.045643587 -0.04054523 -0.067817025 -0.10796097 -0.0890431 0.109889366 -0.18968534 0.12980282 0.029897051 -0.13595818 0.030480208 -0.13755724 -0.112040475 -0.18174171 0.0134188775 -0.037867386 -0.074091285 0.096574046 0.15280728 0.06313096 -0.016174076 -0.052577376 0.14966497 0.06384368 -0.09257596 0.116478756 -0.30340123 -0.21203567 0.22589304 -0.10320305 0.09733269 -0.1307915 0.061230466 0.10794081 0.13212657 0.29849267 -0.15162748 0.053485647 -0.055772725 -0.01834427 -0.12056784 -0.01099957 0.0687921 -0.060111854 -0.09328437 0.021312537 0.11628798 -0.011516616 0.10895592 -0.0816544 0.1163506 0.097018324 -0.03308673 0.06253079 0.027519047 0.01286513 -0.04155074 0.08246823 0.102744915 -0.18021445 -0.111055166 -0.049673297 -0.22281437 0.055022784 -0.13684027 0.062818 -0.01682851 0.06715269 -0.059573382 -0.09220765 0.05269763 -0.111779734 0.0062748273 0.2025401 -0.26431698 0.14748792 0.11207613 0.015232186 -0.1414655 0.048330557 0.046855703 0.019114943 0.034832478 -0.033318084 -0.018326169 -0.0277323 0.18220803 -0.030267462 0.052005902 0.11780732 -0.13460094 0.032323092 0.10640906 -0.10280206 -0.07201759 -0.1109944 -0.020497078 0.1260996 -0.048257947 0.11540823 0.15282549 0.060741317 0.13036267 -0.07559825 0.072080344 0.062139966 0.10434325 0.111031875 0.009431236 0.04426497 -0.17583184 0.043596692 -0.11148114 -0.14276247 -0.10666829
1327 -0.16348596 -0.123788476 0.15640993 0.09622716 0.021602012 -0.0014123064 -0.014256059 0.01052082 -0.050281864 -0.11371748 0.11819326 0.090649866 -0.065012135 -0.1087063 0.012609006 0.035174616 -0.22497359 -0.078581184 0.06051242 -0.09985584 0.07343491 0.080222815 -0.100898415 0.015425033 -0.03571897 -0.022369621 -0.20331128 0.084764175 -0.05090729 -0.14611237 0.12502493 0.112624265 -0.00995807 -0.15120265 -0.05992315 0.30097544 0.0052123433 -0.07465944 0.13202225 -0.23782669 -0.1608749 0.23389272 -0.09256884 -0.003199898 0.03501311 0.08790232 0.021025708 -0.0010031607 0.086931 -0.10214315 0.05523747 -0.02256018 -0.098799214 -0.06256169 0.030558748 0.010097781 -0.038276754 0.030213 0.16045189 0.097107396 0.00073716865 0.15728413 -0.15853788 0.18294324 0.044605777 -0.06303614 0.04737091 -0.0058181635 0.104430564 0.015680164 0.10184773 0.27127305 -0.11822724 -0.00011233112 -0.09184676 -0.15156902 0.12637751 -0.10272096 0.07005312 -0.0055696433 0.07575044 -0.017775118 -0.009712242 0.16893625 -0.025633983 -0.041295808 0.10378747 -0.18977693 0.10851084 0.06357916 -0.001314471 -0.15379569 -0.0653992 -0.08217104 0.04756665 -0.006654504 -0.048856452 -0.12533441 -0.09380088 0.100877725 -0.17446014 0.061437305 0.1086129 -0.24109547 0.024818188 -0.034701932 -0.115714036 -0.010284978 -0.039881736 0.01425861 0.20820928 0.06327597 0.111886665 0.12628946 0.09660295 0.19263873 -0.18245597 0.07397583 -0.12116548 0.012185079 0.03618004 0.030524125 0.17371082 -0.14595209 0.02970382 -0.0775683 -0.038280044 -0.07709403
1407 -0.13942346 -0.27351958 -0.015361459 -0.011808147 -0.105627306 -0.1454954 -0.087132365 -0.07610661 0.041358575 0.030702645 0.11851109 0.04086841 0.057987 -0.13118693 -0.17504044 0.013331335 -0.20248067 -0.04934588 -0.025739448 -0.21654417 0.012991416 -0.08658715 -0.2575124 -0.022927493 -0.18093689 -0.09607552 0.050667096 0.056422923 0.053318705 -0.14141387 0.10132792 0.111896075 0.07015243 -0.092553996 -0.03429344 0.26295424 0.06434812 -0.06481935 0.047190767 -0.09335403 -0.23119006 0.24851498 -0.2293621 0.067358315 -0.11187042 -0.0110721635 -0.01828433 0.15934537 0.2047067 -0.27418652 -0.015171138 0.11048313 0.02071799 -0.068512134 -0.05132541 -0.1057347 -0.16088846 -0.057355862 -0.06861867 -0.101381674 0.014976958 0.1469201 -0.14287077 0.14299133 0.10579658 -0.16297422 0.047921482 -0.022372581 0.11700162 0.13409592 0.16505367 0.24258588 -0.1144876 -0.0018138235 -0.08449096 -0.18395832 0.10967122 -0.2615928 0.05706207 -0.053134732 0.08384629 -0.06427662 -0.048912153 0.05473219 -0.04059213 0.03704254 0.08128921 -0.09081672 0.012107131 0.110271186 0.046817575 -0.19517763 -0.030119693 0.055702392 -0.011254507 0.020915532 -0.06802957 -0.03980489 -0.008927477 0.21742333 -0.092207134 0.009776994 -0.13075648 -0.16002657 0.15478611 -0.017773155 -0.115454145 -0.023174232 -0.0017496569 0.11626556 0.13572942 -0.005508533 0.21562131 0.14843889 0.025886409 -0.043105695 -0.19562204 0.033127982 -0.035666574 -0.045469217 -0.018517459 0.13410823 0.0062677674 -0.12775274 0.034824573 -0.090832785 -0.1493185 -0.1976794
1116 -0.18770263 -0.060523387 0.07223278 0.045423493 -0.0026758846 -0.10885218 -0.10863591 -0.03539628 0.027633408 -0.120292544 0.16548829 -0.09973744 -0.1158267 -0.18573157 -0.025414443 0.046921816 -0.13607496 0.038559623 0.14305827 -0.20411165 0.011457085 0.049161606 -0.09177847 0.045033295 -0.14917788 -0.15327686 0.07753492 0.08331289 0.039818972 -0.061162643 0.116588995 0.08485193 0.009616321 -0.00827473 -0.09370068 0.1713345 0.102025434 -0.005065382 0.2878907 -0.16616346 -0.17349982 0.16132143 0.12382327 0.15123144 -0.063807845 0.025398744 -0.052059684 0.14233735 0.22721437 -0.049668882 0.014524104 -0.032538313 -0.142082 -0.14035457 -0.00695397 -0.1542637 0.081697136 -0.100142255 0.10233989 0.07715372 -0.08086532 0.071704574 0.043624014 0.1341108 0.12756863 -0.1388047 0.1172939 0.07649638 0.017630097 -0.03703974 0.16454336 0.24158454 -0.14813398 -0.028141944 0.051628552 -0.27825317 0.13811386 -0.17583278 0.017990194 0.030682428 -0.018162923 -0.06826309 -0.11125462 -0.035164136 0.050590236 0.09315437 0.19837883 -0.09090292 -0.05920614 -0.08099532 0.002184018 -0.05392868 0.039159752 -0.08665053 0.09081606 -0.0023969573 0.09270626 -0.0121183675 -0.018264437 0.217432 -0.07536464 0.07988886 -0.001158441 -0.061014086 0.06461493 -0.09060189 -0.1671899 -0.043096203 -0.122333474 0.15995589 0.13228741 0.050811782 -0.013265732 0.22058164 0.010805672 0.13813448 -0.14507207 0.00882714 0.046793994 0.07503485 0.07502188 0.116703875 0.1166875 -0.117494695 0.05778519 -0.07296056 -0.083703496 -0.079667754
1316 -0.16614807 -0.22708635 0.025235472 -0.019186387 -0.11384807 -0.15135093 0.11818585 -0.09611628 0.040654663 -0.07880584 0.021295542 0.108845994 -0.102288246 -0.11717033 -0.0011782779 0.09942589 -0.14819117 -0.30382133 0.08072542 -0.09861193 0.15733609 0.09451531 -0.10964091 0.107479826 -0.13344914 -0.018590832 -0.023533667 0.094012946 0.10524992 -0.25019738 0.008341761 0.052185424 0.042625464 -0.1313874 -0.09081702 0.18159223 -0.0013309486 -0.09392557 0.019244405 -0.110460885 -0.3607288 0.2761132 -0.07584451 0.023782743 0.0017058137 0.15581068 0.07680206 0.018139916 0.2086379 -0.09766852 0.12294839 0.009622756 -0.06600925 -0.12704395 -0.010732226 0.05002308 -0.14765805 -0.09365267 0.021994762 0.050433315 -0.16160421 0.029812038 0.001749512 0.24798208 0.12088523 -0.21925348 0.12518178 0.08661398 0.10913336 -0.03726045 0.028098386 0.27202186 -0.15943332 -0.004789006 0.18108012 -0.07715062 -0.00040011562 -0.2280961 0.03580379 -0.10762716 0.0066662775 0.054250278 -0.065233424 -0.06631138 -0.06677908 0.04803873 0.21578632 -0.12094168 0.10035723 0.03830907 0.0069986354 -0.102969564 -0.095652975 0.17743218 0.07059945 0.014658028 0.006214943 0.0139733255 -0.12779771 -0.0062746103 -0.009079073 0.1360843 0.045566086 -0.13529164 0.14413875 0.056454092 -0.19321235 0.05945143 -0.100046024 0.06832432 0.07887203 -0.056134984 0.18659595 0.18731853 0.1261046 -0.040864598 -0.11933119 0.040439583 -0.054109167 0.090302706 -0.07506158 -0.013542304 0.0017521747 -0.34681484 0.06410393 -0.19989166 -0.14829089 -0.13447198
1172 -0.21141112 -0.18248582 0.16433363 -0.085137896 -0.09467447 -0.20961921 -0.034573615 -0.023155214 0.07124494 -0.049233466 0.056762084 0.048026428 0.03613564 -0.05115198 -0.06483725 0.0030671826 -0.26685715 -0.091693535 -0.016254209 -0.07712199 0.13336255 -0.15445693 -0.14019027 -0.065748736 -0.14745194 -0.08627803 0.11609961 0.10508099 0.20672537 -0.048239246 0.12572342 0.15328082 0.13757904 -0.13213943 -0.12679452 0.34150097 -0.001391724 -0.025493007 0.032697972 -0.18921275 -0.24523164 0.24135669 -0.16199145 0.03240973 -0.071174026 0.035067126 0.018068144 -0.0028839174 0.26204202 -0.23318887 0.1102111 0.059454504 0.0684425 -0.0027998819 -0.09765159 -0.049992304 -0.114191934 -0.06788722 -0.11993352 -0.030014185 0.040613297 0.13865256 -0.07620929 0.18591414 -0.018350504 -0.22137389 0.078204736 -0.12350056 0.13246715 0.100096606 0.18181199 0.30714872 -0.026311396 0.04289019 -0.15154906 -0.16266248 0.12509468 -0.18571787 0.19698896 0.060263675 0.045515273 -0.08262996 -0.13100405 -0.006658507 -0.044389278 -0.023938634 0.1913725 -0.06304134 0.07986909 0.089410834 0.04204343 -0.14316262 -0.07544816 0.02038084 0.11913682 -0.08765849 -0.13007312 -0.0470129 0.068483606 0.16666026 -0.06917904 0.122997485 0.07826693 -0.26898766 0.16752322 0.026018225 -0.13272646 0.01012462 0.08122759 0.19924223 0.09236825 -0.028086267 0.21430455 0.005376281 0.09074663 0.021912921 -0.30636644 0.062915675 0.0073680463 -0.12636557 -0.04456569 0.0076001426 0.004289742 -0.08644343 0.044485502 -0.095521554 -0.14534743 -0.21723156
1329 -0.052373968 -0.13690887 0.04718764 0.035306156 0.067743875 0.10022452 -0.14771785 -0.09143543 0.10056315 -0.050426267 0.1617299 -0.032519266 -0.13993011 -0.115390666 0.11778385 0.27245837 -0.072139926 0.020720925 0.15076885 -0.15508987 -0.0037870286 0.013020238 -0.15097813 -0.06900916 -0.12002468 -0.14689697 -0.10192778 -0.05306601 -0.14322644 -0.012511206 -0.0723713 0.14474785 0.02299151 -0.11002945 -0.082962155 0.15013391 -0.007234124 -0.06515106 0.13838345 -0.30007413 -0.22211088 0.17713323 0.012057782 -0.0926251 -0.059075184 0.060825996 0.084765784 -0.016661879 0.14257252 -0.12759928 0.05841142 -0.074790135 -0.0029058887 -0.02655235 0.117198646 0.057908047 0.04319424 -0.07822832 0.10137886 0.15909463 -0.11163501 0.0076123904 -0.13859805 0.06294518 0.057798054 -0.05827291 0.14120021 -0.040205553 0.0013839117 0.013338195 0.17485458 -0.03331501 -0.21212314 -0.013727566 -0.04226092 -0.1818867 0.051809553 -0.10254092 0.006112606 0.052744236 -0.072458796 -0.06338226 0.0028202015 0.08934255 -0.05135924 0.03260548 0.028114352 -0.1638812 -0.051304594 0.19394952 0.15234509 -0.21909876 0.06563538 -0.04229807 0.13616674 -0.025940586 -0.050643463 0.047613166 -0.010267445 0.0008175209 -0.018002266 0.08156549 0.14170142 -0.23975955 0.11448251 0.021121977 -0.027219087 -0.1692066 0.047820833 0.05010736 0.28581226 0.040497478 0.13764425 0.22203225 0.0009053055 0.052256986 -0.22151801 -0.035278756 -0.1045406 0.058916915 0.030890647 0.0010047184 -0.027863285 -0.19875552 0.16774598 -0.15855412 -0.076410495 -0.05364439
1293 -0.11944867 -0.09011168 0.10242305 0.122577 -0.18794663 -0.21098658 -0.19916573 -0.019839808 0.031086091 -0.01189362 0.089155905 -0.07848688 -0.13403419 -0.15169227 -0.06368686 -0.10433594 -0.22389849 -0.14048451 0.11327516 -0.18545896 0.1379097 0.11417007 -0.0991732 -0.0058883363 -0.124104306 -0.16942197 -0.08590445 0.11490477 0.060318433 -0.0178146 0.08197342 0.08404885 0.18264678 0.00063384546 0.01208164 0.29713345 0.11249205 -0.102027446 0.012648833 -0.2869601 -0.39180145 0.11796847 -0.07330684 -0.0077141244 -0.11853336 -0.046327002 -0.0020177988 -0.010755434 0.15765181 -0.06672479 0.034633726 -0.058120377 -0.006289104 0.034201674 -0.013911222 0.05805544 -0.0087640695 -0.13630395 -0.10368711 0.06392307 -0.010134209 0.05435588 -0.004608976 0.17890741 0.14393887 -0.057218198 0.020085758 0.10379571 -0.010449509 0.06573706 0.09352313 0.07123502 -0.06690724 -0.108766906 -0.101087585 -0.06181407 0.07754333 -0.13175105 -0.07474679 -0.103023514 0.13011649 0.036040697 -0.15716764 0.114383735 -0.10465047 -0.09198477 -0.13073413 -0.14841256 0.02188053 0.0010551743 0.17267431 -0.10436109 -0.09567393 -0.009982374 0.12038965 0.1749219 0.037242107 0.06533141 -0.07409715 0.054707408 -0.07876413 0.0046593 0.11498503 -0.029240353 0.23709992 -0.10521922 -0.0675068 0.057958096 0.025172636 -0.039881766 -0.003321008 0.018750569 0.19385171 0.16752158 0.17251441 0.23889457 -0.20944679 -0.10563017 -0.11448878 0.11137918 -0.029263653 -0.008419573 0.05289833 -0.26393372 0.01570144 -0.1920286 -0.24107462 -0.07237479
1306 -0.22620422 -0.00923673 0.0669867 0.13500543 0.030181041 -0.07636829 -0.07410484 -0.031639438 -0.011433161 -0.050690543 0.19062662 -0.09662636 -0.039709676 -0.12195817 0.044365484 0.029492546 -0.07614505 -0.0044021886 0.039975677 -0.24365273 0.13722941 -0.049480192 -0.13018711 -0.058706433 -0.23733363 -0.079956986 -0.10250831 0.07395425 -0.047503624 0.1193579 0.02265276 0.11935415 -0.07711247 0.011245296 0.011084057 0.20525616 -0.015367429 -0.07191385 0.32049614 0.022590421 -0.13448714 0.21467476 0.082537204 0.026101591 0.019850794 -0.022635508 -0.05415087 0.01338665 0.24502017 0.1186319 -0.011376791 -0.010584659 0.03891255 -0.12916972 0.19736303 -0.16293013 0.06442475 -0.08926511 0.18464842 0.10432719 -0.07083508 -0.06974989 -0.038735434 0.16566512 0.06467499 0.0051428177 0.10773065 0.043355748 -0.0072635845 0.013548383 0.24258761 0.17737405 -0.09308061 0.015841715 -0.035991114 -0.24024566 0.2087796 -0.16753598 0.05539444 0.09688827 0.06998585 -0.05018586 -0.055547886 0.17383578 -0.033444595 0.23720004 0.05254732 -0.25387952 -0.085882835 -0.09323184 -0.040224746 -0.10722749 0.049340144 -0.04120033 0.03168016 -0.060220722 0.056095067 -0.0986818 -0.04335242 -0.07735564 -0.057681378 -0.060933907 -0.08315844 -0.18771389 0.06659855 -0.07477501 -0.14535624 0.09604012 -0.08278616 0.12276994 0.19302729 -0.012206358 0.055858012 0.15025926 0.029470919 0.21237619 -0.027598817 0.077840075 -0.061064683 0.027365634 -0.038790964 0.05631527 0.07819086 -0.16931663 0.020705333 -0.119886 -0.11671628 -0.026593136
1237 -0.050486676 -0.1976175 0.13113624 0.22688763 0.031191813 -0.06584527 -0.116485566 0.044545457 0.014797328 0.074302495 0.19057791 -0.018528603 -0.08850832 -0.14654627 0.014591236 0.13989447 -0.15392615 0.036466118 -0.005526895 -0.08370927 0.09876262 -0.08378461 -0.12287643 0.03192199 -0.195838 -0.1289343 0.072957054 0.037273 -0.084178 -0.060386766 0.15551844 0.118704885 0.016221713 0.035830796 -0.16462928 0.074305706 0.027467929 0.0200862 0.2022229 -0.08988581 -0.11028457 0.24336185 0.12300229 -0.08877608 -0.06656972 0.053599246 -0.028504023 0.13328749 -0.0002951769 -0.1264016 -0.031131791 -0.115689136 -0.22479236 0.107222 -0.033872753 -0.14776976 0.05233819 0.057593152 0.13603126 -0.035391998 -0.069069564 0.16219594 -0.13423268 0.06926697 0.21440244 -0.095429406 0.09114292 -0.05354817 -0.06490983 0.012826356 0.23555718 0.12000082 -0.08269372 0.053097077 -0.016456373 -0.27888566 0.038246095 -0.30022907 -0.13087176 0.019552505 0.06261339 0.08009472 0.01635769 0.15717165 0.023481855 0.051795844 0.07609365 -0.0022741375 -0.004001119 -0.07116394 -0.054854583 -0.08037878 0.09999023 0.07748244 0.0983996 0.060093045 -0.03537 -0.10589782 -0.0818743 0.048471306 0.024097662 -0.040495455 -0.09001658 -0.027043512 0.19914946 0.033479493 -0.12797551 0.008988388 -0.11282427 0.13015439 0.20166793 0.02323263 0.048602507 0.16954933 0.13328178 0.11788948 -0.17992643 0.11481146 -0.009734262 0.070255496 -0.042329263 -0.1045674 0.070433095 -0.08541352 -0.0441727 -0.1306749 -0.027863333 -0.1683554
1404 -0.05093423 -0.106759615 0.0150983 0.18601161 -0.03419983 -0.015650788 0.055410825 -0.09089977 0.005120421 0.0019439961 0.18324135 -0.10938824 -0.06386545 -0.13148342 0.09359804 0.0042332085 -0.22261974 -0.08735575 0.038716473 -0.15334414 0.09171942 0.019700255 -0.08153909 -0.16271976 -0.16489553 -0.232486 0.022829873 0.1674264 -0.008445889 -0.06570065 0.07173389 0.14315039 -0.116975285 0.039169516 0.076619945 0.15313579 0.13728069 -0.15109265 0.22771448 -0.16864581 -0.17190324 0.2564162 -0.008748006 -0.06013844 0.10056421 -0.04206354 -0.054797698 0.01996253 0.25908792 0.1426353 -0.0015476455 -0.10519548 -0.08273721 -0.20348878 0.026902083 -0.07516978 0.11338423 0.16886297 0.003954237 -0.039656676 0.080014035 0.06490578 -0.036718383 0.1429523 0.13358349 -0.11091491 0.0757839 -0.032332826 0.12858121 0.0057405713 0.067883 0.2868937 -0.14134923 0.041638184 -0.08159769 -0.12203485 0.1699949 -0.09352833 -0.0001863607 0.072292104 0.10623927 -0.027638542 -0.036886968 0.101379834 -0.03415181 -0.011625405 0.19607168 -0.27608463 -0.100290716 -0.0027935388 0.10449644 0.079445116 -0.0013022333 -0.16305962 0.14276615 0.094337635 -0.020289203 -0.06465703 -0.22044612 0.13950801 -0.090244874 0.027942486 -0.07336989 -0.061007947 0.19606757 -0.21480748 -0.07788386 0.014638997 -0.0013359769 0.090606086 0.07721533 -0.1659616 0.03684881 0.05271755 -0.097431615 0.12899546 -0.23222636 -0.100963764 -0.12811978 0.038737305 -0.028718246 0.046438575 0.12317166 -0.21892644 0.07629126 -0.06917619 0.047324914 -0.04713246
1421 -0.112621255 -0.12754492 0.0625519 0.30572703 -0.06794279 -0.061327066 -0.10551392 -0.04141875 -0.012995696 -0.089448705 0.33447933 0.05127677 -0.054078642 -0.20986032 0.19236192 0.13276237 -0.053917892 -0.08375255 0.10595409 -0.11368957 0.25990146 0.004672442 -0.11681535 0.071163416 -0.23917831 0.025438119 0.006432379 0.044326164 -0.12753102 -0.07487921 0.19531304 0.10592035 0.097280964 -0.029386478 -0.021701396 0.14806916 -0.07020371 0.05856821 0.0860817 -0.105036624 -0.1254416 0.14200525 -0.012179823 0.2518352 0.0416817 0.04513485 -0.052050762 0.2528127 0.23027931 -0.052434705 0.037964184 0.03428898 -0.077390015 -0.010641633 0.15538622 -0.14593284 -0.008301598 -0.10785358 0.10127967 0.27890772 -0.03988559 0.11808531 -0.08088708 0.20142838 -0.032474734 0.041691843 0.19044828 0.1060147 0.0793934 0.0034179625 0.070992224 0.08791061 -0.08983411 0.05229968 0.14042537 -0.14991035 0.18536158 -0.13096097 -0.037011597 -0.02185982 0.0010220092 -0.05056518 -0.027466077 0.23323245 -0.11098413 0.10032736 -0.025910508 -0.04717819 -0.0139042605 0.025252402 0.050342597 -0.050432704 -0.050106928 0.1665599 -0.012142665 0.010436337 -0.09172636 0.14899091 0.13142058 0.12347234 0.00026303105 0.09620435 0.0073954295 -0.118494295 0.14601347 0.029038819 -0.07805347 0.14578104 -0.060485195 0.07217081 0.1556456 -0.09089493 0.07726377 0.17798328 0.038274683 0.17391361 -0.16463305 0.124766394 -0.17411222 0.1970612 0.16795596 0.0154458145 -0.12299352 -0.16393715 -0.14542106 -0.07384095 -0.20170851 -0.03331144
1103 -0.16073743 -0.16467345 0.26176062 0.03567788 0.023441821 -0.1482225 -0.045077737 -0.18050441 0.048679806 0.03519454 0.15305108 -0.03354053 -0.06210023 -0.118787445 0.07732374 -0.0714174 -0.12319951 -0.024073409 0.12490073 0.03591825 0.055392858 0.115571015 -0.055175446 0.117678426 -0.12912057 0.038217682 -0.122342095 0.13566732 0.04922114 -0.056433223 0.12578946 -0.07599777 0.007169108 -0.09840404 -0.13405678 0.21133263 0.034576986 0.06954309 0.02820466 -0.12153634 -0.10952204 0.13389234 0.040126752 0.037766345 -0.3084944 0.16325185 0.09173762 0.14426258 0.06296855 -0.19393942 0.13868183 -0.1668795 -0.16362187 -0.046611667 -0.011503816 -0.0019666727 -0.1453312 -0.26988778 0.039625797 0.15646407 0.06510754 0.069631614 -0.11899391 0.05348592 0.19737409 -0.15559223 0.004048061 0.032455727 0.08863121 -0.0763418 0.09464155 0.097976334 -0.19373974 0.085541874 -0.07681016 -0.18334234 -0.0019125856 -0.2053284 0.12403231 -0.12634243 -0.07734651 -0.013899359 -0.13588637 0.11007674 -0.04070501 0.05371653 0.14621466 -0.045126706 -0.041142635 -0.0058639464 0.008046277 -0.14208029 -0.025194779 0.07170575 -0.06838641 0.03024145 -0.037079293 0.06229482 -0.009882901 0.22383742 0.031160139 0.1055112 0.038831003 -0.046784475 0.23461679 0.04155671 -0.23254338 -0.053027213 -0.07044237 0.12273549 -0.004967432 -0.015509213 0.10763497 0.13624081 0.040883 0.39487895 -0.21234806 -0.0897128 0.04470781 0.14780773 0.10212105 0.019001426 0.16855167 -0.30044535 0.14852725 -0.060102127 -0.13113466 -0.24834135
1308 -0.057212807 -0.15550196 0.3096532 0.13562727 0.06714284 0.017055579 -0.10612242 0.057803787 0.067595325 0.02246972 0.04747338 -0.13429682 -0.1532541 -0.03657095 -0.0025182716 0.006220323 -0.12455134 0.07610841 0.041633133 -0.12483955 0.17739783 0.020979486 -0.14114863 0.012032731 -0.07896678 -0.27464625 -0.23412545 0.10723074 -0.110004775 -0.08127621 0.14758818 0.1092052 -0.06326381 -0.025201045 -0.05949723 0.17227934 -0.008193555 -0.08369118 0.1387945 -0.16544707 -0.0720358 0.19953693 -0.028021304 -0.072885156 0.07348082 -0.060689054 -0.11164641 0.017715381 0.1344586 -0.21298544 0.03199981 -0.057000633 -0.14352727 -0.049489267 -0.05221745 -0.011619815 0.121737935 -0.065750375 0.13701685 0.11702448 0.038576845 0.11801857 -0.07544767 0.026611567 0.13345464 -0.07659611 -0.012578994 -0.02410878 -0.009501132 -0.083827555 0.24685854 0.14589477 -0.05062945 -0.01251495 -0.04084999 -0.2828922 -0.07263384 -0.055941813 0.040987402 0.09709248 0.10680389 -0.03242673 0.020564234 0.07031255 -0.1676249 -0.018538874 0.013563981 -0.064845815 -0.054971687 -0.12109125 -0.006610262 -0.008007668 0.033933613 -0.008787445 0.055336982 0.07554571 0.03458314 -0.018855479 -0.052283887 0.011605767 -0.08025805 0.083187215 0.054766335 0.04079056 0.0021465963 -0.059719726 -0.07629525 -0.12819901 -0.053176064 0.027489224 0.26953128 0.11761075 0.091637075 0.12841763 0.10516548 0.13954887 -0.13723686 0.00055711716 0.02653265 0.04350747 0.05264528 -0.18210022 0.10651795 -0.13610852 0.18985412 -0.19370806 0.05238551 -0.047682174
1276 -0.16645733 -0.020518942 0.14034505 0.16397092 -0.06580137 0.0090207495 0.025174491 -0.21542838 0.09033694 0.017498434 0.11606804 -0.010655011 0.05245821 -0.1305456 0.12354211 0.04125578 -0.16731879 -0.21988383 0.017902102 -0.08340866 0.072803594 0.05196894 -0.12471926 0.18837026 -0.07430752 0.07339037 -0.08509638 -0.0039010693 -0.07738887 -0.17821954 0.102288194 -0.06023651 0.05898384 0.03219254 -0.07837872 0.1627697 0.08664757 0.028849768 0.2175343 -0.121649295 -0.28001356 0.18054187 -0.15615636 0.17849651 -0.12145124 -0.031876143 -0.21688753 -0.048674442 0.30456665 0.12173881 0.0019962685 -0.042567566 -0.21011591 0.10096951 0.035247143 -0.080556124 0.059845198 -0.21955237 0.039665304 0.15369686 -0.07677076 0.06790182 0.010504295 0.23233327 0.06359137 -0.023403289 -0.06529872 0.012291147 0.0050100493 0.03145713 -0.02675144 0.1231274 -0.019609315 -0.06693706 0.059578598 -0.25019944 0.34632698 -0.13494124 0.09285894 -0.12681705 0.15824229 -0.1820529 -0.040617116 0.1801375 -0.015628394 -0.04695193 0.15892838 -0.09580414 -0.06695401 -0.05738572 0.028654406 -0.028617153 0.026748614 0.2690126 0.1181861 -0.0033466874 -0.092143364 -0.0010011583 0.04616001 0.07967799 0.010207943 0.0779135 0.016400153 -0.2509086 0.06741387 -0.07914973 -0.06081707 -0.008424191 0.052896183 0.059603643 0.15766864 -0.05967439 0.16914983 0.27129856 0.14505865 0.21354838 -0.08001561 -0.11605919 -0.13115771 0.017129725 0.06087456 -0.045888495 0.16220322 0.012660267 0.211412 -0.13773543 -0.06296584 -0.015466998
1156 -0.07827453 -0.2645712 0.17290886 0.22319038 0.04383559 -0.08937872 -0.008569235 -0.09527926 -0.024855815 -0.076862745 0.107982196 -0.115520015 -0.080260694 -0.051343765 0.020559862 0.09367215 -0.07868951 -0.0057032737 -0.06623309 -0.084299766 0.09952035 0.027353631 -0.10787767 0.06515685 -0.097332515 -0.054875866 0.034080748 0.13884325 -0.02380674 0.040661003 0.010101461 0.044734634 0.024998475 0.10155239 -0.1346829 0.13320631 -0.06902832 -0.053152427 0.19041808 -0.10681727 -0.1909426 0.17773877 -0.07854124 0.023092603 -0.010999447 -0.06593496 0.028595822 0.023454377 0.1189935 -0.117347084 0.17883395 -0.026640845 -0.050181407 -0.07900731 -0.11862494 -0.057211682 -0.10719407 0.0026823645 -0.1192149 0.03943092 -0.21142195 0.038100533 -0.036704604 0.22271524 0.18647464 0.022550337 -0.14069255 0.024443503 -0.14108592 -0.040821105 0.049247317 0.09220187 -0.22574037 -0.12342628 -0.06682916 -0.33512038 0.18361007 -0.22458926 0.024370333 -0.031027691 0.007831879 -0.16895461 -0.06574199 0.06322182 0.11040174 0.04643142 0.11845693 -0.0035021633 0.123021305 -0.016416987 0.12061796 -0.04853976 -0.11771297 -0.09394645 -0.02522369 0.0819246 0.03681775 0.10084752 -0.06518969 0.06944832 -0.17807981 0.0499788 -0.02653729 -0.046050232 0.20055693 -0.041092485 -0.09724319 -0.14355123 0.1487351 0.0017136241 -0.008486721 0.09348198 0.07301031 0.1831124 -0.020476237 0.22424333 -0.33751032 -0.04997737 -0.0064197313 0.18275924 -0.09700157 -0.17945457 0.042926773 -0.15220007 0.10753701 -0.020491295 -0.11771264 -0.0645937
1140 -0.07234329 0.046746723 0.21538946 0.17316888 0.008898998 0.058986384 0.019258862 -0.072176054 0.00072713406 0.07542114 0.245992 -0.039817166 -0.24463697 -0.044246547 0.06078148 -0.008337409 -0.15057784 0.059515126 0.050121963 -0.033078235 0.103938855 0.021570092 -0.14199765 -0.09857523 -0.23756662 -0.2543333 -0.060374532 0.1344448 -0.055149093 0.01027372 0.107158005 0.17025831 0.19700539 -0.08834906 -0.007841367 0.15696973 -0.009335715 -0.07199331 0.15408139 -0.08102366 -0.08360922 0.23437408 0.057364017 0.025401313 -0.10790594 0.0049321405 -0.09540627 0.111658745 0.08508551 -0.08636029 0.049442288 -0.11545819 0.0079056425 -0.10503735 0.20028307 -0.01718059 -0.047861505 -0.14312582 0.17978194 -0.024529088 -0.05156872 0.17449623 0.054689057 0.12489629 0.08119973 0.14694582 -0.051704716 -0.0012699516 -0.039023932 -0.035303105 0.19390903 0.14227723 -0.038179286 -0.0049667284 -0.022182757 -0.21601047 -0.0023192493 -0.20391585 -0.03304456 0.056626968 0.03502309 -0.036848262 -0.09694545 0.24090703 0.09035217 -0.008268851 0.07151045 -0.17720787 0.010005886 -0.0024682921 0.015800886 -0.069447786 0.08875512 -0.14847736 0.056873336 0.009166665 -0.09160863 -0.03644047 -0.13382578 0.059724163 -0.011505148 -0.06698825 0.014796924 -0.14082089 -0.007928927 -0.041047335 -0.04318487 -0.1397564 -0.13578226 0.048617195 0.051353294 0.08754526 0.10552487 0.10873055 0.12865888 0.13599703 0.03283963 -0.035094555 -0.06499354 -0.008066756 0.04856742 -0.13053593 0.07055263 -0.043643955 0.099755645 -0.05159453 -0.08993866 -0.09271679
1287 -0.112802245 -0.19765075 0.07330106 0.13927716 0.0133085735 0.0050005587 -0.13061732 0.10638159 0.019103708 -0.21773884 0.15507075 -0.09547622 0.05403977 -0.19817248 -0.14858468 -0.015159749 -0.27057678 0.14610653 0.0069820546 -0.27259877 -0.09758289 -0.19131656 -0.35407045 -0.012339638 -0.06688386 0.019265061 -0.10479909 0.1783129 -0.026066434 -0.027665595 0.046104547 0.09552445 0.040088676 -0.07115293 -0.16061087 0.08000346 -0.027928663 0.05034786 -0.012286804 0.011981101 -0.22949204 0.06851143 -0.07235878 0.07250234 -0.05893787 -0.18526165 -0.16624229 -0.07638086 0.30447662 -0.07047692 -0.039389256 -0.01028977 -0.44435507 -0.038105905 -0.17902254 -0.038543925 0.030457942 0.023241883 -0.07749191 -0.09150576 -0.23659202 0.25028518 0.012688514 0.12134239 0.096655205 -0.136108 -0.13150242 -0.15266131 0.05450218 -0.0039778743 0.082702555 0.19876653 0.11294441 -0.19233635 -0.029415805 -0.1458006 0.061590657 -0.02105205 -0.024740906 -0.12362706 0.26290387 -0.011760699 0.23155648 0.025600798 -0.12778275 -0.08059055 0.01402097 -0.0862225 -0.06316108 0.10617436 -0.05383399 -0.21806392 -0.058792192 0.13158819 0.043198712 0.04499844 0.02267494 0.024940383 0.022132719 0.046594217 -0.12125287 0.17734115 0.14402908 -0.3324188 -0.027954558 0.013221207 -0.17662133 -0.033550236 0.0104615055 0.0980328 0.109471366 -0.039388392 0.36727655 0.2186912 0.014148529 0.11957692 -0.039103188 -0.046728767 -0.057872143 -0.104797445 -0.011030464 -0.24815135 0.034777 -0.27024218 0.25182015 -0.06840698 -0.1592952 -0.10188845
1164 -0.27782202 -0.007114255 0.17214772 0.20501955 0.16801526 -0.049379166 -0.045204744 0.1054256 0.069473706 0.07914106 0.21493812 0.02037794 0.0061645894 -0.18900698 0.054714184 0.005127139 -0.117835954 0.21440738 -0.16907492 0.014086076 -0.013642946 -0.11768651 -0.22837718 -0.079038985 -0.119421475 0.14825402 -0.15790693 0.07821998 -0.05515945 -0.01856718 0.1753715 0.09204662 -0.0374835 -0.08440041 -0.1176275 0.089235805 0.060728453 -0.036364164 0.23172218 -0.2306402 -0.09250025 0.059875086 0.12231726 -0.027589027 0.060006708 0.025614811 -0.0031859307 0.00487311 0.16026682 -0.18642241 0.046612862 -0.0842334 -0.069555685 -0.2232144 0.04935298 -0.034454554 0.055507306 -0.0015999946 0.19508843 -0.060291406 -0.09787025 0.089074075 -0.18448879 0.12350236 -0.0126283 -0.009613856 0.14315398 -0.13886121 0.091923274 -0.11218976 -0.0018045481 0.14256893 -0.05426063 -0.14639458 -0.014406335 -0.2791827 0.1215334 -0.17519867 0.1180607 -0.004004674 0.09492598 -0.08643971 0.041169893 0.0029550507 -0.05566698 0.05118496 0.13688692 -0.112255864 0.068641685 0.08457581 -0.00093294383 -0.0661292 0.033552658 -0.12356619 0.08870438 0.012964448 -0.036473002 0.14999361 -0.07801628 0.2368088 -0.1343098 0.020727424 0.05431326 -0.13114005 -0.06776112 -0.12799616 -0.20167407 -0.091947764 -0.055900563 0.085411236 0.20618874 0.008825606 -0.037213955 0.088938095 0.039030306 0.16493492 -0.092026845 0.10816353 0.075066365 0.046839416 0.058180377 -0.061518203 -0.105530664 -0.057602376 0.01662988 -0.14039713 -0.13903315 -0.09299004
1413 -0.072200656 -0.13243568 0.06773514 -0.0067037116 0.17034933 -0.056014817 -0.079140685 -0.15687348 0.03817361 0.09158829 0.19713037 0.0016790625 -0.18964456 -0.07174571 0.0023519862 0.0072035263 -0.18731368 -0.010387817 0.0683037 -0.10702563 0.04893742 -0.006297487 0.0013361734 -0.16991062 -0.15582554 -0.18090302 -0.01958236 0.029777527 -0.04558801 0.046841916 -0.06251293 0.18096127 0.028480629 0.06621847 0.0050877174 0.09053925 0.05334705 -0.14803195 0.18365107 -0.18024306 -0.224455 0.2069772 0.107826956 -0.06547693 -0.036696296 -0.07363588 -0.021810045 0.04195736 0.22879747 0.048981585 0.0042068074 -0.10994673 0.016575832 -0.098677136 -0.019786024 -0.016837735 0.10075568 -0.023060454 0.29711705 -0.022730099 -0.13370757 0.038869478 -0.026428573 0.1492007 0.113071024 0.052293736 0.15173407 -0.07124373 0.039688207 -0.06751098 0.031308934 0.017163679 -0.15967327 0.039714444 0.036936164 -0.27591062 0.033626158 -0.20002821 -0.0059493156 0.107788615 -0.043693077 -0.1132672 0.016966788 0.11206786 -0.03151563 -0.01304668 0.05531307 -0.11898927 -0.106280506 0.02747432 0.023928562 0.10225351 0.057421044 -0.07573518 0.043088395 0.02998118 0.085991256 0.09221567 -0.18009746 0.010484147 -0.039877642 0.019050855 -0.022038711 -0.058454093 0.13242017 -0.0942774 -0.15191635 -0.19501616 -0.050093137 0.087671295 0.097099334 -0.097435266 -0.05510623 0.1480019 -0.019667353 0.062511444 -0.11829885 -0.10801767 -0.057279088 0.076714106 0.015690347 -0.08857277 -0.046410207 -0.26603484 0.03835215 -0.078917935 -0.045857202 -0.060209982
1297 -0.093694195 -0.027987782 0.04903627 0.2118438 -0.032729927 -0.0056943377 -0.02110379 -0.019487698 -0.027902411 0.020459652 0.14806372 -0.05641074 -0.097606346 -0.07387214 0.020166796 -0.0010600903 -0.13547327 0.054286852 0.07995017 -0.14643574 0.13998018 0.06172147 -0.1980106 -0.12771282 -0.15360864 -0.13225009 0.028908633 0.047975015 -0.15887693 -0.029981587 0.08036874 0.19321889 -0.002289744 -0.09550762 0.04804418 0.07028672 -0.034557234 -0.054619543 0.05053984 -0.10236779 -0.11249495 0.19120464 0.05868748 -0.032697447 -0.020021211 -0.068618566 -0.03798879 0.123285376 0.18000881 -0.10658157 0.15825514 -0.029521896 0.028069708 -0.10906501 0.09530387 0.07330438 -0.024488349 0.006923351 0.3170715 0.12086045 0.07736937 0.044515207 -0.014336549 0.119189784 0.20192245 0.0640513 -0.007928137 -0.03739287 0.011918041 -0.07102991 0.16236787 0.19432594 -0.063269556 0.002514952 0.026268862 -0.24053024 0.091988094 -0.17629042 0.07121695 0.08784468 0.0819266 -0.018769743 -0.11294452 0.12302474 -0.03477376 0.10663713 0.042634312 -0.15648477 0.025993213 0.053149767 0.0869733 -0.09583744 0.10065554 -0.18902135 0.1683578 -0.006350386 -0.014733247 0.08985957 -0.019563306 -0.06357818 0.046719454 -0.061534557 0.0028787872 -0.1820111 0.024114896 -0.07840348 -0.17607068 -0.05993977 -0.022730002 0.018812552 0.12929761 -0.019949319 -0.02627977 0.17230244 -0.015695032 0.18350446 -0.014796005 -0.021277469 -0.014434122 -0.061841335 0.018747147 -0.16169931 -0.0018560524 -0.065035336 -0.0069879736 -0.07457273 -0.08729977 -0.007442937
1286 -0.13996084 -0.09695397 0.15920475 0.08801232 0.07044281 0.07158489 -0.048447654 -0.011955599 0.044059906 0.030031806 0.14844573 -0.02815443 -0.06452248 -0.13715656 -0.025442308 0.009852872 -0.14138553 0.039138813 0.108990304 -0.04442949 0.19007508 -0.033130374 -0.2325149 -0.18347806 -0.14463462 -0.16111422 -0.023507359 0.099009454 -0.110854164 0.045211423 0.09088217 0.12853637 0.0667014 0.028484335 -0.018070051 0.10050806 0.041002948 -0.113716416 0.12781109 -0.061219633 -0.20127271 0.14679705 0.12296586 0.010606091 -0.015765032 -0.06858323 -0.073265 0.024904355 0.010928542 -0.003212755 0.05645469 -0.13793279 -0.05803909 -0.13638501 0.07397175 -0.029034799 0.10380784 -0.047637314 0.17503051 0.060575828 -0.0696392 0.1419003 -0.072016664 0.10456362 0.05294648 0.043735225 0.05738701 -0.10442269 0.021204226 -0.094317906 0.12979092 0.07130192 0.0053853155 -0.03399836 0.034708794 -0.29625803 0.03582639 -0.1284155 0.04949296 -0.018090278 -0.04327722 -0.08952994 -0.021688694 0.095157854 -0.002886385 0.05119185 0.17282614 -0.04376674 0.037130214 0.017288389 -0.03030316 -0.033258915 0.052065995 -0.15966083 0.07097616 -0.08936007 0.02623036 0.1263051 0.07410206 -0.07848327 -0.013764056 0.0418795 -0.03231344 -0.11531439 0.05198507 -0.098027706 -0.21072538 -0.13542067 0.10029108 0.02120996 0.2514649 0.017913334 0.038699154 0.044460192 0.060192615 0.1265712 -0.08171016 0.0061584273 -0.042385094 0.07540014 0.0300278 -0.02535033 -0.04033139 -0.07493409 0.037238486 -0.20487854 -0.02055378 -0.024298945
1238 -0.03903966 -0.08778926 0.20003337 0.112654775 0.080726415 -0.006813147 -0.0973913 -0.1201078 -0.053636447 -0.09958905 0.17466947 -0.114812806 -0.15973382 -0.119655535 -0.01053545 0.03070582 -0.079196475 0.08136748 0.040250465 -0.06921519 0.042300507 -0.022346007 -0.22739659 -0.03581828 -0.18419762 -0.19526538 -0.0403337 0.12087445 -0.08846435 -0.0061938153 0.19502938 0.10131594 -0.005090681 -0.058279302 -0.009433695 0.11457547 0.07835494 -0.07709616 0.1407933 -0.16590813 -0.12192897 0.20086408 -0.054907504 0.015402102 -0.13021111 -0.05506476 -0.10896313 0.013805913 0.06559541 -0.02101436 0.017827626 -0.08869341 -0.10166199 -0.2103081 0.21600361 0.026252877 0.082327746 -0.093191706 0.25384116 0.055083193 -0.06337042 0.009978566 -0.08596967 0.1457048 0.118496016 0.007880338 -0.013616934 -0.04640164 -0.112001225 -0.09517412 0.18485084 0.07195545 -0.18025827 0.05578268 0.14254947 -0.19591215 0.16296816 -0.25288877 -0.00021577183 0.06013074 0.10491135 -0.1172995 -0.046388287 0.089407235 0.10477402 0.010170739 -0.14085357 -0.1418419 -0.0035371706 0.12221698 0.052441712 -0.06740129 0.12676033 -0.13422118 0.12577708 -0.033555213 0.08029901 0.010659402 -0.0048220055 -0.154468 -0.032937493 -0.08947871 -0.12683176 -0.15629716 -0.024398087 -0.0075042984 -0.11341313 -0.017222015 0.057910167 0.08878916 0.12946081 0.05032824 0.07631313 0.10297394 0.077289015 0.1309438 -0.047446515 -0.06641426 0.08097633 0.022954997 0.031623356 -0.07930942 -0.00850678 -0.017856203 0.0072371494 -0.061450604 -0.0919352 -0.13895729
1367 -0.0589472 -0.0084432615 0.18143591 0.14906515 0.08654702 -0.107262105 -0.036699783 0.018362442 0.13369858 -6.0054805e-05 0.12350193 0.041584928 -0.14697397 -0.029066304 0.05866046 0.063806534 -0.23671119 -0.0668694 0.009023638 -0.2074753 -0.01022169 -0.014423343 -0.18957365 -0.09533534 -0.15856966 -0.20576547 0.0773709 -0.0071517173 -0.09296224 -0.02376323 0.105885096 0.16502027 0.10626112 -0.03649114 0.00485233 0.08819128 0.089532696 -0.025512222 0.09815928 -0.057227615 -0.12583159 0.27819163 0.049717497 0.001204842 -0.037353203 -0.033158787 0.025368555 0.09450311 0.06292389 0.087744266 0.08662669 -0.16164732 -0.16495721 -0.14454862 0.094290316 -0.025775228 0.07046777 0.016929375 0.13906391 0.18849488 -0.05333285 0.023432396 -0.010385092 0.083466806 0.12520802 0.03945659 0.017871948 -0.01899032 -0.16562064 -0.06774776 0.0069550653 0.14491445 -0.16452411 0.02385768 -0.013587437 -0.2924295 0.06061257 -0.20297873 -0.034994975 0.043022078 0.028499432 0.00910824 -0.03318271 0.10265875 -0.080578975 0.09012146 0.07416491 -0.07485999 -0.042839363 -0.014975826 -0.059071857 0.05320604 0.07131881 -0.06462522 0.092032 -0.022365965 0.11025803 0.020325778 -0.095863454 0.02766926 0.00025281694 -0.0078116003 0.111316375 -0.18671772 0.038322445 -0.0808266 -0.24460696 -0.15062886 0.022117902 -0.026647944 0.21484388 0.12031789 0.04846933 0.041680958 -0.00011007384 0.10889422 0.03943239 -0.16523491 -0.040103212 -0.07613861 -0.11287123 -0.17342028 0.012234421 -0.06325846 0.07012331 -0.088623054 -0.04981803 -0.124492645
1145 -0.17844304 -0.09316891 0.17326182 0.14491713 0.07116506 0.116134875 -0.06354571 -0.027753612 0.0057584927 0.011983736 0.15007305 -0.014799448 -0.189792 -0.04700915 0.009509224 0.11240704 -0.08008679 -0.04464543 0.00077312614 0.008807142 0.13843976 0.057852067 -0.12784547 -0.108726405 -0.1649276 -0.13287173 0.0011490381 0.030249475 -0.16334884 -0.04305847 0.09106367 0.14524503 0.048396133 -0.03686911 -0.10863324 0.11018232 0.053388827 -0.026189573 0.067711055 -0.06473876 -0.13978705 0.18145502 0.09890337 -0.010441475 -0.08201946 0.058189783 -0.07416632 0.10450841 0.0909216 -0.08665821 0.07416072 -0.05423706 0.0063264198 -0.1114509 0.06876728 0.051342774 0.06772954 -0.12506211 0.2645375 -0.017548256 -0.08124636 0.15275852 -0.04330768 0.050853197 0.17295747 0.09089915 0.058523804 -0.03597145 -0.008415042 0.08543508 0.19626154 0.10465878 -0.10779808 0.012462979 -0.10487666 -0.22364663 -0.04004518 -0.28480726 0.05927546 0.05591995 0.1052918 -0.07975484 0.033717565 0.16138816 0.029258376 0.092217825 0.07665639 -0.14832205 -0.006397047 0.008564354 -0.006566054 -0.08359599 0.13972966 -0.20719564 0.053405944 0.026016979 0.012155985 0.057400085 -0.04189259 -0.03171779 -0.080649614 0.06169146 0.04693233 -0.1611348 0.017177448 -0.054900546 -0.1412676 -0.10486486 0.055951055 0.023286782 0.20377375 0.01687106 -0.079931006 0.06764796 0.061645843 0.12765765 0.062191557 -0.094007775 -0.017243607 0.08279264 -0.104552254 -0.044298906 -0.03993986 -0.12445831 0.09973937 -0.07520859 -0.033537056 -0.02915513
1370 -0.07991544 -0.09792397 0.1636159 0.14510798 0.12371595 -0.006661996 -0.06519648 0.0071695456 0.10610695 -0.045898035 0.23611337 -0.05502617 -0.09148581 -0.018838586 0.037869196 0.11154385 -0.14004059 0.116945155 -0.0021584302 -0.11350844 0.16841327 -0.06471239 -0.13174787 -0.100558974 -0.028116273 -0.19487843 0.058707528 0.11446548 -0.16813119 0.012075483 0.07671154 0.036052503 0.10399675 0.028365823 0.009788716 0.050499707 0.10320222 -0.018110687 0.13876271 -0.15306816 -0.103568174 0.1717425 0.06123038 -0.057979066 -0.041018102 -0.115647554 -0.022065606 -0.017810417 0.13241185 -0.019380016 0.048395853 -0.10488619 0.037155595 -0.074845776 0.158248 0.105869815 0.12547904 -0.04715953 0.21467303 0.10940388 -0.07706326 0.085513905 -0.009962306 0.05628945 0.1712791 0.10137192 0.084756106 -0.01056473 -0.039454047 -0.13635558 0.0919035 0.11265263 -0.110115014 -0.012922035 -0.10992058 -0.1694824 0.07480872 -0.196909 -0.0074374187 0.035249237 0.078120336 -0.06680544 -0.088089496 0.2047693 0.005576878 0.04643435 0.07867476 -0.103132844 -0.030147567 0.108355686 -0.0022543792 0.069260985 0.09374489 -0.02558485 0.1505736 0.055803884 -0.031649224 0.030993735 -0.034358338 -0.08378931 0.044971377 -0.018230028 -0.0045037665 -0.14005361 0.20031452 -0.07334357 -0.15040447 -0.0962122 0.039042287 0.03163518 0.15112852 0.09428717 0.069592506 0.18212648 0.0045737424 0.09964497 0.19791473 -0.00029502378 0.01637192 0.024654215 0.013898003 -0.09845318 0.058884446 -0.21215704 0.031500023 -0.18589202 0.047316883 -0.06347643
1189 -0.06261178 -0.031700473 0.048032217 0.22101963 0.0011369173 -0.16338839 -0.02718644 -0.021291591 0.14357206 0.038038217 0.10948745 -0.08452844 -0.28649226 0.03387972 -0.0027399103 0.0031729222 -0.21126777 0.021597851 -0.021531558 -0.11969322 -0.06114683 0.022628585 -0.1361558 0.07088683 -0.16442998 -0.25339115 -0.17003094 0.070541866 -0.08919092 -0.085416466 0.025316155 0.06481681 0.05721534 0.03640435 -0.17440264 0.11345867 -0.048794128 0.046737693 0.22868285 0.012217542 -0.20415205 0.1760801 0.10647409 -0.15076865 0.016306002 -0.020363562 -0.06690451 0.10846631 0.13723958 -0.013043598 0.11801552 -0.0629034 0.01093659 -0.2076599 0.023655105 0.035712402 -0.046523802 0.042288546 0.1753276 0.012176505 -0.014425432 0.26888078 -0.122419335 0.2008414 0.13461116 -0.061453633 0.15087698 -0.048981145 -0.12475792 -0.07084743 0.0013905064 0.1249921 -0.22989407 0.017975263 -0.04206732 -0.22557032 -0.06692069 -0.26397046 0.0030428744 0.016976446 0.0014675086 0.048655365 -0.09295493 0.101164736 -0.15800053 -0.10726971 0.13464396 -0.26754192 0.09160696 -0.14085785 -0.116416804 -0.016162354 -0.018700534 -0.09003809 0.10416396 0.052267395 0.009110652 0.19592942 0.007115555 0.15475367 -0.03902487 0.008001841 0.008125004 -0.13374539 0.10774667 -0.025421495 -0.1531883 0.025395626 -0.07218728 -0.0012434053 0.1469559 -0.02480749 0.071536735 0.20139213 0.056362584 0.085978016 -0.032121502 0.10927487 0.04723771 -0.07255441 -0.08038051 -0.05410425 -0.058498524 0.0113447895 0.0126617355 -0.048461962 -0.007547555 -0.074708134
1167 -0.069095664 -0.097160764 0.18139967 0.13752368 0.06873161 0.021267427 -0.044322018 0.012063821 0.0707584 -0.009748482 0.20649427 -0.06824783 -0.18921265 -0.119135275 0.028651543 0.10121321 -0.17999324 0.0064042993 0.058149606 -0.15425529 0.12732299 -0.040482208 -0.09535627 0.08329514 -0.13296245 -0.2601309 -0.041401222 0.13176101 -0.09045119 0.032125708 0.1653698 0.19676007 0.035601273 0.018584872 -0.107057385 0.15464562 0.15233144 -0.09531071 0.06704675 -0.035060342 -0.1640561 0.100806616 0.05422109 -0.028623171 -0.029324932 -0.1200843 -0.024169661 0.11240083 0.09270973 -0.10791941 -0.04153165 -0.15154384 0.019261086 -0.02018764 0.12588108 0.04836229 0.24058709 -0.06595641 0.28519154 -0.062297955 0.06949345 0.08334471 -0.09786224 0.15766825 0.09709437 0.018904159 -0.015888546 0.05988723 -0.121152714 -0.03455718 0.11361179 0.107440956 -0.11772154 0.015161904 -0.07820278 -0.30413797 -0.035553887 -0.20337057 0.098010816 0.01767648 0.082879946 -0.049580976 0.07267752 0.17964768 -0.08068333 0.07627219 0.019556578 -0.06075686 0.008853283 -0.087806165 0.036817152 0.062513515 0.055721704 -0.031231431 0.05068495 0.06122567 0.055166047 0.049296916 -0.06108011 -0.06011267 -0.083756015 0.013216593 -0.019999053 -0.14151818 0.10141268 0.063632354 -0.07765101 -0.14839138 -0.07721002 0.046888627 0.22101222 0.03292458 0.020175766 0.021663675 0.03385203 0.13091257 0.02049919 -0.021980157 -0.04625047 0.058780003 -0.06512444 -0.08164245 0.013190085 -0.09198338 -0.000503552 -0.054567143 0.05259362 -0.06035676
1352 -0.004697593 -0.17389967 0.19956525 0.13450885 0.009480523 -0.058879156 -0.17067371 -0.044920474 0.023807185 0.0032278264 0.17004488 0.037971415 -0.11097338 -0.14665875 -0.061562594 -0.02553615 -0.117020436 0.05556144 -0.11141219 -0.10545088 0.1014576 -0.018094014 -0.3016175 -0.06045016 -0.17865454 -0.075845875 -0.032721855 0.023487711 -0.061790925 0.120683916 0.1677766 0.1662915 0.07267177 0.0021023022 -0.00077598443 0.120731875 0.12558484 -0.07382659 0.13093875 -0.07714633 -0.114474915 0.2107381 0.040414058 -0.16533902 -0.008990932 0.036511783 0.01776993 -0.03708867 0.0958396 0.086919144 0.014162615 -0.13915926 -0.034551565 -0.11550322 -0.020784315 -0.06026333 0.07225749 -0.05591487 0.14737864 0.011136312 -0.06427127 0.16879413 -0.12862664 0.0072270534 0.096741654 0.0020936725 0.024210816 -0.09442937 0.018351914 -0.098251514 0.19716567 0.20417692 -0.051241126 0.07830493 -0.061577342 -0.2819564 -0.0399749 -0.23697023 0.09529758 -0.039099332 0.022118455 -0.08429533 0.016530545 0.0904855 -0.040689196 -0.08251523 0.082421556 -0.1040438 -0.04074874 -0.13613905 0.061001603 -0.09979554 0.036875464 -0.10790842 0.104655035 -0.037334796 0.0009738105 0.059802946 -0.050550375 -0.17363179 -0.009809442 -0.06708641 -0.04146894 -0.06736254 -0.009949181 -0.028487045 -0.047775704 -0.26750174 -0.007603122 -0.028634086 0.11533818 0.04406727 -0.011558616 0.13987847 0.08803761 0.20909964 -0.057010874 0.09689154 0.020504693 0.09811361 -0.011423732 -0.011542079 -0.040760484 -0.2322444 0.033004284 -0.11841469 -0.1179788 0.013888624
1249 -0.03283861 -0.11952961 0.18910894 0.09012703 0.11028302 -0.07822176 0.031409185 -0.14748833 0.0579008 0.16678321 0.206082 -0.1849042 -0.23090039 -0.11819489 0.051249873 -0.008665286 -0.10369153 0.014432502 0.064695634 -0.033517536 -0.040979385 0.0010974241 -0.14733377 -0.01187996 0.00054691767 -0.24942859 0.008657983 0.06945876 -0.16937621 -0.034749024 0.048194867 0.14474553 0.17890999 -0.0056246044 -0.03379618 0.09534358 0.04207395 -0.20224008 0.11103528 -0.17852095 -0.15046974 0.16381991 0.045972887 -0.045016017 0.058730602 -0.08779398 -0.005072095 0.030444963 0.090589285 -0.0017030822 0.13473567 -0.17095023 -0.029030757 -0.15201652 -0.049588185 0.08886995 0.11197365 -0.07430161 0.13751048 0.02967717 -0.074521326 0.028124837 0.14888076 0.14882535 0.14028409 0.10261877 0.12374938 -0.073814616 0.09643797 -0.0011325973 0.2040357 0.020486984 0.0011792376 0.07963084 -0.067465514 -0.3088267 0.085330494 -0.22023563 -0.048631568 0.08945195 0.11732645 -0.18535826 -0.07437376 0.07689003 -0.093169175 -0.10400197 -0.05059051 -0.12891904 -0.020931842 -0.038771484 0.071612515 0.0026215916 0.09346523 0.042242635 0.05725713 0.100286014 0.068727106 0.056202862 -0.054486163 0.012963139 0.04860663 0.0026219538 -0.08535599 -0.113871135 0.006086556 0.013012274 -0.094085194 -0.17798342 -0.033189185 0.17970243 0.22169262 -0.057359975 0.03365377 0.06387831 0.07421043 0.12887076 0.06179917 0.115648024 -0.000121907084 0.1143173 -0.009551526 -0.03291184 0.17345817 -0.113928355 0.059225116 -0.13971806 0.0120643815 -0.01866834
1197 0.026165819 -0.09517861 0.11940526 0.08926964 0.12542446 0.04176599 -0.068729475 -0.023091994 0.14974053 0.12034848 0.21460833 -0.019326037 -0.16159761 -0.035476543 0.04164928 0.027313514 -0.008788749 0.010374138 0.07469318 -0.12966149 0.08623682 0.00968002 -0.15735765 -0.03987795 -0.21075967 -0.17224106 -0.11860733 0.07949465 -0.1513712 0.09243929 0.13759539 0.14217824 -0.017794374 -0.020592934 0.035755772 0.10513134 0.066481374 -0.071196586 0.060010202 -0.1674851 -0.10824814 0.18361922 -0.08479892 -0.012232216 -0.063082084 0.00027618415 -0.056053035 0.08687002 0.12645955 -0.09447137 0.06800061 -0.1209881 -0.08773745 -0.111438386 -0.0022738823 0.0020975983 0.09439696 -0.045215577 0.15422958 0.1943393 -0.059889868 0.09340226 -0.010532741 0.03553411 0.1869739 0.15445092 -0.010733509 -0.07290924 -0.072360694 -0.018229876 0.16158395 0.17017913 -0.1199195 0.091674194 -0.06718196 -0.26210013 0.085025124 -0.18184562 -0.03980869 0.108102724 0.07120797 -0.058511745 0.032147333 0.21891202 -0.085257165 0.070637986 0.02313696 -0.04177006 0.02358861 -0.08830394 0.00951572 -0.013323243 0.083641425 -0.10870279 0.123606086 0.014196146 0.04274565 0.13671377 -0.05388213 -0.009761594 0.07137737 0.052432187 0.019817159 -0.14308432 0.073951475 0.028557403 -0.20061664 -0.053915184 0.00011159566 0.08560487 0.22904554 0.008080874 0.11850517 0.10540176 -0.025073422 0.16490583 0.066355556 0.07472989 0.030634478 0.01957461 -0.0047091553 -0.08991948 0.030753687 -0.061308514 -0.038649436 -0.0025183999 -0.044117764 -0.048900288
1128 -0.10452431 -0.1151971 0.21190585 0.12632245 0.05690565 0.036927685 0.026772363 -0.10864413 0.07703487 0.06314993 0.101029664 -0.045143273 -0.1646873 -0.14684343 0.015084378 0.033698473 -0.11533322 -0.028110808 0.02102218 -0.106667936 0.09525986 -0.0311787 -0.058335863 -0.070254095 -0.054826256 -0.14497407 -0.05852067 0.050127514 -0.0094454875 0.06190366 0.23017317 0.10455104 0.08161463 -0.08461095 -0.0682506 0.19012794 -0.062480092 -0.03584148 0.11070183 -0.12103183 -0.1212302 0.15963367 -0.03303662 -0.026673228 0.04066706 -0.08761751 0.0025897142 0.08779939 0.16307926 0.08802228 0.089402296 0.005230054 -0.026929075 -0.065658756 0.07735206 -0.0013012427 0.061366174 0.04449443 0.2446723 0.120474264 0.022986216 0.18298645 -0.1005675 0.058703043 0.10669894 -0.03497827 0.05050369 -0.056520388 -0.026987618 -0.18922606 0.15839495 0.071752414 -0.10937305 0.037417237 0.015537204 -0.33500817 -0.039070982 -0.25735486 -0.039288186 -0.030457148 0.034817252 -0.099583596 -0.029642481 0.18296896 0.06061419 -0.009878009 -0.04947238 -0.09326592 0.0011584851 0.08088564 -0.14723861 -0.011106319 0.13558403 -0.19175664 0.08662401 0.077348545 -0.005531397 0.039163373 -0.10551258 -0.024821082 0.043702953 -0.03597075 -0.008016075 -0.07670827 0.057442594 -0.030357545 -0.12279123 -0.098370515 -0.015998585 0.08775513 0.16054787 0.061535936 0.040600892 0.0926256 -0.0076848795 0.16858934 0.010744758 0.10802044 0.14399853 0.10512289 -0.05730357 -0.061536405 -0.005640279 -0.1232564 0.045611966 -0.05605626 -0.048887108 -0.10212604
1348 -0.052075677 -0.21715 0.12671205 0.1420678 0.007832605 -0.100287005 -0.039492127 -0.108315185 0.13742653 -0.04608528 0.047365233 -0.052532125 -0.09502766 -0.2867426 0.1325879 0.07640786 -0.18338548 0.0028582332 -0.025156679 -0.30082378 0.05293678 0.1372538 -0.30188793 -0.03424751 -0.0048804744 -0.20718738 0.07327619 -0.17177053 -0.20041329 0.17026849 0.040650424 0.032753844 -0.012254912 0.053086493 -0.095533565 0.22217812 0.022561787 -0.031760905 0.1477012 -0.15139885 -0.22767426 0.17651948 0.043027714 -0.07530266 -0.05986753 0.072677426 0.14223853 -0.101652294 0.13621469 -0.17232408 0.13515879 -0.031590514 0.095233314 0.0404048 0.07471135 0.24274851 -0.0996394 0.032336418 0.09134641 0.14402816 -0.18781696 -0.048610575 0.026485756 0.016075173 0.2575845 -0.040225904 0.039773148 -0.12912956 0.0934244 -0.0518028 0.2001084 -0.008558022 -0.14180249 -0.10981314 -0.020215861 -0.25530642 0.01337249 -0.08297837 0.09540472 -0.11535136 0.022423543 -0.06305855 0.05837882 -0.013646766 -0.09873348 -0.1305655 0.0676938 -0.028801901 -0.09233801 -0.029119369 0.071990415 0.036345698 -0.031862415 0.03205924 0.23191293 -0.05122638 -0.045137573 0.090795405 -0.06132438 -0.059002195 0.13761291 0.16089031 0.18280971 -0.25262648 0.21775441 0.15042782 -0.12064917 -0.09418679 -0.014300949 0.01935088 0.14604944 0.17500116 0.11076746 0.2417988 -0.17783998 -0.040623058 -0.25448853 0.07134315 -0.12642363 0.093493275 -0.0028603473 0.00863887 -0.07613813 -0.22045897 0.040779635 -0.025751373 -0.029611407 -0.08845236
1273 -0.09596029 -0.12508307 0.2854917 0.21568803 0.03519303 -0.00033391904 -0.013746956 0.044447802 0.049838517 0.04349476 0.096620515 -0.1086037 -0.14194699 -0.06993911 0.024420878 0.07235599 -0.012420681 0.06264328 -0.0012567182 -0.13256113 0.094398834 -0.012842805 -0.15366597 -0.08804228 -0.12648961 -0.15472361 -0.0126697 0.12560496 -0.026919682 -0.020001903 0.06248022 0.12295334 0.028332647 -0.026619622 -0.1458684 0.12215192 -0.013712819 0.006086493 0.0666005 -0.14488631 -0.107700415 0.20869839 -0.02990521 0.08195907 0.022971522 -0.050552443 -0.03428554 0.044925507 0.2063172 0.04090506 0.03791396 -0.032029007 -0.0027923458 -8.3304745e-05 0.05289165 0.09293559 0.16709909 0.007080862 0.21800023 -0.0076528527 -0.0064887204 0.06308843 -0.10142215 0.07757826 0.18252002 0.036973875 0.07457363 0.0941859 -0.03748352 -0.053042725 0.13306919 -0.01140473 -0.1407346 -0.045774862 0.03496652 -0.26569638 0.053172912 -0.15373023 0.015355155 0.12239905 -0.008715213 -0.0590656 -0.040941536 0.17098965 0.032986272 0.033599045 0.02746983 -0.051040187 -0.028070878 -0.08920387 -0.022272628 0.05538483 0.1233365 -0.033998094 0.10793941 0.060977697 0.014933419 0.09236198 -0.116773546 0.05209733 -0.015308208 -0.101272285 0.10167042 -0.06710584 0.16844706 -0.03439859 -0.22807708 -0.09185171 -0.01843488 0.09600021 0.1438235 0.0937215 0.13257174 0.064287454 -0.055858128 0.12008925 -0.09254051 0.0491075 -0.030216103 0.009057372 0.042791035 -0.10533199 0.08804228 -0.16976154 0.04134213 -0.058241535 -0.03858547 -0.13684541
1356 -0.055212572 -0.14472012 0.18200757 0.15433156 0.12809235 0.10840722 -0.04455118 0.0528489 0.07536572 0.20622772 0.098990485 -0.07599764 -0.16168101 -0.036933586 -0.078806415 0.12211622 -0.19440559 0.029282413 0.029955383 -0.10566529 0.08568522 -0.09471452 -0.13282293 -0.086210355 -0.26963508 -0.12397851 0.0097306175 0.10912077 -0.1888845 0.012216109 0.043244913 0.19677088 0.06987671 -0.012211499 -0.08146894 0.09499891 0.1551358 -0.11499099 0.11922532 -0.12374638 -0.1360327 0.13767745 0.074200936 -0.15098768 -0.063055135 0.02007679 -0.08787431 0.044066824 -0.027433574 0.050396927 0.05939898 -0.019666553 -0.09104022 -0.035174076 0.033890925 0.06356882 0.20692372 -0.054499116 0.112191 0.053314514 -0.03153581 0.119350776 -0.06647915 0.076725185 0.23029986 0.0034173764 0.040833976 -0.008965907 0.0010622273 -0.014008075 0.05049534 0.13595498 -0.06574186 0.083449356 -0.05068888 -0.2773193 -0.028885009 -0.091187775 -0.10455335 0.02820013 -0.10609811 0.0065769106 0.013725421 0.051681884 0.000102754515 0.04982319 -0.0727901 -0.06379038 -0.10926638 -0.011156601 0.023667619 -0.12906079 0.19887684 -0.073537074 0.15142809 0.028269397 0.012545592 0.05343482 -0.08437258 0.045447268 -0.13626537 0.021274868 0.05627502 -0.0508091 0.11935853 0.0029261103 -0.18620233 -0.11769182 0.0934812 0.08204439 0.29659677 0.103218526 0.051054806 0.1610861 0.06781405 0.11910825 0.00074531697 0.1552496 -0.017708909 0.04462944 0.013739819 -0.019464018 0.017888349 -0.1841693 0.14430794 -0.09574672 -0.035685617 -0.05676701
1323 -0.1298375 -0.087391086 -0.049233664 0.092756234 0.11037781 0.012982882 -0.048508525 -0.02456147 0.03165123 0.050060794 0.2347265 -0.14411817 -0.1939098 -0.21605374 0.017056411 0.033017516 -0.12234209 0.14809003 0.031606138 -0.11527554 0.093098454 -0.044652373 -0.14917733 -0.15497497 -0.121100806 -0.14399645 0.024980007 0.15894364 -0.025459036 0.049856734 0.0075747133 0.09333817 0.021701016 -0.15321086 -0.134209 0.24540627 0.043095604 -0.08664172 0.09833131 0.03399312 -0.19485053 0.29286307 -0.10364598 0.07768356 -0.04554104 -0.075728774 0.022836443 0.024323348 0.070818275 -0.13023324 -0.05296007 -0.046714723 0.012466213 -0.12670378 -0.0117999725 0.11196647 -0.03394984 -0.15191567 0.07068688 0.084282584 -0.04103716 0.04214779 -0.062051754 -0.037448112 0.09858764 0.11138919 0.014870858 -0.014461793 0.014876629 -0.08859625 0.10653693 0.24865405 0.024135686 -0.04521917 -0.009468175 -0.2724608 0.020216184 -0.25916487 -0.018644989 -0.0016795811 0.04869703 -0.06008392 -0.09531266 0.06457777 -0.02919261 0.023013368 0.119734645 -0.010341098 0.055594295 0.04949509 0.17318775 0.062740356 -0.046772067 -0.07518403 0.09512096 -0.11702709 0.003153157 0.12079654 -0.11306206 -0.059162233 -0.077956095 0.090347596 0.017752154 0.06062317 0.15088043 -0.03148113 -0.038752273 -0.09930971 -0.072661534 -0.0048616487 0.14325507 0.05934194 0.080236875 -0.0071769687 0.020226125 0.1396761 -0.03393241 0.02080018 0.08830808 0.05935317 0.114253506 -0.1984549 -0.08365935 -0.016653664 0.054169293 -0.17643213 -0.17543939 -0.18468173
1146 -0.08624216 -0.09315119 0.1240405 0.11725673 0.045202088 0.07195375 -0.09767086 0.06619475 0.19297229 0.10772581 0.1989161 -0.011034225 -0.101801 0.01803959 0.078527175 0.05008442 -0.019035887 0.12546398 -0.050418165 -0.12892564 0.12817656 0.01631636 -0.11805368 -0.09035757 -0.19235599 -0.025116334 0.03465305 0.11724556 -0.07062209 -0.0860537 0.13896883 0.15400179 0.14154916 -0.039621282 -0.13543315 0.073456176 0.15557608 -0.11090887 0.09859957 -0.103493944 -0.08519777 0.1572047 -0.04840749 0.01502458 -0.029226767 -0.0324638 0.09322382 0.030931346 0.19693816 -0.042901877 0.06026687 -0.10055768 -0.0077609215 -0.1656351 0.028297963 -0.03922142 0.078846715 -0.1655196 0.2819557 0.08404079 -0.18212792 0.14618708 -0.10785527 0.04488317 0.1314593 0.18923113 0.05238715 -0.07324713 -0.08415882 -0.109892756 0.14485364 0.068564385 -0.045247074 0.07409002 -0.09985501 -0.20869908 0.04862937 -0.17057334 0.080347195 0.06692164 -0.09123027 -0.054534234 -0.028030906 0.024238579 -0.038560335 0.08524154 0.08201946 -0.11707401 0.13478336 0.0031347193 -0.07732064 0.04935427 -0.021251585 0.005347194 -0.0040158564 -0.013423248 0.1459145 0.065811895 -0.12789652 -0.0104971975 0.09497687 -0.002011488 0.12312636 -0.20666559 0.14009403 0.06249043 -0.35775486 -0.119507864 -0.010151335 0.026500702 0.1699721 0.08579888 0.1338377 0.07473259 -0.061495762 0.087595806 -0.068678156 -0.03514673 0.054199267 -0.0013198303 0.05832002 -0.030269176 -0.04306247 -0.096910134 0.033093266 -0.09806146 -0.12537779 -0.09362957
1390 0.008392728 -0.048727468 0.06218481 0.12844923 0.10059473 -0.06673792 0.042098843 -0.0659654 0.14325878 0.022404872 0.24106845 -0.030863317 -0.19854787 -0.042386215 0.0490745 0.04291602 -0.12501618 0.03090028 -0.03706977 0.0020275814 0.0321691 -0.022498153 -0.21963374 -0.06627804 -0.122912966 -0.19056626 -0.08462228 0.07097689 -0.06866663 0.08730146 0.08794975 0.10882101 0.05314609 0.041763555 0.013972482 0.22291486 -0.03052876 -0.029111661 0.0051844716 -0.12420919 -0.124094106 0.14449069 0.09634877 -0.113773294 0.0134137245 3.6774698e-05 0.061680075 0.15528503 0.18526816 0.077464655 0.08560674 -0.03849624 -0.021659818 -0.1850835 0.06928837 0.034446426 0.112951234 -0.048426576 0.15004584 0.058729198 -0.0671569 0.1939486 -0.085243315 0.20589207 0.037167627 0.00035129377 0.035165567 -0.104760654 -0.00050418446 0.029614562 0.08271489 0.04871326 -0.18761581 0.067668706 0.046605553 -0.28614238 -0.00339413 -0.28000137 0.021363977 -0.01820446 0.017370945 -0.073326744 -0.07084377 0.14015152 0.02327317 0.1577823 -0.00654318 -0.10271338 -0.009608429 0.005636343 0.037512675 -0.014638605 0.055632368 -0.13599099 0.18815044 0.11703658 -0.032737494 0.05796622 -0.01259881 0.004220414 -0.048287515 -0.05260163 -0.051101275 -0.17679574 -0.055513013 -0.052348074 -0.05829154 -0.15463026 0.015364138 -0.02947582 0.295091 0.07914643 0.010637609 0.16632691 -0.0068417517 0.092985086 0.017187225 -0.01574512 -0.028116614 0.051765576 -0.061604325 -0.020773135 0.036163297 0.03381448 0.050050724 -0.064065255 -0.057915363 -0.08901446
1144 -0.00066654594 -0.15687808 0.17770799 0.20219898 0.14893033 0.012838733 0.0027925984 -0.010879539 0.09845273 0.11079304 0.20605421 -0.044976097 -0.10266979 -0.075448684 -0.06506304 0.053903468 -0.082028665 0.091059685 0.017828709 -0.07243655 -0.008539556 0.011691029 -0.20361187 -0.069523245 -0.23752692 -0.19529828 -0.04164871 0.049016148 -0.06230488 -0.0022887546 -0.005202027 0.14155889 0.10291671 -0.20530462 -0.098827876 0.21834731 -0.013768337 -0.10104574 0.14463986 -0.1094537 -0.01723702 0.103994645 -0.06938323 -0.04981911 0.004628727 0.02235734 0.02912504 0.06821205 0.12438542 0.018489627 0.09871994 -0.07630489 -0.10303252 -0.12081086 0.06934456 0.0052647213 -0.009647808 -0.02603927 0.26004642 0.0094339885 0.00032134057 0.009927868 -0.004481457 0.10061673 0.18684982 0.052305255 0.007912174 -0.04347668 -0.03626242 0.03271484 0.08754325 0.10324039 -0.12933242 0.049980834 0.065658085 -0.3612313 0.0979951 -0.2189105 0.01676041 0.049559608 -0.08056593 -0.14327863 0.050309002 0.1742797 0.044173997 0.11153772 -0.009824059 -0.1138991 0.0041903565 0.1708319 -0.011618 -0.029635869 0.078936785 -0.12608297 0.07170665 -0.074702516 -0.02173341 0.1483507 -0.050243832 -0.10411065 0.019217389 0.028616805 -0.03385197 -0.22020347 -0.031087514 -0.03647581 -0.17635845 -0.0022369183 0.090501465 0.08921555 0.04921635 0.09639498 0.017097585 0.13815439 0.09014044 0.18526492 -0.08134496 0.024912683 0.008806018 -0.0038643433 0.012592728 -0.10056633 0.02801329 -0.08367341 -0.051281814 -0.085203394 0.049271606 -0.07828637
1271 -0.08296294 -0.04353288 0.14419775 0.15824525 0.05905936 -0.0014276841 -0.14331852 0.057995323 0.09650033 -0.071292914 0.19373435 0.03546452 -0.23108262 -0.090939894 0.07598926 0.09969589 -0.14509705 0.013491596 0.014438953 -0.027905945 0.10429507 -0.066296406 -0.1337596 0.022935104 -0.1404067 -0.18112664 -0.07361107 0.09839192 -0.12469215 0.10344025 0.20978487 0.017190214 0.019299971 0.017257052 0.028755307 0.16294578 0.019903203 -0.11188234 0.10815004 -0.13255791 -0.0932603 0.13625695 0.049409974 -0.0340585 -0.065084234 -0.094316356 0.005998845 -0.035862584 0.11487697 0.019464074 0.092675 -0.08298452 -0.0065194326 -0.14347923 0.06415911 0.098177135 0.06668913 -0.084421664 0.19404347 0.031187598 -0.06631149 0.11570839 -0.020562384 0.08409942 0.10674041 0.027522119 0.16122974 0.013333831 0.16049622 -0.07248609 0.07125262 0.05761872 -0.08550997 -0.04583647 0.034324814 -0.29406562 0.005113035 -0.24899483 -0.028347041 0.05427408 0.029967831 -0.14850384 -0.029879112 0.09458112 0.0679117 0.01940133 -0.0010289148 -0.08072654 0.026502535 -0.014663731 -0.058210526 -0.04585236 0.11739324 -0.09438725 0.2174538 0.031493854 0.060927354 -0.027962053 -0.021800335 -0.14200261 -0.08028276 0.020721473 -0.09337277 -0.17824996 0.05999515 -0.07871873 -0.12131132 -0.01182752 0.010056559 -0.0094202645 0.19283587 0.045293443 0.04865589 0.18493098 0.029099915 0.11921757 0.02316938 0.017594108 0.047385693 0.08454668 -0.024030298 -0.10545379 -0.028333722 -0.11609346 0.15666664 -0.09651393 -0.06832736 -0.015646448
1368 -0.123483405 -0.10964914 0.061668172 0.1593552 0.076172866 0.07321207 -0.016597698 -0.025553005 -0.057948213 0.058710355 0.21984822 -0.050914925 -0.13585657 -0.100932516 -0.026332255 0.039851658 -0.1927755 0.04488388 0.054267734 -0.17615752 0.103690706 -0.21849138 -0.17141499 -0.047583714 -0.13930179 -0.22222686 -0.14638183 0.049449835 -0.11451815 0.050074685 0.13883899 0.1158736 0.08354648 -0.07901158 -0.04593292 0.07321937 -0.04263068 -0.12407813 0.19060746 -0.14445241 0.018477825 0.17677404 0.026633723 -0.08154415 0.0030442022 0.015639795 -0.01640215 0.0668556 0.12175658 0.10764107 0.11667206 -0.16095781 -0.06256148 0.0029937054 0.115643725 0.07611683 0.13764393 -0.09775276 0.109692104 -0.0108096 -0.03506341 0.048786037 -0.046242956 0.047341697 0.18068577 0.03414876 0.02648281 -0.05977535 -0.06989488 -0.10704249 0.08355831 0.17329165 -0.1200698 -0.09883364 0.05738257 -0.11813451 -0.013714064 -0.073473185 -0.007641962 -0.0462797 -0.03421194 -0.02436144 -0.07202221 0.095224164 -0.020522734 0.107321 0.02538517 -0.008127273 -0.0066576176 0.059306875 -0.051451214 -0.05419679 0.14393169 -0.04942799 0.25272658 0.14495924 -0.11366561 0.07878344 -0.0572967 0.0077790874 -0.020466851 -0.04320154 -0.035610545 -0.18651454 0.19339506 -0.10367541 -0.20851307 -0.07409119 0.11789524 -0.020589864 0.15805683 0.0110365655 -0.034663875 0.2424452 0.039768897 0.11173674 -0.06758094 -0.07385191 -0.030421633 -0.043113142 -0.039196234 -0.12456104 -0.0026200556 -0.08076525 0.05487196 -0.12577105 -0.111933336 -0.033798676
1199 -0.032850057 -0.07966622 0.18590963 0.10777663 0.097679384 0.0438005 -0.04978112 -0.016508063 -0.079502 0.020126786 0.13145779 0.014478068 -0.027589189 -0.13816392 -0.064203 0.07245932 -0.12280384 0.03332794 0.061955802 -0.048892416 -0.00057485676 -0.035048127 -0.19297285 -0.06430701 -0.23007603 -0.08131733 -0.027298192 -0.022553235 -0.1685117 0.011751294 0.16220744 0.07356355 0.050632555 -0.081810854 -0.1527407 0.15049328 0.059942715 -0.075418666 0.06835394 -0.077658 -0.057939664 0.14554767 0.046059866 0.0010744837 -0.064204216 -0.034571167 0.0034593188 0.03641532 0.08780707 0.0386809 0.13686022 -0.10571983 -0.08398846 -0.0506093 -0.019075993 0.16118258 0.099913 -0.102157846 0.19079676 0.09137568 0.040553138 0.16547534 -0.105573915 -0.013533346 0.08515198 -0.041646525 0.15558165 -0.016237367 -0.15748009 -0.18322866 0.07200908 0.09194346 -0.06153511 0.036100447 0.013324063 -0.25745788 -0.044433642 -0.16623388 0.091652736 0.10806326 0.034278553 -0.0722152 -0.14943875 0.12867998 0.11786797 -0.043768086 -0.021569287 -0.04928924 -0.027829971 -0.026361872 0.046967886 0.0041418783 0.14342338 0.008450205 0.19367576 -0.027586484 0.121572 0.076098375 -0.0602512 -0.06489883 -0.059939954 -0.014900392 0.055408094 -0.11791628 0.10846079 -0.044064604 -0.15980726 -0.1622809 0.05186606 0.067455925 0.2324463 -0.034145262 0.06821479 0.15638125 -0.061577592 0.22894236 -0.043781403 0.038001314 0.13436966 0.10344158 0.023854975 -0.05108278 -0.007918118 -0.16411476 0.117741026 -0.12613271 -0.038481284 -0.13091365
1277 -0.015488378 -0.08123855 0.1869635 0.12586674 0.047621373 -0.03128543 -0.08139347 -0.16888729 0.06697817 0.12442906 0.19944029 0.0055164993 -0.029054923 -0.029061027 -0.021165453 0.17137511 -0.26224202 0.1623556 0.14557642 -0.11369664 0.12100033 -0.0011317095 -0.21007332 -0.17105356 -0.15447967 -0.15135401 -0.09513497 0.023626812 -0.14126553 0.032785922 0.1362395 0.051888905 0.080788724 -0.021776613 0.017613888 0.08231212 -0.0068603945 -0.091779634 0.05358641 -0.09394272 -0.1486229 0.12789664 0.018222539 0.035090778 -0.009164288 -0.05475123 -0.00043746523 0.060220856 0.019702366 0.07863571 0.14760688 -0.09820632 -0.060421605 -0.084026895 0.101526305 -0.0073562628 0.13272822 -0.08689192 0.07960987 -0.017173827 -0.12199619 0.14814131 -0.09904795 0.07452984 0.16476509 0.016151318 0.06480705 -0.031964153 -0.0067434646 -0.093278475 0.1294275 0.14949046 -0.09785506 0.03867648 0.061909463 -0.20275347 -0.0048894454 -0.16983762 0.04567065 0.04119356 0.02379118 -0.078945816 -0.08517677 0.16264546 -0.034814186 0.0073207384 0.14178658 -0.14599757 -0.0058168643 0.056209568 -0.011842392 -0.060643975 -0.07241041 -0.015636453 0.11216748 -0.0047441 0.047112294 -0.031435955 -0.058533005 -0.009503398 0.087563075 0.01457195 -0.019341597 0.021803714 0.09144939 -0.018970499 -0.17657219 -0.14109746 -0.022439465 0.12512104 0.20275597 -0.03808308 0.020822022 0.11803764 0.08624273 0.11231407 0.027517876 0.068863094 0.016091537 0.06325291 -0.017205235 -0.058368497 0.07615941 -0.0323557 0.11684461 -0.0036755144 -0.10833818 -0.13142051
1147 -0.09384994 -0.09133771 0.10343002 0.066482976 0.005656571 0.003239572 0.058526576 -0.161001 -0.028425576 0.005836585 0.22340302 -0.03326433 -0.20780922 0.034672644 -0.10500231 -0.027006015 -0.18525372 0.13861142 0.030384514 -0.021177042 0.09923888 -0.02475595 -0.18645598 -0.1000449 -0.19243523 -0.19689976 -0.14569685 0.1991924 -0.14909136 0.092382185 0.1857404 0.14889361 0.08532348 -0.078997396 -0.0927889 0.11231305 0.10025726 0.057680123 0.1113954 -0.043258224 -0.22960278 0.09157361 0.04832001 0.12497615 0.05391652 -0.013782487 0.07473173 -0.030560238 0.20558004 -0.1286495 0.10820184 -0.10621482 -0.110139936 -0.16786453 -0.008062357 0.14864674 0.042207584 -0.050778147 0.08220941 0.05050264 -0.05660079 0.0021674505 -0.10891944 0.115043886 0.08816914 0.016318738 0.10400061 -0.030268928 -0.109908104 -0.01127472 0.09025604 0.021819584 -0.07663784 -0.0370622 0.00091789686 -0.13666363 0.06318985 -0.24704 -0.0342516 0.026849654 0.09788025 0.015501815 -0.056580998 0.025197556 0.01658629 0.0018089216 -0.054135818 -0.076443 0.005838847 0.13617894 -0.04973053 -0.009854166 -0.00991472 0.065064244 0.070576884 0.011818009 0.08263024 0.03305432 -0.009721734 -0.07814195 -0.032690916 0.081982896 0.023703124 -0.06542669 0.06619772 -0.054076202 -0.13764861 -0.086516075 0.04623353 0.032076817 0.28491843 0.1188635 -0.043306313 0.19416353 -0.09505078 0.10831792 0.08649166 0.060917497 -0.11933479 0.09198702 -0.020867154 -0.12469041 -0.009487848 -0.11420681 0.12002672 -0.105310485 -0.119419895 -0.120357834
1200 0.026007442 -0.106486596 0.14081839 0.15579163 -0.009211719 -0.06263396 -0.07596413 0.0053007756 0.09603587 0.055126622 0.21161604 -0.07949736 -0.07193862 -0.147294 -0.02614606 -0.039773706 -0.086450554 0.10097425 -0.016025234 -0.08191181 0.16763678 -0.0017591162 -0.2380807 -0.10042517 -0.13666496 -0.1060901 -0.011574426 0.160084 -0.052893553 0.03514448 0.19204602 0.13189426 -0.039098743 -0.023096388 -0.06694068 0.1158747 0.03978107 -0.069933794 0.02359544 -0.116566576 -0.21215479 0.25778183 -0.016082691 0.0017394072 -0.08526805 -0.11501074 -0.05812635 0.10898589 0.08380325 0.05937156 0.09318043 0.08978964 -0.066476874 -0.104244955 0.09842062 0.042206034 0.17751947 0.010105372 0.18766025 0.07099886 -0.041733384 0.0372936 -0.092794135 0.08882286 0.13790722 0.10428069 -0.005976592 -0.021164492 -0.099154755 0.061313782 0.0028049133 0.0972175 -0.07983668 0.040804442 -0.024615653 -0.30746967 -0.05411669 -0.26790088 0.041767444 0.12810908 -0.08538696 -0.04649528 -0.14829741 0.22107054 -0.15263695 0.117118664 0.00077140454 -0.04685398 -0.051319707 -0.008638776 0.03120154 0.06287416 0.12739596 -0.14800058 0.17771965 -0.043233916 -0.015710538 0.21371697 -0.045318533 0.13272032 -0.05125343 0.13030508 -0.055824548 -0.114035316 0.08062873 -0.10104032 -0.04285101 -0.08461505 -0.06281024 0.0006368696 0.096100725 0.039797608 0.07104272 0.07796203 0.13071473 0.0919435 0.018851608 0.05870371 -0.045086563 0.08628219 -0.055027165 -0.08888817 0.0078424765 -0.051917754 -0.0076657636 -0.031732578 0.063418716 -0.13670492
1262 -0.18955816 -0.15495512 0.11527195 0.053137742 -0.03502741 0.10993249 -0.0018704598 -0.0116017815 0.0009021224 -0.058571264 0.24117155 -0.031238921 -0.003303369 0.027380036 -0.027355557 0.04391598 -0.07413653 0.048947826 -0.057927415 -0.12161743 0.022752954 -0.12533365 -0.25308207 -0.012313042 -0.17451766 -0.08199474 -0.23250379 0.13670172 -0.04361673 -0.03675388 0.26056722 0.19033547 0.13773432 -0.08145929 -0.1045488 0.025659803 0.1982826 0.00096636644 0.10345063 0.015647702 -0.14074004 0.15583903 -0.012446635 0.014060805 -0.08062799 -0.0025795717 -0.05985442 0.007134237 0.13173683 0.066285275 0.13481581 -0.09130473 -0.012319999 -0.03297287 0.01824515 0.03628956 0.093462974 -0.08130868 0.14427246 0.27019992 -0.04899782 0.15324467 -0.038389284 0.08670952 0.15704617 -0.019805519 0.18099391 -0.0046631824 -0.07728273 -0.08731363 0.08974984 0.034431864 -0.10108885 -0.003423799 0.020327514 -0.25735405 0.0419365 -0.15745929 -0.09894995 -0.035012398 -0.023205265 0.00788565 -0.11085436 0.042496122 -0.13939883 0.10003365 0.17199959 -0.067800194 -0.019281093 0.007594867 0.0059311856 -0.04668885 0.04941861 -0.0013443609 -0.005336699 0.117932834 0.042555697 0.15801418 -0.009122298 -0.019241855 -0.06958198 -0.07258108 -0.016275132 -0.18885265 0.05727867 -0.115856454 -0.1303804 -0.29092914 0.006227632 0.16753769 0.18309806 0.028659604 -0.05074694 0.044193145 0.022292133 0.071102805 0.13689691 0.021013537 0.08947109 -0.02741732 -0.0025727726 0.019739443 -0.07964617 -0.09707901 -0.090103395 -0.123515755 -0.23408109 -0.1563814
1283 -0.18235432 -0.18021242 -0.0020262704 0.17954966 -0.10633969 0.10948476 -0.10873759 -0.03500425 -0.008499713 -0.2861156 0.1274837 -0.22422004 0.05231292 -0.11373114 -0.032597277 -0.003681998 -0.050380312 0.12314406 -0.030513337 -0.1640411 0.27922714 0.045487 -0.07862657 0.05735171 -0.05698474 0.011483625 -0.03372257 0.09740449 -0.105330296 -0.08337939 -0.06454858 0.11964927 0.19962771 -0.008348791 -0.0087512 0.19786513 0.3066701 -0.07313599 0.25080281 -0.2488953 -0.24802893 0.32939297 -0.17178424 0.07657555 0.031873494 -0.24083029 -0.1958365 0.13088399 0.15345016 -0.1972373 0.05189913 0.14678344 -0.016276248 -0.0005356587 -0.0524876 0.06056255 -0.04121914 0.03749132 0.15387419 0.08028934 0.0013997619 -0.014305226 0.07092347 0.09109278 -0.16075876 -0.12063302 0.091141276 -0.07033246 -0.013272686 0.09073533 0.020681381 0.081286274 -0.10617617 0.20800932 -0.028102672 -0.33670723 0.106746405 -0.038333286 0.17090134 -0.1231161 0.08225262 0.009256488 -0.16792525 0.13187689 -0.2000199 -0.09337805 0.10139832 -0.11155646 0.038500264 -0.17392518 -0.07789459 0.006395975 -0.14978722 0.23136745 0.010269118 0.10494184 -0.025125604 0.17009859 0.041709296 0.063654944 0.025047725 -0.06315561 -0.019831173 -0.06339284 0.19149314 -0.06834469 -0.22871529 -0.057703946 0.014194362 0.09968514 -0.024489053 -0.085674465 0.04230313 0.12444245 -0.026060602 0.27430743 -0.2031258 -0.04632645 0.05748625 -0.0314628 0.04391652 0.05749482 0.13322885 0.015436168 0.16477938 -0.16759598 -0.019259531 -0.30280712
1339 -0.029080024 -0.077905945 0.3173995 0.14274329 0.05733145 -0.0069160564 -0.086649254 -0.042284645 0.033889532 -0.014675244 -0.01190541 -0.052536793 -0.18695356 -0.033905897 0.039866537 -0.009165677 -0.039131887 -0.015438409 0.04604964 -0.14375603 0.072699204 -0.0022319704 -0.18879147 -0.22246036 -0.15373224 -0.13067043 0.030510582 0.11423025 -0.009646631 -0.0029209119 0.08497342 0.20430133 0.04406186 0.033645146 -0.13518068 0.19501081 0.06957595 -0.0074021416 -0.040547095 -0.16057058 -0.22752512 0.115562364 -0.032751355 0.07919339 0.110566795 -0.022700533 -0.022030344 -0.054897364 0.16870587 0.14527714 0.084526524 -0.059662152 0.015241786 -0.12296082 0.047556784 -0.014246226 0.011651691 -0.033562608 0.13630328 0.05031939 -0.06725142 0.03952178 -0.11288878 -0.055990733 0.106853664 0.03029035 0.053340413 -0.105565175 -0.13851587 -0.21094692 0.03211294 0.10564792 -0.06411232 -0.07693286 0.032456882 -0.28701985 -0.018884508 -0.22445327 -0.052764226 0.026093123 -0.07370549 -0.1735093 -0.08098487 0.108571544 -0.07182504 0.009787111 -0.05938542 0.049645785 0.12133404 -0.06092988 -0.02494435 -0.04101999 -0.030859038 -0.07018777 0.13220344 -0.031232724 0.012991173 0.12822941 -0.09074073 -0.07386238 0.14051001 0.11921206 -0.117446475 -0.18426104 0.07330487 -0.10007129 -0.07698248 -0.22618203 -0.04917359 0.013313497 0.29002592 -0.040491715 0.06298797 0.23199005 0.019167025 0.093497604 -0.12018869 -0.10503815 0.06427053 0.07371913 0.04272974 -0.12289259 0.0036762087 -0.10391338 0.005653372 -0.15249708 -0.12430506 0.062295094
1259 -0.14365822 -0.12569636 0.1893619 0.093586355 -0.0025864486 0.0021883543 -0.14035584 -0.06877298 0.0028025103 -0.02810692 0.0982647 0.07495484 -0.01605227 -0.13268597 -0.022366168 0.022683825 -0.1820517 0.014139831 0.034737546 -0.1457533 0.026371296 -0.066300005 -0.13039948 -0.097942375 -0.18149559 -0.12547086 -0.034333535 0.05594835 -0.052333377 -0.08256447 0.115640245 0.12252421 0.014414738 0.02479893 -0.08829993 0.16620307 0.028549105 -0.012258987 0.109289266 -0.06807982 -0.13489133 0.21686873 -0.002302714 -0.12497949 -0.033744905 -0.13770996 -0.060942598 0.07074627 0.14194839 -0.027697124 0.10251054 -0.08624641 -0.051893566 -0.21186061 0.051434077 0.08206229 0.06003522 -0.0033491983 0.2543253 0.07121353 -0.0709498 0.050823405 -0.048582077 0.041386586 0.11323819 0.104941435 0.016394932 -0.07053652 -0.12582393 -0.06291854 0.031790126 0.09347673 -0.12950282 -0.015771179 0.022592224 -0.2521934 -0.031176027 -0.19292949 -0.023120448 0.038407184 0.14506824 -0.015027998 -0.077078305 0.12248769 0.043067884 0.14415528 0.09956148 -0.05910755 0.055264913 -0.013897294 -0.019628458 0.018651819 0.06983069 -0.012896917 0.20506197 0.06066817 0.07584782 0.12196999 -0.049958054 0.04686479 -0.04141517 -0.031720955 -0.050459713 -0.12401652 0.15697883 -0.00031558267 -0.069877476 -0.13095279 0.017872661 0.050687518 0.16604578 0.05245174 -0.0496136 0.123852596 0.035977792 0.1709616 -0.08552135 -0.002505854 0.04495712 0.04086434 -0.066273235 -0.09512218 -0.043587845 -0.00011602025 -0.013365445 -0.08442348 -0.051596656 -0.18152611
1085 -0.009206438 -0.1629139 0.20999593 0.16469285 0.14600849 -0.03676613 0.053144578 0.040950157 0.033224475 0.123664 0.12706803 -0.004900795 -0.06083428 0.04890123 -0.1256749 0.021704972 -0.10385897 -0.005617457 0.07441192 -0.037531096 0.23389071 0.019116215 -0.06203007 -0.029852854 -0.2018923 -0.2276893 -0.07369676 0.016341724 -0.16913782 -0.09566346 0.10233804 0.14462808 -0.105059475 -0.01770815 -0.018747177 0.11156452 0.06662872 0.085977264 0.20508675 -0.020033862 -0.319749 0.2576307 0.013119938 0.09017264 -0.11910976 0.048800487 -0.16273001 0.04563766 0.1580438 -0.0036369963 0.10777333 -0.09165838 -0.05522545 -0.024828188 0.13454746 0.10730377 0.15886816 -0.0093073435 0.17038786 0.047126573 -0.12019765 0.1012721 -0.071476005 0.016292345 0.20018065 -0.09586617 0.072461806 -0.0151974 -0.16809146 -0.06572518 0.049180415 0.030751314 -0.10012621 -0.06737891 0.13514228 -0.2332546 0.025647787 -0.3253968 -0.03458643 0.06650191 0.1363004 -0.0024933799 -0.019113671 0.21493559 -0.1072519 -0.005361684 0.08172643 -0.07996499 -0.057239167 -0.015372862 -0.016804358 -0.12437149 0.13670944 -0.029293869 0.10625351 -0.02522223 -0.009536239 0.0038949617 -0.15165265 -0.152344 -0.09851448 0.02083665 -0.116516314 -0.11304979 0.107173875 -0.21381481 -0.08922334 0.04446097 0.15268596 0.02938035 0.08002255 0.07911355 0.03597802 0.10962347 -0.11983802 0.09246463 0.08880469 0.0726118 0.005931418 -0.026549581 0.12054489 -0.08845459 -0.14832239 -0.055622663 -0.025363745 -0.13410076 -0.0083950125 -0.066599734
1406 -0.09172827 -0.12339262 0.20130031 0.110633574 0.089978896 -0.08144644 0.0682925 0.07915778 0.0038650613 -0.18868205 0.18957748 -0.0775845 -0.0036615983 0.001434608 -0.058166374 0.13357222 -0.21744245 0.04677141 0.022284187 -0.20729202 -0.0187043 -0.039823983 -0.1829537 -0.016635463 -0.04314409 -0.028568713 -0.09961022 0.079868436 -0.09194527 0.1081477 0.11690003 0.087757014 -0.0022758772 0.01833638 -0.21183498 0.15067457 -0.031504087 0.13203667 0.03604225 -0.012221537 -0.25960144 0.06728922 -0.15027831 0.088730894 -0.096978836 -0.15902747 -0.048683632 -0.050698455 0.23896818 -0.105489835 0.24861985 -0.07610765 -0.12119322 -0.07078935 -0.14995743 0.18041089 0.10479784 0.0018724849 -0.19603316 0.0068481695 -0.23403555 0.18743475 -0.0074108276 0.089970484 0.12675418 -0.12997578 -0.060728278 0.06858731 -0.033703927 0.109968334 0.015417183 0.2825461 0.005265012 -0.059537537 0.06968199 -0.1558213 0.12563385 -0.2457891 -0.156715 -0.16770823 0.024097288 -0.22096758 0.11117129 0.16162206 0.09740358 -0.033958755 0.01741703 -0.035404216 0.007687782 0.12399756 -0.06887894 -0.11509711 0.041104477 -0.13494998 0.16342898 0.067011915 0.032525316 0.07618073 -0.010664295 0.09456842 -0.07285369 0.088376924 0.16156995 -0.09125514 0.034782253 -0.058558345 -0.074437276 -0.18236114 -0.022488762 0.22477868 0.06797606 0.21684133 0.278895 0.12464089 -0.0011580024 0.045278627 -0.024202762 -0.0704709 -0.090320125 -0.13041507 -0.11349869 -0.22226822 -0.022656301 -0.030474164 0.2465789 -0.045670204 -0.11272059 -0.22338073
1055 -0.06135028 -0.10095736 0.23502173 0.045027155 0.028479261 0.05691496 0.11915793 -0.2097339 0.07426941 -0.13337421 0.124438986 -0.06972566 -0.17952503 -0.16526946 -0.059455648 0.15481037 -0.17856626 -0.012928843 -0.0471033 -0.04656077 0.081315316 -0.06084969 -0.11007038 0.10452307 -0.017585155 -0.127286 -0.15085799 0.18118867 -0.16676404 -0.079636894 0.1293892 0.10916218 0.06427848 -0.09708886 0.14155686 -0.02544619 0.11348461 -0.116056815 0.01688265 -0.14232291 -0.21269296 0.10628455 0.2410767 -0.03378341 -0.021661906 0.005059128 0.021078771 0.07237256 0.12550746 -0.24005227 0.16651814 0.08998696 -0.0025645753 0.02097499 -0.028742483 0.15349504 -0.08951149 -0.19759306 0.03818697 0.08010036 -0.16329451 0.057356063 0.11584014 0.05962456 0.20486626 0.05229987 0.08971764 0.13729778 0.07223632 0.06551751 0.23514214 0.03322452 -0.13706791 0.12072932 -0.026831923 -0.153974 0.26804373 -0.10180225 0.0236802 -0.20763157 -0.2016379 -0.21959388 0.0073181586 -0.018099336 -0.00024322975 -0.15407495 0.17995925 -0.09344579 0.10265278 -0.07417064 -0.04906667 -0.04998553 -0.21452117 -0.21849148 0.017803378 -0.02208909 -0.14881077 0.009544869 -0.07402544 0.10514486 0.053550366 0.10829505 -0.06663209 -0.098861374 0.25489393 -0.051111903 -0.18579307 -0.06421454 0.11121933 -0.11123717 0.129722 -0.16326296 0.15797183 0.22154976 0.017980466 0.20219171 -0.069815844 -0.13004883 -0.047019202 0.034235973 -0.054135796 -0.12535274 0.10038323 -0.19774036 0.15407103 -0.18552242 0.04815579 -0.25984725
1073 -0.13132338 -0.04145405 0.15163207 0.25454846 -0.062667385 0.024801219 -0.07951203 -0.073553756 -0.023689626 0.018990548 0.07053021 -0.10315323 -0.19835328 0.010740036 0.043240074 0.14163446 -0.123846374 0.012551569 0.050117314 -0.12749337 0.18518369 -0.0876901 -0.11231655 -0.083077565 -0.10591092 -0.11171016 -0.05667723 0.050713103 -0.15947744 -0.12277178 0.12513183 0.09762501 0.1561552 0.016347593 0.01873919 0.2451427 0.058259945 -0.03555113 0.08268916 -0.092002064 -0.0282168 0.14224184 -0.034886878 -0.024117168 0.020356918 -0.047304217 -0.025306856 0.0660936 0.113565415 0.06028194 0.13834365 -0.019903397 -0.08791221 -0.061183587 -0.07633344 -0.012771509 0.121719964 -0.22972345 0.14258173 -0.047355235 -0.04640658 0.04562679 0.10180994 -0.019628689 0.3099087 0.041659012 -0.0089203175 -0.08993862 -0.12169201 -0.087483965 0.07559232 0.20014796 -0.26984772 0.13926071 0.10027848 -0.17240845 -0.05476904 -0.16395375 0.00081708666 -0.09595581 0.053791296 -0.14132394 -0.05702047 0.11002955 -0.048867807 0.030099593 -0.09228185 0.057489958 -0.028151562 0.088446625 -0.09625828 -0.022336708 0.093076706 0.047809847 0.0733479 0.10154192 0.10322405 0.04838913 -0.04494229 -0.17910737 -0.015483942 0.12195483 0.06065004 -0.15158708 0.16039439 -0.056796372 -0.17897953 -0.1304092 0.050260082 0.13181476 0.2902429 -0.012253935 -0.0012537537 0.1806715 -0.08637587 0.02846889 0.16184342 0.090638 -0.0043986696 0.021102536 -0.07876399 -0.065191776 -0.10272091 -0.16883399 0.042821545 -0.066160515 -0.05707195 -0.0111245485
1398 0.1480231 0.045018077 0.161486 -0.029623032 -0.15425281 -0.11527408 -0.13299237 0.14331476 0.109740525 -0.16360867 0.2539278 0.11661668 0.122307725 -0.07724324 0.022094417 -0.08604069 -0.22097082 -0.07918939 -0.106096305 -0.25704694 0.10427509 0.10015183 -0.31872183 0.0063742176 -0.3583372 -0.22130199 -0.3039993 0.30574816 0.00029419299 -0.22742383 0.09363806 0.0501492 0.00051069615 -0.08899313 -0.010409119 0.24265824 -0.068640456 -0.00050463516 0.066249415 -0.26551804 -0.27069834 0.24992621 -0.17273787 0.07148962 0.13946782 0.11133518 0.0014478998 0.0011538144 0.28672487 -0.18979594 -0.07717213 -0.06436784 0.05446344 0.24717328 0.003205301 0.0015646722 0.16312586 -0.34463894 -0.059961744 -0.034382895 -0.07867687 0.14604603 0.025878653 0.09064829 -0.039262522 -0.25540882 -0.029271074 0.10892083 0.10216407 -0.08324117 -0.15756796 0.19935313 -0.09009132 -0.046322245 -0.0995692 -0.15045933 0.001294575 -0.058201235 0.06536002 0.12364404 0.08734409 0.010051149 -0.09882518 0.23077933 -0.016407765 -0.11503928 0.0064576585 -0.14300257 -0.10951751 -0.0917062 0.12408253 -0.22038968 -0.2387527 0.009443227 0.099731974 0.11907484 -0.25956795 0.13782728 -0.24278261 0.12488423 -0.02908772 0.19045569 0.16793711 -0.07274513 0.1318002 0.031619236 0.062071837 -0.0016866325 -0.11025189 -0.00038019157 0.16336848 0.04582179 0.095997825 0.08586182 -0.036184918 0.05270995 -0.11178242 -0.20748709 0.006436218 0.09017811 -0.02782102 -0.1484273 -0.017185293 -0.07764135 0.17747608 -0.070508316 0.0067257234 -0.071256876
1226 -0.08294337 -0.07087147 0.1874783 0.11309518 -0.012997766 0.062781945 0.0066611352 0.048137218 -0.1211169 0.065381825 0.21268459 -0.11969142 -0.024362717 -0.043114256 -0.034684226 0.11793279 -0.056583434 0.121095784 0.068730526 -0.10164409 0.08797472 -0.023202715 -0.18197282 -0.12195638 -0.12302248 -0.24939202 -0.05352399 0.27990827 -0.11361146 0.030658748 0.039158616 0.0014970562 0.12781918 -0.05381439 -0.14443593 0.23734546 -0.08696886 -0.0910453 -0.047107443 -0.06595208 -0.048569974 0.16341741 0.061219674 0.09409098 0.012002633 -0.037031688 -0.00050921616 0.022459568 0.163224 0.15791404 0.12233854 -0.08599163 -0.07151171 -0.061903737 0.009753311 0.11498955 0.1447806 -0.14126721 0.20672166 -0.0953802 -0.0868717 -0.007698647 -0.06825514 0.038408205 0.048370432 0.20723884 -0.057887763 0.030976726 -0.115098074 -0.10629552 0.16243039 0.20627528 -0.10232986 -0.0134537695 0.16319324 -0.14755408 0.05974076 -0.24278586 -0.030583527 0.08423559 0.06495015 -0.09678806 -0.0023156644 0.11152576 -0.056969125 -0.12716623 0.08023392 -0.158378 0.06419126 0.07828824 0.07306744 -0.034662608 0.19848526 -0.12650529 0.045936335 -0.026930949 0.023669625 0.06381008 -0.035648577 0.01724121 -0.015572668 -0.095791034 0.034253888 -0.20542538 -0.0028729292 -0.08095149 -0.14855818 0.01691626 0.07265324 -0.027882768 0.16410033 -0.0807058 -0.076632015 0.115513824 0.13530244 0.17875879 -0.002846149 0.12088025 -0.080352515 -0.02751076 -0.025377193 -0.17514455 0.043224897 -0.20573606 -0.03264559 0.0019869118 -0.16584219 -0.19327499
1082 -0.06209727 -0.20379807 0.13173589 0.06101001 0.058457434 0.087765716 0.011320525 0.057337765 -0.0232599 0.046929177 0.29144672 -0.12504563 -0.1522144 0.06090096 0.08856074 0.14800723 -0.027572913 0.152726 0.028091928 -0.041265134 0.061499197 -0.053094964 -0.05559508 -0.106905505 -0.17280506 -0.16709995 -0.07436485 0.20560162 -0.06320794 0.06290696 0.19455375 0.15853293 0.01172551 -0.081866905 0.032580975 0.10056711 0.016105084 0.071940064 0.080711804 -0.113754965 -0.21965292 0.10201581 -0.17577554 -0.008278426 -0.01489485 -0.00026782992 -0.046835694 -0.0063175997 0.12729864 -0.08805737 -0.02052993 0.005665735 0.011731072 -0.21200374 0.036588334 -0.03912037 0.111604825 0.016926067 0.24257827 0.077915534 -0.108691506 0.12916924 0.071408205 0.007896836 0.084495656 0.001981669 -0.001957493 0.016851164 0.07632306 0.034275237 0.07768936 0.0054386505 -0.13954504 -0.058440886 0.2303756 -0.3613127 0.16525516 -0.20726478 -0.052270878 -0.04161626 -0.008850994 -0.04481092 -0.0052450197 0.06905967 0.03598176 0.08871502 -0.028626189 -0.012357957 -0.13867386 0.110593334 -0.09043901 0.0139464 0.04483986 -0.15617384 0.12130238 0.05103526 0.043136038 0.17503326 -0.22294393 -0.018325804 -0.05264992 -0.004955273 0.042137187 0.014443264 0.14915209 -0.10545764 -0.18574366 -0.01762116 -0.08443923 0.062465377 0.20694052 0.06262164 -0.16998026 0.14123295 -0.080326125 0.02897892 -0.028172579 0.15753883 -0.1101529 0.06528996 -0.008998662 -0.0239604 0.11157006 -0.17056353 -0.10179955 -0.2781808 -0.1305908 -0.11543516
1089 -0.1401403 -0.27402818 -0.06504234 0.23421407 -0.3261911 -0.22048894 -0.18101688 0.08099535 -0.17274903 -0.07866443 0.27417472 0.060654834 0.027392631 -0.003128735 0.1587161 0.14973876 -0.0737956 -0.09597127 -0.11416908 -0.06763356 0.088913664 -0.11352188 -0.35855892 -0.25540337 -0.41080815 -0.17857134 -0.0004066327 0.096519835 -0.008295556 -0.0001306955 0.13750547 0.1978426 -0.035971485 -0.024864906 -0.06383823 0.14350475 0.121613674 -0.022945885 0.12856807 -0.07804893 -0.20395242 0.11982297 -0.041318182 -0.111730374 -0.07851777 0.0088816425 -0.070276335 0.082749106 0.27083308 -0.13029939 0.058026385 -0.07183678 -0.1888292 0.058373284 0.08585451 0.017317204 0.021504687 0.064085595 -0.028627926 -0.011398706 -0.07472989 0.08867041 -0.21624579 0.17219263 0.10441405 -0.23960707 -0.10197418 -0.045249924 -0.052002724 -0.024385888 0.108313955 0.07842163 -0.12321598 -0.100954704 -0.04718364 -0.1753926 0.15221107 -0.16628033 -0.086197175 -0.06630852 0.036504176 0.0466482 0.051182933 -0.060930338 0.039100423 -0.17306241 -0.05713312 0.028960131 -0.018288996 0.02170099 -0.09856854 -0.078175835 0.05437415 0.007072747 0.0112383 0.11353394 -0.11796301 0.08404946 -0.16931221 0.010080459 0.15486306 -0.09624292 0.013558788 -0.12529927 -0.026745398 -0.16603026 -0.097930446 -0.0582707 -0.012214712 -0.013439019 0.35203627 -0.084756166 -0.06348543 0.020846503 0.11529218 -0.065425 0.029589647 -0.020537216 -0.13387704 0.19796069 0.012160552 -0.056113537 -0.06668857 -0.20422581 -0.040574953 -0.30562627 -0.09243752 -0.09141186
1341 -0.37511617 -0.14286107 -0.20958965 0.075349495 -0.08001891 -0.17060772 0.036911674 -0.12502426 -0.051203072 0.01493911 0.0897337 -0.17956236 0.037366807 -0.21187389 -0.13947934 0.009499939 -0.10123886 -0.16952993 -0.026807064 -0.07291625 0.14493488 -0.022314211 0.0074975914 -0.04595883 -0.21441904 -0.085193075 0.015797952 0.13268366 0.0012940165 0.09368478 0.041821662 0.010754874 0.10888019 0.0943362 -0.2653079 0.22562125 0.10287255 -0.072013944 0.1778439 -0.15087312 -0.15933236 0.32855612 -0.042332236 -0.04543121 -0.05943239 0.048016436 0.06030023 -0.07026097 0.26877454 -0.14056675 -0.094241746 -0.35402876 -0.047084518 0.10741274 -0.09237792 0.08863468 0.025005179 -0.22125177 -0.0909652 0.343707 0.0019316192 0.16932213 0.011439273 0.20003134 -0.03247425 -0.34935308 -0.22475481 0.14802375 0.13344915 0.11482975 -0.014445292 0.3182874 -0.045766667 0.1502439 0.05289655 -0.21843013 0.15993108 -0.04445967 -0.11545958 -0.17812765 -0.1121195 -0.023202064 -0.18205968 0.17103955 -0.022630485 -0.0039685303 0.19222511 -0.18656284 -0.0023634888 0.19855765 -0.006233888 -0.054723646 -0.008970678 0.06441674 0.03334216 -0.054144293 0.060465902 -0.19971882 0.14360598 0.1192595 -0.17099255 0.222864 -0.11462534 0.07234339 0.27472886 0.19842769 -0.33445317 0.097927645 -0.23621364 0.013479525 0.03661656 -0.08296376 0.10816309 0.20957488 -0.0322528 0.17419676 -0.16970877 -0.35034236 0.01413941 0.10553787 -0.11950232 -0.06337512 0.04977067 -0.083770484 -0.035241757 -0.21016845 -0.3822021 -0.08787666
1101 -0.1501824 -0.019270064 0.1816409 0.21487182 0.108748935 0.14036083 -0.0062147174 0.041817065 0.13174014 -0.012055273 0.22701168 -0.06450174 -0.1772006 -0.0453858 0.091393165 0.03416038 -0.10454908 0.09352793 0.09662638 -0.115224816 -0.022677086 -0.00049786305 -0.1980504 -0.074670784 -0.15305121 -0.13482663 0.06410375 0.14492549 -0.1062755 -0.0867665 0.064159684 -0.07400624 0.0017518062 0.10510569 -0.14367017 0.23117481 0.12113396 -0.05955468 0.09074617 -0.03370064 -0.26912394 0.0013083335 0.061798003 -0.15022145 -0.079990864 -0.05586227 -0.042701744 0.019310609 0.16487435 0.06497671 0.07673689 0.058904227 0.043924607 -0.068395376 0.09057395 0.15703893 0.0018293858 -0.012730159 0.17308618 -0.14322871 -0.14889978 0.02456512 -0.21277967 0.081436075 0.099239476 -0.08923267 0.092844896 0.036045805 -0.039200984 -0.06174774 0.111065805 0.11319991 -0.0044652075 -0.056397676 -0.003835248 -0.20354535 0.05289451 -0.16231537 0.074211866 0.039923985 -0.006593755 -0.03871608 -0.09633582 0.16505866 -0.13930938 0.08632432 -0.012788299 0.0011066035 -0.06673899 -0.03835318 -0.050922394 -0.014471593 0.116952986 -0.030668449 -0.033295315 -0.011658041 0.054546516 0.1554671 -0.1598397 0.01719193 -0.065286964 0.08977768 0.026814554 -0.20136262 0.07102989 0.0027412896 -0.19816057 -0.13076986 -0.0622604 0.14658417 0.04793998 0.05560347 0.0666157 0.097005956 0.08718238 0.11866148 0.119864486 0.056730118 -0.027411023 0.08449529 -0.06057185 -0.01170182 -0.07193158 -0.12518273 0.1428765 -0.16894281 -0.09112649 -0.12202181
1106 0.038126674 -0.04174339 0.14902636 0.1345947 0.0766528 -0.04156177 0.008434052 -0.12540264 0.100834996 0.097558334 0.27510962 -0.13049039 -0.024019608 -0.026144255 -0.11322338 0.020216461 -0.07168316 -0.05819679 -0.07306413 -0.0022090878 0.12273691 -0.096444026 -0.25808856 -0.16596203 -0.1830516 -0.07150273 -0.047964755 -0.08978475 -0.060212348 0.05036841 0.07014265 0.22991571 0.051538415 -0.10760227 -0.04680151 -0.01940501 0.16857001 -0.0097815115 0.06704458 -0.028767105 -0.16100085 0.12360486 -0.036475044 -0.19420777 -0.013180451 0.024418637 -0.13656041 0.040983524 0.11302354 -0.023663336 -0.0072471933 0.006927081 -0.018140806 -0.24012974 0.02783865 0.06787896 0.038360026 -0.16281821 0.21143621 0.13300669 -0.08025611 0.006874161 -0.030663209 0.1610816 0.1683041 -0.020965822 0.110065065 -0.009071505 -0.0041519064 -0.12019203 0.058766164 0.039817672 -0.00063939625 -0.010990008 0.064263016 -0.2828005 0.032213137 -0.20699161 0.02834603 0.013330978 0.04313095 -0.12287323 -0.12894781 0.11351794 0.14249285 -0.028506832 0.14796543 -0.15206896 0.06556452 0.04540203 -0.050010677 -0.05604452 0.06544758 0.040862188 0.043224383 0.0089364145 -0.023926241 0.1266242 -0.24018465 -0.025627423 0.08859032 0.07443503 0.14931522 -0.15401947 0.19717556 -0.11974841 -0.13552904 -0.027901411 0.019423397 0.10081731 0.15884674 0.026086088 -0.005223257 0.14038217 0.057466183 0.21797715 0.08480923 0.027454188 -0.04085541 -0.11952946 -0.040337596 -0.05469442 0.0074060517 -0.119640104 -0.044395056 -0.1481912 0.00030342658 -0.17251842
1325 -0.22473392 -0.15856075 0.18957104 0.06672811 0.017645078 -0.2522825 0.04890852 -0.18127593 0.074048 0.03397643 0.11316478 0.15982074 -0.05419721 -0.15210506 0.07956591 -0.11385689 -0.098470345 0.043921143 0.21598567 0.029259413 0.2111085 0.01946964 -0.048021957 -0.036775395 -0.035641465 -0.043380074 -0.271375 -0.05128518 -0.20251358 -0.09431387 0.19402857 0.11555646 0.24788705 -0.08327432 -0.07852462 0.28493056 0.19762939 -0.1717882 0.2583703 -0.03439004 -0.035725493 0.062282696 -0.05918862 -0.0042868643 -0.22110803 0.14755045 -0.035739362 0.20453817 0.19474457 -0.104114585 -0.012475042 -0.0039022835 -0.1026778 -0.15162712 0.17517014 -0.07000161 0.017947719 0.0014307897 -0.16039175 -0.0033647157 0.04085029 0.047326457 -0.030119365 0.07735642 0.031902015 -0.40603325 -0.03884944 -0.021214234 0.43456212 0.11288787 -0.07570225 0.35344172 0.004853823 -0.0014962392 0.03430469 -0.31498104 0.042399596 -0.10419664 0.2269839 -0.06095245 -0.0034337074 0.23844166 -0.16706476 0.064928204 -0.0025658233 -0.09475995 -0.03528166 -0.22456288 0.028143907 -0.13960908 0.075609535 -0.30145228 -0.003059015 -0.10865852 -0.11889718 0.25221625 -0.039052613 -0.044515215 -0.018028544 0.24141754 -0.20361322 0.3854872 0.04562344 -0.21398601 0.2891976 -0.021695903 0.12976265 0.074212834 0.18663996 -0.053356227 -0.05902601 0.09532302 0.29241398 0.115582295 0.06466704 0.037636388 -0.06814425 -0.028076075 -0.28327736 0.16411124 0.071869634 -0.07036954 0.13183816 -0.24551721 0.23499711 -0.36491024 -0.101021715 -0.20817496
1417 0.03231847 -0.06296593 0.20571077 0.037508376 0.07124299 0.044092678 0.008343959 -0.05620274 0.051841956 -0.019137694 0.17130034 -0.089168094 -0.1410139 -0.18518995 -0.002316124 0.005918274 0.016954105 -0.038804244 0.04693799 -0.019624395 0.12831889 0.02336768 -0.07424862 -0.18692753 -0.074153304 -0.052122883 -0.04160164 0.09409334 -0.14994633 -0.08183312 0.23757187 0.17421433 0.10716886 0.072454944 0.027599204 0.08982783 0.009374347 -0.06585946 -0.0023121045 -0.124388486 -0.1706823 0.2544193 0.045293547 0.0035878506 0.1108347 -0.0036632344 0.12906629 -0.09647085 0.13032666 0.12214568 0.062265716 0.0073273503 -0.025979662 -0.118584625 0.031790692 0.13770662 -0.030091882 -0.108850226 0.11325946 0.09246732 -0.15557683 0.09425459 -0.02466726 -0.064962275 0.19730264 -0.041099068 0.00928422 -0.026087387 -0.049847912 -0.16334724 0.21265343 0.026978925 -0.0760032 0.08040525 0.1104157 -0.27228776 -0.06527851 -0.23011293 -0.035366375 0.014164227 0.057606515 -0.014507594 -0.11364598 0.17742112 -0.0531816 -0.011456489 0.07758873 -0.063743524 0.11582449 -0.013004801 0.044724066 -0.0928602 0.12834612 -0.08711836 0.08537275 0.10373136 -0.034630887 0.034216084 0.016346944 0.11356478 0.0018376875 0.071751386 -0.04510343 -0.09846732 0.036702815 0.029586926 -0.061470296 -0.14010547 -0.09292695 0.18651165 0.24947058 -0.11854854 -0.07605882 0.24449784 0.08161631 0.106114976 0.14683323 -0.06862359 -0.064045556 0.0052867667 -0.2329046 -0.14468546 0.01909707 -0.2094693 -0.053622305 -0.18862076 -0.028523702 -0.050191764
1246 -0.043864593 -0.24594273 0.04056741 0.08597671 0.08568423 -0.12918504 0.028040467 -0.019663684 -0.03383487 -0.14600177 0.26974455 0.017364401 -0.16036886 -0.13091002 0.011480756 0.065562375 -0.09081437 0.10028258 0.11283775 0.0455691 0.06823179 0.001605802 -0.24952047 -0.097006686 -0.12448207 -0.14639899 -0.11434796 0.029178124 -0.035178993 0.08151108 0.1313941 0.08890001 0.06614381 -0.019461691 0.03660925 0.08823245 0.016762357 -0.0042487043 0.1048094 -0.06631206 -0.17490654 0.30497774 -0.014204082 -0.091900386 -0.03338189 -0.18002702 0.018052604 0.018163873 0.086432636 0.07204446 0.057405427 -0.08887513 -0.022043178 -0.08235677 -0.061666183 0.053958636 0.14340663 -0.00860848 0.11485176 0.035410967 0.09831326 0.11774939 0.15150104 -0.011758172 0.25409865 -0.0838735 -0.04973888 -0.10328916 -0.10841436 -0.13865173 0.048510488 0.17862232 -0.14476427 -0.11437134 -0.038191404 -0.26179582 0.08506991 -0.1598405 0.18074813 0.03755341 0.2596271 -0.0795726 -0.086731285 0.27788463 -0.10071754 -0.0084443195 0.14789265 -0.07064975 -0.02853534 -0.010382612 -0.012030553 -0.0027314704 0.033066712 -0.029447747 0.03218819 -0.060382362 -0.07465194 0.13601092 -0.14891064 -0.10685113 0.15156363 -0.056525245 -0.19802178 -0.065993786 -0.062704355 -0.112440355 -0.032991167 -0.052920606 -0.07513651 0.08048767 0.07524906 0.0040674815 0.06038633 0.03609204 -0.019701714 0.05045035 0.041489627 0.039428085 0.09732208 -0.054320537 -0.006301902 -0.1414068 0.023939682 -0.17194392 0.028679298 -0.06390648 -0.13807166 -0.29470685
1418 -0.13469464 -0.1730141 0.10706672 0.17024209 0.024192914 0.21732417 -0.0010220205 -0.01978479 0.051888585 -0.17141216 0.1705055 0.07422505 -0.08864414 0.05651167 -0.072387815 0.11608714 -0.13647507 0.07098228 0.07520533 -0.011011876 0.17001948 -0.09766966 -0.20579576 -0.12637796 -0.07529718 -0.06884058 -0.16830793 0.10268792 -0.098262265 -0.0019431013 0.16007693 0.03352942 0.14742067 0.13451532 0.05929306 0.18154246 0.25385818 0.014020783 0.08412877 -0.04927728 -0.21885495 0.123446606 -0.011026227 -0.023260185 0.053127185 -0.064494275 -0.02191289 0.000591872 0.048361413 -0.03781859 -0.084605165 0.005489244 0.01866065 -0.17826815 -0.034867033 0.10917592 0.13796192 -0.0533148 0.12709132 0.09890836 -0.07635108 0.33441672 -0.08615847 0.05645876 0.21226545 0.10556857 0.121885695 -0.056640536 -0.08650776 -0.044173736 0.07979482 0.20267351 -0.086827 0.01169294 -0.01467777 -0.24323218 0.018185694 -0.0450316 0.11530248 -0.11137869 0.10589917 -0.12817483 -0.020814175 0.14364547 0.038225338 0.05838048 -0.055497173 -0.031967755 -0.08632743 -0.03937134 -0.092829354 -0.058223788 0.11066412 -0.16667774 0.03446541 0.18016726 -0.0019943283 0.0059044273 0.030873016 0.050776806 0.031369213 -0.019913828 0.08788671 -0.14973363 0.073636964 -0.119599186 -0.12420751 -0.14889418 0.026387285 0.009522266 0.084935844 0.0848938 0.051622245 0.20809492 -0.04823861 0.30038238 -0.007478767 -0.06456539 0.07684785 0.11204898 0.09290165 -0.10764044 -0.018959012 0.04512891 -0.1096977 -0.16554056 -0.04867809 -0.08707865
1117 -0.21020682 -0.031343073 0.18402295 0.049322303 0.09631732 -0.12644227 -0.056735337 -0.1643374 0.12979826 0.03366326 0.3467572 -0.059644856 -0.3261685 -0.0068069207 0.12079115 0.13767509 -0.029783292 0.0686062 0.059748206 -0.072054364 0.16005436 0.014481942 0.09322526 -0.19347566 -0.17964277 -0.2075148 -0.17444193 0.038781293 -0.08199896 0.058162026 0.15342078 0.12508336 0.10801835 0.04489555 -0.13317098 0.02624892 -0.19706121 -0.16602553 0.21906562 0.010152954 -0.11478 0.19218251 0.009515184 0.0069811465 0.05242776 -0.08903107 0.025876641 0.120490015 0.24972193 -0.092813045 0.16460612 -0.052667562 -0.05104283 -0.17706096 0.06491749 -0.0111816 0.17930824 0.00071053504 0.1984254 0.13253072 0.0028567405 0.24949363 -0.16834223 -0.070341565 0.17912756 -0.021668188 0.03677913 -0.06527828 0.08366994 -0.11255253 0.08922215 0.023296759 -0.124163985 -0.047024798 0.10849345 -0.28218868 0.02105688 -0.05353123 -0.0882521 0.063022636 -0.07297015 -0.105000935 0.08649487 0.10216545 -0.1356323 0.12131394 -0.027812965 -0.033202294 -0.00458923 0.022566969 -0.06567361 0.024985516 -0.0707991 -0.13281421 0.0899017 -0.023601905 -0.093804024 0.12453357 0.05563661 -0.031697933 -0.11440926 -0.12966844 -0.19458492 -0.031542726 0.1527909 -0.10781477 -0.07205133 -0.14719388 0.022573939 0.118927926 0.050414782 -0.08286286 0.038594835 0.04884233 -0.058894273 -0.022569668 -0.012258282 -0.01426224 -0.09901797 -0.018503174 0.022236515 -0.108458884 -0.084861234 -0.037238877 0.09260976 -0.08134848 -0.05591155 -0.15764686
