1194 128
1272 0.087487355 0.013058112 0.0347236 0.12405987 0.22037068 -0.048069276 -0.0048037395 0.07401819 -0.0065772906 -0.018511672 0.03750897 -0.07323431 -0.014874233 0.03381485 0.08404176 0.007754577 -0.06908501 -0.06964004 -0.22414601 0.25700364 0.17238131 0.15151575 -0.046416808 -0.06574314 -0.031567205 -0.022867607 -0.083054885 0.13266039 0.06621029 -0.06668522 -0.12291734 -0.028509162 0.06937625 0.02692391 0.15714143 0.2507686 -0.026946193 0.038328186 0.05378749 -0.007345404 -0.18827334 0.3189728 -0.030352838 0.1777909 -0.025539571 -0.14234614 0.028404111 0.07367848 -0.060929034 0.049030643 -0.06550234 0.056096774 -0.050214175 0.006559593 0.08409113 -0.1049242 0.19106431 -0.19823004 -0.04951714 0.08548779 -0.04540428 -0.054365505 -0.006563696 -0.06996163 0.08085214 -0.16319297 -0.00972476 -0.061356053 0.034434047 -0.07587264 -0.15248947 0.10989022 -0.020178016 -0.21585973 -0.030194744 -0.23641291 -0.28280345 0.025253933 0.061623745 0.25270548 0.044825528 -0.068621896 0.123470396 0.18417038 0.1156102 0.17235161 0.032848798 0.0049371286 -0.023641396 0.03807415 0.08501126 -0.11428713 0.016531764 -0.08061204 0.16237214 0.12433839 0.009650209 0.06149105 -0.0032455674 -0.113264084 -0.08873066 -0.07617332 0.043465756 0.023103343 0.18045808 -0.043627843 -0.23572889 0.2211099 -0.05873878 -0.03678894 -0.015199677 0.018816488 0.034042366 -0.017677914 0.026412273 0.011265307 -0.17310256 0.05947054 0.010779003 0.103720255 -0.113425784 -0.07307006 0.0013254657 -0.04073778 -0.14996195 0.029803153 0.012594061 0.07990318
1327 0.10049669 -0.05908488 0.0018506638 0.04170822 0.14155819 0.02145768 -0.008700477 0.14712602 0.006011642 -0.034323666 -0.004943642 -0.08353478 -0.020407744 -0.031222902 0.14375173 -0.021982163 -0.13952544 -0.033625335 -0.22214983 0.24375404 0.11940299 0.075175405 -0.021772737 0.060725704 -0.09637552 0.04565017 -0.008609507 -0.0027390602 0.103628695 -0.112055264 -0.0132179335 0.0013339111 0.017886862 -0.0688346 0.07816247 0.32514477 0.13971609 -0.027198741 0.1021271 0.01824799 -0.22431776 0.2905037 -0.01050015 0.1966305 -0.033010185 -0.17512809 0.00679152 0.082868926 -0.008109206 0.2251644 -0.018694595 -0.03901002 -0.029577479 -0.017497344 0.0758692 -0.112468936 0.2923533 -0.12818912 -0.07927507 0.032865904 0.024490139 -0.101213336 -0.09413177 -0.06817155 -0.026511857 -0.111192614 0.04490689 -0.100378975 0.013567059 0.027438471 -0.14775959 0.07429977 -0.02564015 -0.097107954 -0.048501726 -0.22977199 -0.15129876 -0.0030474865 0.036574766 0.19446617 0.013334396 -0.017954547 0.08619641 0.104923606 0.08170301 0.20428374 0.047417607 -0.064844 -0.022819309 0.042501792 -0.0477285 -0.056103725 -0.045704782 -0.049913786 0.12254437 0.031123802 0.014559171 -0.10904711 -0.031075675 -0.0063532675 -0.119767345 -0.055011954 -0.05118694 0.012231314 0.11082129 -0.08696866 -0.07929907 0.20734043 -0.12033531 -0.016866947 -0.033967003 -0.022869894 -0.008724499 -0.025532464 -0.10832217 0.0015057052 0.04727209 0.079471245 -0.027515305 0.037439063 -0.079750344 -0.025023831 0.060874864 0.028290858 -0.41256782 0.03690414 -0.03908663 0.12649731
1407 0.000825753 0.013817945 0.1121309 0.27948245 0.0934762 -0.0035399871 0.09926043 0.12261259 0.060752805 0.014081385 -0.022228489 -0.080449864 0.09082212 -0.07166239 0.08394256 0.04356601 -0.2066527 -0.23595318 -0.21399562 0.14757279 0.24479318 0.13964136 0.051700834 -0.0066260174 -0.010810331 0.09861016 -0.02733604 -0.061874595 0.15903321 -0.04530061 0.063633054 -0.02702666 -0.032219265 -0.056963224 0.1790964 0.19233908 -0.007503013 0.027958225 0.13915214 -0.06560189 -0.20603195 0.26536906 -0.1182509 0.13924941 -0.08773774 -0.1397937 0.04967511 0.14493762 -0.04425563 0.11385807 -0.002120029 0.062546015 -0.06483196 -0.05252711 0.06751618 -0.017128626 0.3144785 -0.1662728 -0.18771495 0.042091634 -0.0037388138 -0.12553918 0.09023155 -0.14033829 0.02300439 -0.18138883 -0.044275396 -0.036237605 0.028542511 -0.04829696 -0.17997639 0.09490086 -0.14925992 -0.17267632 -0.091238335 -0.19053294 -0.14140534 -0.042803183 -0.003119086 0.07924899 0.043897912 -0.026938634 0.09083125 0.15926541 0.10957243 0.017893407 -0.036968283 -0.043965302 -0.04840046 -0.05188499 -0.08486414 -0.1442333 -0.031416174 -0.17261897 0.23109946 0.04882349 -0.29815298 -0.075525455 -0.044720132 -0.05073762 -0.09867191 -0.06291697 -0.0035123879 -0.09990714 0.096826285 0.092962325 -0.07738153 0.29928356 0.01982024 0.027387014 0.09783081 0.05447331 0.068761565 0.02192163 -0.09577464 -0.11447077 -0.043830212 -0.037680622 0.07679925 0.096558906 -0.07065925 -0.041144587 -0.031115822 -0.0025099518 -0.21498033 -0.11332995 0.002341283 0.022092799
1316 0.00049884355 -0.15515944 -0.08121217 0.16954009 0.09682217 -0.12806143 0.07150064 -0.010126815 0.038025226 0.04827105 -0.12571368 -0.12187688 -0.00066359027 -0.12773469 0.015166621 0.080248706 -0.07247292 -0.16577473 -0.081869006 0.2311995 0.2311343 0.09953522 -0.02293959 0.0743079 0.01664789 0.017730385 0.055949386 -0.0725245 0.09844933 -0.2541193 -0.07320964 0.065684386 0.11938677 0.107780516 0.05617094 0.28550103 0.012623396 0.14336607 0.14319316 0.04243794 -0.40179932 0.3227058 -0.04605126 0.048748184 0.053276133 -0.12695915 -0.12884015 0.15071696 0.021744728 0.17635167 -0.12084973 0.108628444 0.058852434 0.07901083 0.099411465 -0.28524712 0.3287156 -0.18595666 -0.12838705 0.17583741 -0.08773635 0.057818558 -0.0048540365 -0.036866117 0.019422967 -0.10817086 0.070970215 0.05669052 0.09322576 0.025376825 0.007438604 0.094985984 -0.069079496 -0.14729361 -0.045325615 -0.23269674 -0.1317673 -0.06906319 -0.011010628 0.14632964 -0.0037841215 -0.07177134 0.08701635 0.10806126 0.06646837 0.027744025 0.042600185 0.14733246 0.08258368 -0.070862465 0.02935719 -0.22347505 0.08739499 0.04432477 0.15238303 0.052654088 -0.3017558 -0.041770775 0.04760104 0.030394277 -0.14790247 -0.059028354 0.075094216 -0.07574906 0.15622383 -0.09585313 -0.018118355 0.19517887 -0.019434368 -0.21897495 0.05020413 0.0631001 -0.15969847 0.074989684 0.03411347 0.046437282 -0.060062572 0.046944693 -0.08816899 0.13467637 -0.011684157 -0.012914052 0.20129927 -0.17198177 -0.23358461 -0.00057760533 -0.10911876 0.0962019
1172 0.052076783 -0.06910361 -0.011889264 0.33464143 0.1619162 -0.012652568 0.10859404 0.2457298 -0.08722398 0.0031357468 -0.015046701 0.020340968 0.098032884 -0.004837034 -0.036928598 0.066670366 -0.067896076 -0.24967794 -0.24006788 0.043212242 0.20753026 0.09079371 -0.06459343 0.046150398 -0.025040971 0.05901417 -0.05117565 0.007398052 0.14535232 -0.09116003 0.015059645 -0.030366391 -0.06749688 -0.047347963 -0.041964877 0.22737466 -0.010865489 -0.07641001 0.23536648 -0.031377144 -0.1990568 0.29769948 -0.034139935 0.19407262 -0.13163792 -0.2543735 0.11259377 0.17600028 -0.06356339 0.10335564 -0.08628014 0.07106747 -0.021596612 -0.102211215 -0.038741563 -0.035538483 0.23980132 -0.20139599 -0.27910805 0.10756433 0.07769051 0.059647605 0.07997048 -0.16871147 -0.03792106 -0.0993258 0.16015212 -0.061096966 -0.03571535 -0.04747171 -0.09507072 -0.029756295 -0.11426441 -0.25307363 -0.12870309 -0.1802922 -0.18472645 0.10549172 0.027700821 0.086511225 -0.034294408 0.12379914 0.10272273 0.11956773 0.14410934 -0.112774625 -0.027969835 -0.046553463 -0.057180356 0.063584365 -0.09476944 -0.21113698 -0.038944744 -0.12699246 0.18512599 0.06542965 -0.09241049 -0.29580584 0.03330745 -0.0619617 -0.097260475 0.025870137 0.03380221 -0.14187926 0.093289055 0.14578253 -0.20952749 0.4073717 -0.11720419 -0.08235031 0.18751858 0.04074654 -0.0016758319 0.05054834 -0.228061 -0.034966107 -0.10078332 0.10492184 0.09113108 0.10842691 0.032841437 -0.04564008 0.07411191 -0.043693952 -0.18672782 -0.083848536 0.00318684 0.037267487
1116 0.0146326935 -0.12725945 0.02032962 0.075572334 0.06640898 -0.09428265 0.09265483 0.01646082 -0.04732153 0.047293723 0.11251561 -0.18899667 -0.0648456 -0.015449478 0.052406725 0.07885178 -0.06906868 -0.061158936 -0.19667889 0.08708109 0.12632322 0.03382072 0.012607759 -0.08714374 0.0032157912 0.20767018 -0.10972548 0.09330831 0.081002265 -0.08100875 -0.0729058 -0.09043669 0.07278192 -0.021207351 0.23223607 0.21598186 0.010993643 0.09825234 0.025983766 0.030583087 -0.24675868 0.17977425 -0.033235695 0.018196803 -0.0008951681 -0.12854047 0.17633265 0.080889486 -0.20563553 0.102531455 -0.05495317 0.046831533 -0.10498424 0.03916766 0.15174972 -0.0032256823 0.29075387 -0.1807319 -0.116147906 0.14955476 -0.035900455 -0.09667573 -0.09497191 0.06108764 0.072310634 -0.10229402 0.0055157226 0.0050512957 0.081820875 0.039486036 -0.034647297 -0.041137878 -0.06783621 -0.030936379 0.041572496 -0.18598634 -0.19577886 0.09244371 -0.12117819 0.14495431 0.020014051 -0.13559797 0.2354376 0.10189998 0.046790376 0.07093977 -0.033720586 -0.10745289 -0.009915637 -0.027607746 0.111481234 -0.10447085 0.023867851 -0.06227305 0.11597501 0.023858832 0.012984103 0.011715493 -0.08751532 0.03302338 -0.06486028 -0.01524078 0.07069221 -0.069817215 0.16263007 -0.062487297 -0.19964863 0.25343272 -0.044459015 0.06797293 -0.03733752 0.045603346 -0.07506608 0.014912717 6.1012903e-05 -0.05756581 -0.059879377 -0.110482045 -0.025901899 0.065545216 -0.04864444 -0.084889255 0.0394468 0.09513264 -0.22455256 0.08796826 0.028779322 0.034709368
1329 -0.08740984 -0.124669775 0.10923468 -0.11718004 0.11316702 0.05168826 0.25549507 0.124626465 -0.058611535 0.05654093 0.05032703 -0.057795573 -0.19623011 0.047551766 0.1405432 0.07103753 -0.17081259 -0.13053101 -0.0793978 0.106537744 0.13085632 0.10563132 -0.11228409 0.025210083 -0.063974574 0.010057719 0.034310408 0.09761269 0.072931536 -0.20448405 -0.090528324 0.033945538 0.046892624 -0.052336615 0.10615731 0.1419104 0.0912273 0.027781973 0.021771787 -0.21635802 -0.32304028 0.34784892 0.16598211 0.015983522 0.080462165 -0.14868808 -0.042413555 0.06260177 -0.042109836 0.10078425 -0.10220805 -0.0622994 0.017338177 -0.15779671 0.1429561 -0.13845746 0.14957787 -0.13072693 -0.03458035 -0.10605943 0.057167124 -0.15327013 -0.019006172 -0.02882806 0.12361706 -0.14289872 0.03307297 0.047432017 0.06934787 0.046002433 -0.23128703 0.018417142 -0.041350458 -0.055652462 0.10354877 -0.30830526 -0.060061008 0.044247694 0.03218255 0.28196833 -0.0039213006 -0.08183079 0.022940127 0.16573067 0.16319771 0.043893833 -0.015787834 0.017405044 -0.1149481 0.104080185 0.06260181 0.010560218 0.037434626 -0.1541446 0.2458482 0.034141526 0.085902326 -0.04893654 0.07599067 -0.10282688 -0.050889958 -0.13562937 -0.15671146 -0.011371423 0.14242283 -0.09395281 0.041229684 0.15235274 0.001058273 -0.118920736 -0.00078522024 -0.092331916 -0.12330561 0.02820237 0.012905627 -0.10450893 -0.12360755 0.006732904 -0.18511663 0.027311487 0.10387562 -0.0029727314 0.031353217 -0.05604316 -0.19121426 -0.19862308 -0.027536722 0.0654917
1293 -0.084281005 -0.17535385 0.09881723 0.3474063 0.14648105 -0.0005292371 0.17835079 0.14845036 0.04096272 -0.03536584 -0.1162579 -0.07007999 -0.068741225 0.02446009 0.012391914 0.11134505 -0.17259702 -0.098383576 -0.27605882 0.08557541 -0.010136121 0.11853966 -0.08425311 -0.07345021 -0.055554073 0.2321808 -0.028112028 -0.025433477 0.14696407 -0.12794518 -0.122687936 0.021052543 -0.05870619 0.029151881 0.095146 0.18062119 -0.0445216 -0.033723034 -0.0006289796 -0.056449056 -0.31075656 0.18680698 -0.05567204 0.054117613 -0.041940916 -0.27571684 0.05776381 0.2961623 -0.070894055 0.09437933 -0.03970515 0.033572037 -0.060450185 -0.13088576 0.10825983 0.06535179 0.21542023 -0.22795185 0.016214384 -0.044202507 -0.07050013 -0.036953293 0.03590372 -0.007038123 0.24350598 0.011252582 0.007302838 0.0004200619 -0.0065653743 -0.0025099646 -0.052635577 0.12375998 -0.0054938877 -0.15924852 -0.08204047 -0.0811601 -0.2767223 -0.041107856 -0.024262138 0.0064077224 0.00801181 -0.1242653 0.14412406 0.21968597 -0.008526892 0.12888664 0.022542017 -0.16813593 -0.11018004 -0.016696746 0.049608573 -0.17873685 0.15740213 0.057709508 -0.014680124 0.002643405 -0.14799438 -0.03207321 0.06237067 -0.038314596 -0.17313188 -0.17113188 0.030987248 0.05227098 0.16822056 0.044805188 -0.037238937 0.26031104 -0.13694021 -0.15896614 -0.009660511 -0.24372488 -0.075469516 -0.007997539 0.018659491 -0.06658847 -0.2109847 -0.019773195 -0.006622263 0.03518719 -0.09845261 -0.14701927 -0.094806306 -0.12886007 -0.12592582 -0.10912735 -0.07153754 0.125045
1306 0.050837792 -0.20702161 -0.068484336 0.03200467 0.06248168 -0.08178162 0.08098445 0.057597566 -0.12283053 -0.023898294 0.12751417 -0.086741 -0.10466136 0.062046062 0.09960911 0.0772564 0.06469905 -0.10440767 -0.15243539 0.03382084 0.20741892 0.03190124 0.100169145 0.055073936 0.028483724 0.1115443 -0.08656777 0.05710347 0.2187297 -0.08471822 -0.1555875 0.04130204 0.12638144 0.024400443 0.17313826 0.14243793 0.05707185 -0.001398631 0.02324464 0.10212028 -0.29333892 0.24250837 0.075050876 0.011782773 -0.078131124 -0.044209167 0.1542172 0.05931305 -0.14850411 0.040877957 -0.06940906 0.12305985 -0.030661274 0.051826485 0.04250641 0.011064138 0.26674363 -0.12432583 -0.0991617 0.09787209 -0.014058703 -0.10656126 -0.04435682 -0.028600706 0.044039104 0.035107955 -0.03380923 0.07167299 0.05419344 0.081399545 -0.05395981 0.031574506 0.0018091054 -0.08974932 0.05182864 -0.27802455 -0.2827278 0.08905773 -0.073140584 0.13432822 -0.06040959 -0.060801335 0.17634198 0.09593045 0.1009109 0.1374604 -0.048256 -0.07133118 0.048296098 -0.013891096 0.089634664 -0.13069634 0.03410176 -0.06618767 0.25579354 0.13650084 0.028028551 0.054541737 -0.06329167 0.011249507 -0.10917552 -0.03864058 0.040932924 0.07751187 0.15985765 -0.11602749 -0.011586934 0.10723647 -0.0054576606 0.08558646 0.019779935 0.077276684 -0.0659566 -0.05945582 -0.043022495 -0.055572093 -0.0817655 -0.09948864 0.031769868 0.089379095 -0.053466205 -0.02218274 0.073355265 0.054369733 -0.27298847 0.090918794 -0.04575693 0.17931113
1404 0.054585263 -0.099637374 -0.10312089 0.07669634 0.086043805 0.1405293 0.04985174 0.20986359 0.042594522 -0.006568589 0.04830859 -0.087682515 -0.1150061 0.06449638 -0.01891792 0.15621188 -0.115567744 -0.014400486 0.010986962 0.20333293 0.19064084 0.19636345 -0.0123452265 -0.02975915 -0.023451908 0.043738797 -0.09194892 0.022963613 0.04041795 0.027190164 -0.17603709 -0.03638314 0.17724167 0.06851006 0.16384444 0.16667692 0.085232474 0.09866417 0.076754116 0.052702863 -0.32947284 0.2044823 0.08743276 -0.01493763 0.0107440725 -0.12777212 0.08397897 0.02202405 -0.24085231 0.062750034 -0.0070837797 0.045292612 0.013545637 -0.049076393 0.036342464 0.0801392 0.30854088 -0.298867 -0.14216205 0.054095667 -0.026496865 -0.0040445304 2.0240084e-05 0.049042966 0.09484445 -0.09049915 -0.031863637 0.012165278 -0.105733916 0.004303114 -0.048365068 0.070631765 -0.0634448 -0.06273345 0.025993932 -0.045230098 -0.22192575 0.041312214 -0.08294267 0.08140941 -0.011974584 -0.06956244 0.30159205 0.20861273 0.0439829 0.043397088 -0.07267514 -0.00010162953 -0.07832693 0.054929778 0.11260461 -0.06969304 -0.073032916 -0.040801268 -0.007713357 0.027126973 0.16597416 -0.102025 -0.10396061 -0.06984179 -0.29460776 -0.028940227 0.0075354413 -0.10958382 0.15018539 0.07562416 -0.09614794 0.0956233 -0.009884774 0.13087986 0.018367346 0.11944137 -0.064675175 -0.111602806 0.050952747 -0.16292568 -0.039838225 -0.094601095 0.0076088198 0.13264237 -0.06130109 -0.21209621 0.007202843 0.063526064 -0.30880105 0.08214419 -0.053475466 0.08629821
1421 -0.00686775 0.015294781 0.09661858 0.18608607 0.032238036 -0.034627177 0.07363508 0.035999637 0.001071823 -0.015539947 -0.001148901 -0.043067362 -0.06326116 0.10418259 0.20573872 -0.06405585 -0.13589256 -0.035632286 -0.16876748 0.05740633 0.086846255 0.12029292 -0.0768774 0.07390735 -0.12686068 0.1958112 -0.18586984 0.0760012 0.04782247 -0.13246015 -0.023083584 -0.037117638 0.064102925 -0.11001536 0.069016084 0.36769512 0.10915127 0.15218675 -0.00858039 0.1130532 -0.22187461 0.10319925 -0.015935775 -0.081810296 -0.08344022 -0.25077435 0.11166478 0.19501027 -0.016589954 0.10198268 -0.038349643 -0.016272837 -0.045198318 -0.16901766 0.08437385 -0.13619657 0.26752967 -0.033631064 0.045496196 0.033200577 0.04590814 0.034898233 -0.09870878 0.015664754 0.10132439 -0.014847652 0.16728583 -0.046611894 -0.099493705 0.025297645 -0.05646264 0.040981535 -0.087176085 -0.08318801 -0.08315063 -0.3909102 -0.03385033 -0.0043832534 -0.03435842 0.07993743 0.03323666 -0.1290325 0.07010799 0.3391906 0.14118247 -0.043522228 -0.06587309 -0.22347839 -0.16980608 -0.2889406 0.05796674 -0.16150898 0.16383763 -0.0065382943 -0.00019167144 0.11783733 -0.052887093 0.04335473 -0.062058732 -0.0681331 -0.09265271 -0.065394 -0.039017357 -0.052574623 -0.020087866 -0.1166766 -0.09849947 0.19910114 0.07694655 -0.003718925 0.080993 -0.043919217 0.039905984 -0.19232307 -0.1083829 0.04664535 0.07846701 -0.023064705 0.112264104 0.060486086 -0.032642208 -0.08476413 0.05752168 0.07121771 -0.22294949 0.027672669 0.12797381 0.19430394
1308 0.020291032 -0.02435139 0.07059458 0.010900946 0.21995218 0.21943915 0.10203435 0.1047752 0.04751975 0.045216616 0.064151615 -0.182994 -0.2251544 0.0823858 0.25957033 0.18197219 -0.043740265 -0.07365359 -0.059220646 0.14383744 0.081781864 0.1079677 0.050484855 -0.019314585 -0.13577852 0.029869756 -0.021463096 0.049680766 0.11307077 -0.014836912 0.11272734 0.002631339 0.05589918 -0.0475431 0.17328076 0.0667217 0.09893266 0.073294245 0.17032184 0.08189039 -0.1462224 0.25779563 0.033498876 0.027738664 -0.09547079 -0.329829 0.06869722 0.15796804 -0.05815132 -0.013283662 -0.019508108 -0.11923538 -0.027995292 -0.14110965 0.14653808 -0.0048689446 0.2766121 -0.31543484 0.0051521896 0.107926376 -0.062085934 -0.08437251 -0.13508844 -0.019982038 0.0636981 -0.08662914 -0.027434079 -0.023948237 -0.008893639 0.03205666 -0.012096116 -0.013137238 -0.082841225 0.10152208 0.050785825 -0.20885034 -0.12565997 -0.07209997 -0.1481288 0.20112485 0.0793203 -0.0104815895 0.077743486 0.10697312 0.08864985 0.06465895 0.004196346 0.029263247 0.0645957 0.07220466 -0.004387174 -0.04093744 0.015955416 -0.10373917 0.065983355 -0.029449577 0.027811948 0.01814966 -0.09130964 -0.00034656606 -0.09184633 -0.005862824 -0.12206515 0.017925488 0.11792374 -0.1940117 -0.13531394 0.112290666 -0.019790214 -0.011018523 0.11582104 -0.11783104 0.077307135 0.034102492 -0.09344748 -0.0057749045 0.029215124 0.0422192 -0.0034016848 -0.057128683 0.031936366 0.014379466 -0.13999444 0.04423492 -0.13504322 0.021810403 -0.08950482 0.077711806
1276 0.2259914 0.12440957 0.06736698 0.0753007 0.17443463 -0.055395067 0.12091998 0.113246284 -0.047296595 -0.04187562 0.1060114 -0.0044622947 0.02021942 -0.102939256 0.31229866 -0.010222724 -0.030206734 -0.27266058 -0.2997796 0.08978126 0.26939684 0.13178062 0.06816492 0.0027349135 -0.20356135 0.19076663 0.14091209 -0.025159061 0.087328196 -0.12107965 -0.15730728 0.13697788 0.091530055 0.05844634 0.16105907 0.10107757 0.12208891 0.08711195 0.21316595 0.058766104 -0.24001102 0.1462597 -0.016391646 0.0012996466 -0.033247914 -0.29414952 0.23679098 0.2230061 -0.064197116 -0.148144 -0.18331191 0.03016546 0.087150395 -0.07546006 0.097915165 -0.051515896 0.1725512 -0.2035989 -0.006555174 0.077369094 -0.10333733 0.063805826 -0.16623522 -0.2181141 0.05587448 -0.015610533 0.023399336 -0.015734399 0.05773944 -0.055801176 -0.16018176 0.03861546 -0.074004784 -0.048015505 -0.06494901 -0.17089914 0.038915545 0.05396642 -0.02280162 0.11223429 -0.06678794 -0.043729104 0.22354002 0.17239472 0.20909895 0.09209264 -0.17866176 -0.015176193 -0.008414885 0.07764678 0.09929207 -0.14351958 0.03549692 0.07039683 0.18613517 0.20847824 -0.036482245 0.050322525 -0.0063259993 -0.034428276 -0.12936519 -0.07676312 0.016393907 -0.025973069 0.18022406 -0.07777101 -0.082682416 0.17997813 -0.13831013 -0.03812122 0.1303315 0.14013945 0.044464592 0.04916312 -0.04244567 0.0022491545 -0.107408434 -0.0944002 -0.017817691 0.06722432 -0.13074586 -0.18895087 -0.07187465 0.07521936 -0.17322479 0.12641661 0.012453922 0.14806643
1237 0.0149100665 -0.034190208 -0.045688413 0.14107162 0.03652004 -0.029433198 0.036007356 -0.0697023 0.02149803 -0.11328736 0.09225674 -0.17468914 -0.10686447 0.05190337 0.080270335 0.100524634 -0.039432436 -0.16463152 -0.0039409846 0.11182598 0.2303278 0.14873967 -0.08201331 -0.014343596 -0.12038679 0.06416082 0.0033165156 0.048947003 0.1173018 -0.10125376 0.19087684 -0.1338421 0.0029586498 -0.0082580745 0.14700219 0.24480958 0.11290996 0.046107214 0.07608626 0.0020061906 -0.26587394 0.16475827 0.04844073 0.08722084 -0.06628571 -0.18771563 0.14150849 0.23078276 -0.24493296 0.23771422 -0.08814066 -0.0125272 0.082045026 -0.114330806 0.14361483 0.02986248 0.18388927 -0.05201637 0.039945643 -0.074720554 -0.0601833 -0.18500942 0.04610205 0.059082568 0.15383309 -0.14340611 -0.06760956 -0.0610404 -0.04738395 -0.01635757 -0.050358523 -0.061030097 -0.04536817 0.040017787 0.054619826 -0.16087706 -0.17194661 -0.09978121 -0.1887211 0.04917833 -0.11569953 -0.0055241697 0.069694124 0.16703866 0.02640439 0.04480819 0.005383772 -0.009707296 -0.05047308 -0.09907855 0.057498578 -0.11092616 -0.0029221664 -0.09500934 0.062128555 0.06906838 -0.011981065 0.0425338 -0.03352669 -0.0017271929 -0.18533269 -0.023249237 -0.019067356 0.0032227521 0.14848097 -0.06058247 -0.094736055 0.18855593 0.014229479 -0.042952765 0.10376955 0.03856499 -0.030994339 -0.056882687 -0.04833912 -0.073646955 0.055024914 -0.057275422 -0.13471316 0.07860978 0.008541002 -0.07356056 0.026230613 0.18705083 -0.15778603 0.020319317 0.095053986 0.037768338
1103 0.0860482 -0.024014536 0.09534819 0.10650455 0.090086 -0.044638596 0.18881027 -0.09289527 0.097477645 -0.08960826 0.11760179 -0.066608176 0.13718802 -0.115635425 0.22222714 0.18046765 -0.22327662 -0.17290205 -0.17490928 0.2327392 0.01939568 0.19657424 -0.03726422 0.03013501 -0.084396295 0.14465351 0.08220038 -0.01426542 0.08169099 0.0596833 -0.05137371 -0.11697893 0.1530939 -0.16815604 -0.031880558 0.31238958 0.013437028 -0.045751963 0.1222541 -0.16435847 -0.28811565 0.28400463 -0.020839833 -0.03314467 -0.17018923 -0.2583403 0.11727293 0.12463641 -0.009161717 0.11073278 -0.02308277 -0.0018326959 0.037745196 0.012595859 0.10707375 0.08231184 0.18160339 -0.07842097 -0.179023 0.113173634 -0.05238573 0.11125167 -0.14767449 -0.10317205 0.132071 -0.23142081 -0.03599718 -0.046281412 0.08148175 -0.02046533 -0.1994716 -0.059582457 -0.06510869 -0.07217878 0.05040297 -0.08398476 -0.23374067 0.0003597594 -0.12258062 -0.053690474 0.03530053 -0.1929168 0.17717005 0.04807467 0.12462273 0.0892712 0.047716435 -0.038024236 -0.020562734 -0.1251488 -0.03349134 -0.21743159 -0.024074482 -0.049783327 0.06175108 0.2439419 -0.06562465 0.071316 -0.07145176 -0.100340486 -0.13770147 -0.18095696 0.06011741 0.046980266 0.087743446 -0.0045738756 0.0131627135 0.2241644 0.07583543 -0.03055299 0.13527235 -0.1275397 -0.12380589 -0.02872923 -0.12141583 0.12690619 -5.5741213e-05 0.015383952 0.044986714 0.027163751 -0.22074662 -0.07375091 -0.25656667 0.027939182 -0.18621807 0.07972222 0.13819982 0.15858734
1287 -0.046737667 0.11937736 0.15856898 0.056710698 0.08227285 -0.10268743 0.09689087 0.07356503 0.013508306 -0.00925607 -0.0836612 0.03005408 -0.09356189 -0.034793444 0.01062258 0.069464736 -0.12268054 -0.1399919 -0.15484928 0.0043220706 0.28253573 0.20809591 -0.0150148785 -0.12277041 -0.19881214 0.17251934 -0.07336687 0.15372786 0.18790838 -0.20455903 -0.0013579441 -0.09496615 -0.08354716 0.0843039 0.17149268 0.19154252 0.2665884 0.090533905 0.2010948 -0.02539541 -0.21838108 0.1354867 -0.22092997 0.053254113 0.07587144 -0.27602324 0.14965837 0.18462704 -0.16657034 0.011780506 -0.020502891 0.10734946 -0.006797503 -0.13141762 -0.06131962 -0.046452984 0.3611776 -0.23702626 -0.13444977 -0.0006067415 -0.025495715 -0.042943995 -0.102069706 0.045582034 0.043941904 0.0013805855 0.33286244 0.15097353 -0.015411363 -0.06384831 -0.0022179056 -0.1266821 -0.020531986 -0.009249066 -0.17464289 -0.14687446 -0.17178845 -0.0993362 -0.040225316 0.17522632 0.13465737 0.078404285 -0.083279744 0.14093526 0.22965117 -0.0046008416 -0.08858118 0.06745774 0.11529825 0.06766412 0.046928506 -0.043648504 0.016828116 -0.10607007 0.10791319 -0.13605624 -0.02479506 0.21616505 0.02764788 0.2327269 -0.110804714 0.024842586 0.056859475 -0.046100877 0.08802583 0.04614669 -0.23836489 0.17950463 -0.21089819 0.05439704 0.06812711 0.10874573 -0.0026277853 0.27530205 0.13534385 -0.08957623 -0.105723634 0.13466781 -0.012009344 -0.058908496 -0.11639034 0.011070295 -0.11624242 -0.051458973 -0.22288643 0.015096926 -0.050233077 0.22783862
1164 0.07560093 -0.0051471167 0.13668984 0.03327348 0.06046045 0.0022332207 -0.049156 -0.03750224 0.024241641 0.037498098 -0.06230176 -0.13837819 -0.054583542 0.21408932 0.20400715 0.20021243 -0.023738815 -0.026572526 -0.1714175 0.09772151 0.10172295 0.066363566 0.014928714 0.013225355 -0.23368886 0.03725659 -0.011711881 0.21595922 0.18880853 -0.08000461 -0.045365643 0.062029503 0.13839498 0.055050932 0.12295634 0.26055297 0.18702596 0.014909272 0.028517842 0.0036852618 -0.080994524 0.07296996 0.06658711 0.07401446 -0.10359639 -0.0250109 0.11235176 0.09096482 -0.06111624 0.02196739 -0.034663934 0.14423528 -0.16166207 -0.054147977 0.073353305 -0.10902465 0.17293774 -0.09706363 0.009781898 0.025434649 -0.09760849 -0.06833291 -0.022217145 -0.04871966 0.08743784 -0.06514062 0.00059078075 0.043505676 -0.16835263 -0.073550425 -0.20938154 -0.12053165 -0.09162113 -0.07604153 -0.050494075 -0.16378976 -0.0072958283 -0.012848794 -0.16327807 0.2673737 0.046121214 -0.013934145 0.078415915 0.10038299 0.111741655 0.016344065 0.1519854 0.0047555994 -0.04839428 0.07753486 0.11811913 -0.09417865 -0.096065454 -0.29503158 0.085160665 -0.057523236 0.073468804 0.12407517 -0.14544126 -0.10013127 -0.025351197 0.009492869 0.059328005 -0.057224877 0.1532929 -0.08017849 -0.08827184 0.2969759 -0.11644591 -0.01596295 -0.1331477 -0.016168037 -0.014099135 0.09024609 -0.13427939 -0.055399276 -0.021778924 0.040541667 -0.08936407 0.0313184 -0.03651904 -0.069314726 -0.0053745145 0.16657567 -0.34923154 0.03031753 -0.03467465 0.09748026
1140 -0.0176119 -0.17167015 0.010154282 0.07117961 -0.0059559145 0.073281124 0.057100415 0.019172665 -0.018697858 0.055546362 0.016207669 -0.13885863 -0.13294484 0.36069065 0.16288759 0.22800633 0.0176524 -0.041960813 -0.15510692 0.15853858 0.053478293 -0.02891199 -0.047479875 -0.023503965 -0.036942206 -0.006169051 0.0022130546 0.18174775 0.024124337 0.046180524 0.0460305 -0.038050912 0.14005437 0.008410902 0.3292475 0.25892127 0.016218152 0.045421083 0.00078063965 -0.068463944 -0.23662737 0.26731074 0.12114598 0.018128145 -0.1602901 -0.16602233 0.12604871 0.06057727 -0.091325335 0.05028003 -0.099408366 -0.023258958 -0.035624176 -0.12474804 0.13492884 -0.012615938 0.15146592 -0.17714731 -0.04125671 -0.07990848 -0.12946205 -0.115222685 -0.10258902 -0.04126817 0.14195704 0.0036469523 0.08907895 -0.05106746 -0.009139209 0.117277645 -0.02028728 -0.031396884 -0.17044981 0.013441602 0.07356692 -0.17940718 -0.103626765 -0.064376764 -0.028030137 0.049794436 0.00840908 -0.09498918 0.101802856 0.13739452 -0.058495164 0.07826986 0.0547003 0.03985882 -0.030212848 -0.05188953 0.15967192 -0.026980791 0.020882424 -0.085811116 0.16579439 -0.08362515 0.020838888 0.028112222 0.052395836 0.113703765 -0.23234342 0.051696964 -0.0007868633 0.0648522 0.0911635 -0.093983956 -0.030109476 0.13576473 -0.14207903 -0.012779845 -0.028192656 -0.11505086 -0.043285318 0.067516856 -0.02148277 -0.042157695 -0.07918133 -0.007915342 0.057701726 0.077006154 -0.09050588 -0.04814526 -0.11705683 0.14550096 -0.1824579 0.0004683907 -0.018831613 0.015415176
1156 -0.16032764 -0.16250426 -0.1568235 0.14210075 0.034143083 0.08498869 0.3055639 -0.024707781 -0.061537642 -0.050558593 -0.08737829 -0.049327493 -0.0437288 0.03648034 0.008781566 -0.018094162 0.005940584 -0.17994429 -0.211039 0.22957522 -0.0046429024 0.20889269 0.0120491935 -0.14078519 -0.16188665 0.25255147 -0.121285774 -0.022138273 0.04369388 -0.23410544 0.023826415 -0.012286841 0.1011272 -0.17213053 0.05385529 0.364663 0.115686014 0.06897589 0.06903733 -0.1093033 -0.23735927 0.18836099 0.036885213 0.077649005 0.098250195 -0.04554093 -0.15092169 0.2171438 0.05907687 0.18325101 0.008071523 -0.06996351 -0.04554928 0.008116817 0.051645406 -0.22635326 0.17672761 -0.046359465 -0.01030058 -0.050555985 -0.015379496 0.005958086 0.08055352 -0.082443506 0.09861276 -0.10551455 0.01394305 -0.07909082 0.13408375 -0.12026269 -0.113687396 0.06538612 -0.15510346 -0.0025682743 0.023751825 -0.14818087 -0.1400973 0.04981747 -0.18190916 0.022925096 -0.068385914 -0.022992125 0.21360765 -0.021129273 0.11088793 -0.054742903 0.1516785 -0.07698092 0.0279325 0.04180008 -0.06891478 0.05519132 0.07105873 -0.007118414 0.1629336 0.109235875 0.10726816 -0.004377444 -0.101437956 -0.07906641 -0.16191909 -0.045605578 0.037121493 -0.103361614 0.054972783 0.16229808 -0.13846149 0.23860772 -0.066892296 -0.13776745 0.089463055 0.008529684 0.075472474 0.04336348 -0.05729683 -0.050719935 -0.122106574 0.049902327 -0.15623991 0.09504966 -0.08706726 -0.10249041 -0.07325302 0.08818353 -0.1801583 -0.012212122 -0.11059988 0.08737231
1297 -0.07019195 -0.17779557 0.042388108 -0.017968237 0.027583933 0.031683285 -0.0055862265 -0.078205556 -0.10719366 -0.025343655 0.08786983 -0.13798556 -0.13468558 0.17282364 0.2341652 0.13346775 0.067430496 -0.14672066 -0.11299759 0.009204073 0.11859626 0.18572228 -0.12675495 0.017733464 -0.04005512 0.01758785 0.048567582 0.17187238 0.07994078 -0.066766776 0.060554914 -0.06207347 0.09898968 0.03507392 0.0907292 0.30246538 0.049443506 0.04277779 0.02094186 -0.014483418 -0.28194615 0.20255736 0.15129946 0.09733883 0.02864671 -0.06858248 -0.009508354 0.0079404 0.015984165 0.093248695 0.051410016 -0.054876503 0.037196245 -0.018521754 0.031057594 -0.12829107 0.11334363 -0.18275541 -0.006106493 0.087296024 -0.03629366 -0.24930578 -0.015994221 0.0014637256 0.11863892 -0.0060718367 0.0038537143 0.07689472 -0.027090106 0.046934564 -0.062574364 -0.067229785 -0.037037894 0.072403476 0.13713321 -0.08596087 -0.059312522 -0.034852445 -0.20601961 0.22237259 -0.027401352 -0.05262544 0.081292376 0.20680381 -0.055126883 0.06955987 0.06670927 -0.097274974 -0.051662777 0.025493808 0.031422924 -0.017352935 0.04490884 -0.14718142 0.155815 -0.0035173036 0.038230963 -0.01646084 -0.019213475 0.02620598 -0.07030449 -0.054906074 -0.064768024 0.0015028112 0.1314265 -0.049843542 -0.07725714 0.15115476 -0.047270298 -0.038077857 0.10163109 -0.07898853 -0.0011268122 -0.03434138 -0.1015074 -0.06921288 -0.108089045 0.010861554 -0.005290136 0.03461861 -0.047024403 0.012955794 -0.12698972 0.13679817 -0.14156525 -0.033504967 -0.044686038 0.04907807
1271 -0.042171165 -0.04870758 0.09924421 -0.04568826 -0.0060427994 0.013640555 0.11831175 -0.053573314 -0.1263778 0.107377686 0.007996912 -0.22223714 -0.21147586 0.15619792 0.17397451 0.083703995 0.08290539 -0.010019408 -0.05451121 0.015528938 0.16406545 0.13465323 0.039333403 0.06077433 -0.13090833 -0.0021348172 -0.0377977 0.14194341 0.08507972 -0.055472743 0.09541235 -0.039385885 0.13697325 -0.021398716 0.20924258 0.23763482 0.087748855 -0.008903591 0.09078837 0.096108556 -0.20147847 0.21277672 -0.02773237 0.05952457 -0.049000192 -0.0839055 0.11977642 0.110373564 -0.07632874 0.10023809 -0.0785426 -0.05182685 0.12678677 0.028470311 0.060094398 -0.09329708 0.24849784 -0.11151422 -0.069636725 0.01614831 -0.12500499 -0.17779657 0.07707201 0.033990316 0.09055798 0.06820284 0.020084852 0.043214157 -0.103449956 0.027312486 -0.06933683 -0.11782775 0.026790945 0.10277637 0.09221987 -0.19861123 -0.13897611 0.08355476 -0.14065278 0.15211757 -0.06005812 0.033732176 0.09073352 0.14119042 -0.04028055 0.15261169 0.118896216 -0.04503209 0.06301173 -0.025969332 -0.019137908 0.0651695 -0.053109355 -0.039530817 0.1460222 0.0041000117 0.08401088 0.077314645 -0.05859061 0.026896514 -0.10778668 0.04382884 -0.08149713 -0.039506763 0.18264066 -0.12812784 -0.12897779 0.09373919 -0.08474002 0.04577411 0.0020040045 -0.12249396 0.0005496461 0.08192951 -0.1195205 -0.10841982 0.1154201 0.071004815 0.037299354 0.010365336 0.038145903 -0.071290806 -0.0576371 0.18464752 -0.15359458 0.029455137 -0.037207942 0.015552336
1145 0.0047599836 -0.037762832 0.09905616 0.09240491 0.033521913 -0.0060582003 0.060863182 0.0022922994 -0.18458918 0.0233913 0.11298919 -0.07384208 -0.233261 0.10707197 0.033494204 0.067916155 0.048329987 -0.07071699 -0.04663481 0.16887115 0.16088602 0.058267858 0.028666642 0.027505767 -0.0729015 0.032719526 -0.051351137 0.17113335 0.088277765 -0.13856086 0.012017052 -0.079789795 -0.111202225 -0.09813301 0.15556662 0.1022306 0.19881123 0.006982277 0.08708712 0.0029153964 -0.2608254 0.21364243 0.07842601 0.04175199 -0.030543497 -0.069168694 0.104753464 -0.009636162 -0.09143893 0.16249631 0.0013693266 0.006993542 -0.018344697 -0.06420188 0.008805088 -0.09488865 0.1276342 -0.20418212 -0.12894605 -0.036859367 -0.08911508 -0.2072462 0.03416613 0.04212382 0.021513866 0.01654889 -0.026552336 0.05031379 0.08730022 0.025051787 -0.052349143 -0.12121076 -0.11365528 -0.028216563 0.12484851 -0.19706486 -0.2247562 0.028770614 -0.2844288 0.28019953 0.018531105 0.07488659 0.1372619 0.13095696 -0.035812706 0.009461312 0.09252381 -0.17524268 -0.036057595 -0.024944745 0.08255816 -0.011888567 -0.06427112 -0.09813745 0.109206066 0.091260776 0.036688477 0.0060880166 -0.15985882 0.064682774 -0.04852072 0.052229 -0.06513771 0.08577154 0.13252325 0.016038742 -0.06656868 0.19369996 0.018017737 0.034053065 0.022355592 -0.12583049 -0.0019847394 0.099714056 -0.12299917 -0.05233246 0.043566514 0.041499026 -0.10067544 -0.055776045 -0.029707845 -0.049879596 -0.07082527 0.084444776 -0.13239728 -0.16794716 -0.055442724 0.046079602
1413 0.0049295183 -0.1968447 0.07270285 0.041061256 0.045215238 0.055047788 -0.0053623607 0.06627433 -0.037933446 0.036553923 0.048105758 -0.1150584 -0.22303878 0.094653346 0.13387932 0.14778388 0.024005216 -0.018313346 0.020765832 0.21842945 0.19273539 0.23010857 0.04977291 -0.022258192 -0.10186023 0.029470364 -0.013167835 0.051677335 0.11273652 -0.0034268247 0.09469437 -0.025627954 0.02660881 0.19828367 0.15167435 0.14174728 0.04956665 0.03738278 0.08093691 0.036358774 -0.28019848 0.3455155 0.07080514 0.01487705 0.1133125 -0.0443756 0.044424437 0.034979057 0.02731772 0.042218655 -0.13130164 0.15410568 -0.031908393 0.04980947 -0.0058696573 0.012824092 0.2629636 -0.15062746 -0.031246075 -0.011253087 -0.115375295 -0.07596183 0.051378246 0.1472034 -0.10637028 0.026531711 -0.06427228 0.12726846 -0.046934642 -0.05174085 -0.08049289 -0.053152923 0.023932612 -0.13431476 0.1882232 -0.22845231 -0.06742616 0.0402713 -0.21588928 0.1525196 -0.05595982 -0.08173351 0.14968629 0.047420114 -0.024411045 0.013000296 0.13464504 -0.12812777 0.07163289 0.00019364202 0.08710508 0.07531337 -0.03340043 -0.12981097 0.22070019 0.0057439907 0.08406492 -0.0437812 -0.17035845 -0.018867308 -0.10806963 0.059672203 -0.0248965 -0.02080408 0.18098834 -0.07089877 0.019351799 0.14896977 -0.084449574 -0.07245171 -0.022372229 -0.09180013 0.005161675 0.03687768 0.006522252 -0.07956399 -0.06923282 -0.02534518 -0.16984394 0.091258466 0.12393162 -0.065178305 0.04941217 0.23753725 -0.14776555 0.15262167 -0.06545047 0.094085924
1238 0.043161284 -0.09614719 0.01835224 0.012051563 0.06070821 0.082951985 0.12510039 -0.053268775 -0.043643914 0.10294163 0.068580545 -0.12805697 -0.14357375 0.11858553 0.22411726 0.21237767 0.016267119 0.021287683 -0.023641985 0.059629347 0.10020076 0.12322934 -0.038649753 0.03932515 -0.065006085 0.036080856 0.0068065454 0.13718797 0.03128392 0.035839617 0.039117455 -0.14103016 0.0998053 -0.0704404 0.097440526 0.19113888 0.061467323 0.054437462 -0.07084354 -0.090136334 -0.25304478 0.26888573 0.06444488 0.093889624 -0.096170545 -0.077250645 0.21633236 0.019615734 -0.05441181 0.038109496 0.048997123 0.04721401 0.023956902 0.047062293 0.06170495 0.0007943877 0.118852586 -0.14896241 0.062277608 0.0040834104 -0.07294511 -0.10956689 0.123557925 -0.0024295452 0.0326266 -0.000837788 0.079296164 0.06643117 -0.109130986 0.041333903 -0.07932881 0.02138758 -0.07369419 0.0060349056 0.06584692 -0.20881797 -0.087711304 -0.03295044 -0.20825021 0.1678855 -0.01647238 -0.11883629 0.07603306 0.17469373 0.032262627 0.06819673 0.09039464 -0.114852384 0.0330823 0.00076835003 0.07027877 0.08341641 0.047837473 -0.21140368 0.17523745 0.0035517185 0.10980532 0.012659142 -0.06368771 -0.09726101 -0.0955863 0.003955123 0.06725455 0.015313419 0.17304447 0.0019852836 -0.10113209 0.1853156 -0.18788052 -0.041211516 0.002319431 -0.022587042 -0.004003294 0.034565438 -0.121397324 -0.17572404 -0.105685614 -0.010007419 0.002643894 0.002885078 -0.0037532758 -0.12157127 -0.09178362 0.07857837 -0.12700827 -0.03484542 0.061809942 0.09827992
1370 0.043370698 -0.04994717 0.057218704 0.058139674 0.10908006 0.09976502 0.036464922 0.05169975 -0.21870448 -0.070410214 0.09235205 -0.123363964 -0.17793016 0.21220998 0.10936256 0.040945046 0.076945364 0.032352272 -0.12451388 0.11793309 0.15251717 0.062736094 0.07290938 -0.046552677 -0.15863997 -0.080263495 0.034148816 -0.08352538 0.12057476 0.01582962 0.032802004 -0.09281525 0.15464357 0.10253099 0.048622195 0.2884292 0.13164546 0.036195092 0.041834492 0.050067425 -0.19992399 0.2854486 -0.021407733 -0.049598202 -0.09153531 -0.06656477 0.006484435 0.044428375 -0.12633157 0.055694614 -0.06324121 0.018087454 0.065744415 -0.07586706 -0.036537282 -0.095313035 0.099140115 -0.07271696 0.07975429 -0.051471617 -0.061042886 -0.1811208 0.06859408 0.022286838 -0.021588046 0.12339605 0.06295542 0.11329263 -0.07374575 0.062244993 -0.08166266 0.13822718 -0.0988257 -0.061953943 0.19753948 -0.21342652 -0.053923637 0.017870836 -0.19046177 0.23482843 -0.00606615 -0.0872065 0.13380773 0.16776761 -0.02015488 0.13394825 0.092624 -0.15119241 0.04974378 -0.07747397 0.008768166 -0.009231962 -0.05724428 -0.11510417 0.031220648 0.012330252 -0.011156825 0.067769796 -0.045611516 0.011078927 -0.08120644 0.034233905 -0.064826034 0.011358524 0.21501923 -0.15181258 -0.046781287 0.214616 -0.11525099 -0.046830744 -0.050943777 -0.015828844 -0.05141587 0.1055812 -0.024633277 -0.12995377 0.074750796 -0.039570685 -0.06364177 -0.0077520926 -0.0015903362 -0.03687098 -0.074165255 0.12420462 -0.23996003 -0.0619268 0.034669675 0.09027431
1197 0.11405045 -0.13207327 0.11506241 0.021349788 0.03191905 0.022458231 0.13342415 -0.05128825 -0.05758188 0.026999423 0.093348086 -0.076607026 -0.24866936 0.21970525 0.1186872 0.1443302 -0.079126015 -0.008276952 -0.10652254 0.06927706 0.1141213 0.02216777 -0.0710234 -0.109591156 -0.012714127 0.041055843 -0.050790038 0.1377673 0.09484207 -0.019857137 0.008059319 -0.060996756 0.037482023 -0.15896998 0.0890609 0.17727284 0.13943924 0.0153019065 0.04095614 0.076541446 -0.25712475 0.2781562 0.18049838 0.06655989 -0.09378665 -0.09489285 -0.012115419 -0.015835878 0.058558263 0.1971711 0.042823173 0.01157159 -0.009370525 -0.021975188 0.06471697 -0.057507493 0.07961549 -0.19179918 -0.031278823 0.109550394 -0.065968506 -0.0650159 0.043759342 0.04305559 0.15937616 0.0004608055 0.07430564 0.05856227 -0.14411385 0.10555876 0.048197042 -0.07118423 -0.07195345 -0.013181264 0.030904448 -0.15302375 -0.15168639 -0.076037474 -0.12797217 0.13747579 0.0772699 -0.006227292 0.15956804 0.13345729 0.16400637 0.023080794 0.13234837 -0.09761009 -0.11067437 0.0013539237 0.035845373 -0.09836084 0.0093843 -0.09869345 0.13904347 0.07288627 -0.03804385 0.06720681 -0.14629734 -0.064981475 -0.079868 -0.015900197 -0.008577723 0.017062288 0.18027855 -0.1242863 -0.06629164 0.17000021 -0.00911681 0.037726246 0.15568663 -0.1024418 0.09890971 -0.043360073 -0.18256475 -0.1584824 0.045210175 0.020546973 -0.027891407 -0.04234581 0.007140846 0.0010350869 -0.08526299 0.14945042 -0.14053369 0.051283717 -0.044082582 -0.02574115
1199 0.031371515 0.053704068 0.08116426 0.061272178 0.009783709 -0.002845269 0.05246103 -0.01471141 -0.08215282 -0.1428674 0.00283015 -0.071339466 -0.22483629 0.20393924 0.18910584 0.123456255 -0.04417062 -0.060309418 -0.16792373 0.066359706 0.10501388 0.038258478 -0.12668899 -0.095566794 -0.08049223 0.099860124 -0.0088250255 0.07596504 0.03909332 0.07241476 0.07212521 -0.12683448 0.08910083 0.038810216 0.13479604 0.14027163 0.21590549 0.036741238 -0.0068435976 0.00795473 -0.20392944 0.27544123 0.09698544 0.062183615 -0.19536482 -0.09165835 -0.021636115 0.061781794 0.0006369486 0.0427214 0.07518932 0.074842244 -0.009676744 -0.06849328 -0.23238648 -0.044472866 0.09748658 -0.2781846 -0.1070657 -0.09986405 -0.15602109 -0.068855874 0.07770205 -0.073418766 0.08600494 -0.025367407 -0.019135954 0.057218395 -0.08562294 0.0026543795 -0.027577594 -0.07411975 -0.023599548 -0.0180643 0.11513782 -0.15836594 -0.051704917 -0.046094313 -0.17797738 0.09884682 0.13821965 -0.057226982 0.1641887 0.041869096 0.051777564 0.023679074 0.18348275 -0.054621622 0.016507914 0.051012743 0.18596222 0.0018959213 0.029616486 -0.16630924 0.17685905 0.059792913 -0.057461143 -0.03763726 -0.028463392 0.06159582 -0.08859131 0.041038383 0.06612096 -0.005327564 0.1492642 -0.22001193 -0.15725051 0.22509526 0.07083585 -0.063282296 0.029435921 -0.023578461 0.002959781 -0.015416084 -0.12584856 -0.16013773 -0.0171479 0.0043894425 0.06165887 0.0712579 -0.16133645 -0.08685573 -0.104285 0.21005286 -0.10056029 -0.009686746 -0.0038384455 0.12982777
1146 0.005648611 -0.0015776239 0.08325415 -0.08268093 0.05376182 -0.06449646 0.066229835 -0.022050073 -0.20025164 0.036977615 0.03954935 -0.20382635 -0.086306445 0.21163826 0.16145909 0.057373088 -0.033712216 0.016535698 -0.13129625 0.15946673 0.16768472 0.20342407 0.0775912 0.043198254 -0.11491279 0.050373774 -0.0006732945 0.16273701 0.10303264 0.060439162 -0.01303793 0.045598764 0.04952047 -0.035315994 0.12959066 0.23077962 0.068813585 -0.056358095 0.07740718 0.029945469 -0.22280976 0.18194857 0.16073576 0.028290225 0.013724386 -0.1672022 0.15191145 -0.06472893 -0.04667048 0.12641299 -0.06377411 0.05856176 0.0878068 0.020458288 0.046526916 -0.104295604 0.16656761 -0.15245233 0.064943075 0.021677831 -0.08059007 -0.1942372 0.08970157 -0.009726036 0.03376002 -0.04432319 0.029896831 0.031486746 -0.094647065 0.070613526 0.0043922444 -0.0073087453 -0.00311888 0.036370676 0.025457622 -0.117589384 -0.15383774 -0.042425677 -0.20282827 0.12444394 0.04190675 -0.011368983 0.14993672 0.17990215 -0.016842239 -0.014950745 0.1855487 0.009718902 -0.032819077 -0.04924023 0.114312574 -0.08998291 0.04562556 -0.14180541 0.16686021 0.100430295 -0.05206606 0.07872915 -0.16251726 0.053385634 -0.11890238 0.041814014 -0.08182744 -0.100093655 0.1262564 -0.10710799 -0.07623596 0.23701169 -0.058649607 -0.09354806 0.06510472 0.01307293 -0.08918618 0.027784899 -0.08171437 -0.16034006 0.005084905 -0.02095064 0.03000913 -0.016595904 0.033344805 0.0013514844 0.013766451 0.15159446 -0.09800794 -0.057043754 0.06952042 0.03484874
1286 -0.18958065 -0.083033636 0.01524583 -0.04335389 0.03756627 0.045051537 0.02168175 -0.018101085 -0.19821991 0.0032898034 0.06615868 -0.1896894 -0.20587292 0.18648967 0.0968473 0.11736693 -0.023277024 -0.10154311 -0.094029024 0.12623419 0.021949874 0.010971804 -0.0073721977 -0.033807028 -0.13412426 0.044475485 -0.06235771 0.18623029 0.059288576 -0.13977505 0.031850766 0.0682038 0.021740189 0.029836923 0.16334221 0.2280159 0.10167233 0.023790596 0.034881983 0.0056029637 -0.2204233 0.31367385 0.14425665 0.022990536 -0.061017025 -0.11566429 -0.000231257 0.05749435 -0.029550275 0.23200339 0.009066153 0.041209575 -0.17656186 -0.053039804 0.0006432204 -0.015979804 0.12700489 -0.18261749 -0.1167296 -0.09763943 -0.1359187 -0.22489886 0.060965672 -0.0758874 -0.09205295 -0.035461288 -0.060710296 -0.052479863 -0.099222586 0.020924997 -0.013955601 -0.102797605 -0.022354223 0.07246343 0.114630036 -0.19028778 -0.10271366 -0.08220339 -0.19659479 0.089347415 -0.050829343 0.08609228 0.0841607 0.17986235 -0.021786284 0.019700658 0.07391581 -0.14965878 -0.03466494 -0.021809317 0.074007824 -0.055280652 -0.044597104 -0.017062908 0.2516054 0.030468479 0.059741247 0.055875797 -0.109018564 0.07310651 -0.09670286 -0.014422092 0.14928511 -0.069793254 0.030016929 -0.11862893 -0.09050063 0.14624043 -0.075103775 -0.04571284 0.0053796764 -0.1510864 -0.027305774 0.023126582 -0.10376837 -0.13370892 0.0048390715 0.094485916 -0.004684218 0.050283525 0.016898986 -0.06844743 -0.08291948 -0.03966968 -0.16584179 0.048610993 -0.029765597 0.012898965
1128 0.06989182 -0.1542673 0.05715133 0.13116947 0.120501176 0.07951418 0.11093818 -0.12423402 -0.107341655 0.054233875 0.2161299 -0.14277032 -0.112852715 0.26964894 0.13865578 0.21062918 -0.0891874 -0.0033711407 -0.11427642 0.07586989 0.04701166 0.11446267 0.0141594475 -0.13315992 -0.013333801 0.031328987 -0.12484463 0.13426767 0.1522905 -0.072999924 0.009735708 -0.06826633 0.101828076 0.0329831 0.12134908 0.15504 0.0634309 -0.00719837 -0.024809133 0.079968095 -0.29414448 0.23804934 0.0021493703 0.10814919 -0.09716528 0.03688665 -0.00712305 -0.007869657 -0.022265447 0.1489487 -0.022809647 -0.10239659 0.042934135 -0.059541836 0.019539425 -0.068221144 0.17050958 -0.112823315 -0.05047476 0.040771313 -0.040722772 -0.11517514 -0.06928269 -0.02917398 0.034916043 -0.07220262 -0.062622406 0.14424571 -0.015878914 0.022929726 -0.06345895 -0.050331265 -0.07701068 -0.15401952 0.22114499 -0.2027213 -0.0660761 0.08759159 -0.15011026 0.07309826 -0.03807009 -0.14461201 0.025602179 0.17280668 0.060761087 0.05248999 0.08064167 -0.17032786 0.021291254 -0.07422233 0.003556187 -0.11909892 -0.036043353 -0.0466411 0.17508383 0.13876629 -0.00086934026 0.010631991 -0.029930348 0.04713513 -0.045869626 0.06779869 -0.1141349 0.022764765 0.03448982 -0.111144245 -0.046976767 0.18546358 -0.037102383 0.114329614 0.06392493 -0.021509143 0.04521671 0.05181333 -0.157231 -0.014109706 -0.022303702 -0.037645806 -0.0038595484 -0.045175366 -0.014530995 -0.051126614 0.018172774 0.23089117 -0.14343649 -0.095993415 0.06801121 0.0055680973
1144 -0.07541325 -0.11246698 0.060484204 0.07238989 0.023139102 0.09086202 0.08628899 0.0696809 -0.0854523 -0.022273107 0.03937214 -0.19034247 -0.1739957 0.24632925 0.1692598 0.15115455 0.019780891 -0.0023183052 -0.22443874 0.0043703676 0.10124887 0.033533204 0.031624854 -0.020814545 -0.06465454 0.05448541 0.008547085 0.08390871 0.08297276 -0.034031086 -0.007692649 0.058100056 0.03242658 -0.057512946 0.13871948 0.12023713 0.13169691 -0.09318549 -0.03680042 0.11808301 -0.22223087 0.33762336 -0.017752975 0.09227028 -0.013674885 -0.085218415 -0.022948945 -0.021737602 0.023775602 0.024888061 -0.01287736 -0.0099942135 0.029655362 0.019651238 -0.010063959 -0.07913697 0.22617835 -0.23244597 0.037453033 -0.021615347 -0.14279352 -0.12048903 -0.025137277 0.026506025 -0.009308484 -0.039201226 0.01483073 0.042043127 -0.099325046 0.04097956 0.015089963 -0.09525089 -0.029525606 0.053959463 0.06355708 -0.20828657 -0.1123659 0.046069317 -0.16079967 0.1986511 -0.070406176 -0.046940494 0.0342709 0.1393386 -0.011895397 0.08441109 0.08880021 -0.052720174 0.009208967 0.12076371 -0.009972169 0.022955349 0.04938355 -0.032742903 0.16283137 0.06056204 -0.008701367 -0.03417901 -0.080768935 0.054853264 -0.112048104 0.043379817 0.012635443 -0.006104752 0.19454327 -0.10745157 -0.0038421126 0.04681966 -0.0798635 -0.12247893 0.064441726 -0.11869318 0.05727603 0.057194352 -0.19439165 -0.06462195 0.03875238 0.0069601354 -0.015672924 -0.009068465 -0.066876836 0.0058652232 -0.029358838 0.24141677 -0.19709298 -0.029653344 -0.06804522 0.06956942
1352 0.033850566 -0.05003396 -0.036110334 -0.061199646 0.014247535 0.059062555 -0.0130780935 -0.0144772995 -0.09441894 -0.09020686 0.18892963 -0.0671093 -0.13321465 0.16010274 0.17484115 0.1167083 0.014022571 -0.07734961 -0.15861034 0.10410422 0.123642586 0.13562378 -0.081702374 -0.041857615 -0.057314392 0.09215303 -0.09112509 0.13630772 0.10400544 -0.017416703 -0.03853487 -0.115025155 0.19355476 -0.024441121 0.119677246 0.1393166 0.14254731 0.019866697 0.0061185835 0.12770005 -0.29527587 0.2726484 0.032259807 -0.01052747 -0.059790332 -0.12552164 -0.07571777 0.034679994 -0.013074128 0.1009702 -0.069404304 -0.03175164 -0.010822216 0.03233868 0.048574217 0.020223573 0.2677413 -0.10626581 -0.06500933 -0.023370262 -0.052458398 -0.21260624 0.00725719 0.0658747 -0.029551055 -0.05594269 -0.06880748 0.106105305 -0.041682966 0.11912282 -0.074883066 -0.06620696 -0.17420259 0.012117597 0.04260765 -0.19367824 -0.17956428 0.034950856 -0.24478143 0.12130029 0.059007477 -0.11266261 0.13700004 0.14874378 0.044670373 -0.038627207 0.070379056 -0.09190988 0.03571148 -0.06880695 0.092249654 0.004109169 0.006530838 -0.030717786 0.11077275 0.03410018 -0.022228098 0.031183407 -0.05213123 -0.023949767 -0.02098442 0.021889716 -0.06294561 -0.10745874 0.033398706 -0.140486 -0.13650092 0.20199306 0.06724965 -0.114658974 -0.06312549 -0.18194337 0.018949566 0.041816425 0.02150281 -0.06175792 0.16440605 0.01692008 0.024008589 -0.081981756 -0.18508385 0.022476373 0.05797851 0.13083512 -0.13179159 -0.01959725 0.09564261 0.12369136
1348 -0.027693301 -0.1633817 0.18113399 0.057773262 0.026710346 0.07031877 0.21630837 0.1620023 -0.08630787 0.070785835 -0.0016142804 -0.076692745 -0.13785999 0.18813089 0.14906776 0.058305304 -0.020862134 -0.123656355 0.005885792 0.20223261 0.15036702 0.13339545 -0.097939394 -0.07711667 0.13971348 -0.12148997 0.036594253 0.11069549 0.17791873 -0.1569641 -0.07788991 0.007204443 -0.030929275 0.075475246 0.11325704 0.16382174 0.016473953 -0.027271612 -0.068090245 -0.20631999 -0.5055667 0.26232344 0.20677778 -0.09019466 0.11701993 -0.15559196 -0.13310643 0.13964428 0.23028757 0.18261443 -0.16390684 -0.1662433 0.11886259 -0.1479645 0.049863257 -0.2224723 0.09909669 -0.18027854 -0.01566588 -0.12824525 0.032272387 -0.103987224 -0.03999464 -0.01744607 0.05398606 -0.077216916 -0.0002290885 0.08469046 -0.008142365 0.16308232 -0.09359753 0.07707536 -0.07750858 -0.062596396 0.16239583 -0.22346525 -0.23952796 0.041940454 0.029373549 0.12469659 -0.005639539 -0.058917325 0.112656675 0.14149487 0.23174866 -0.073682934 0.009495552 -0.047085613 -0.114456475 -0.10147736 -0.009509868 -0.07047345 0.16716129 -0.23483965 0.12806162 0.046961065 -0.083776265 -0.15339762 -0.04219255 0.087392725 -0.027830984 -0.10074751 0.04371503 -0.059724968 0.09746666 -0.037747163 0.06686587 0.052099787 0.00093791186 -0.048002254 0.029237526 -0.09243657 -0.052070744 0.14968424 -0.03990929 0.077235855 -0.18283139 0.11531296 -0.23830383 0.006825591 -0.04613281 0.13478817 -0.016308 0.009566459 -0.22251849 -0.16643296 -0.12857383 0.11353843
1167 -0.026765283 -0.106677294 0.07299727 -0.046664033 -0.042537585 0.08379139 0.021637967 0.006498671 -0.0880869 -0.048192337 0.07100736 -0.23373298 -0.18279707 0.22318976 0.17796135 0.08355667 -0.04127238 0.06501861 -0.05363064 0.16824113 0.08066986 0.16917829 -0.025327845 -0.092115454 -0.04675849 -0.01005956 0.040973116 0.07309492 0.1228294 -0.07174093 0.07156744 -0.024105428 0.025395382 0.06095317 0.09776169 0.13837434 0.127022 -0.0053170673 0.071081355 0.115421586 -0.24063267 0.22849017 0.20406696 0.09568388 -0.104175985 -0.15706101 0.06656775 0.10793977 -0.10184847 0.0106612295 0.010237854 -0.042668514 -0.075637385 -0.06323074 -0.024247149 -0.022814814 0.15099256 -0.19378671 -0.033140857 -0.11962521 -0.06325627 -0.14571626 0.01981888 -0.06394485 -0.006329662 -0.015268672 -0.18515797 -0.03696141 -0.015693048 0.1338457 0.017438509 -0.055656306 -0.07688707 0.054413144 0.0810653 -0.16787569 -0.08893227 0.011446391 -0.27767333 0.11306533 -0.01886266 -0.13836806 0.1752534 0.18297434 0.08807133 0.08571742 0.05215184 -0.057002835 -0.056699507 0.006131525 0.059214413 -0.017185494 0.022777945 -0.09653516 0.19144453 0.16277498 0.05096104 0.07360403 -0.12452983 0.043339573 -0.07234444 -0.02780834 -0.012063779 0.018703349 0.12004274 -0.13961822 -0.036588203 0.1494736 -0.06143926 -0.036994956 -0.081303425 -0.013350608 -0.0007412397 0.050640907 -0.066431955 -0.065406315 -0.045404535 0.09155673 -0.072229154 0.016120125 -0.055597246 -0.069086574 -0.044289228 0.08672794 -0.18274482 -0.06494953 0.014336401 0.027777731
1390 0.029037954 -0.06950418 -0.01914183 -0.03410118 -0.012894121 0.054014742 0.1138169 -0.0621802 -0.13456316 0.059055913 0.16436423 -0.24880414 -0.08226522 0.12529509 0.1392289 0.18473126 0.06919108 -0.011179315 0.009173978 -0.008001298 0.13062066 0.14352015 0.059624176 -0.04093422 -0.16293316 0.0009223556 0.022136258 0.14989051 0.09626959 -0.079145476 0.103468336 -0.009463498 -0.04263452 -0.012788882 0.17466359 0.14798732 0.06893062 -0.040631346 0.10204704 0.033721153 -0.3328223 0.21661441 0.13441296 0.05866734 -0.10156425 -0.024384636 0.021785902 -0.051862296 -0.09836903 -0.0075653032 -0.010044538 0.14290299 0.015070385 -0.03065973 0.14047635 -0.08668639 0.3071262 -0.108062975 -0.07645986 0.03179143 0.12412351 -0.10143244 -0.010809124 -0.0009174606 0.044592984 0.09115585 0.07310627 0.11362517 -0.09083394 0.22517475 -0.06891899 -0.07009406 0.018797962 -0.024230646 0.082363956 -0.18313392 -0.22093844 0.002660673 -0.24407014 0.20265606 -0.041308083 -0.1050472 0.05285516 0.055853352 0.122246616 0.034593333 0.0799632 -0.10043218 0.039152943 0.0388381 0.114829026 -0.08240692 -0.032326203 -0.0069739283 0.1091802 0.009082794 0.020522978 0.0322706 -0.09483989 0.006914538 0.037003815 -0.082728624 -0.10969973 0.053804614 0.20538233 -0.103795394 -0.06084826 0.18661375 -0.022098051 0.03165775 -0.062818035 0.008558085 0.11165426 0.016455432 -0.13463631 -0.105624504 0.013204884 0.04249892 -0.06861771 -0.045342114 -0.07092439 -0.09492955 -0.14977337 0.13109916 -0.14732288 -0.023716826 0.010323075 0.08292623
1273 -0.06919388 -0.074122705 0.017957786 0.10380394 0.011572692 0.006930162 0.02181034 -0.026025303 -0.20056249 -0.029300557 0.17779393 -0.010090422 -0.20471948 0.26872146 0.13120082 0.1738665 -0.13807325 0.08220992 -0.14413704 0.18648379 0.07578228 0.1946744 0.031395603 -0.0036847352 -0.17630987 0.00020705943 0.016171843 0.07288229 0.19139768 -0.11584016 0.029716453 0.024565794 0.18336831 -0.11360009 0.17747551 0.19962034 0.08567136 -0.032170914 -0.055809874 0.034118105 -0.27305573 0.16720854 0.15736955 0.075297624 -0.10161217 -0.1283972 5.6991412e-05 -0.03316285 0.023565838 0.13685162 -0.04811882 0.06800723 0.07066578 -0.019067314 -0.021045351 0.08318477 0.15278561 -0.1477055 0.0114117265 -0.04930756 0.0012573731 -0.27126142 0.097596236 0.08080928 0.0929977 -0.060215753 -0.06076003 0.013805401 -0.06213417 0.1292467 -0.069352746 -0.04414628 -0.0030235858 -0.06333452 0.12790903 -0.18112212 -0.04649282 0.027222982 -0.1715885 0.02026792 0.008203152 -0.059603322 0.06935474 0.1868111 0.016681043 0.14726722 -0.016354233 -0.110775255 -0.10695618 0.0071759047 0.123785436 0.05933146 0.039201915 -0.04002281 0.19978404 0.057630364 0.013373478 0.11058015 -0.059308156 -0.037363403 -0.12046631 -0.028777216 -0.02405362 -0.057305492 0.08361987 -0.044291843 -0.05764338 0.1800955 -0.016562365 -0.015796507 0.01816163 -0.07303132 0.078776546 0.024600843 -0.08695505 0.03968059 0.03550069 -0.076181106 -0.007557352 0.0708214 -0.078971215 0.018509531 -0.062408112 0.20035167 -0.059791524 0.04058029 0.1709916 0.101137675
1367 -0.010601656 -0.08988171 -0.0445125 -0.07604163 -0.021917578 0.16258997 0.05206563 -0.080433056 -0.16329765 -0.03520844 0.060963605 -0.12555811 -0.2122785 0.19108509 0.15147051 0.10314525 -0.031234976 -0.055078704 -0.13041458 0.03311215 0.16263986 0.22473058 0.07935458 -0.0057266117 -0.11965437 0.0063749827 -0.07131624 0.08827827 0.14199638 -0.05422321 0.06470341 -0.009760224 0.048618972 -0.052433535 0.060984924 0.19231974 0.1430083 0.06627316 0.072458334 0.14889862 -0.25586775 0.18268731 0.16252951 -0.0614637 0.08620502 -0.0969746 0.038333736 -0.12357444 -0.15426488 0.07740882 0.11361494 -0.02845745 -0.05891924 -0.07008915 0.05135529 -0.038972832 0.2483785 -0.21407513 -0.053757835 0.04465449 -0.107934505 -0.18294202 -0.08752702 0.07657133 0.017087411 -0.079834774 -0.010578952 0.052802324 -0.04731634 0.044647202 -0.07866068 -0.0111375395 -0.008416402 -0.12470988 0.07954649 -0.13299972 -0.18413119 -0.014868571 -0.19067782 0.12454799 -0.13795693 -0.09550911 0.10899033 0.15176421 -0.039788 0.09586268 0.05508049 -0.018564695 -0.047844935 -0.015158602 0.07309162 -0.021359807 0.054864567 0.03821788 0.051846314 -0.007285981 0.048281144 0.10775582 -0.070674844 0.009766391 -0.17096226 0.020095777 -0.06393757 -0.12096102 0.13584419 -0.06583135 -0.01990484 0.08077819 -0.11110089 -0.06642449 -0.07046608 -0.07814973 -0.022997957 0.14466217 -0.016995689 -0.101029165 -0.029370734 0.019209828 -0.07019889 0.112888746 0.028888384 -0.052286457 -0.13252105 0.12949349 -0.17737894 -0.0023791946 0.055626474 0.007557194
1147 0.02833574 -0.04338368 0.07353649 -0.000317987 0.11160139 0.033210743 0.05647639 0.010530644 -0.18014757 0.017333984 0.07235489 -0.21138531 -0.1247318 0.21213323 0.15762939 0.15750392 0.087155044 0.062977254 -0.07553594 -0.08879225 0.104684725 0.20653619 -0.052656204 -0.12999175 -0.0690622 0.031167569 -0.0071939407 0.09094767 0.007316766 0.012615374 0.082183786 -0.05413605 0.04757841 -0.029742349 0.13031735 0.18435279 0.12760457 0.1331267 0.02789145 0.08740462 -0.22726081 0.23303254 0.14338568 0.09719042 0.07677664 -0.029707981 0.086245894 0.09039969 -0.0079685375 0.122953065 -0.08975972 0.033788268 0.0017585362 -0.08760603 -0.019387309 -0.120288275 0.22280887 -0.2048988 0.050630096 0.08800149 -0.11435592 -0.12318242 0.082657345 0.021990487 0.09607521 -0.03592873 -0.05283132 0.15191796 0.026173107 0.031217424 -0.09247693 -0.030971354 0.031073075 -0.1252676 -0.00783801 -0.26186433 -0.13068044 -0.18118216 -0.1820896 0.15014261 -0.012970542 -0.0058413283 -0.004209202 0.07861228 -0.025868703 0.06998046 0.18624434 -0.026832813 -0.13850573 -0.0894093 0.072651364 0.05580956 0.11914615 -0.034196366 0.08284678 0.12592798 0.08124931 0.088802226 -0.21987727 0.088411376 -0.08189943 0.052235223 0.1273095 -0.020388765 0.18254773 -0.1773243 -0.23093906 0.17218702 -0.13471271 0.099868625 -0.11765298 -0.01651777 -0.025487028 -0.0722248 -0.07524166 -0.16326457 -0.00090063387 -0.00932692 0.06591953 -0.20626025 0.012422113 -0.012067736 -0.10264517 -0.0022727677 -0.17402682 0.04413999 -0.07211517 0.059167735
1323 -0.12543967 -0.07642178 0.036508217 0.10116534 0.1113761 -0.05070504 0.10038845 0.09629424 -0.17647788 0.00887105 0.091508456 -0.09646278 -0.074938245 0.15004897 0.038674086 0.20695518 0.10029685 -0.050904043 -0.121942215 0.16246 0.35255787 0.28249326 0.0864191 -0.10945429 -0.09454317 -0.013944973 -0.23655419 -0.083689615 0.08047205 0.05502282 -0.16891608 -0.039333895 -0.09704353 -0.110353306 0.16847609 0.098181926 0.21327971 0.08007196 -0.09732028 0.011121911 -0.265614 0.23544598 0.039605547 -0.02290426 -0.1222151 -0.08246666 -0.07342098 0.14537035 -0.1621808 0.10880292 0.02154923 -0.013762539 -0.027011395 0.017106868 -0.13016815 -0.15876059 0.088629 -0.11433578 0.05507032 -0.2049378 -0.027953796 -0.14804155 0.09774896 -0.0368979 0.028984522 0.15880547 -0.021640789 0.08209498 -0.007914625 0.027590118 0.022223407 0.19913776 0.017940253 -0.020775605 0.111422695 -0.11525286 -0.30250427 0.043851037 -0.16896346 0.03540515 -0.00071573234 -0.10508834 0.15415972 0.05338307 0.10583411 0.09316646 0.06799619 0.028197432 -0.0032000022 -0.054888587 -0.04089264 -0.045951948 -0.017834174 -0.16662918 0.29003584 0.10106017 -0.028298782 0.034994338 -0.10249411 -0.02464409 -0.12853254 0.03364765 0.042445574 -0.08138087 0.014264635 -0.10968692 -0.32960677 0.18894896 0.024177775 0.074199855 0.029781178 -0.018522844 0.19237098 0.13776624 -0.14223908 -0.08651353 0.017934212 0.020273896 0.0043995273 0.10023978 0.056136593 -0.024004031 -0.063463464 0.03037114 -0.10919619 0.047808807 -0.025475347 -0.07836905
1368 -0.18759225 -0.06352858 0.05614691 -0.07747688 0.009079033 -0.006149923 0.15358827 0.011194238 -0.081110075 0.11918846 0.09041481 -0.13803208 -0.14188302 0.09247956 0.27780244 -0.0020103555 0.008407326 -0.0057024607 -0.048751958 0.06056591 0.21225263 0.17208995 0.011127416 -0.1324727 -0.12535965 0.016845865 -0.0015036637 0.015699863 0.06043946 -0.11688089 -0.081575446 -0.0066878656 0.13425173 0.026222311 0.12248191 0.25843075 0.16433461 -0.122716255 0.0024858816 -0.063686505 -0.22432253 0.34708694 -0.013144231 -0.012138712 -0.14314097 -0.037710305 0.05343922 -0.030166294 -0.08099634 0.11069394 0.091786556 0.00664007 0.022835316 -0.044611514 -0.07396286 -0.047725253 0.08880521 -0.21411246 -0.003690136 -0.016739503 -0.10686296 -0.14459325 0.0736021 0.09306879 0.059774145 -0.006193012 -0.083566725 0.035533063 -0.09542143 0.056202397 -0.010769298 -0.016055074 0.06190261 -0.046819013 0.093062155 -0.2968739 -0.15197869 -0.023249056 -0.14525558 0.014509158 0.030750077 -0.11818797 0.03791144 0.13395937 0.02991381 0.07411487 -0.050590634 -0.12082126 -0.096624546 0.03613335 0.11219761 0.10478218 0.016856216 -0.05663789 0.16439627 0.09742526 -0.047900025 0.0013687108 -0.078114465 0.016261822 -0.07007684 0.06175655 -0.1119362 0.081605844 0.11624864 -0.032762717 0.039389636 0.21125753 -0.07096392 -0.024556138 0.15762055 0.035160616 0.013862781 0.0020540191 -0.13545357 -0.08126502 -0.098489024 0.05440205 0.05356626 0.03882074 -0.027032383 0.044582486 -0.011862083 0.14012946 -0.15173244 -0.1365087 -0.024685556 0.16385671
1356 0.03735234 -0.10897119 0.03126598 -0.040119763 0.018244352 0.08984005 0.12740988 0.015664205 -0.10868005 -0.007403177 -0.037856165 -0.06740886 -0.21858862 0.24745075 0.21158516 0.118775345 -0.042622954 0.020675076 -0.16610624 0.13653283 0.086201146 0.13639872 -0.018183045 -0.05886872 -0.076075025 -0.03632959 -0.102234654 0.072038665 0.15732382 0.0079984525 0.0752581 -0.03981159 0.11485559 -0.082099944 0.20574062 0.20989752 0.009925539 0.077720165 -0.052042663 0.009442758 -0.28227648 0.1956157 0.025030306 0.08377924 -0.051354866 -0.0401394 0.054043677 0.011647269 -0.10389163 0.079244815 0.024162306 -0.01428823 -0.042659 -0.09114829 -0.013365443 -0.0041791606 0.1174586 -0.1013568 -0.035535026 -0.07858058 -0.023509331 -0.16863851 0.06428487 -0.065228716 0.060794648 0.0942813 -0.1094838 -0.059497826 -0.054068375 0.0887624 -0.059085887 0.02996818 -0.058529742 0.0030816556 0.07398702 -0.24270082 -0.15535964 -0.03134994 -0.27246416 0.10100906 -0.007683616 0.052535843 0.07223779 0.20805825 0.069616996 0.06553926 0.08036313 0.0810328 -0.046449468 0.0077541186 0.029733041 0.0445767 0.037979513 -0.078163885 0.08323786 -0.015849045 0.046866883 0.01790539 -0.094717056 0.043929417 -0.031477146 -0.059331197 0.06525494 0.05084947 0.14850502 -0.07265827 0.10345068 0.16005324 -0.1568718 -0.09788117 -0.03614516 -0.19302376 -0.115895204 -0.024612064 -0.04360522 -0.037457734 -0.052995313 -0.028979676 0.09280682 0.04078643 -0.19022313 -0.15189697 -0.11878034 0.16764827 -0.19599104 -0.035006005 -0.057044834 0.042878173
1406 -0.16044106 -0.1289972 0.0045724832 0.25083336 -0.026066197 0.14969268 0.2135662 0.22293764 0.027185299 -0.13711874 -0.059028987 -0.027032085 -0.19229154 0.156498 -0.0922204 0.06887864 -0.055571973 -0.12922749 -0.21123064 0.1929817 0.19862185 0.0010960795 0.05040918 -0.16790254 -0.07920559 0.089248374 -0.025450207 0.0138477655 0.23759286 -0.1553394 0.09165662 -0.054760017 -0.08627184 0.11355372 0.05796993 0.28908262 0.13976039 0.022528062 0.011342257 -0.06135707 -0.27352837 0.07191233 0.020018743 -0.04145572 0.105186306 -0.008677646 -0.111050636 0.1450563 -0.07740609 0.049065266 -0.09792306 0.055874623 -0.04046178 -0.018610736 -0.10810833 -0.18577194 0.32914677 -0.101792336 -0.2148095 -0.108284876 0.0074153002 -0.057655692 0.019986924 -0.09289745 -0.20665807 -0.009877571 0.20371495 0.21683003 -0.08178002 -0.047963634 -0.07731506 0.07212029 -0.12427581 0.060764227 -0.04956461 -0.11768218 -0.2664261 0.025845671 -0.17356439 0.068322554 0.07632093 0.20337209 -0.036925506 0.20340505 0.10203771 0.15249641 0.012277389 -0.019777412 -0.016212469 0.040467557 0.07693351 0.105729155 0.019092442 -0.036383852 0.26307678 0.021044407 -0.04243008 0.13967744 0.0050109206 0.19390546 -0.14446604 0.104542635 0.06245475 0.058242936 0.07454357 0.1739214 -0.04667099 0.2992937 -0.0812949 -0.04634101 -0.082847066 0.05971992 -0.073206924 0.16483204 -0.0212093 -0.11800711 0.19238172 0.18862025 -0.09569282 -0.031527217 -0.08197927 -0.18185887 -0.14971815 -0.01440162 -0.03212867 -0.048121713 0.040475205 0.16490449
1259 -0.03201214 -0.11629743 0.00448452 0.10157328 0.14104126 0.024942875 0.099684164 -0.029723806 -0.18270473 0.050402038 0.021076689 -0.15094618 -0.2206249 0.14071079 0.26073363 0.046729296 0.092719086 -0.103388935 -0.031770315 0.14339171 0.12069313 0.19243991 -0.102346435 -0.1322613 -0.1156543 0.0076889824 -0.017072147 0.07702893 0.15789823 -0.12146887 -0.025988251 0.04786373 0.14519572 0.036136992 0.14956872 0.3135164 0.10953573 -0.061102808 -0.08073556 0.06919718 -0.13183858 0.2891145 -0.001679382 0.17417155 -0.050930798 -0.14161018 0.19626877 0.06718573 -0.04033408 0.18687426 0.021232545 -0.0045626415 0.030336445 -0.14174232 0.07555361 0.007975298 0.10997632 -0.054971527 -0.09857131 -0.05348286 -0.08847855 -0.13927038 -0.041416593 -0.032601982 0.05880757 -0.06320119 0.067001686 0.03410603 -0.03739259 0.08906532 -0.001741658 -0.06486223 -0.11603715 -0.01257044 0.05349867 -0.21138692 0.04858977 0.020807322 -0.17815839 0.077844694 0.005086435 -0.13133089 0.07317973 0.13680036 -0.029824197 0.02977832 0.068440795 -0.09992169 0.057162017 0.051602747 0.02822796 0.07169049 0.03743356 -0.06266863 0.13094546 0.0734685 0.0845254 -0.06473316 -0.16874729 -0.028451305 -0.08541504 0.0121454615 0.027315026 -0.033332046 0.13697878 -0.050384022 -0.026524337 0.12672986 -0.01660798 -0.09497092 -0.051154613 -0.15232003 0.02518354 0.00433878 -0.036539864 0.022286886 -0.049176868 0.037107468 -0.053949926 -0.03321702 -0.09022769 -0.034640208 -0.1195313 0.15137312 -0.105346456 -0.05030753 0.040981248 -0.001028453
1283 0.080441386 -0.10877714 0.18067789 0.11295231 0.27510804 0.0958427 0.2900574 0.00573647 -0.1426983 0.2095667 0.087176494 -0.19345212 0.06494159 -0.0052280584 0.13136216 0.12229356 -0.12002183 -0.13235396 -0.20230602 0.17535514 0.061688542 0.040748447 -0.023819063 -0.073092334 -0.17574872 0.23482092 -0.1707383 0.013448578 -0.049946357 0.094617784 -0.012602768 0.013893779 0.038887624 -0.08366709 -0.07606993 0.25676587 0.017439926 -0.18859595 -0.0017273639 0.05428648 -0.015389596 0.11739445 -0.15262993 0.22491339 0.02002377 -0.2910302 0.032818925 0.08836037 -0.06521847 -0.041926112 0.16406775 0.06737383 -0.16970225 0.07071187 0.16701539 -0.14418094 0.18936938 -0.2308805 -0.016445756 0.09953504 -0.025799196 -0.03734874 0.0580065 0.025631161 -0.06827788 0.14342923 0.0062187775 -0.046150673 -0.14790232 -0.1144108 0.10394406 -0.009919366 -0.076477475 0.023128087 0.026059965 -0.16381979 -0.1566654 -0.08681448 -0.085146055 0.26990715 -0.08847901 -0.07775011 0.08458492 0.16480719 0.083586745 0.09314996 -0.15781179 -0.08743088 0.1356649 -0.097189166 0.1183237 -0.073289216 0.0733075 -0.007402192 -0.124434076 0.019909266 -0.0051133977 -0.09740207 -0.1143324 0.06701852 -0.20212641 0.12716037 0.2169536 -0.05936061 0.30294067 0.0006920747 -0.21635643 0.29719633 -0.14762992 -0.101879895 -0.009668487 0.113987274 -0.078361504 0.170347 -0.0012483366 0.16356707 -0.09378302 0.055006888 -0.033889476 -0.060696557 0.04374239 -0.054973196 -0.0181491 0.036245774 -0.21851031 0.09339314 0.053759463 0.19517261
1277 -0.015692 -0.13944824 0.036355346 -0.03408131 6.5598324e-06 0.011032597 0.07904731 0.026158739 -0.11045419 -0.021058671 0.06107898 -0.19077288 -0.074556075 0.13958363 0.20339952 0.16801904 -0.0071125557 -0.038829274 -0.052033436 0.16013041 0.08581816 0.040588066 0.074133195 -0.080694556 -0.09145104 0.020746008 -0.04633069 0.08246114 0.09082732 0.08014221 0.047005743 0.0179507 0.08507971 0.010525513 0.18066593 0.26460487 0.14783263 0.04821042 -0.11942022 0.07240841 -0.1303828 0.3137457 0.14231066 0.002469706 -0.018873341 -0.19056271 0.14749388 0.054737218 -0.107734546 0.1299098 0.17248219 -0.041476447 -0.09329096 0.02313237 0.042223506 -0.071998544 0.1878653 -0.08769744 -0.0921523 -0.07496666 -0.18396817 -0.028948445 0.004333875 -0.07151328 0.019229222 -0.08790948 0.1220322 0.1000737 -0.10353006 0.11910429 -0.06979235 -0.057010584 0.002342551 0.058500573 -0.033600595 -0.24305044 -0.1445951 -0.018251056 -0.3016756 0.108697206 -0.0070015704 0.013801376 0.015489339 0.1420314 -0.03843667 0.018126944 0.08159177 -0.107659146 -0.02224049 -0.054031316 0.10563883 -0.01864771 0.08327777 0.014994155 0.067650594 0.022598296 0.0024011445 0.25451082 -0.052045573 -0.108076856 -0.08528245 0.0139184045 0.07021472 0.049531206 0.17524736 -0.09776942 -0.10280834 0.09431475 0.01203503 -0.028762275 0.028537704 -0.024285924 -0.0027639524 -0.0056718597 -0.12975024 0.038706258 0.026268197 0.03525859 -0.068981506 -0.07799481 0.037100956 -0.039982893 -0.037118424 0.1546944 -0.15484104 -0.07203623 -0.08266353 0.10590302
1189 0.0019297858 -0.0064684656 0.15227206 0.010231403 0.094257995 0.036137674 0.029647967 0.011662574 -0.12124564 -0.008132355 0.00919776 -0.087801725 -0.1371569 0.28273535 0.21916884 0.1441879 -0.01810162 0.037555363 -0.2653505 0.058251888 0.09518754 0.06959217 -0.05179454 -0.066476375 -0.07324264 -0.06017102 -0.14121738 0.03129006 0.24697824 -0.13703772 -0.02973349 -0.0003231403 0.076156564 -0.10518958 0.14330523 0.27424967 0.22548215 -0.08307153 0.16897246 0.04429983 -0.2158959 0.16642348 -0.0103229815 -0.12915288 0.005844619 -0.21479195 0.016400518 0.020636003 -0.0076029776 -0.023591146 -0.065912575 -0.008743331 -0.077760346 -0.03600428 0.059650015 -0.1373241 0.17345197 -0.23264089 -0.13767345 -0.014150575 -0.09935304 0.0052307616 -0.0380203 0.01946522 0.087517284 -0.04498988 -0.061538275 0.054841343 0.08401112 -0.013858116 -0.020638987 0.0041298894 -0.11622584 0.035020903 0.19148551 -0.21794082 -0.05636161 -0.030508421 -0.063340105 0.20812054 -0.089018695 -0.043804884 0.17123578 0.15518418 0.045212504 0.10652175 -0.012874067 -0.0816157 -0.046806842 -0.072161086 0.064331844 0.018708346 -0.06766762 -0.037385043 0.14566456 0.12489882 0.032166127 -0.04039539 -0.046400003 -0.13156922 -0.10244069 0.017159604 -0.027180227 0.12645902 0.13048474 -0.22781196 -0.053561796 0.008914399 -0.0985734 -0.018606637 -0.0050291787 -0.010183268 -0.088748775 0.101175696 -0.101258956 0.022149183 -0.074999794 0.08058467 -0.10171126 0.07815363 0.042163935 -0.07321065 0.026450599 0.183806 -0.07803546 0.050181374 0.020820508 0.09085304
1085 0.01954372 -0.053528853 0.08574424 -0.097264126 0.06136625 0.10142041 0.029929923 0.042893406 -0.21523128 0.10304462 -0.06554887 -0.09807121 -0.22172359 0.24766222 0.24761921 0.16257505 0.08916406 0.008687361 -0.11777415 0.014337123 0.21137379 0.09926368 -0.028641397 -0.10277127 -0.07578999 0.05460898 0.034597356 0.13349728 0.120803274 -0.010555165 -0.039365336 -0.08559655 -0.014195149 0.035782423 0.13807343 0.16180639 0.044084106 -0.07713186 -0.04341569 0.10700645 -0.16750583 0.29871702 0.06866545 0.076728374 -0.015982809 0.0464616 -0.017958814 -0.0617077 0.0032304465 0.1086006 -0.023468599 0.05556667 -0.0012941106 -0.10246925 0.11119616 -0.08179143 0.29130164 -0.19652073 -0.011820024 -0.0507205 -0.20500754 -0.017262751 -0.03048454 0.039290644 0.12336628 0.049341753 0.17892008 0.14829504 -0.083030745 0.09164555 -0.034363665 0.029531006 -0.03004451 0.050955355 0.014346899 -0.17443322 -0.19769527 0.0232463 -0.21503252 0.12884817 0.014200085 -0.1429315 0.013340242 0.11543045 0.025165109 0.07003918 -0.0014172754 -0.11772608 0.0014761013 -0.017366499 0.02106578 0.062289562 0.017218128 0.035908196 0.11321065 0.11689222 0.0026213576 -0.14181148 -0.06839453 -0.016836748 -0.1583644 0.029672733 0.035651773 0.012880278 0.09077741 -0.1511019 -0.15637906 0.03933304 -0.053118914 -0.10782598 -0.019079711 -0.058362957 0.106260136 0.07341367 -0.0053343247 -0.13635765 0.07385652 -0.0043001384 -0.06853281 0.03382006 -0.085585624 -0.018084314 -0.0091226455 0.13469195 -0.11319639 0.00720857 0.056014188 0.058929794
1249 0.07648148 -0.018892514 -0.06318107 0.062102042 0.019639213 0.04845804 0.017904961 0.081009075 -0.09114093 0.042464115 0.090712786 -0.12221379 -0.1999848 0.14422119 0.12016929 0.26920947 -0.00047186826 0.0051411353 -0.073996626 0.18567207 0.073096275 0.12920871 0.0049154735 0.06476632 -0.021130266 0.06440802 0.020636743 0.0986599 0.12921625 -0.027633477 0.0581199 0.012657372 -0.0039729103 0.019631075 -0.02879677 0.18099228 0.18503056 0.020709692 0.0143913925 0.034187403 -0.24953261 0.23593754 0.27177054 0.09402496 -0.023954036 -0.034400366 0.115888834 0.11295452 -0.16049519 0.15768558 -0.003285432 0.04111686 0.046061087 0.023894338 0.06670042 -0.052093636 0.08147285 -0.13998571 -0.068219535 -0.0043819593 -0.14616105 -0.079556465 -0.083468765 -0.096169665 0.0445952 -0.010507031 0.047076996 0.033832595 -0.11244145 0.09196627 -0.050153073 -0.091765724 -0.14030044 0.0014853112 0.031075384 -0.20211624 -0.0504012 0.031949528 -0.10411567 0.072581105 -0.09805586 -0.07535232 0.11703572 0.26445934 -0.008887076 0.10540539 0.062169384 -0.14232321 -0.061681297 -0.11959579 0.07086099 -0.0771455 0.15736754 -0.19503155 0.04369215 -0.024705848 0.025261786 0.25195113 -0.030448167 0.097423546 -0.17812967 -0.03229439 0.022423156 -0.041108906 0.07055218 -0.18727133 -0.02118672 0.116208464 -0.035718635 -0.045948166 0.023666577 0.009734875 -0.019126825 0.13432139 -0.078474194 -0.037304636 0.026643107 0.017582806 -0.037525464 0.0901096 0.050309803 -0.016809681 -0.1415733 0.25069386 -0.17373767 0.030320892 -0.009786417 0.11026433
1262 0.07201603 -0.13544056 0.06201109 0.013837231 0.13173126 0.037212666 0.09277829 0.041297775 -0.10114222 0.097512074 -0.040384445 -0.09002886 -0.09583037 0.15320998 0.16311449 0.19832413 -0.041856468 -0.14565757 -0.22114037 0.018008867 0.15998408 0.016873132 0.055165194 -0.20191103 0.04238867 -0.03938989 -0.04141463 0.17876028 0.007170759 0.051017568 0.084401526 -0.072191134 -0.009773995 0.050700888 0.09472302 0.22560489 0.21704793 -0.033050597 -0.0090388525 -0.025862735 -0.2184454 0.2084657 0.016146883 0.118680805 0.087442495 -0.0027150356 0.24175815 -0.04002469 -0.063876085 -0.008656406 0.023049371 0.021957533 -0.05888288 -0.08690339 0.09278379 -0.02151092 0.15952292 -0.23294276 -0.06835616 0.059100978 -0.085827716 -0.17193764 0.09380041 -0.03181489 0.009101694 0.031230712 -0.002422114 -0.019740626 -0.07420318 -0.10731749 0.04788075 0.089808784 -0.028806236 0.0057784887 0.007488209 -0.14843689 -0.1674953 0.050766017 -0.19107215 0.13779336 -0.014428833 -0.011089318 -0.020476403 0.23402962 -0.023459477 0.14922251 0.012797194 -0.26211035 0.042335603 -0.036211375 0.14100623 -0.056464914 0.04306296 -0.058027696 0.08629404 0.14429328 0.022422375 0.10662083 -0.16196778 0.032700457 -0.15895577 -0.0012188635 0.08078182 -0.18368633 0.011867952 -0.096561894 -0.046369202 0.15588811 -0.19010778 -0.04301958 0.08188951 -0.09295752 -0.026457379 0.113541745 0.03149613 0.0909162 -0.0406089 -0.03631001 0.05918408 -0.021488648 -0.11359648 0.015942274 -0.05207922 0.22088462 -0.06524177 -0.05665127 0.12739216 0.097944714
1200 0.068845876 -0.06832113 0.035442226 -0.030066684 -0.055917867 0.09276559 0.041366037 0.12317247 -0.11721626 0.07339904 -0.06483473 -0.09359223 -0.21990056 0.09925964 0.09481264 0.16250303 0.032510657 -0.11497665 -0.06921705 0.051417407 0.11441505 0.122190185 0.0085180085 -0.014784505 -0.14798887 -0.045284577 0.020003248 0.14478023 0.13185512 -0.0955903 0.081157 0.10117944 0.06554998 -0.032601893 0.21290354 0.2097674 0.0559711 0.059939157 0.013500306 0.13452913 -0.3047303 0.30465895 0.017340813 0.028972875 -0.088861644 0.08380008 -0.083048336 -0.025547856 -0.034189083 0.03735385 -0.17657194 0.087508574 0.021331755 0.08209595 0.06819754 -0.04458033 0.20147315 -0.14612475 -0.1727877 0.015861176 0.06170015 -0.060097445 -0.0779279 0.0146895675 0.016579846 0.03828403 -0.042919595 0.010763823 -0.14824761 0.08568302 -0.13331431 0.099833235 -0.107574895 -0.04809887 0.0993883 -0.23660223 -0.12323493 -0.0033681286 -0.24520576 0.055860896 0.015522259 -0.08838606 0.03701845 0.12104577 -0.03630334 0.09374616 0.029004673 -0.097653285 0.06080332 0.026535137 0.10753196 0.027509933 -0.10405988 -0.08992127 0.12660931 0.05605206 -0.089300185 0.008135585 -0.050370224 -0.002299463 0.015324042 0.04842727 -0.15029769 -0.0012874502 0.14240332 -0.053598925 0.032085635 0.116406016 0.064087756 0.014779743 -0.02258319 -0.04795189 0.18152733 0.10441684 -0.1347792 -0.10745395 0.083134815 -0.06829671 -0.05610689 -0.024950203 -0.13090204 -0.03144828 -0.09380823 0.21699035 -0.2300043 -0.095415786 -0.057688832 0.14181368
1398 0.043138966 -0.056036938 -0.13798197 0.33026725 0.17478967 0.01514664 0.23718512 0.087124184 -0.07867098 0.12576093 -0.25795233 -0.15468507 -0.10811874 0.02724022 -0.11651152 0.17635371 0.0308627 -0.03145452 -0.23444475 0.1111437 -0.06973002 -0.041260526 0.120920755 -0.026679082 -0.054698266 -0.09207976 0.078807406 -0.07089826 0.18015769 -0.015064922 -0.13977586 -0.034737665 -0.17851548 0.102046266 0.2855073 0.23150782 0.1759485 -0.10067906 -0.017988743 0.0069863037 -0.24471977 0.3399871 0.20659833 -0.09836341 -0.17892106 -0.23901968 -0.12880956 0.27065554 -0.12783922 0.07346873 -0.080028884 0.089017816 -0.14241837 -0.06112572 0.04394737 -0.03908008 0.28348857 -0.14624836 -0.13587119 0.14564756 -0.020297218 0.15510994 -0.10276606 -0.0025969092 -0.09099172 -0.13584234 -0.034307797 -0.1206721 0.06759003 -0.07775744 -0.21116756 0.11644742 -0.2273866 -0.13919973 0.019137375 -0.04839806 0.0067722937 -0.06000002 -0.11066719 0.25299478 0.13696976 0.056086753 0.051565144 0.2922804 0.246249 0.3097938 0.036146257 -0.0393847 0.079947665 -0.03139428 -0.035104457 -0.16820456 -0.04112239 0.11516046 0.12085715 0.1601583 0.041195072 0.019080363 0.19509475 0.017138455 0.080213405 0.20212233 -0.0022466017 0.07460406 -0.0058589433 -0.063334264 -0.16275664 0.15649316 0.06255277 -0.14296442 0.032661363 0.084604464 0.09201361 0.06267749 0.11606123 0.15150157 -0.1611531 -0.024954064 -0.09016495 -0.08439098 -0.0028750757 -0.115283884 -0.07079012 -0.08520006 -0.31164178 -0.10376542 0.0075463685 0.17387934
1055 0.103219405 -0.2424916 -0.10310333 0.061373483 0.33595684 0.05597155 0.35407034 -0.040873323 -0.07831218 0.16568106 0.001002748 0.022170907 -0.10857053 -0.07571009 0.10579077 -0.12994482 -0.034890924 -0.14717698 -0.020379733 0.34306508 0.02120177 0.2126569 0.06863998 -0.023692612 -0.22935554 0.11670728 -0.11796149 0.01090956 0.15162432 0.11467966 -0.0051962934 -0.077613495 0.15132296 -0.045757033 -0.17123686 0.32180557 0.17175594 -0.050197955 0.25598034 -0.16461968 -0.38483927 0.35955998 -0.025461033 -0.047349747 0.14711918 -0.16286786 -0.117121585 0.07661078 0.15024748 0.09826369 0.15146731 -0.042124152 0.13355704 0.01772718 0.08479569 -0.10078972 -0.003630047 -0.25780255 -0.078692175 -0.0371744 0.036147196 0.039630808 -0.22745623 0.071680486 -0.022022089 -0.19850154 -0.04182552 0.07300294 -0.11053299 0.048975047 -0.120592885 -0.14725667 -0.18218663 -0.093890645 0.2196833 -0.13066396 -0.08010051 -0.097027436 -0.08968167 0.079785965 -0.066949695 -0.09612982 0.121997386 0.21037447 -0.13757308 -0.18192185 -0.07241172 0.006652704 0.083217144 0.0060847024 0.008640269 -0.039477546 0.03144581 0.04509345 0.11976627 0.0021043818 0.056703184 0.07636348 -0.052365888 -0.062760964 -0.1923715 -0.017398378 -0.04436682 -0.058534745 0.24492063 -0.17302918 -0.10046698 0.24663302 -0.0031945198 -0.0042145383 0.046154775 -0.14433923 0.01174195 0.07203303 0.0436112 -0.0817536 -0.150322 0.05519604 -0.12478124 0.03462587 -0.16369474 -0.0950075 0.031007873 -0.114106484 0.05192634 0.032933876 -0.20943886 0.15538915
1339 0.07925649 -0.1512807 -0.0914295 -0.12386948 -0.074477986 0.18065867 0.069028355 0.09608786 -0.13152458 0.04081396 0.0014622612 -0.110028796 -0.18069628 0.13163704 0.070843235 0.13949391 -0.025069572 0.008166909 -0.036769178 0.13473299 0.17466545 0.09579591 -0.04100948 -0.06269505 -0.12352947 0.01394732 -0.0031350225 0.11655272 0.068626426 -0.06432973 -0.070171356 0.0031239595 0.07070794 0.012782151 0.14578569 0.2559404 0.0565592 0.06139351 -0.0765822 0.12095805 -0.42483094 0.11352421 0.021642698 0.028008496 -0.052322663 -0.04587948 0.14275843 0.028714793 -0.08773837 0.0970885 -0.20634243 0.12969418 -0.10417854 0.028606182 -0.009519488 -0.030232321 0.22386377 -0.2530434 -0.06735417 0.025595434 -0.09127494 -0.08167412 0.046288423 -0.045686018 -0.020771954 0.017737007 -0.0023190144 0.17622621 -0.024010867 0.11938406 -0.11210674 0.004834528 0.03241191 -0.03229517 0.057853587 -0.22493567 -0.19982256 -0.11149263 -0.22811699 0.119234934 0.00034519704 -0.025035951 0.09570654 0.0727888 -0.0515685 0.07517035 0.15969688 -0.020874286 -0.013946989 -0.035253316 0.11111217 0.16095561 0.057444856 0.0744524 0.018382523 0.21132705 0.052586038 -0.006220397 0.02694944 -0.04511028 -0.04927631 -0.13399127 -0.07535694 0.014770144 0.14430538 -0.13779408 0.031251002 0.017067345 0.039472464 -0.0527537 0.06874739 -0.012865539 0.00472579 0.17010008 -0.059103735 -0.121934935 -0.07824796 -0.077670775 -0.1479836 0.10799354 0.013952048 -0.115571804 -0.078132264 0.12768537 -0.15694533 -0.0663536 -0.010337927 0.009121714
1106 -0.05714949 0.07614055 -0.068194784 -0.012633084 0.03382241 0.14334203 0.24244429 0.036470383 -0.11932489 -0.06990858 0.07357925 -0.0009455132 -0.1541787 0.15302345 0.098456725 0.1731639 -0.033349056 0.09766247 -0.07709755 0.036025193 0.2489849 0.056564383 0.16238448 -0.121605046 -0.008614147 -0.076636486 -0.028109262 -0.10411228 0.19148207 0.014365784 0.027955065 -0.04958447 0.05050841 -0.06807042 0.020247394 0.1430854 0.14197955 0.040846642 0.009961209 -0.005277244 -0.307834 0.20078804 0.11211563 0.062562734 -0.18569347 0.0008255465 0.18852207 0.16425556 -0.082801536 -0.008643246 -0.058268495 -0.0055447672 0.0043805838 -0.21996565 -0.041687895 -0.062024202 0.22011058 -0.23689489 0.057335295 0.09646108 -0.0043280404 -0.053757407 0.057904165 -0.08142258 0.12138121 0.050797213 0.003335829 -0.09058852 -0.15874489 -0.05732085 -0.06005184 -0.016355813 -0.046359483 -0.17534074 0.11834864 -0.28279644 -0.15294507 0.011258437 -0.25506073 -0.019032747 0.023769025 -0.09285351 0.104005605 0.13428539 0.042228475 0.07967411 0.120528 -0.13685833 -0.0011599566 0.0007405473 0.05293084 -0.009985087 0.025071822 -0.06169086 0.048803233 0.025493851 -0.12271939 0.10176615 -0.15441331 -0.0063728555 -0.032710794 0.013907079 0.03184787 -0.009074588 0.10249653 -0.020534538 -0.01589869 0.17408493 -0.117364265 0.033938847 0.13896537 -0.024292016 0.021205498 0.1065762 -0.12492774 0.100824445 -0.033381075 -0.041521885 -0.14967662 -0.11377528 -0.118508436 0.002965435 -0.11191977 0.21929641 -0.13231973 0.06064083 0.005002519 0.106679566
1073 0.006989702 -0.01415738 0.06559197 -0.12786773 0.042757235 -0.0073134764 0.1320848 0.06347588 -0.059514496 0.14332607 0.10798785 -0.13956845 -0.25945637 0.25164133 0.24037822 0.048725348 0.011339247 -0.040003173 -0.122139774 -0.04842613 0.09144422 0.18524049 0.07270622 -0.17992097 -0.06980962 0.051230647 -0.0059151873 0.18859194 -0.004072767 -0.04458892 -0.06345746 -0.024089089 -0.023852238 0.08082356 0.141329 0.22032405 0.20924076 -0.055971906 -0.04014304 -0.011388023 -0.3527828 0.19704513 0.08395665 -0.03673307 -0.034793638 -0.09247126 -0.0060211164 0.03622229 -0.007982525 0.1366544 -0.14517541 0.1238169 0.039418537 0.12868857 0.04309454 -0.101361714 0.0633223 -0.088229895 0.020233318 -0.06029869 -0.14027806 -0.04896982 0.10535766 0.081596866 -0.0067959004 0.14041308 -0.0012640998 0.054641508 -0.05239662 -0.024114551 -0.04154774 0.0007885857 -0.018014638 -0.07217492 0.038686506 -0.23159966 0.021096213 -0.1972452 -0.1436293 0.20419283 0.0042235805 -0.12506133 0.007522019 0.26484466 0.015295001 0.10633295 0.074586265 -0.061420634 0.12189087 -0.07397154 0.026815448 0.014252131 0.012452493 0.09546964 0.10553185 0.11054739 0.009111895 -0.002179932 0.031145448 0.00329463 -0.111036584 0.06269094 0.04453327 -0.02055809 0.05951395 -0.118366994 0.031764124 0.17358683 0.041448843 -0.056273744 0.063542165 -0.07057736 0.07634804 -0.0022194842 -0.08157545 -0.1007948 -0.09002655 -0.1118067 -0.023852574 0.049170163 0.05254397 -0.17140171 0.044355284 0.18726054 -0.15900503 -0.061898015 0.0901457 0.019800553
1101 0.15809835 -0.12170734 0.1685202 -0.007483182 0.03799906 0.073184706 0.07230872 0.028293328 -0.20195232 0.029169062 0.018936591 -0.15939294 -0.1804737 0.20032944 0.15660107 0.21860637 0.004486001 -0.0007627129 -0.07083468 0.077904515 0.20269932 -0.019622767 0.033157237 -0.108311705 -0.16550699 0.028549943 -0.091787174 0.1328103 0.051262677 -0.020535378 -0.027434554 0.08674012 0.066013284 0.062136494 0.11871863 0.1881295 0.0457516 -0.07127868 0.123080105 0.007806798 -0.19706981 0.23430248 0.09574695 -0.037142407 0.08984878 -0.044125546 -0.049175046 0.037287172 -0.011179267 0.14746554 -0.09989365 -0.12270012 0.058525063 -0.10999525 -0.043451734 -0.18160272 0.1897048 -0.050317857 0.000785747 -0.041114308 0.090702094 -0.12600273 0.061605923 0.043331422 0.08201395 0.018193267 -0.03533847 0.052775435 -0.023905592 -0.005994021 -0.06568013 -0.08375223 -0.08344267 0.12033502 0.12730305 -0.22924732 -0.16030322 0.040793058 -0.26610196 -0.021918366 0.05993945 -0.21895137 -0.024844516 0.21160087 0.10603238 0.07397247 0.03043282 -0.17007285 -0.120850824 0.023959488 0.091003016 0.12575707 -0.044735596 -0.027409699 0.09376887 0.08910472 -0.03831218 0.09332294 -0.13435914 0.09219215 -0.11776348 -0.05630944 -0.027877765 -0.01710318 0.1632681 0.021961652 -0.12613696 0.15040453 -0.102281 -0.016013863 0.11160279 0.018308938 -0.090924785 0.07492374 0.024559228 -0.103917964 0.07134211 -0.016073873 0.046103604 -0.083292395 -0.08199935 -0.015613449 0.021892691 0.07727157 -0.14088918 0.023328058 0.003265299 0.098983444
1226 -0.06633243 -0.11201038 0.021687435 0.07266092 0.026102336 0.0031987831 0.15340899 0.091726 0.09062384 -0.05558008 0.06372295 -0.12393433 -0.123090185 0.26741588 0.11612062 0.31546116 -0.1471772 -0.020648267 -0.16915089 -0.044549845 0.044829767 0.15032804 0.025714371 -0.103445314 -0.12890717 0.09387047 -0.103053436 0.22768858 0.22586235 -0.00431282 -0.19597298 -0.059661 0.013883681 0.080008134 0.14444387 0.21355624 0.15673311 0.15095258 -0.10504061 -0.05051041 -0.16829352 0.26208076 0.07710816 -0.0051066168 -0.035664834 -0.22651802 0.09780226 0.049501054 -0.039588753 0.09121204 0.073854744 0.1181661 0.13750811 -0.065204896 -0.1135238 0.032894433 0.112524666 -0.107135534 0.019065311 -0.038594503 -0.084637925 -0.10491859 0.20598996 -0.03781732 0.017734017 0.0938245 0.044280995 0.015942248 -0.08752514 -0.038345795 -0.07058138 -0.06729632 -0.021024039 0.09787104 0.044463675 -0.21959996 -0.09000823 -0.111517906 -0.2731045 0.08269531 -0.047722634 -0.034645814 0.07885592 0.101187676 0.049670257 0.12801014 -0.030928684 -0.112482205 -0.045194816 -0.026978118 0.08212492 0.0422551 -0.07715353 -0.04915589 0.098868504 0.014366921 0.01249351 -0.024973938 -0.1571253 0.12044969 0.07736772 0.0092927925 -0.13441823 -0.086023614 0.16735348 0.0117870765 0.002429683 0.20078267 -0.036462236 0.04906769 0.03669442 -0.13618325 0.038229544 0.0095150415 -0.05837635 -0.2089619 -0.03284774 0.11266858 0.06485272 -0.04710936 0.018915419 -0.13469177 -0.05805671 0.17954534 -0.11450063 -0.070855565 0.01693729 0.04871886
1246 -0.0133270025 -0.031147629 -0.06816984 -0.017013162 -0.11816091 0.002458189 0.18806303 0.03632636 -0.060251847 0.18368499 0.19602826 -0.012559906 -0.17319782 0.12686598 0.19515556 0.15321444 0.09389355 -0.077279925 -0.016406257 0.08233008 0.29696524 0.07675853 0.05599348 -0.024503546 -0.050881714 0.12565763 -0.07652008 0.09683125 0.08975264 -0.09354647 0.004032276 -0.1577067 0.28086022 -0.007222633 0.06513976 0.20961292 -0.044089116 -0.19124684 -0.015510553 -0.036107562 -0.21590306 0.23501308 0.09355322 0.0012435598 0.034765046 -0.069861785 -0.10460477 -0.05817482 0.010904248 0.15092044 0.024294991 0.004339665 0.011707727 -0.09030916 -0.07103737 -0.02965917 0.29816017 -0.019229231 -0.07966613 -0.08548 -0.09228512 -0.101724796 0.124964304 0.034222994 -0.09417267 -0.0760377 -0.09508486 0.107657984 -0.108616695 0.0075094574 -0.02324613 -0.09056018 -0.13204597 -0.19640449 0.06898793 -0.10645723 -0.08556448 0.10494198 -0.29876524 0.16824673 -0.032789852 -0.20895179 0.06142812 0.21765688 0.08434053 0.08838658 0.013593046 -0.08787512 0.055562735 -0.048626166 0.061631504 -0.042582072 0.03592104 -0.052198563 0.08876332 0.10472855 0.007187344 -0.06501717 -0.012295602 0.050507005 -0.19023389 -0.003141486 0.1213968 -0.040923014 0.072305724 -0.11845107 -0.19706851 0.115710616 -0.04482667 -0.06644731 -0.063520975 0.031282738 -0.039217852 0.13954945 0.086606026 0.000832851 0.12400515 -0.16379012 0.03608566 -0.020654047 0.015663413 -0.2354475 -0.2586113 0.123541825 -0.041950412 -0.0067433496 0.055937123 0.10544479
1325 0.20795806 -0.02912232 0.039279494 0.20430946 0.268491 0.062341977 0.09698566 -0.057323325 0.17952473 0.11256125 -0.25368682 -0.13207802 -0.1664701 0.065705955 0.27595794 -0.025107784 -0.15180618 -0.14065382 -0.31109592 -0.0634027 0.35707027 0.1782135 -0.040979117 0.042194843 -0.10903746 0.2055601 -0.10449433 0.0440635 0.222891 -0.08009184 -0.07588556 0.015255986 0.06558797 -0.338484 0.1689232 0.13113354 -0.17711276 -0.0023004543 0.07520446 -0.0031680022 -0.1314677 0.38346022 0.008371685 0.252269 -0.110235155 -0.32154503 0.033672083 0.29182482 -0.14460266 0.08740656 -0.26653206 -0.08634272 -0.028472548 -0.07952754 0.23600307 -0.17141333 0.20021275 -0.22369725 -0.10488648 -0.0030873555 0.23601115 0.21507227 -0.014844686 0.028615642 -0.10013373 -0.08160429 0.037606478 -0.31386682 -0.043123923 0.08422494 -0.341548 0.017895421 0.026494525 -0.098537326 -0.25021982 -0.0005593904 -0.22332022 -0.051214814 -0.13677756 0.08681412 -0.14561176 -0.10135247 0.0050898883 0.0038936394 0.121446826 0.14111203 0.10558754 0.13268815 -0.15393159 0.13975988 -0.0168072 -0.17177975 -0.035259165 -0.058204707 -0.0039184396 0.03940072 -0.16960593 -0.04367718 0.121961504 0.015464189 -0.4657244 -0.0019051011 0.06781053 -0.0037594514 0.123709455 0.038885504 -0.09073612 0.07162267 -0.3357351 -0.13664146 0.14378995 0.01470423 -0.18620408 0.07319908 -0.037981596 0.17882568 0.056898955 -0.14634983 -0.29399768 -0.0083961645 -0.1197015 0.1540842 -0.18031621 -0.20687172 -0.2162359 0.15723847 -0.031043012 -0.10075357
1089 -0.22807227 -0.004750824 0.06473954 0.103905365 -0.047103122 0.14586951 -0.01431047 0.18111335 0.04264563 0.04025291 0.010838043 -0.14520912 -0.050722953 0.04744312 0.1289634 0.09621044 -0.029694417 -0.08785944 -0.016371546 -0.032821327 0.07023335 0.081424914 -0.09702149 -0.052781265 -0.19602545 -0.095192865 -0.1812314 0.040277075 0.16736263 -0.0917609 -0.019136628 0.003851281 0.1220645 0.09767254 0.08291324 0.15096937 0.2069007 -0.05452531 -0.117010005 0.04828501 -0.3091113 0.12576137 -0.10625487 0.039434314 -0.08412566 -0.254364 -0.16541104 0.29860732 -0.049604066 0.09946704 0.024784828 0.091949165 -0.11042015 -0.1339601 0.03252679 -0.035641115 0.27789763 -0.072453834 0.12910521 -0.022863904 -0.102729835 -0.04159168 0.077298425 -0.0333931 0.15005551 -0.04882552 0.13249992 0.06943335 -0.15140574 -0.04097411 -0.24611767 0.07091077 -0.15903907 -0.054928858 0.017759448 -0.23032491 -0.08397928 -0.017850038 -0.13444461 -0.07634239 -0.0453814 0.10851907 0.102451794 0.37237582 0.09808801 0.026016746 0.15019745 0.057877954 -0.03419881 -0.054873478 -0.11857243 -0.1395742 0.13588664 0.14646555 0.16339725 0.13176613 -0.10060096 -0.009178816 0.09366814 -0.06597035 -0.10557029 -0.18854421 -0.078748204 -0.072027504 0.17673023 -0.046909988 -0.24360211 0.104025654 -0.26062205 -0.030519685 0.085962296 0.024400136 0.0022492406 0.15384203 0.039377023 0.05703728 -0.047640845 -0.042388525 -0.14460833 0.17417185 -0.0069354423 0.09529898 -0.046844307 0.15577826 -0.24433854 -0.30470824 -0.025769595 0.051773764
1125 -0.07488194 0.07639472 0.028947184 -0.054452006 0.16029832 0.019513981 0.21630442 -0.01609132 -0.016633878 -0.055769555 0.02817777 -0.0031408132 -0.1915522 0.29027244 0.05140112 0.29982626 0.058132876 0.037944097 -0.096944004 0.04615746 0.1352839 0.16300929 -0.061202902 0.0070070354 -0.17443371 -0.018532593 0.03705808 -0.02664366 0.06899948 -0.15279482 0.06577563 -0.037263423 0.009294883 -0.03122912 0.08080663 0.15718901 0.1550758 0.022988118 0.08607672 0.039594423 -0.23463468 0.28365725 0.025148537 -0.021762457 0.0013349222 -0.08645737 -0.06911075 0.03699382 0.0094501255 0.10684869 -0.14766867 -0.021062167 -0.07707517 -0.17921847 0.06060062 -0.08243057 0.21186341 -0.1578999 -0.06647854 -0.100568935 -0.07192203 -0.15766396 0.1545296 0.050668888 -0.11806499 0.04604776 0.10219709 0.06522059 -0.18273951 0.06587936 -0.08115963 0.045955617 -0.067239024 0.09134687 0.23728554 -0.21272458 -0.17394508 0.093822494 -0.20552997 -0.07038279 0.11109516 -0.09129368 0.16669099 0.25449663 -0.06494343 -0.05024498 0.1620316 -0.05430262 -0.024404777 0.095286764 -0.05285816 -0.06164528 -0.04109563 -0.040738788 0.18446723 0.08635684 -0.05893785 0.0031540135 -0.048602376 -0.11671512 -0.045188222 0.05123782 0.020564985 0.025364242 0.21390907 0.014127329 0.029513288 0.079600155 0.040616732 -0.17664401 0.121901274 -0.032960217 -0.007277519 0.01207386 -0.10516289 -0.03374634 0.05199428 0.013177536 -0.008530503 0.0064194165 -0.08515329 -0.08234629 0.028043767 0.002052022 -0.08589258 0.0024079771 0.019187272 -0.0025398273
1082 0.024904292 -0.03321857 0.045787465 0.069021374 0.06760581 0.1256301 0.14516306 -0.0049428805 -0.078337476 -0.05538187 -0.04119717 -0.17754103 -0.054110073 0.13303074 0.19951977 0.25858265 0.1607834 -0.046658248 -0.077143066 0.07394837 0.03608934 0.11217742 -0.004303421 0.014049681 -0.20556577 0.079981975 0.011808925 0.2255913 0.047442038 -0.030917706 0.037871677 0.0820799 0.09309383 -0.07492482 0.060786124 0.29869187 0.1253608 -0.030873692 -0.14398952 -0.0141433645 -0.3068298 0.13532797 0.09869306 -0.17999132 -0.046644643 -0.13544407 0.09791821 0.035551485 0.07254807 0.20062727 0.009116779 0.053487413 -0.00053386524 -0.0065460126 0.11190268 0.001014217 0.092711255 -0.10547441 -0.066845536 -0.042285576 -0.123077676 -0.06673229 0.0026669498 -0.04280085 0.015852997 0.14336005 0.072814845 0.19202724 -0.12209894 0.018413274 0.032292258 0.033903033 -0.2177815 0.036613323 -0.061437383 -0.28455442 -0.33386782 0.053552333 -0.14933948 0.16701818 -0.05183291 0.04840646 0.22152203 0.29587895 -0.022777267 0.1079235 0.08474192 -0.028047986 0.08492226 -0.23040332 0.17563324 0.06966445 0.06144215 0.014618461 0.12194942 0.01972937 0.034109235 -0.09787229 -0.001477084 -0.021412892 -0.14029911 -0.07956345 0.123770684 -0.07510924 0.03289867 -0.023980193 -0.06648397 0.09224301 -0.020933101 -0.02622823 0.027583363 -0.10264187 0.056019317 0.0022522486 -0.0076942323 0.005128358 -0.12701619 0.03418321 -0.011167422 0.031016618 0.0546623 -0.04972606 -0.01501179 0.060552854 0.0040225624 0.07432076 -0.082103394 0.10107094
1341 0.009116665 -0.25734365 -0.19971238 0.23331207 0.15789169 -0.11271103 0.26087025 -0.14242816 -0.07152949 -0.015208337 -0.17140692 -0.13405576 0.18916668 -0.053586155 -0.049306978 0.08187546 0.017306814 -0.19778341 -0.2701382 0.22528635 0.29897436 0.2852007 -0.3307949 -0.09442514 -0.19192983 0.28660157 0.09863394 0.11630252 0.1110938 0.062444963 -0.08883099 0.18180591 -0.21528774 -0.053117644 0.04589891 0.23021354 -0.097922355 0.099417605 0.017906422 0.15333419 -0.21030265 0.20037523 0.056965087 0.17381266 -0.1305791 -0.37451202 0.09575339 0.17978333 -0.2775301 -0.13936515 0.06401762 0.1323755 -0.0056965123 0.1542952 -0.023223868 -0.19454926 0.23001505 -0.06307543 -0.031662934 -0.11670754 -0.087316126 -0.19943419 -0.06948189 0.0021529922 -0.06568171 -0.060271777 -0.045238465 0.083198905 0.13807033 0.10410576 -0.08767303 0.061023332 -0.084547214 -0.2516094 0.19082762 -0.23562376 -0.12270517 0.044680383 -0.005007615 -0.05011163 0.08911574 0.15762945 0.18043908 0.096221454 0.18330012 0.21676917 -0.18106313 0.032200992 0.0199639 -0.020282416 -0.21747294 -0.2454591 0.21810515 0.11474733 -0.00038800293 0.23659246 0.024202986 0.05273768 0.07218563 0.010838692 -0.09792053 -0.16288735 -0.055870503 0.19300184 0.06844811 0.15045731 0.04741343 0.23095897 0.054249864 0.010494025 0.07540789 -0.19153129 0.1847477 -0.15216501 0.02441416 0.04695045 -0.05149347 0.076996416 -0.07797046 0.08594247 -0.28524324 -0.17829798 -0.005023836 -0.10444774 -0.32994384 0.25218594 0.14357758 -0.118242465
1078 0.064365886 -0.26416352 -0.041762494 -0.07492014 0.07094173 0.10779248 0.31323287 -0.094550945 -0.104884826 0.13629021 0.07699564 0.0135900555 -0.034292996 0.03746557 0.049671862 0.11490782 0.10487726 -0.12748115 -0.12762757 0.106189966 0.018773505 0.13404517 0.17670096 -0.12187309 -0.14151843 0.0001676262 -0.052411895 0.17481071 0.18855143 0.008921808 0.1589172 -0.10969045 0.043767884 -0.10975117 -0.12366869 0.35531673 0.12022703 0.011080261 0.04260694 0.06528259 -0.4922516 0.19659817 0.0010863403 -0.057172306 -0.012451178 -0.13444856 -0.08875833 0.12372979 0.09060251 0.11915888 0.11491971 0.026771529 0.19680555 0.06266186 -0.037912592 -0.133941 0.1129958 -0.20866849 -0.15286767 -0.0006479905 0.031133184 0.22174585 -0.25494578 -0.05311963 0.18047865 -0.068326496 0.07159711 0.13978837 -0.05674953 0.037932273 -0.10415675 -0.14714319 -0.062570795 -0.0314053 0.21151449 -0.18111195 0.009652015 0.032359008 -0.21586007 0.15476109 -0.023928639 0.059731144 -0.1360913 0.191428 -0.15323432 -0.026468283 0.0653927 -0.13612998 -0.019884434 0.015055788 -0.09557229 -0.17425872 0.053598065 0.018056942 0.08458758 -0.11861335 -0.060621448 0.017460357 -0.08345254 -0.02738845 -0.1343267 -0.08212505 0.05630717 -0.06606845 0.11124408 -0.1301243 -0.087570116 0.20234269 -0.087607 0.053810596 0.09168575 0.013066547 0.05306787 -0.0621118 -0.03813061 -0.18885145 0.060324814 -0.038153607 -0.11431183 0.09378392 -0.141406 -0.10781433 0.0334791 -0.07515745 0.02305952 0.119291596 -0.061327152 0.14210351
1417 0.1587822 -0.15077288 -0.044269424 0.08364815 0.07008863 0.020304387 0.10186135 -0.013145973 0.01342553 -0.0698536 0.028554788 -0.020360708 -0.24317719 0.12342263 0.20988646 0.31069916 0.04666518 -0.038553122 -0.04108249 0.14586523 0.24943024 0.08215285 -0.117984965 -0.041321825 -0.17391948 -0.0044323104 -0.113858566 0.14084628 0.059399318 -0.05893083 0.18741906 -0.14975005 0.094328836 -0.031999853 0.086720936 0.28966388 0.008792704 0.080328554 -0.14789574 0.13997892 -0.22227778 0.26547942 0.0344204 -0.0645844 0.12059013 -0.028509457 0.011379192 0.055030655 -0.037116297 0.19041018 0.062203195 0.15135592 -0.043023262 -0.017987885 0.12570381 0.0498476 0.13081564 -0.13156644 -0.026733946 -0.102956876 -0.069251955 0.09813811 0.050839115 0.021113222 0.052764047 -0.00024868516 -0.081843406 0.14389059 0.0045152563 0.1813517 -0.0029045735 0.018102903 0.030560551 -0.041182265 0.026336113 -0.28772372 -0.1495823 -0.021897327 -0.17638497 0.047065098 -0.14297028 -0.16355395 0.0854659 0.27195078 0.060537267 -0.029024359 0.0824609 0.0867935 0.10059086 -0.050610352 -0.022168335 0.13848488 -0.05120176 -0.07771719 0.11259877 0.1707285 -0.03460095 0.13396724 -0.061105423 -0.026220359 -0.04980736 -0.033749335 0.15934736 0.060107674 0.1299808 -0.020710625 0.07116915 0.08023822 -0.018986931 -0.025709305 0.10689047 -0.12397248 -0.040876646 0.07703235 -0.10713186 -0.058278978 0.021929104 -0.042486846 -0.14765915 0.07980466 -0.09973504 -0.05950826 0.013785767 -0.057445396 -0.13511 0.010571007 -0.0047499645 0.0970367
