1194 128
1272 0.081890866 -0.080053076 0.046022695 0.021728208 0.076584764 0.038733393 0.16329862 0.008286997 -0.020855222 -0.06076995 -0.0062825955 0.026477925 0.012994014 0.06222788 -0.012015718 0.007800135 -0.026938055 -0.022186283 -0.3427521 0.04222366 0.08752943 0.24714182 -0.1254715 -0.112603635 -0.028339487 0.113663256 -0.04815354 0.14249153 -0.0018909711 -0.09450118 -0.0024478638 0.07329527 0.020184569 0.009425014 0.07687246 0.053468447 0.02855793 0.14054795 0.067275 0.09331243 -0.12429436 0.30797166 0.1148493 0.0063476115 0.022372851 -0.22336759 0.037097458 0.06575839 -0.039431397 0.1914461 -0.088392556 -0.071052246 -0.06884853 -0.09717558 -0.16597955 0.028830167 0.20881535 -0.25007343 -0.07584241 -0.07063409 0.02889368 0.032900397 -0.032926273 -0.045796454 -0.0696006 0.085418075 -0.040504728 0.025486754 -0.04778746 0.060320247 -0.15355043 0.020002658 -0.11797546 -0.21060242 0.041460946 -0.365437 -0.10732992 0.012446666 0.025819642 0.12604165 -0.05774081 0.021301428 0.031603415 0.20522436 0.012365219 0.13249302 -0.0061156694 -0.027422309 -0.05667055 -0.012609384 0.05200127 -0.09585246 0.030446334 0.002091934 0.21978079 0.09146563 -0.083099276 -0.07571267 -0.061598748 -0.0149338925 -0.22402765 -0.11646863 0.06848497 -0.042367965 0.022344347 -0.08505279 -0.18033504 0.2288801 0.052908637 0.03869364 0.09929265 -0.090488926 -0.047068585 0.054876897 0.10681774 0.013100744 0.020640926 0.13809419 -0.046222568 0.016462047 -0.04086967 -0.058657177 0.017475937 0.10545303 -0.18673566 0.0545867 -0.00085380103 -0.085877076
1327 0.017842267 -0.021447219 0.05602529 -0.04748688 0.10776727 0.086062044 0.18023121 -0.0612494 0.008436686 -0.16323818 0.029411312 -0.22015464 -0.004606097 0.16458043 -0.051158614 0.10935672 -0.093202926 0.11196727 -0.18549882 0.057057384 -0.012797037 0.17023249 -0.05121483 -0.07655092 -0.19131753 0.14213501 0.030594798 0.13808389 0.09474596 -0.14048658 0.013994813 0.08512378 0.0068170414 0.09749788 0.084602095 0.18183139 0.09457597 0.051965266 0.07332585 0.16072509 -0.13838078 0.31228527 0.023255095 -0.04779047 0.025315015 -0.20409094 0.053011335 0.10405129 0.040998112 0.15916598 -0.09103939 -0.013940011 -0.0011302785 -0.017111676 -0.083084844 0.09612572 0.25155646 -0.28262535 -0.1376328 0.057827964 -0.0636869 0.011010891 -0.047364276 -0.13986759 0.041893136 -0.085555576 -0.033190906 0.039377257 -0.03959266 -0.07930427 -0.06380749 0.054886628 -0.09709358 -0.16624652 -0.03779844 -0.24255724 -0.05112521 -0.0103944605 0.0072016567 0.18973424 -0.1220931 0.0020815895 0.069204174 0.16290544 0.05626486 0.11657996 0.017966282 -0.004508459 -0.14049706 -0.076668546 -0.033621527 -0.07651441 0.023170976 -0.059944503 0.1863113 0.061035562 -0.0068750693 -0.033350803 -0.07642639 -0.111490235 -0.17923559 0.118929535 0.09302727 -0.0469988 0.13006593 -0.17255676 -0.078432575 0.21629156 0.036363516 0.02854892 0.14501317 -0.14214127 -0.043275025 0.1095794 0.032660764 -0.0010467141 0.058036428 -0.003841427 -0.082124345 0.022440111 -0.09363573 -0.06374276 0.050836887 0.14613654 -0.1389116 0.04854837 -0.13772412 -0.020173425
1407 0.14807408 0.05795963 0.07171707 -0.075302765 0.07791573 0.09224129 0.13550816 0.08456193 -0.05683657 0.005181218 -0.098178424 -0.0256211 0.03811623 0.07090857 -0.015862579 0.09668801 -0.07740239 -0.07743875 -0.30766052 0.0056246896 0.2649117 0.17331968 -0.036734384 -0.015467901 -0.083561435 0.065326825 -0.09709506 0.01030497 -0.040126573 -0.073903434 -0.0115703745 0.19066517 0.10951277 -0.06815075 -0.011954435 0.14373735 0.003547528 0.07791238 0.09631473 0.13546687 -0.08528416 0.121394165 0.019365553 0.011876743 0.14059226 -0.22220409 0.04063209 0.29220214 -0.013379131 0.20922211 -0.06283039 -0.01484727 -0.030015964 -0.22327559 0.009432206 0.045437716 0.18350936 -0.3722064 -0.19828777 0.0010324538 0.003305743 0.122734845 -0.06299034 0.0042918175 -0.049236547 0.09443891 0.013673955 0.07091452 0.006245729 0.015118515 -0.13193609 0.05032273 -0.15313973 -0.22235209 0.12191496 -0.19599436 -0.17575513 -0.064552 0.12337781 0.123313956 -0.08625309 0.017279297 0.076242365 0.25413513 -0.12890096 0.0038464067 -0.057239104 -0.067069046 -0.10001039 0.011383513 -0.07441704 -0.09563896 -0.03571836 0.06971349 0.19670817 0.12506858 -0.06087741 -0.11015575 -0.029818228 -0.04955575 -0.23969325 0.015337917 0.078125715 -0.055800475 0.17060669 -0.038753115 -0.22786373 0.25111392 0.009860498 0.053865004 0.08617773 -0.22949317 -0.008168601 -0.058449015 0.0074790064 0.097099796 0.037512474 -0.032815255 -0.093750626 0.044560052 -0.110025436 -0.04870573 0.045813333 0.038836796 -0.18847872 -0.0054404307 0.00013121768 -0.18015587
1316 0.10193311 -0.1850102 -0.0011676282 -0.06764761 0.26439214 -0.0930242 -0.027105818 -0.1442137 0.034249227 -0.11190742 -0.03623091 -0.10665035 0.028954562 -0.079052255 0.04105435 0.07868399 -0.118851215 -0.24242964 -0.22653048 -0.013177269 0.087328926 0.12823926 -0.019463416 -0.16023344 -0.062477544 0.14187464 -0.11866995 0.089180306 0.13909209 -0.2252775 0.013658581 0.15777993 0.021998547 0.13414973 0.04948414 -0.019880839 0.057160582 0.083572365 0.025089033 0.16648383 -0.14412966 0.12022521 0.038720157 0.021880943 0.054775245 -0.15228659 0.06524553 0.18196245 -0.0023228845 0.10025224 -0.034303065 0.030347986 0.031183321 -0.013721864 0.042456374 -0.20996113 0.29589927 -0.39334786 -0.16725004 0.0041810297 -0.039892994 0.09766158 -0.08988209 -0.15113813 -0.0210041 -0.059125014 0.17771089 0.0029581122 -0.073140845 -0.064086854 -0.10086781 0.1368668 -0.10718011 -0.10736196 0.16660911 -0.21957865 -0.07656389 -0.1441684 -0.09027172 0.19567972 -0.101554416 -0.18170853 -0.049304955 0.15257144 -0.029046241 0.13336381 -0.16227861 0.10827412 -0.08973423 0.001103506 0.044307955 -0.057481624 -0.06422399 -0.025568418 0.18347447 0.06908493 -0.17330341 0.009469943 -0.022760248 0.061153054 -0.17906336 0.053520665 0.14491628 -0.06732233 -0.06814095 -0.09639328 -0.20361665 0.17925507 -0.017620945 0.094220184 0.030485999 -0.09311876 -0.16296569 -0.06079066 0.022389809 0.03145091 0.07500942 0.10125525 -0.15005457 0.2613409 -0.07393103 -0.13189973 -0.005926492 -0.056213465 -0.40966117 0.10902801 -0.15948366 -0.118975885
1172 0.092008695 -0.14288925 0.024592752 -0.024371577 0.18251708 -0.021604044 0.030122448 -0.00013141792 -0.008143941 0.01828596 -0.045051042 0.010765031 0.0051759756 0.24883802 0.030245332 0.12734991 -0.20292862 -0.10278812 -0.29888168 0.09546489 0.33421198 0.20045128 -0.09341106 0.06925346 -0.09683082 0.027939636 -0.09495137 -0.012587587 -0.09494866 -0.07511791 0.030226627 0.16900691 0.06856597 -0.07174509 -0.09736136 0.04757745 -0.04911482 -0.071729615 0.017193645 0.26092815 -0.08857334 0.24999513 -0.011227619 0.14647417 0.17912737 -0.13801081 0.049011543 0.1918824 -0.018147802 0.09644724 0.048395522 -0.06111362 -0.10911428 -0.21363811 0.023957424 0.05395815 0.30594552 -0.3496178 -0.14653867 0.06318842 -0.0018474899 0.043765906 -0.13166113 -0.112683326 0.0015643439 0.015806984 0.02200651 0.06932637 0.0877655 -0.030952161 -0.08087713 0.13581157 -0.26954958 -0.25892997 0.12082633 -0.24160089 -0.11584509 0.08067772 0.05573971 0.09026038 -0.036759216 0.047164373 -0.15151818 0.27052087 -0.051662736 0.039785624 -0.10021066 -0.046116974 -0.22653458 0.028573586 -0.0964755 -0.036989976 -0.0846202 0.12060261 0.2122024 0.023123758 0.048811574 -0.15495993 0.024674201 -0.129889 -0.08933253 -0.020478128 0.06454126 -0.16492774 0.17296481 0.031050894 -0.11928987 0.28585106 -0.103965305 0.120498225 0.06076619 -0.2876454 0.014536856 -0.059014145 0.010071528 0.08881975 0.13359633 0.15768899 -0.080384284 -0.04312774 -0.13809602 -0.09735509 0.1429051 0.048800882 -0.20621483 -0.006719415 0.04971847 -0.15359063
1116 -0.02820973 0.105778925 0.04270545 0.028546112 0.10277099 0.09764353 0.2048977 0.04802304 -0.015692906 -0.062088262 0.034852404 -0.11392078 -0.04581067 0.03744316 0.007287748 0.053806968 0.036445778 -0.04494724 -0.1759723 0.1291451 0.10579151 0.27851522 0.0016927045 -0.18595216 0.014645034 0.11127535 -0.050662044 0.047539826 -0.0041315965 -0.0673035 -0.020438032 0.116473876 -0.018218802 -0.0086469175 0.102967955 0.010010714 0.15848336 0.11893342 -0.035175957 -0.008520856 -0.25321358 0.07587168 0.19069448 0.076466195 0.17188351 -0.09795129 0.07336417 0.12588318 -0.05324885 0.11222789 0.083025545 -0.058899026 -0.047965344 0.0077370373 -0.091143146 -0.12712185 0.2749633 -0.14481929 -0.18673044 0.07956901 -0.09696596 0.008292646 0.046913374 0.032561112 0.027022352 0.083636925 -0.082849905 0.010920532 -0.110255 0.0766236 -0.18949522 -0.027962578 -0.15417401 -0.13538256 0.12378677 -0.24238749 0.004415359 0.12600455 -0.14829311 0.13154106 0.04296316 -0.019520234 0.041156914 0.118482426 0.07181458 0.10037761 -0.02907205 -0.17553785 0.009054655 0.05398653 0.072798714 -0.03421434 0.08295642 -0.03415499 0.13964768 0.09596985 -0.06961447 -0.08104181 0.034245126 0.0011865062 -0.117331736 -0.04168841 0.06584331 -0.065184586 0.08356938 -0.06994001 -0.12948476 0.21238364 0.02566689 0.033459954 0.21313703 -0.051618155 -0.08101813 0.04702138 0.011954277 -0.11805193 0.12659235 -0.07781227 -0.052242476 0.0025193775 0.11179817 -0.0936095 -0.009379882 0.07985514 -0.2618128 0.094317585 -0.06189031 -0.014496564
1329 0.11840018 0.027733045 0.038817506 0.15648964 0.08289786 -0.022435343 -0.16976506 -0.02289644 -0.14832535 -0.002508106 0.075710535 -0.09708502 -0.08575684 0.038586494 0.026439384 0.16276598 0.047324654 -0.098653145 -0.23123616 -0.0065197367 0.13698518 0.14872935 -0.08877856 -0.07051487 0.012136449 0.111848325 -0.07072054 0.096309565 0.14499496 -0.1192935 0.083601385 0.084757924 -0.0041554114 0.10699204 0.0036245605 0.2270495 0.07355629 0.15997392 0.25451094 0.03594907 -0.17036697 0.27089912 0.082381666 0.06835183 0.06603906 -0.11777084 -0.015689412 0.12618248 -0.011452748 0.17704858 0.06355906 -0.103307866 0.08086522 0.041303746 -0.07397351 -0.063314624 0.25813314 -0.041541457 -0.12658095 0.08671721 -0.06040583 0.01679374 0.11039002 -0.07280034 0.08783553 -0.010643174 -0.11335505 -0.11675249 -0.1153791 -0.018200286 0.020526635 -0.021098092 -0.06321196 -0.14799473 -0.03517556 -0.28249812 -0.18244357 0.072894454 -0.09633061 0.13504037 -0.04099495 0.052137066 0.11010975 0.14980768 0.13731922 0.012053276 0.03435805 -0.045283508 -0.15745473 -0.002544891 0.08927104 -0.090468556 -0.004920559 -0.06324505 0.32317016 0.09735294 0.17827217 0.0038115904 -0.036182005 -0.028208664 -0.29395375 0.013493396 0.14143184 -0.08381315 0.033790518 0.076892406 -0.10594011 0.06292082 0.030182922 0.0811068 0.1340982 -0.09130981 -0.118460886 0.08936742 0.052098025 -0.056779347 -0.07111522 0.006481209 -0.07747986 0.019702423 -0.12791567 0.023090975 -0.045137443 0.103016935 -0.2623449 -0.17036529 -0.023258582 -0.013932032
1293 0.043263745 -0.025915641 -0.0006860844 0.03352563 -0.18525505 -0.029278051 -0.035633985 -0.11198318 -0.028679114 -0.101282306 0.04726995 -0.042926013 -0.07428321 0.23048574 -0.04467585 -0.021642108 -0.07071531 -0.08522502 -0.06386838 -0.04658364 0.002583412 0.029237472 0.05412125 -0.13678409 -0.11238816 0.22140853 -0.013965082 -0.00027689364 0.04805162 -0.057354975 0.035423387 0.20962599 0.07544569 -0.04153435 0.032013193 0.00076181523 0.102878086 0.15585102 -0.123254634 0.1026362 -0.27233002 0.29046178 0.20653008 -0.020216119 0.08362349 -0.17685036 0.11148331 0.08930061 -0.0068120696 0.14845477 0.06816295 0.00092816 -0.014126112 -0.11946853 -0.019503258 0.06570874 0.43536115 -0.121088944 0.07023142 0.044344947 -0.10051468 0.1799354 0.012648429 -0.008874538 0.1319524 0.042161003 -0.056770425 -0.11274193 -0.06501788 0.20238388 -0.18425363 -0.014739585 -0.2084863 -0.10663783 -0.03673638 -0.32206333 -0.19355676 0.03479767 -0.047714196 0.12885885 -0.1410512 0.09143155 0.017379008 0.18784758 -0.06868683 0.089439854 -0.20829274 -0.06327165 0.066563666 0.08602768 -0.086714685 -0.05556698 0.04490104 -0.13775416 0.09337402 -0.031137265 0.017941542 -0.020109186 -0.02606221 0.04209857 -0.29636744 -0.02396324 0.08810373 -0.03320802 -0.031336155 -0.007085095 -0.12003732 0.36817 -0.083549075 0.13398212 0.07541093 -0.23255183 -0.013117665 0.15179431 0.0642572 -0.047017302 0.043287806 0.050207593 0.13884881 0.26978096 -0.022302222 0.06918211 -0.018482804 -0.012898988 -0.29632795 0.056035545 -0.01847475 -0.042257983
1306 0.169348 0.0032453814 -0.027060451 -0.06469185 0.055282112 0.14043182 0.0732129 -0.09934232 0.065945804 -0.16933239 0.03512485 -0.04357884 -0.2121187 0.09901713 -0.07106292 0.0072166063 0.044817872 -0.026155302 -0.2271617 0.13501313 0.08956812 0.27472264 -0.071865335 -0.07057016 -0.086670645 0.16399601 0.015011731 0.073823996 0.04301601 -0.009670367 0.031790808 0.15424253 -0.031752788 0.06585534 0.1449188 0.17877619 0.24622554 -0.04171359 -0.008161309 0.055320594 -0.22390695 0.17845875 0.07533645 0.08388234 0.05472697 -0.0601213 -0.015797256 0.07470066 0.04362227 0.082011424 0.024646645 0.037067257 -0.17590429 -0.08054516 -0.10160952 -0.09173117 0.17555784 -0.114541106 -0.09962907 0.0026305604 -0.08501987 -0.13455233 0.077065594 0.028283887 -0.005434799 0.017618906 -0.010775473 0.045415442 -0.08957471 0.057373192 -0.08641458 0.12391538 -0.13414475 0.09092691 0.068824455 -0.25381672 -0.014976999 0.096156165 -0.085355185 0.11892411 0.008526865 -0.115615904 -0.018053325 0.05615594 0.11585891 0.15722352 0.059672568 -0.2006152 0.040744744 0.028939892 0.17060491 -0.091734305 -0.047764685 -0.030404914 0.124986716 0.074046835 0.0077812197 -0.036395323 -0.03005648 0.058833096 -0.18116409 0.03655121 0.006911375 -0.013036902 0.14507523 -0.10290632 -0.22298454 0.16368921 0.05081159 0.13056332 0.1624211 -0.013312232 -0.057759628 0.11189333 0.014853419 -0.10016793 0.08237681 -0.027897047 0.028194023 0.07808053 -0.041685205 -0.14133246 0.09633433 -0.021195877 -0.29636112 0.043844707 -0.08752347 0.13742474
1404 -0.20194124 0.05159023 -0.0113515 0.0054943287 0.08930206 0.315494 0.10679503 0.081059046 0.07495951 -0.10493548 0.083242334 -0.005014274 -0.17232981 0.050658435 -0.121680446 0.22991243 -0.1390099 -0.07802856 -0.10355638 0.068409696 0.12528011 0.35650963 -0.047876384 -0.119897835 -0.12632206 0.11101789 -0.04422924 0.005256398 0.056547556 -0.0069542383 -0.050751455 0.101044446 0.08144198 0.070020296 -0.046192903 0.057687793 0.2409632 0.07877544 -0.004583262 0.048249926 -0.19816533 0.015463277 0.12810591 0.064397655 0.16859786 -0.019670019 0.057956062 0.13673817 0.0034597225 0.1342067 0.048063856 0.08810285 -0.20165311 -0.13280413 -0.12518802 -0.029215854 0.34464788 -0.041664697 -0.1213804 0.06346427 -0.016099347 0.015829092 0.047996663 -0.012505185 0.05005966 0.0630649 0.05661996 -0.047432464 0.0733322 0.020145983 -0.19664711 0.09460945 -0.072813034 -0.086800314 0.06921834 -0.25842443 -0.028921906 0.09966429 -0.19217636 0.21704553 -0.025001341 0.04936433 0.079859 0.13161048 0.07258977 -0.06831398 0.030309914 -0.14364964 -0.050956067 0.09421687 0.03129969 -0.18559557 -0.067262195 0.083377 0.04871156 -0.04926948 -0.06492224 -0.13656849 -0.13858011 0.06736253 -0.06557895 0.005449 0.015033136 -0.043587316 0.04674722 -0.08756168 -0.11677981 0.1990558 0.02533007 0.11205183 0.083347365 -0.03788571 0.023573035 0.056645025 0.062200762 -0.15787363 0.11893535 0.0048639704 -0.10239025 0.113329664 0.005974383 0.0034253336 -0.045533024 0.0688132 -0.31578112 -0.04620128 0.041766386 -0.0010068247
1421 0.024575708 -0.0011500543 0.09871759 0.10303318 0.053839847 0.27344304 0.077605076 0.05278887 -0.05569794 -0.042890918 -0.06477708 -0.0021044596 -0.100943334 0.27897277 -0.06985736 0.07493374 -0.08922779 -0.008051731 -0.056204587 -0.0027904909 0.014344886 0.13087648 -0.039897896 0.13367724 -0.19411798 0.083817236 -0.0057931887 0.14207254 -0.07832876 -0.06077126 0.02856479 0.2622746 0.017610414 0.025935804 0.13719074 0.16797622 0.15013467 0.020478608 -0.14749403 -0.045748685 -0.20498809 0.077686965 0.079778634 0.012692823 -0.058189996 -0.25009236 0.061412036 0.23506203 -0.055000123 0.01607143 0.07165009 -0.09497142 0.0022869855 -0.0732785 -0.06287494 -0.050598133 0.19934106 -0.35500774 -0.004480911 0.10618394 -0.12131482 0.0027607188 0.025021859 -0.0334403 0.19186334 0.008405601 0.18231252 0.14162503 -0.038338788 -0.09151898 -0.11315178 0.16799404 -0.22997366 -0.03340913 -0.0062160245 -0.13714916 -0.16802609 -0.11807714 -0.14771442 0.12487259 0.0017444231 0.041715622 0.035826027 0.24334778 0.13301641 0.2974632 -0.14797695 0.003589845 -0.006667157 -0.042764354 0.02192862 0.025631163 0.22741751 -0.06586304 0.17039348 0.13537805 -0.05937691 0.06202737 -0.0485717 -0.07232091 -0.264344 0.09198023 0.02415006 -0.089615434 0.018945418 -0.15601388 -0.10143524 0.22784232 0.017019635 0.05011383 0.1624304 0.024333313 -0.034469374 -0.19767684 0.013800297 -0.18529855 -0.052239932 0.061167277 -0.031374265 0.14370914 0.022397522 -0.08497046 0.10037605 0.04484784 -0.099082306 -0.02884862 -0.096282475 0.115069285
1308 0.11998304 -0.07876053 0.026433818 -0.056019537 0.14177121 0.121173084 0.0354955 0.0850328 0.03038789 0.0487995 0.067536406 -0.16137901 -0.035169564 0.24115328 0.008422523 0.1596515 -0.005928972 -0.09889764 -0.22155003 0.07439267 -0.039095797 0.17946707 0.04205026 -0.025616996 -0.07393635 0.044713758 0.08668528 0.09808181 0.016341768 0.08210639 0.19361655 -0.045880713 0.066417255 -0.06538125 0.05754481 0.115279436 0.07677442 0.10876772 0.05481271 0.16733576 -0.18946193 0.3181558 0.017606793 0.094110005 -0.011121184 -0.1650341 -0.022967903 0.0013118052 -0.042821385 0.06800249 0.06278 -0.06463611 -0.060477626 -0.18690896 -0.05656615 0.06642423 0.2284371 -0.1347049 -0.21482301 0.05852735 -0.036371864 -0.018554196 0.05234556 -0.015074839 -0.0008016056 0.14799958 -0.005126911 0.016139843 -0.039337203 -0.03736053 -0.07593211 -0.014014248 -0.14988941 -0.11421192 -0.050427508 -0.24726802 -0.095022716 0.020890191 -0.15220451 0.09247574 0.14502877 0.036947567 0.19098966 0.0813175 0.05685662 0.065840505 -0.043709785 -0.049626265 0.07188713 0.014337718 0.028518004 0.04838869 0.006092706 -0.032566797 0.09917185 0.08170672 -0.011063946 0.0711623 -0.055568796 0.03295762 -0.17386274 -0.007928048 0.055219535 -0.07347851 -0.0622148 -0.052145783 0.029055053 0.13779402 0.07271398 0.031112727 0.19018163 -0.11949401 -0.090615116 0.027679434 0.11491573 0.056068886 -0.055370316 -0.00034245057 -0.033148862 0.01395382 -0.09706374 0.10950708 -0.048992645 0.25061253 -0.28919882 -0.0026645714 0.10952617 0.1263907
1276 0.074674435 -0.11685655 0.12463416 0.066099904 0.07845607 -0.053726893 0.17425607 0.012994623 -0.15484172 -0.07997974 -0.004588046 -0.1622768 -0.09266158 -0.016780833 0.059591647 0.018106276 -0.093175486 -0.018306637 -0.22224042 0.066259846 0.026339797 0.28636727 -0.25342432 -0.11531762 -0.13825653 0.08274437 0.05145998 0.1795702 0.0006618866 -0.07414425 0.031540174 0.17684025 0.03725225 0.22914554 0.18494499 0.01851112 -0.013088204 0.2151671 0.02134936 -0.04697426 -0.25085533 0.13788462 0.04547362 0.0029787791 -0.0057768067 -0.17441534 -0.019140508 0.09625154 -0.015298005 -0.014013962 0.06251323 0.027213829 -0.13534938 -0.13129099 -0.10579869 -0.066560656 0.18416782 -0.108874656 -0.21418965 0.042177267 0.070269756 0.07927632 -0.042156406 -0.080531135 0.106116086 -0.038790174 -0.05312711 0.09542296 0.055094793 0.11122217 0.013656321 0.15062812 -0.17969018 -0.071561284 -0.04657521 -0.12612036 -0.043953173 -0.04433077 -0.17004636 0.10897188 0.105337225 0.0023186996 -0.04313648 0.25887477 -0.044224136 0.29569262 -0.19366345 -0.008352787 -0.04440644 0.075108714 0.04664028 -0.10717869 -0.08418169 0.025539547 0.06684657 0.0013182685 -0.07004042 -0.0061669336 0.058776565 0.015798979 -0.21474563 0.09573019 -0.032505974 -0.12204303 0.24673316 0.04893502 -0.19738072 0.3950764 -0.058573723 0.16923097 0.26528007 0.015556074 -0.13608083 -0.03575948 0.08390993 -0.20061524 -0.093815796 0.04984906 0.17879888 0.09080546 -0.22532997 -0.034710884 -0.08743526 0.12364157 -0.18398367 0.29106495 0.038821276 0.20811437
1237 -0.060224038 -0.09571536 0.07492841 -0.040402908 0.13949409 0.08577459 0.0670612 0.14100945 -0.06695088 -0.03510561 -0.015827307 -0.105692215 -0.08151283 0.06316873 0.0412186 0.14094405 -0.15020654 -0.16861333 -0.21142365 0.102780305 0.05034303 0.30965495 -0.03269963 -0.03635779 -0.028253518 0.08401651 0.006408763 0.08248276 0.046584934 -0.0627394 0.043636728 0.13627326 0.021101743 -0.0710758 0.056283742 0.059346884 0.14223708 0.10083606 -0.02106087 -0.003999247 -0.32212877 0.1337326 0.19309099 0.064044215 0.046569195 -0.234948 0.03947071 0.23320225 -0.078168124 0.21761101 -0.03994538 0.049266644 -0.09095374 -0.030644935 0.13037032 -0.015189284 0.20295364 -0.08223738 -0.10442194 0.12016524 -0.09394301 -0.024928674 0.054526534 0.017515313 0.016447859 -0.07760852 0.029311571 0.036546264 0.0023768654 -0.031939864 -0.14611137 0.037872016 -0.106547594 0.012963738 0.01450744 -0.10544298 -0.22179185 0.13685918 -0.16426365 0.0800791 0.016364383 0.09116465 -0.09651302 0.053675834 0.08060079 0.14016828 0.013203145 -0.07175544 -0.11297794 0.0005041495 0.12286155 0.021117646 0.02435248 -0.090319365 0.12846807 0.0744124 -0.12191429 0.07239857 -0.029455615 -0.07757424 -0.2493094 0.00915932 -0.056678917 0.040460255 -0.11665627 -0.05837946 -0.11871446 0.06725301 0.027662328 0.03497673 -0.0286596 0.0058947047 -0.08372182 0.0049441275 0.010424014 -0.18439223 0.063415214 -0.031992517 -0.028473193 0.049600776 -0.02935129 -0.1251322 -0.060267128 0.1259315 -0.16420469 0.031211376 0.03859234 0.13905509
1103 -0.02212411 -0.046969227 0.17403786 0.09719806 0.03366178 0.0371142 0.13620831 0.15502891 -0.025278946 -0.12772372 0.026111975 -0.009712379 0.15898669 0.042983156 0.090749174 0.039375287 -0.027226195 0.018637596 -0.21748373 -0.16449212 -0.10113078 0.30723882 0.16131078 -0.13030063 -0.1992838 0.21182 -0.093174264 -0.06647814 0.1959814 -0.121859156 -0.028236942 0.10012834 0.035111003 -0.030760525 0.014848189 0.027511869 -0.0074940706 -0.029203337 -0.026780443 0.08216539 -0.21814601 0.17035313 0.11660898 0.036415327 0.03210771 -0.32508054 0.09696465 0.1650941 -0.18044122 0.13045056 0.0665338 0.059772067 -0.13068165 -0.14962293 -0.25188386 -0.061282028 0.20273949 -0.25901592 -0.20704909 0.07162776 -0.056324974 0.04001467 -0.2348894 0.097015925 -0.1460221 0.011633572 -0.09604123 0.026815884 0.041757453 0.11535115 -0.07394015 0.17641835 -0.12648936 -0.085145116 0.028418045 -0.13733676 -0.17941546 -0.068095356 -0.29441854 0.045634046 0.03801739 -0.023658022 0.062206026 0.28009403 0.079268046 0.06824957 -0.02506863 -0.10634771 -0.11406692 0.10007449 -0.024191473 -0.019130077 0.0122325625 -0.072694644 0.18584207 0.117883265 -0.051991817 -0.078523315 0.012258448 -0.004814881 -0.2218685 0.024854193 0.072297595 -0.028636362 0.18166082 -0.09333752 -0.0069362987 0.34639108 -0.017970406 0.14527462 0.10544768 -0.037517242 -0.017676027 -0.11724327 -0.09883194 -0.010860265 0.041306093 -0.00074754684 0.059192184 0.094310455 -0.023018619 -0.09930726 0.14264421 0.040300015 -0.06927765 0.098861195 0.010230208 0.010467485
1287 0.098858826 -0.02598189 0.13838604 -0.07512895 -0.0598049 0.005692013 0.022545455 0.049354263 -0.23944493 0.16849074 -0.21721154 -0.10085035 -0.1267051 0.04761879 -0.09811107 0.14688256 -0.069895275 -0.029033897 -0.20189744 0.11454484 0.06747175 0.07741173 -0.22960094 -0.081543 0.03160673 0.016360367 0.07713607 0.052025333 0.048510417 -0.16380654 -0.10110355 0.03030597 0.038531385 -0.07956761 0.113299705 0.2769339 0.074733905 0.079765685 0.05643193 0.12378237 -0.14287893 0.3244636 0.05637131 -0.09353062 -0.010187101 -0.20291887 0.14873774 0.052485567 -0.0038247902 0.009841899 -0.16420145 -0.008129611 -0.12239429 -0.15300632 0.19820414 -0.0067791487 0.2881753 -0.04712731 -0.10756529 -0.14433916 0.14345466 -0.0010537029 -0.19552422 -0.021003382 0.07344393 0.095242366 0.13990045 -0.056481913 0.08798428 -0.031683743 -0.23371275 -0.059880573 -0.17298865 -0.1624223 0.09472383 -0.37502465 -0.15439212 0.004657625 -0.031703677 0.099777654 0.08562183 -0.02580555 0.039691675 0.047986902 0.042700674 0.08575601 -0.18451692 0.047741663 -0.17935959 -0.038175434 0.15114702 0.05698193 0.17803785 0.02955047 0.12090154 -0.15418138 -0.14514086 0.08306138 0.017045211 -0.036450587 -0.08596184 0.017186074 0.011607236 -0.046735544 0.09315452 0.15781827 -0.12830484 0.2097907 -0.17046672 -0.02450903 0.34386963 -0.087409355 -0.14598016 0.11908728 0.090850644 -0.022815866 0.1658656 0.11553756 0.014738153 0.036433667 -0.18798636 -0.02991873 -0.16300198 0.28293085 -0.35431314 0.106854506 0.02554934 0.04708043
1164 0.041702125 -0.04388939 0.19857219 0.11180292 0.2165189 0.12691505 0.086205624 0.0394148 0.00989587 0.06645085 -0.050063524 -0.07199637 -0.1310005 0.16586743 0.093821146 0.10600648 0.11293856 -0.045064095 -0.14080998 0.14137143 0.08916515 0.25924435 -0.2205983 -0.02500889 -0.039200664 -0.055063687 0.04605536 0.21345536 -0.027269846 -0.011361786 -0.008245121 0.10513785 0.15905121 -0.079712875 -0.0393713 0.17895034 0.056214865 0.0030025416 0.09314069 0.11805011 -0.18255727 0.22530536 0.15935966 -0.010490228 -0.081325 -0.18509549 0.16553274 0.07969786 0.068397135 0.06113425 0.045191705 -0.06332288 -0.006971417 0.009246757 -0.030789886 -0.11887704 0.15264225 -0.03710225 -0.13837646 -0.03407797 -0.10854341 -0.027662944 0.058840457 0.015031065 0.031343136 0.0052739754 -0.026144652 0.1888602 -0.08272119 0.015133843 -0.06098802 0.008342102 -0.124038175 -0.20259936 0.019883346 -0.18634166 -0.11072593 -0.014846019 -0.03556295 0.22651494 0.064510174 0.045632094 0.12596706 0.093630075 0.038644325 0.05050976 0.026865415 -0.12089518 -0.016495595 -0.12978663 -0.00989884 -0.012673548 0.05413379 -0.15016519 0.26500282 0.0859762 -0.07188359 0.05883541 -0.04720627 0.03742114 -0.0035924113 0.08233468 0.05046316 0.025278898 0.009371723 -0.16356108 -0.12915216 0.21086217 0.107496455 -0.01526596 0.07391705 0.07316987 -0.010892889 0.13271952 0.020686606 -0.03078129 0.041121576 -0.0985187 0.11795972 0.10576134 -0.010501247 -0.028959565 -0.023115534 0.21445872 -0.15484536 -0.021792127 0.02770069 0.12532517
1140 -0.06711156 -0.1138875 -0.01502369 0.04078162 -0.05144703 0.13018209 0.12345365 0.10310345 0.0062044347 -0.064802736 0.15554574 -0.07727723 -0.049190015 0.28778055 0.040851917 0.18566558 0.06428782 -0.12957105 -0.09792352 0.034298718 0.033554368 0.15519437 0.00043831125 -0.11032353 -0.019499043 -0.0057015317 0.039957926 0.18204768 0.006085451 -0.0261043 0.050581705 -0.016357709 0.025913041 -0.032274198 -0.0078079463 0.14581035 0.065186255 0.018663974 0.11310815 0.042973343 -0.25995395 0.27389738 0.14362872 0.025997547 -0.034140375 -0.15976779 0.027690416 0.019326573 0.0080896355 0.18748496 -0.07688177 0.09469976 0.061807577 0.014636017 0.05619072 -0.114529215 0.28697306 0.004253157 -0.015220628 0.11319652 -0.16981211 -0.029610503 0.09070184 0.029801553 0.048404984 0.07194811 0.13593976 0.0110206 -0.16626976 0.06597639 -0.113544516 -0.07860398 -0.17502965 -0.0065230187 0.17578593 -0.22777918 -0.18616188 0.13650812 -0.18826826 0.093778215 0.058793932 -0.12215769 0.10143068 0.12034746 0.06762494 0.09832003 0.016390746 -0.032743935 0.006237997 0.049289178 0.057910826 -0.044736575 0.027532233 -0.05257081 0.087410904 0.044197496 -0.10285263 -0.030683456 0.052182153 0.17518023 -0.11169396 0.10533497 0.08049824 -0.07427714 0.013486223 -0.07239153 -0.029682348 0.09614323 0.021430468 0.028253255 0.039972465 -0.08343243 -0.07376604 -0.07536616 0.07336692 -0.049599383 0.008810109 -0.076950714 0.14093232 0.037584126 0.054865517 0.059963416 -0.15323627 0.093370825 -0.3019793 -0.08974554 0.018597836 0.041354794
1156 -0.25531808 -0.056031074 0.041897338 0.06119628 0.12447501 -0.08032519 0.019831432 -0.12361244 -0.230167 -0.019354103 0.07568146 -0.095896706 -0.059962235 0.09197416 -0.038061727 0.10670599 0.042402208 -0.08781854 -0.14044105 0.14808846 0.08823931 0.17903428 0.061930295 -0.02333129 -0.36931977 0.2654864 0.052664816 -0.022583699 0.04683247 -0.111194976 0.020320714 0.017504688 0.021744221 -0.06559087 0.119062 0.048787672 0.00837168 0.071064524 0.03622535 0.05291424 -0.13904895 0.09274264 0.12119108 -0.09853639 0.099729165 -0.1425244 -0.047614902 0.17490575 -0.013961857 0.15775117 0.0035430556 -0.09655245 -0.08177766 -0.054587584 -0.11160394 -0.1272758 0.256794 -0.24626096 -0.15197861 0.037684225 -0.020635862 0.03678883 0.017678212 -0.10861149 0.02354625 0.087082475 -0.09630941 0.16747424 -0.07859553 0.08502363 -0.08218685 -0.13909642 0.009109897 -0.07995057 0.07969012 -0.21047679 -0.34483805 0.16177799 -0.020969577 0.24131529 -0.16567169 0.09917839 -0.056664933 0.10604217 0.07826595 0.07871772 0.04421978 0.0893836 -0.027412362 -0.09456613 -0.017785404 0.08123623 -0.026007999 -0.017250689 0.2666453 0.050675377 0.08275716 -0.014899649 -0.09846975 -0.048653588 -0.069518745 0.058113 -0.11304223 -0.1214405 0.24524876 -0.04604134 -0.013986797 0.15283266 -0.09290757 0.030390685 -0.00017713681 -0.15499325 -0.12727001 0.028549666 -0.15274793 -0.15499622 0.0035925598 -0.03895564 -0.054967757 0.105263084 0.060234867 -0.1367663 0.056543767 0.07200743 -0.2735562 0.004968774 0.08939788 -0.057040345
1297 0.05563619 -0.06741674 0.11829094 0.011091238 0.13563956 0.08632507 0.06563252 0.090316765 -0.0010693967 -0.0140194185 0.08429288 -0.0164797 -0.11974682 0.21396792 0.17233185 0.11028382 -0.027263973 -0.108642034 -0.14181264 0.031040043 -0.0738941 0.13838653 -0.038303394 -0.03277726 -0.08310227 0.07934811 -0.02089457 0.054721314 0.05452571 -0.045088258 0.083998814 0.011200904 -0.05016916 -0.09268743 0.03388061 0.20623586 0.1859541 -0.047677107 0.08710291 0.061199833 -0.18525238 0.20251086 0.12957962 -0.036447827 0.06361426 -0.10741298 0.0741683 0.048841383 0.037894953 0.17505468 0.06528082 0.050380193 -0.019118872 -0.086497895 -0.0011480706 -0.08024272 0.1577369 -0.10929142 -0.11441784 0.013457727 -0.15273681 -0.169798 0.2250877 0.09463826 0.066362895 -0.015658522 -0.0718849 0.1264424 0.012244702 0.050373446 0.037675124 -0.033170763 -0.043129697 -0.011744938 0.156694 -0.2315807 -0.1542346 0.061988167 -0.19690791 0.13734882 0.046167687 -0.05544388 0.054512 0.10257152 0.1588163 0.066819966 0.14377868 -0.041249916 -0.006570178 0.055848986 -0.015424553 0.027592868 -0.039319944 -0.027979618 0.19242962 0.09227929 -0.12299277 0.054260656 -0.07833427 0.02282136 -0.26065326 -0.0054615997 -0.0014850756 -0.18983023 -0.029218046 -0.011047131 -0.045322184 -0.009559965 0.1222506 -0.060366295 0.14777665 -0.07224855 -0.0020308958 0.109470166 -0.0046391045 -0.03964667 0.021318119 -0.094311714 -0.059225436 0.10193576 -0.08069621 -0.12711817 -0.1170179 0.12842147 -0.16048633 -0.17959161 -0.015834538 0.04025579
1271 0.16131456 0.015917836 0.05243063 -0.078603 0.058444615 0.008094339 0.12607569 0.01780325 0.008724076 -0.0696789 0.07816201 -0.12916282 -0.15879212 0.20541543 0.022894617 0.1444276 0.055035822 -0.13345265 -0.15196715 0.032529972 0.07967633 0.25991485 -0.047763236 -0.025753919 0.06340727 0.08143859 0.0051608705 0.17057385 0.16852862 0.07030917 0.12136644 -0.039312094 0.037890412 -0.047316667 0.0137654105 0.29075685 0.21618076 0.09792734 0.07725931 0.011682473 -0.2256984 0.25005284 0.11689378 0.0365656 -0.052237693 -0.11974324 0.052162744 0.11531583 0.024453012 0.11565415 -0.1047541 -0.0044297087 0.03514525 -0.012167037 0.10686356 -0.2004856 0.22064024 -0.077383935 -0.104395 -0.031232864 -0.14152338 -0.064901695 0.11653001 0.04772563 0.036798507 0.027854083 0.059189584 0.12758337 -0.05495176 0.0061759404 0.05710574 -0.059455734 0.014789015 -0.025366738 0.00987574 -0.15068851 -0.1385564 0.08278633 -0.15070406 0.13322991 0.033048566 -0.13715942 0.02001197 -0.0018549811 0.043259162 0.040842857 0.0793384 -0.10243634 0.022621373 -0.04193389 -0.05244425 0.06978061 0.010002168 0.0036037827 0.15459055 0.076646805 -0.04747504 -0.048696496 -0.022569802 0.007595234 -0.11303827 0.056814447 -0.06833916 -0.022647232 0.067389965 -0.11780305 -0.10278636 0.051145427 0.011254825 -0.04437398 0.049842697 0.018984033 -0.108223066 0.069393724 -0.04443981 -0.050914608 0.021382464 -0.056380827 -0.011010332 0.03881078 0.055028968 -0.038072858 -0.05537973 0.17934997 -0.26138645 -0.055880744 0.06378011 0.14581728
1145 0.055873394 0.04170872 0.0850556 -0.015881037 0.05563649 0.060978174 0.07587358 -0.06625549 -0.05229675 0.006261885 0.111033335 -0.011112927 -0.14326997 0.12305805 0.06903223 0.20959494 -0.014110265 -0.14305142 -0.18922953 0.18461037 0.07777186 0.22715966 -0.07366686 0.051425796 -0.052169405 0.022191131 -0.0038396239 0.021104112 0.06989348 0.052831937 0.11864009 -0.08736094 0.10018123 -0.034942247 0.03583484 0.15127707 0.19892812 0.07149561 0.058235545 -0.032929644 -0.24001418 0.35521656 0.17671734 -0.02168785 0.07427512 -0.16749607 0.11740857 -0.030068953 0.053885076 0.11964702 0.0017065248 0.012492496 0.0215245 0.058302753 -0.08616976 -0.055258065 0.07435849 -0.0766961 -0.2240987 0.011362005 -0.03600948 -0.10900135 0.0676225 0.0127254 -0.04469675 0.068556875 -0.095084734 0.100789465 -0.09184782 -0.03514897 -0.026870785 -0.0129974205 -0.1581384 -0.108045876 0.050877646 -0.24270205 -0.10246808 0.04430609 -0.09016056 0.044902284 0.057080347 0.025065172 0.06311788 0.13499352 0.068163395 0.061108533 0.062275082 -0.11978313 -0.10708409 -0.029407183 0.10009475 -0.07571756 -0.03093544 -0.12674126 0.15664916 0.09360987 0.04775845 0.008184606 -0.06961609 0.07522116 -0.1855002 0.05096287 -0.06152002 0.10819047 0.118231334 -0.07714443 -0.012156167 0.13044597 0.14138287 -0.04675658 0.14419319 -0.12631613 -0.076046325 0.0025176133 -0.08484362 0.05283762 0.030833965 0.003124133 0.03915324 -0.0357353 0.017723387 -0.027291914 -0.13225895 0.12688813 -0.17523092 -0.03773103 0.03062978 -0.025265664
1413 0.044955287 -0.034082666 0.12253338 -0.006588563 0.09472034 0.14595315 0.04819027 -0.04051814 -0.03536717 0.054387122 -0.010709779 -0.063719444 -0.11833609 0.12476469 0.04705817 0.2532819 -0.021809809 -0.19185677 -0.022547673 0.19024731 0.07170644 0.4112183 -0.11093955 -0.15987644 -0.022961862 0.2573766 0.045878883 0.00912105 0.16368803 -0.027117968 0.09837876 0.038556147 0.055920765 -0.038393263 0.013189462 0.13470267 0.14076741 0.13904853 0.089975 0.063375585 -0.1989088 0.26326415 0.0676416 0.054834668 -0.0031914078 -0.07034042 -0.0020019074 0.10913669 -0.0092084315 0.01410341 -0.0041967607 0.04995255 -0.04479303 0.07618853 -0.09138242 -0.21816841 0.17619494 -0.03270881 -0.06338621 -0.02519316 -0.01071974 0.0014737158 0.025104005 0.07662881 -0.019526793 -0.03632423 -0.065426596 0.06537726 -0.09697134 -0.08549297 -0.008732258 -0.08098541 -0.027482893 -0.061739277 0.032861967 -0.26446146 -0.025356298 0.015389289 -0.12390393 0.08813258 0.030832041 -0.025649372 0.05536137 0.012865078 0.0452061 -0.04136762 0.22386344 -0.14007619 0.06404165 0.053600024 -0.10622766 -0.14235917 -0.10563795 -0.017618928 0.26460183 -0.012471839 -0.12751223 0.04499028 -0.09660288 0.096015364 -0.029578507 0.019330148 0.03999702 -0.061739873 0.081529394 -0.14187664 -0.08021557 0.07485844 0.11341139 -0.015465558 -0.058029834 -0.09203086 -0.10946093 0.01232413 0.034426644 -0.07868913 0.04289311 -0.02408044 -0.06854557 -0.0063492353 0.07466493 0.0067030573 -0.16039266 0.021924917 -0.3834536 -0.052282568 0.033243824 0.10494828
1238 0.026755918 -0.1219694 0.04350587 0.06756411 0.017435677 0.11703592 0.12873855 0.17038089 -0.04875163 0.012223268 0.0774895 -0.08243816 -0.16122265 0.08586649 -0.008846475 0.1838818 0.1204811 -0.104553975 -0.117751315 0.08772023 0.102418125 0.225178 -0.00026596297 -0.015920639 -0.0070636757 0.15642248 0.124758564 0.1065963 0.10306782 0.032947104 0.03942777 0.004854898 0.064042464 -0.10752627 -0.015759459 0.17447212 0.12865193 0.037178088 0.038456153 0.083564535 -0.19339758 0.20180607 0.1262106 0.041658662 -0.008721724 -0.1632839 0.07236611 0.104140334 -0.006007443 0.18892977 0.053275693 0.044658758 -0.044055123 -0.018737378 -0.010677416 -0.20299259 0.18598272 0.0050075357 -0.11041562 -0.036805812 -0.0995626 0.009011142 0.1535209 0.09707027 -0.040527355 0.019597126 -0.09363924 0.029530078 -0.051603504 0.0047379173 -0.046155926 -0.008082538 -0.11119445 -0.017975396 0.046158187 -0.12647651 -0.06664147 0.06422013 -0.28611916 0.091154605 0.023207048 -0.06030202 0.114142135 0.13254021 0.039273478 0.0020245346 0.14434478 -0.18739288 0.04616227 0.0072918343 -0.056263253 0.109222606 -0.042152118 -0.05001816 0.21870455 0.021853969 -0.068431936 -0.015946293 -0.119890034 -0.103221275 -0.08215506 -0.07066348 -0.030165749 -0.050796706 0.090846464 -0.120179966 -0.033698753 0.11328139 0.011848767 0.18145762 0.10305863 -0.02866245 0.0026693612 0.08152959 0.032844905 -0.083164886 -0.07003679 -0.026243858 0.028157342 -0.013714001 -0.0065459646 -0.1534406 0.024613734 0.119173765 -0.23301387 -0.07571342 -0.0013321238 0.17778677
1370 0.086950295 0.007141702 0.0145361405 0.021038838 0.060574826 0.20125979 0.053520046 0.08187311 -0.15514381 0.02616204 0.07936979 -0.08264438 -0.06496038 0.1794442 0.043263152 0.07590511 -0.019592056 -0.084655166 -0.106794484 0.1688644 0.18453671 0.20811468 -0.088696755 -0.08053646 -0.056227792 0.12962124 0.008408227 0.06995103 0.1391456 -0.001549559 0.11493566 0.0068797483 0.086208574 -0.028488042 -0.019958742 0.18502465 0.23401845 0.028139187 0.007016008 -0.035128973 -0.21612729 0.22404525 0.13626853 0.021182556 -0.008495792 -0.09902743 0.038667187 0.124767885 0.1390031 0.08128062 -0.03330202 -8.2221784e-05 0.08411747 0.03590813 0.055160213 -0.053434286 0.19717605 -0.1305959 -0.07989682 0.05176979 -0.063059285 -0.124942385 0.038738273 -0.06755682 0.047322903 -0.050180946 -0.0027256932 0.13609454 -0.16727877 0.06875965 0.037376903 -0.0011715334 -0.16808264 0.017045908 0.035064835 -0.23491713 -0.09161767 -0.11261627 -0.0963429 0.04648138 0.057719454 -0.002386264 0.045168545 0.1258199 0.076305576 -0.04539193 0.13249163 -0.2366288 0.04481775 0.089524366 -0.018390879 -0.019940602 0.0051255194 -0.019484125 0.20265666 0.045952626 -0.07904376 0.057783585 -0.08278865 0.061052453 -0.20942731 -0.083560385 -0.0309872 0.025821349 0.0456922 -0.21379319 0.011339089 0.021701405 0.0020586594 0.028425736 0.093200706 0.060227744 0.042555526 -0.025631431 -0.031876348 -0.077442616 -0.07819331 -0.06931456 0.093529694 0.07297035 -0.0069488296 0.023118205 -0.04542333 0.08013714 -0.2680728 -0.0651157 0.041623425 0.02074782
1197 0.084791474 -0.108481534 0.0394074 0.053421807 0.12754534 0.047060896 0.09968718 -0.0052431594 -0.06340253 0.034277283 0.1777927 -0.012120474 -0.16394995 0.14554624 0.10516683 0.18797468 -0.012931628 -0.08404072 -0.20955771 0.13956118 -0.07075865 0.20095856 -0.065264665 -0.06344261 -0.081307724 0.021490688 0.008536865 0.094227776 0.08987548 0.119839 0.10328936 0.009048648 0.036100443 -0.18002325 -0.049866702 0.15990447 0.07538181 0.020905403 0.026072267 0.07596736 -0.28011885 0.16833183 0.055845086 0.043941677 -0.007814913 -0.052681163 -0.09011302 0.067778535 -0.069541276 0.17497632 0.08503405 0.03828123 0.013266515 -0.011109722 0.083676085 -0.04158908 0.15106745 -0.11337486 -0.102982305 0.031125456 -0.12556084 -0.018478034 0.13045391 0.07791392 -0.011634405 0.04272565 0.07714378 0.07784254 -0.115330294 0.1932286 -0.030487489 0.012172881 -0.15724787 -0.15963638 0.079602696 -0.10018519 -0.14803717 -0.10184783 -0.1654437 0.1449098 -0.010947037 -0.006884382 0.14477295 0.041544676 0.17138301 0.13546942 0.030424396 -0.08777515 -0.059895214 0.05965812 0.06594638 0.0358295 0.033667482 -0.11411818 0.10523321 0.04288056 0.051917728 0.09990556 -0.16274008 0.00046821282 -0.16987191 0.034895986 0.051817566 0.001580311 0.117173456 -0.101668134 -0.12991738 0.048562083 0.010620345 -0.010412625 0.1128645 -0.15796107 -0.022082368 0.0780811 -0.0225102 -0.038527913 0.08781748 -0.025558509 0.05040448 0.03893818 0.13784152 0.00021799312 -0.047670737 0.21104224 -0.24894814 -0.10291402 0.05539039 0.0068299253
1199 0.034351643 -0.10839018 0.08866108 -0.0344009 0.1290582 0.09881455 0.08510565 0.07650505 -0.021746999 -0.013626655 -0.026413066 0.008748352 -0.18408312 0.1747733 0.21175689 0.22237246 0.0002555097 -0.017906373 -0.21324846 0.17266873 0.14358109 0.1983178 -0.10650215 -0.09332029 -0.03729721 0.06371848 0.01625876 0.09590607 0.039963223 0.041135296 0.07720052 -0.008006757 0.099540785 -0.09635157 -0.041289836 0.14743839 0.11329278 0.010104713 -0.031107416 0.01088533 -0.15168467 0.28629395 0.017966153 0.09236075 -0.006210975 -0.11991622 0.12149873 -0.048180673 -0.013033736 0.22719273 0.048638403 0.033934686 0.066693984 -0.082754545 -0.061388064 -0.0662761 0.12778936 -0.16097234 -0.15887116 -0.02484047 -0.17435138 -0.052590866 0.08148288 0.06680742 0.0006875452 -0.034622148 -0.017856337 0.09680031 -0.10997893 -0.033519804 -0.1797327 -0.10102552 -0.07211023 -0.1173596 0.15102924 -0.13929327 -0.07707373 -0.06873679 -0.18894003 0.15018338 0.07447869 -0.09795712 0.15173064 0.19573481 0.061861053 0.055920474 0.05985911 -0.0559945 0.006551937 0.16949919 -0.031458374 -0.018794833 0.057334755 -0.045047145 -0.027160874 0.04435464 -0.119283475 0.136328 -0.07108588 0.020861281 -0.07961372 0.06474118 -0.040715404 -0.012762614 0.1271643 -0.09820402 0.090291925 0.05531341 0.044974405 0.033273946 0.1749239 -0.019666767 -0.005643718 -0.003683374 -0.067369536 0.0034525008 -0.077828646 -0.050971944 0.055785663 0.043177724 0.085172415 0.00040501778 -0.15123513 0.12515862 -0.13447374 -0.102816306 0.06439163 0.13939731
1146 0.021478457 -0.033147685 0.11040495 -0.10330441 0.15958965 0.14488487 0.10463603 0.04948195 -0.052054387 0.0151642235 0.13293204 -0.06110666 -0.103938535 0.21472739 0.061565854 0.09132349 0.0025363422 -0.052765552 -0.1949845 0.13260746 0.061099622 0.22645153 -0.045645025 -0.006810521 0.021537483 -0.07218341 0.07076163 0.10937818 0.14769989 0.012145661 0.14696413 0.027733693 0.06878567 -0.06707162 -0.038466796 0.20082238 0.16167444 -0.02083208 0.037598353 0.1224106 -0.2854811 0.14510775 0.11067581 0.08400751 -0.017345874 -0.1219599 0.002937155 0.00031899565 -0.07463863 0.12680465 -0.039096773 0.025878204 0.015172279 0.05753147 -0.07714216 -0.15039457 0.16663942 -0.16794305 -0.045325495 -0.058639873 -0.14844343 -0.0077093435 0.106562115 0.04287129 0.031517226 0.04449102 -0.027733458 0.022015577 -0.11938991 0.07043018 -0.013795898 -0.04090826 -0.12084255 -0.0506701 0.019142296 -0.14370713 -0.26290387 0.007539963 -0.1232407 0.1169583 0.010290976 -0.11206228 0.041184086 0.043511983 0.038684554 0.037090242 0.06261527 -0.10851904 -0.07404125 -0.035249405 0.091989666 0.06533429 -0.049235515 -0.0027677445 0.19661807 0.04643189 -0.07979704 0.12288565 -0.12600379 0.04568812 -0.21813498 -0.035015147 -0.053045195 -0.0021851521 0.017098177 -0.11751577 -0.00244146 0.047680948 -0.022002015 0.0910505 0.030791469 -0.054443486 -0.09670435 0.066309474 0.09451149 0.014503081 0.025291683 -0.105292976 0.0578108 0.004582899 0.08224038 -0.033043683 -0.01926048 0.18313749 -0.21004185 -0.02927171 -0.020337168 0.031401902
1286 0.051738482 -0.02958148 -0.0016253402 0.007871479 0.051993113 0.025690904 0.11779908 0.10283486 -0.15145002 -0.095992796 0.06181362 -0.12504393 -0.089578226 0.27170953 0.079341516 0.15981656 -0.04438117 -0.18427151 -0.1649749 0.1393851 0.08226478 0.23078886 -0.09628982 0.030200763 -0.0173943 0.0046734354 0.0716742 0.07633659 0.21193741 0.024765855 0.08134516 0.055334784 0.0689846 -0.14106405 0.06103462 0.14936678 0.08486693 -0.00032890227 -0.0022032452 0.005068761 -0.2684513 0.28625453 0.13642119 -0.080523305 -0.031690884 -0.14461976 0.07241837 -0.034590453 0.0057984064 0.11785926 0.07070212 0.0015866503 0.06287787 -0.005200686 -0.033699535 -0.11187376 0.1286827 -0.0068286587 -0.05527 0.009082172 -0.04661544 -0.019953212 0.08837143 -0.055238668 0.036995944 -0.02405816 -0.018675258 -0.041805197 -0.2283528 0.027817115 -0.038886424 -0.010923912 -0.042985912 0.029521229 0.08382074 -0.1625924 -0.19887687 0.055235945 -0.08075104 0.18267807 0.057610378 -0.22149986 0.04833953 0.017665755 0.1295169 -0.045418356 0.011593622 -0.14369002 -0.0626416 0.094777785 -0.02213447 -0.0017374227 -0.08333612 -0.11722552 0.17019777 -0.017492654 -0.008124398 0.067334644 -0.045585796 0.04608739 -0.10022662 0.029326178 0.0075482335 -0.086196475 0.12959138 -0.06836767 -0.00918887 0.13524164 0.12402438 0.011396884 0.019497707 -0.13750213 0.031367842 0.13248023 -0.13343003 0.11987794 0.13917977 -0.10649034 0.005725773 -0.032307792 -0.021994665 -0.034585137 -0.10381318 0.13501117 -0.20596252 -0.058453407 -0.015580002 0.14420341
1128 0.031392913 -0.043931924 0.05806455 0.06705851 0.10576624 0.10992891 0.13106017 0.06370308 0.01246147 0.060968388 0.088055514 -0.032518484 -0.066912815 0.13337976 0.09434103 0.24456723 -0.038950846 -0.051654525 -0.13213348 0.11290133 0.09956646 0.25935927 0.060608186 -0.083303526 -0.05841731 0.12735827 -0.0016153237 -0.07748414 0.16014421 0.03188904 0.007131974 -0.003007554 0.048319206 0.014980797 0.026908262 0.20438829 0.19314532 0.07450218 0.06711708 0.078651525 -0.18261054 0.20070113 0.14694208 0.036103323 0.04252149 -0.010971121 0.03952656 0.08854406 0.05968088 0.043074556 0.14316744 0.03874644 -0.009992775 0.1579433 0.058713064 -0.05173827 0.2952399 -0.09267077 -0.09223768 -0.075853504 -0.12917045 -0.08403429 0.13554068 -0.014600696 -0.056151807 -0.05032539 -0.004866404 0.06717493 -0.15919133 0.030365229 -0.10863084 -0.08856399 -0.07479155 -0.047558453 0.16518576 -0.25834584 -0.048680346 0.018092563 -0.16193964 -0.05435776 0.028474402 -0.028548745 0.12925088 0.07199435 0.124806 0.069598965 0.070596464 -0.12309528 0.024141949 0.03420955 0.01861672 -0.014972994 0.033898853 0.043431103 0.25096485 0.05889713 -0.08029601 0.06294272 0.037702743 0.053131945 -0.29221138 0.12268638 0.041186396 0.059805207 0.1855504 -0.0720505 -0.09391733 0.049735986 0.19900493 0.01986218 0.07385388 0.054070026 0.00828768 -0.088237286 0.021235982 -0.0407126 0.07914528 -0.011715038 0.07887318 -0.018743625 -0.04020027 -0.05293049 -0.085188575 0.0888729 -0.14020012 -0.052268133 0.042271953 -0.05775961
1144 0.049717415 -0.07396401 -0.02463524 0.037948795 0.13578947 0.12255468 0.022261942 -0.053998385 -0.02161438 -0.059857458 0.13975011 -0.12989236 -0.09615404 0.2860149 0.06955914 0.12348742 -0.036615964 -0.11106598 -0.16349123 0.09885287 0.049027868 0.12710807 0.04544242 -0.09263361 -0.038345315 0.032556735 0.029900676 0.08831663 0.09289242 -0.032830425 0.096210666 0.00089642586 0.022349088 -0.10332026 -0.06953554 0.12907586 0.08155199 -0.039030865 0.07883071 0.07543551 -0.27793452 0.27379578 0.13785158 0.12331022 0.086685725 -0.072427675 0.11926228 0.0090999175 0.010854296 0.056262914 0.00041953276 -0.040968172 0.0053882273 0.098622456 -0.022255829 -0.05423621 0.20616707 -0.080594145 -0.079939835 0.018847533 -0.06409776 -0.036957864 0.08662811 -0.07335403 0.03596657 0.04425852 0.02655449 0.041258458 -0.10445475 -0.03239605 -0.027962996 -0.09652406 -0.09994523 -0.09385266 0.07256463 -0.16920058 -0.106136315 0.0059853382 -0.18548612 0.15551078 0.026286487 -0.13938934 0.08438252 0.090447575 0.04109599 0.059827264 0.06682952 -0.079754554 -0.049053714 -0.011174006 -0.07942204 -0.01304547 -0.09101356 -0.101841986 0.14142455 0.088366546 -0.070874654 0.13993889 -0.09020448 0.08049962 -0.18577622 -0.004614722 0.015090105 0.062562875 0.2583006 -0.03012892 -0.050828096 0.02408136 0.0275946 -0.12077108 0.121149644 -0.07078543 0.014093253 0.11911574 -0.08115711 0.034353074 -0.009347976 -0.0014089632 0.003333351 0.044182748 -0.048138604 -0.06640058 -0.12713853 0.16066559 -0.15261239 -0.08242713 0.023628835 0.09026837
1352 0.06132386 -0.005449229 -0.04871462 0.0053529036 0.17303187 0.17726438 0.02241368 0.024454921 -0.018889654 -0.042597324 0.16713229 -0.04705042 -0.1190222 0.19035646 0.09737421 0.2223115 -0.0312514 -0.060403526 -0.11716122 -0.011555748 0.0859972 0.27537394 -0.05771973 -0.05350511 -0.03528848 0.15995532 -0.0077803833 0.043265183 0.17141373 -0.057343658 0.049862966 0.003430217 0.032772366 0.071996704 -0.11154333 0.18312857 0.17028616 0.105765104 0.07647936 -0.015128264 -0.09503291 0.19049628 0.17219952 0.005604271 0.05477993 -0.15915827 0.0046060337 -0.0032045587 -0.079033114 0.09511194 -0.050240524 0.022807037 -0.10657321 0.024691107 -0.082346864 -0.10998639 0.13101515 -0.11045845 -0.08016409 0.03353197 -0.09851317 -0.10329901 0.04910821 -0.057190057 -0.020503117 0.007114167 -0.009344911 0.16587983 -0.24417497 0.07444058 -0.12977663 -0.07549785 -0.10853381 -0.09122128 -0.008518565 -0.22524878 -0.11747401 -0.059953555 -0.17214388 0.10762465 0.0801176 -0.13241966 0.031898215 0.1721932 0.086607106 -0.06539864 0.015459008 -0.11880548 0.0052434453 0.11734534 0.012611787 -0.012055066 0.06406769 -0.121269405 0.24146177 -0.013144267 -0.10026147 0.004952742 -0.06509616 -0.009007714 -0.15543601 0.07508286 -0.11512661 0.033200257 0.08806983 -0.15102993 -0.12974152 0.11499897 0.0009987733 -0.017473146 0.13166706 0.064158075 -0.042731542 0.07967185 -0.0918326 -0.0074709915 0.07088949 0.022165652 -0.10849256 0.001560225 0.07049176 -0.087716624 0.039545994 0.17802885 -0.092003584 -0.043359272 0.050126664 0.16153142
1348 0.110435724 -0.23049867 -0.011340417 0.12987621 -0.0032112284 0.05376019 -0.18834607 -0.016853338 -0.06759468 0.041768517 0.20152786 -0.08036091 -0.065785244 0.1300263 0.03431432 0.20679922 -0.072581045 -0.0932051 -0.0048756925 0.0014826539 0.16225588 0.12551612 -0.027535152 -0.10405413 -0.06918457 0.15611765 -0.13364051 0.032608066 0.045407448 -0.15059274 0.22494516 -0.027466606 -0.019659027 0.09685383 -0.03973157 0.12764107 0.080452375 0.05788857 0.078048185 0.16636927 -0.18333434 0.1350078 -0.09548465 -0.21774322 0.041243892 -0.07162427 -0.20447655 0.057038426 -0.011366527 0.27057427 0.074178316 -0.11682137 0.12786756 0.03375213 0.00097297935 -0.036350347 0.24312073 -0.09338856 -0.08781467 0.10779652 -0.0689436 -0.004496679 0.06471887 0.08768473 0.0573706 -0.0861613 -0.004451364 -0.10865632 -0.13769336 0.039638042 -0.06887872 0.013582656 -0.21086517 -0.06597382 0.12652911 -0.4185329 -0.26048848 -0.09124997 -0.040187184 0.043732915 0.07926526 -0.045457717 0.065448955 0.13507238 0.0989621 -0.05869262 -0.00459223 -0.050189808 -0.2322248 -0.03611409 0.065551475 -0.13816743 0.13554029 -0.09822617 0.26071697 0.22444525 0.104856856 0.17682521 0.021667823 0.15252759 -0.38918608 -0.1209767 0.0987103 -0.15450218 0.01888401 0.09033204 -0.10047846 0.054331105 0.17379571 0.046008527 0.02317044 -0.087603435 -0.12356122 0.035442267 0.11500436 -0.055556 -0.07946993 0.022961613 -0.092517644 0.057622787 -0.0931552 -0.19260107 -0.029953867 0.092163816 -0.32047284 -0.037806585 -0.027056018 -0.023928115
1167 0.020010957 0.00040597914 0.058660056 -0.09096239 0.110224806 0.044373464 0.058428753 0.00901901 -0.010012619 -0.06864397 0.046579096 -0.104004025 -0.090635575 0.28354943 0.0864572 0.1468293 -0.104388565 -0.08888211 -0.11444319 0.026314138 0.030487213 0.2519001 -0.046210308 -0.0686183 -0.10687968 0.013793827 -0.03373006 0.068870835 0.15791856 0.12779522 0.059875842 0.006560616 0.10673984 0.03165534 -0.019455723 0.12342771 0.16323245 -0.07432145 0.01848893 0.017410303 -0.10856107 0.19831866 0.1278828 -0.030268455 -0.08845891 -0.12757894 0.11386654 0.036547374 0.022967324 0.15958183 0.06871815 -0.054470237 -0.044041995 0.0012039923 -0.07413789 -0.032142233 0.19745268 -0.12989849 -0.10989628 0.07267185 -0.06960677 -0.062599204 0.18834844 -0.046089046 0.00044859797 0.04242501 -0.09687795 0.030915463 -0.13644624 -0.056476954 -0.025476806 -0.083632216 -0.12736228 0.009106115 0.054273568 -0.29905462 -0.09900265 -0.04516858 -0.22795767 0.10593937 0.10604877 -0.06300387 0.11369413 0.14097463 0.10281356 0.15981264 0.11955053 -0.17690732 -0.069921955 0.026513126 0.022399621 -0.061252836 -0.11956304 -0.12834689 0.14055045 0.10602984 -0.0077974983 0.012223052 -0.0136589855 0.048356812 -0.16213727 0.028809454 -0.13676149 0.052236844 -0.04391005 -0.14759313 -0.08060486 0.09862625 0.040624507 0.028627576 0.097819015 -0.09148645 -0.03719484 0.1137475 -0.11706527 -0.064345814 -0.020484606 -0.047003224 -0.088667884 -0.13364096 0.012693517 -0.046511553 -0.07392421 0.16197564 -0.17703506 -0.0203348 0.0695748 0.07677555
1390 -0.041608714 -0.051369864 0.042041834 -0.06437153 0.12320058 0.13113269 0.06560715 0.14153142 0.0043398766 0.03472733 -0.021722296 -0.06441707 -0.08481814 0.07944007 0.044880938 0.1755108 -0.05301848 -0.09447296 -0.07550708 0.12504677 -0.0371403 0.25368616 -0.10546719 -0.020852288 -0.08710001 0.12171201 0.012529866 0.17836268 0.085378505 -0.0012204412 0.07612607 0.023678597 0.062325258 -0.12959911 0.062123533 0.18465526 0.119396225 0.08402022 0.13769303 0.046369743 -0.3188468 0.2043148 0.22922285 0.07895808 0.08195607 -0.101878 -0.02401268 0.02907289 -0.009642526 0.093878336 0.013744433 0.10349099 -0.10138948 0.009064696 0.13578078 0.017457193 0.14601292 -0.16620064 -0.03485662 -0.0060243765 -0.026467592 -0.21919318 0.25264803 0.0059106234 -0.046721913 0.13939218 0.090505056 0.08324563 -0.075510554 -0.0037792616 0.02352309 -0.13056645 -0.107379295 0.009439911 0.07302357 -0.2299023 0.004738752 0.051916033 -0.16999987 0.14856254 0.14748855 -0.048296466 0.037982073 0.021759348 0.12126702 0.054884955 0.076929174 -0.055442154 -0.034195606 -0.09898706 0.13942909 -0.07930106 -0.060995672 -0.09096805 0.23023753 0.08103691 -0.09858524 0.039968025 -0.104836 0.045934573 -0.24731997 0.06825324 0.002835883 0.07164471 0.08390915 -0.042949356 0.008791808 0.051142804 0.111908905 0.015658384 0.1070735 -0.048666958 -0.009195464 -0.06699888 -0.1308684 -0.16542944 -0.09291886 0.026892614 -0.07520865 -0.064964086 -0.10237597 -0.11178444 -0.014497596 -0.0004067021 -0.24809001 -0.010674411 0.07740444 -0.0045326687
1273 0.009222688 0.05038737 0.006498515 -0.026531542 0.12565057 0.16901428 0.11738192 0.085122086 -0.043542136 -0.09888072 0.06218821 -0.08869021 -0.1817378 0.15213747 0.007197542 0.22176579 -0.05021799 -0.06943468 -0.102336004 0.21621974 0.112528585 0.2466722 0.040462013 -0.016025301 -0.13950042 0.05749486 -0.007815882 0.0156018445 0.13263786 0.003898013 0.045295313 0.14419678 0.056427304 0.045194026 0.02095198 0.18891256 0.18740702 0.119608395 0.01111718 0.0016204749 -0.23429164 0.13465738 0.17224945 0.008299989 -0.01611606 -0.1695415 0.039992966 0.081432045 -0.14785264 0.099782296 -0.09837166 -0.005143342 0.033682562 0.030581038 -0.026680548 0.008760501 0.13558596 -0.029519243 0.036851823 -0.052537788 -0.06809723 -0.025739925 0.12143376 0.12931441 0.0013188072 -0.023554355 -0.09712322 0.09308547 -0.20893103 0.08917513 -0.05962433 -0.13981104 -0.058505602 0.0010206907 0.13536789 -0.15386678 -0.15070376 -0.104247674 -0.25244203 0.028807959 0.0330002 0.019009292 0.008383234 0.052173927 0.06432632 0.14165534 0.028234882 -0.13164973 0.026082028 0.12788099 0.076831944 -0.04261829 0.020546414 -0.06667087 0.20371465 0.1212201 -0.1235866 -0.034781516 -0.09980429 0.06954715 -0.27147228 0.15090348 -0.06450758 -0.003903706 0.1616165 -0.08018444 -0.08970253 0.04454627 0.045831192 -0.014172476 0.02696178 -0.01955018 0.047617022 -0.014545488 -0.009344131 0.052145623 0.06673362 0.029582167 -0.0332891 -0.031487644 0.060302503 -0.043374527 -0.013132998 0.05311169 -0.17515573 -0.16731204 0.040037144 0.052198995
1367 -0.0676417 0.015320012 0.09334066 -0.057636727 0.077504486 0.031756718 0.05463071 -0.07590056 -0.1016426 -0.01641589 0.08970223 -0.13285653 -0.08695452 0.21100847 0.1352669 0.1829819 -0.025910629 -0.11532177 -0.10687848 0.055771448 0.018370513 0.28695962 -0.047728073 -0.038849615 -0.075078614 -0.104936734 -0.10315348 0.036545776 0.07580887 0.017975906 0.10412546 -0.03133607 0.119750865 -0.048011057 0.0886825 0.16690204 0.17650707 -0.11168451 0.063044146 -0.017456826 -0.18616208 0.19606473 0.23203205 -0.016465645 0.015480402 -0.09844068 0.05992012 -0.10466057 -0.050461378 0.072105035 0.04387857 0.06261028 -0.12896803 0.016304558 0.091803916 -0.06362683 0.24306351 -0.051694486 -0.119697586 -0.056831993 -0.05877676 -0.049207892 -0.0011201387 -0.058861006 0.010174277 -0.0032020628 -0.035908796 0.14697461 -0.10606553 -0.010352539 -0.057086088 -0.05515107 -0.05999355 -0.015348845 0.05081453 -0.25176245 -0.1506499 -0.026511623 -0.20494047 0.09852979 0.0033603455 -0.07267697 -0.031033337 -0.001258565 0.10312247 0.016041644 0.051529866 -0.16860577 0.07023099 -0.031747565 0.07595019 -0.065817006 -0.18103617 -0.047614086 0.23440863 0.087821364 -0.021460187 -0.07234114 -0.09191556 -0.06218617 -0.13287783 0.042455923 0.023399523 -0.054111797 0.07249292 -0.13923194 -0.0169675 -0.023765927 0.03483107 0.012004717 0.10751083 0.054335456 0.010509033 0.12744741 0.016933726 -0.07746128 0.038590144 -0.017321069 0.045915958 -0.0124489935 -0.04670335 -0.012393052 -0.11235571 0.23242636 -0.32667318 -0.097235195 -0.025922757 0.1604318
1147 0.071840584 -0.039470155 -0.024106802 -0.030542873 0.15886825 0.058689017 0.10989811 0.09101311 -0.08875177 -0.01618512 0.13976155 -0.12694848 -0.16025431 0.15553667 0.17594197 0.15226766 0.009848345 -0.0062299417 -0.23697802 0.13261269 -0.0032855093 0.20432657 -0.006042219 -0.093779415 -0.1215118 0.0076133725 0.11848187 0.016197529 0.04137456 0.10227794 0.16913259 0.047824465 0.0182106 -0.20045882 -0.019955005 0.1961699 0.18620099 0.053438965 -0.020329589 0.050343208 -0.17737524 0.21783957 0.1971164 0.025037227 0.03107861 -0.11298434 0.056986574 -0.099537805 0.018050523 0.2052434 -0.010913763 0.050998926 -0.101344004 0.061695766 -0.026422495 -0.076364554 0.15948743 -0.06811983 -0.021348003 -0.015714664 -0.12478581 0.044733092 0.07588835 -0.10720539 0.09671976 -0.0010896672 0.029658612 0.0604001 -0.012804969 0.09760977 0.0033557778 -0.005128945 0.013245359 0.0044827154 0.049495347 -0.2343037 -0.02449126 0.0124325715 -0.09302108 0.2775531 0.04144365 -0.13215409 0.036536757 0.05350692 0.041277744 0.010886502 0.05500667 -0.17652813 -0.025222024 -0.061218165 0.015557448 0.03946213 0.058387376 -0.17023775 0.29670146 0.102543406 0.022077454 -0.0043792147 -0.144885 0.014721816 -0.18319654 -0.06925543 -0.0030510619 -0.06815234 0.08636278 -0.11941119 -0.082386665 0.027541405 0.052109584 0.07413362 0.05835642 0.08092812 0.11302568 -0.049588997 0.058945697 -0.017070452 -0.020541998 -0.09576638 0.043359227 -0.08959163 -0.08336858 -0.0748911 -0.1617841 0.103340484 -0.21154 0.018080031 -0.025528071 0.1408448
1323 0.07986046 -0.118381485 -0.09269632 0.0831389 0.09860695 -0.11177236 0.1448443 -0.04573204 -0.15989625 0.018428111 0.20608819 -0.053841084 -0.035376277 0.09061704 0.08795203 -0.012785247 0.081530005 -0.07483004 -0.18375303 0.028823309 0.23982525 0.17801826 -0.08491799 -0.034494247 0.039234463 0.039756253 -0.008893647 0.11768623 0.1304839 0.088567674 0.059276283 -0.17266467 -0.08207814 -0.20308912 -0.01176097 0.09959511 0.09716435 0.015201119 -0.041713648 0.11082368 -0.16037835 0.32078364 0.11816569 -0.07915527 0.027827872 -0.043913793 -0.105718754 0.060634334 0.06480906 0.13959207 -0.09412277 0.030177401 0.0076651108 -0.14473641 -0.08884029 -0.007419072 0.25206646 -0.27678433 -0.005072958 -0.0073016128 -0.0068099927 -0.057463087 0.1573676 0.06289689 -0.058148965 0.04229296 -0.0061884117 0.07922897 -0.12993756 -0.023421904 -0.06377803 0.020693773 -0.043749467 -0.16860016 -0.021414159 -0.19810325 -0.27902263 0.09183217 -0.04338109 0.09205035 0.056582417 0.043369148 -0.07228719 -0.024802621 0.12497012 0.13283785 0.01426615 -0.07950484 -0.11222956 0.1415251 0.009817153 -0.1661932 0.13264936 -0.07953173 0.13932869 0.0921889 -0.0646985 0.009429283 -0.1272898 0.1685844 -0.14904124 -0.14846717 -0.026346635 -0.0019343897 0.22662936 -0.22042888 -0.1894073 0.06590365 -0.035006553 0.094886236 -0.0068300785 0.0006783155 0.15703589 0.17958751 0.03989001 0.04091699 0.010616731 -0.09558008 -0.10335844 0.012548444 0.035974458 -0.19390854 0.033289548 0.101545475 -0.28547034 -0.035844233 0.11718342 0.034746155
1368 0.07987688 0.039433014 0.114776745 -0.057860427 0.11317232 0.10837223 -0.0064996 0.06484618 -0.08866335 -0.035646003 -0.055374485 -0.16604197 -0.13336113 0.16798013 0.07208119 0.10930226 0.024344614 -0.09878676 -0.124597475 0.1088935 0.068832695 0.04477599 0.06733824 0.012354052 -0.10537996 0.0666992 0.041132614 0.008243207 -0.020079162 0.023776801 -0.002301148 -0.020006798 0.024913285 -0.021930961 0.056973442 0.13965096 0.29011828 -0.0052961567 0.06347448 0.08519206 -0.26998982 0.3064777 0.018767135 0.16507635 -0.05742143 -0.12452183 -0.057039138 0.08663275 0.03628302 0.110570215 -0.042820573 0.042607058 0.100705706 0.028946312 -0.10478599 -0.09691757 0.17130595 -0.15073355 -0.10156807 -0.07904231 -0.06409916 -0.13039367 0.11529189 0.042550933 -0.01716252 -0.019443816 -0.036525995 0.11342591 -0.12423871 0.04896227 -0.07221578 -0.01805711 -0.07302961 0.006390971 -0.0027325845 -0.16141014 -0.14172211 0.06668757 -0.16565743 0.12552853 -0.031042982 -0.05835244 0.1763924 0.10246372 0.11322531 0.061263707 -0.010030963 -0.17177448 -0.06059862 0.09930299 0.08832926 0.007018397 -0.079771526 -0.027562454 0.113028005 -0.004573191 -0.153463 0.078019634 -0.1064065 0.038461827 -0.3106756 0.030197088 -0.042857062 -0.057851996 0.18071032 -0.038850542 -0.09625934 0.010240835 0.081488766 -0.0029500104 0.08843913 -0.14361595 0.02263211 0.012001209 0.02051381 -0.09622826 -0.11237811 -0.122105874 -0.024118753 0.0058238725 0.09625022 -0.038720477 -0.15166497 0.078165404 -0.22919911 -0.046794903 0.07851031 0.058886003
1356 0.027658029 0.027928364 0.06228797 0.05111542 0.048376184 0.06646757 0.06269571 0.14296062 -0.09535607 -0.10705548 0.03831749 -0.050276347 -0.102619976 0.3218828 0.10255777 0.14656252 -0.03481795 -0.092506364 -0.09713123 0.00034517306 0.114874795 0.19971316 0.046523094 -0.09873948 -0.082379326 0.0063936864 -0.018601416 0.09599059 0.14132404 0.111316815 0.11219852 -0.07060644 0.14908624 0.039835975 0.028885752 0.17583922 0.09957406 0.14844385 -0.021666462 0.04241603 -0.34747452 0.1800666 0.11938548 -0.06883482 -0.058347967 -0.09477918 0.08804917 0.06848137 -0.016730623 0.078544304 0.0056859604 -0.037437327 0.00058135425 0.086393364 0.05142728 -0.097769156 0.1577892 -0.039044607 -0.124720626 -0.041755848 -0.04956619 -0.03819785 0.12740552 0.10269739 -0.043929152 -0.028767107 -0.06652955 0.10025528 -0.16138734 0.119330466 -0.071091056 -0.10422152 -0.056213133 -0.0384215 0.07352057 -0.25300723 -0.15934141 0.10532004 -0.17894466 0.08410094 -0.08695667 -0.18626022 0.09719979 0.07813384 0.052278798 -0.058694992 0.089146346 -0.10241971 0.02657669 0.04705588 0.02971394 0.014401477 -0.01395072 -0.20433961 0.09599614 0.071293354 -0.06084279 -0.04990489 -0.02820458 0.011956525 -0.19004585 -0.03038147 0.09947652 0.04428853 0.015852487 -0.18546346 -0.08327956 0.101871476 -0.022658713 -0.0303724 0.08659012 -0.04841725 0.037460044 0.08371907 -0.11838638 -0.067833684 -0.01901238 -0.053949133 -0.0130039025 0.015244226 -0.1762608 -0.04108044 -0.19439247 0.10365093 -0.11291062 -0.037217617 0.08576926 0.19731122
1406 -0.038577177 -0.063231386 -0.10957359 -0.11896967 0.059087284 -0.020876192 0.0056474297 0.02488077 -0.1402315 0.15616119 -0.12786876 -0.11968119 -0.062388927 0.24801183 -0.120440796 0.083464414 -0.07875087 -0.19854109 -0.20400105 0.068454266 0.2398193 0.037678115 -0.15644154 -0.11211562 -0.13162652 0.08312111 0.049122024 0.20403787 0.18581656 -0.17871162 -0.21962711 0.07854332 -0.017577568 -0.031135675 0.095392436 0.24798743 0.045486327 0.112379305 -0.0046519698 0.045392904 -0.083229214 0.12373805 0.17554119 -0.11859954 0.088465035 -0.09780192 0.17366923 0.043180376 0.08611152 -0.024960699 -0.0037550426 -0.07290585 -0.0059482367 0.049086507 0.1474863 -0.05899647 0.19549413 0.039256096 -0.093873225 -0.08795221 0.08023399 -0.14459985 -0.13944961 0.035655748 0.041974954 0.015920559 -0.0033711982 0.19037236 -0.049308635 -0.09944972 -0.15094344 -0.2103518 -0.0771946 0.10151221 0.16209562 -0.14378315 -0.33740115 0.04796699 -0.06237639 0.18598218 -0.025991393 -0.056375418 -0.016031135 0.06714236 0.121116154 -0.10113786 -0.000640819 -0.0071525546 -0.22069158 0.1421211 -0.021133 0.041374728 0.0586288 0.12470209 0.18708724 0.04001471 0.052824765 0.025202189 -0.015183625 0.004061849 -0.33382332 0.057702724 0.0054537053 0.019308798 0.14059728 0.11207387 -0.014797106 0.16550161 -0.149085 -0.083390586 0.19417398 -0.014801974 -0.041462995 0.115274556 -0.021087218 0.06297063 0.1421659 -0.008876612 -0.2409807 0.10542315 -0.1706154 -0.11297825 -0.057219964 0.21105564 -0.40817976 0.013918355 0.11371608 0.1034427
1259 0.0052870926 -0.03179184 0.07506315 -0.0061122696 0.015616731 -0.013100062 0.098250225 0.0044450746 -0.11569672 0.037819 0.07298218 -0.19915888 -0.059584476 0.21277648 0.11785617 0.046155125 0.17592259 -0.027932242 -0.0062526297 0.06955021 0.10115112 0.1566932 0.07600072 -0.1252678 -0.026916062 0.023396753 0.051606365 0.052997578 0.065774456 0.00620443 0.024343204 0.11547215 0.13754557 -0.02126919 0.08775269 0.19988534 0.22463858 0.021843286 0.10627781 0.04611425 -0.3438135 0.21193445 0.041639827 0.060194258 -0.014807552 -0.19980079 0.01976389 0.021555213 0.04844434 0.13851467 -0.019748349 0.015428917 0.071190044 -0.057645343 0.058092345 -0.074218236 0.24893667 -0.11151113 -0.090449646 0.009859855 -0.048898403 -0.0530161 0.11887129 0.09139489 -0.058904827 -0.13624762 -0.05607709 0.1329145 -0.13110559 0.033435356 -0.08020846 0.02877055 -0.023774734 -0.008746432 0.14309166 -0.23134406 -0.15106064 0.0034101794 -0.13941045 0.07778337 0.12431971 -0.095446035 0.16786286 0.15856175 -0.052469943 0.084347755 0.05222166 -0.12565191 -0.025292575 0.030046858 -0.082035564 -0.009332785 -0.010873797 -0.046491727 0.29507387 0.023724344 0.09369862 -0.042144712 -0.13011648 -0.031042375 -0.09516055 0.03836557 -0.037132032 -0.09284726 0.12957692 -0.05917128 -0.024507374 0.10434012 0.06884115 -0.051445793 0.09234817 -0.0920287 -0.06241648 0.058364548 0.0124893105 -0.048182085 0.06978655 0.00056337396 0.016566157 -0.015953027 0.070280105 -0.080301575 -0.12382584 0.09296314 -0.058122206 -0.08265891 0.10775908 0.13679136
1283 0.083821066 -0.048193328 0.14858246 0.049390055 0.12161692 0.1657428 0.20464218 -0.113399476 0.007067807 0.02957102 0.0058338237 -0.25683296 0.1799869 0.042852547 -0.06547727 0.065114446 -0.052831225 0.034803696 -0.18970604 0.25158215 0.15541898 0.09167936 -0.03271791 -0.053233545 -0.2006591 0.20708753 -0.0724381 0.106400356 -0.11338251 -0.005559808 0.16978423 0.15977253 0.06528429 -0.22778821 0.054895923 -0.05113356 0.15073146 -0.18949693 -0.13711405 0.122507416 -0.2735871 0.294355 0.013605891 0.120589375 -0.055951156 -0.14362684 0.07572047 0.05802299 -0.00855204 -0.16513559 0.10705503 -0.03095308 -0.11135085 -0.18419492 -0.0041083335 0.05077843 0.27075666 -0.18642448 -0.08986508 -0.054207854 -0.11710114 -0.012246955 -0.03019421 -0.12197018 0.029111736 0.093869746 0.03479842 0.07239539 -0.13237818 0.11589786 -0.22349988 0.06718464 -0.11951047 0.0079804445 -0.044230357 -0.29362747 -0.10196116 -0.07227715 -0.13286035 0.18635261 -0.11053874 -0.1003941 0.032318182 0.26925126 -0.15290341 0.02297813 -0.11012056 -0.07942862 0.18235976 -0.1400446 0.018561328 -0.030672958 0.026252754 0.06186549 0.190674 -0.07587628 0.039468877 0.014933865 0.16156058 0.1208212 -0.023819495 0.03302412 -0.012695941 -0.045298263 0.025143633 0.088834055 0.027666736 0.20771262 -0.052611332 0.00028714168 0.24141558 -0.012191937 -0.0484483 0.08402243 -0.017034572 0.033526972 0.0073154727 -0.17143473 -0.110780105 0.021682728 0.066774376 -0.05843034 -0.054977667 0.18571179 -0.22659764 0.08855805 0.009395994 -0.14248753
1277 -0.035530515 -0.20325427 0.123460636 -0.05662254 0.1415117 0.094730295 0.006952861 0.020647539 -0.065990195 0.021366479 -0.010238428 -0.057607684 -0.044066668 0.21399294 0.019047199 0.10589471 0.042006172 -0.15018094 -0.06935041 0.081470065 0.06903866 0.14487547 -0.033763617 0.01752259 -0.041789196 0.068188615 0.014370244 0.14336155 0.15879844 0.064661585 0.16009091 -0.07539059 0.103000656 0.09313431 0.072736956 0.17230959 0.2081227 -0.017223364 0.045187373 0.0036712587 -0.28148317 0.23380817 0.22809966 -0.0065029683 -0.10872804 -0.15520284 0.11804737 0.09292524 -0.03861463 0.10168414 0.11571431 -0.05841249 -0.10616335 -0.07645709 -0.041817803 -0.14559205 0.15807083 -0.04302017 0.055020723 -0.00846571 -0.08267351 0.027914584 0.12540722 0.07387993 -0.033907965 -0.045906376 0.09345814 0.06905399 -0.18384877 -0.05837268 -0.1648546 0.049559407 0.02466659 0.043065213 0.05735097 -0.15619999 -0.06848592 -0.03130473 -0.14931501 0.08603183 0.079131685 -0.07731596 0.12784332 0.14195643 0.028801423 0.017204529 -0.018914063 -0.27850685 0.020903021 -0.04154264 -0.02630819 0.015516865 -7.796406e-05 -0.08452329 0.21157297 0.10816449 -0.110739626 0.051193077 -0.06693754 0.071660936 -0.17137486 0.06306669 0.0444792 0.13096543 0.13387783 -0.14357008 -0.053843245 0.101562455 0.040107206 0.07850713 0.06496564 -0.10737581 -0.07866225 0.06489775 -0.028952228 0.044718366 -0.051706452 -0.08234963 -0.060227852 -0.028482102 0.11935219 -0.03449035 -0.041242696 0.18047623 -0.11187283 -0.0431147 -0.033457726 0.21201642
1189 0.123632304 -0.048641253 0.08447382 0.12655856 0.019288387 0.051674694 0.01055443 0.009188563 0.053126927 0.014330961 0.15852033 -0.14546223 -0.047028534 0.09187951 0.0955042 0.16280422 -0.016846197 -0.25585642 -0.10602287 0.08776452 0.033204608 0.19380777 -0.19274811 -0.07250466 -0.07906874 0.051547125 0.020293536 0.069571346 0.18009964 0.12844793 0.10703651 0.042373173 -0.06771585 -0.041045647 0.028025992 0.27699453 0.16415726 0.028779643 0.045175165 0.16796196 -0.21877179 0.19209476 0.07253077 0.12573111 0.00890102 -0.17610301 0.05793613 0.024272261 -0.05322629 0.008585682 0.048202842 -0.031846266 0.090290755 -0.035538215 -0.18933284 -0.06386818 0.19723737 -0.028278712 -0.17750037 -0.07115528 0.0436072 0.07347812 0.1003391 -0.05444916 -0.11216674 0.091286324 0.008983316 0.16994362 -0.1222121 -0.060623884 -0.03355919 -0.00060520443 -0.16281435 0.0036099013 0.09422614 -0.2211406 -0.048731178 -0.17457235 -0.062513836 0.13264185 -0.06191264 -0.15957965 -0.0042376937 0.02995019 0.046833433 0.2555428 -0.010704186 -0.031190973 0.03001822 0.059697594 0.0754735 0.04820831 -0.03274024 0.0653256 0.20002422 0.11989721 0.029838908 0.005265456 0.08216583 0.14796674 -0.15771304 -0.058517102 -0.05599232 0.018479632 0.06818887 -0.08656333 -0.039167378 0.020087527 0.022972524 0.019382983 0.069341056 -0.0439691 -0.109505884 0.05729959 0.04907749 -0.12386114 -0.015513394 0.060141116 0.0313291 0.0029668084 0.0541069 -0.043630555 -0.09289629 0.21808682 -0.31290412 -0.16867352 0.08446216 0.065940626
1085 -0.03563397 -0.123444684 -0.029852413 0.06324854 0.095668495 0.03354346 0.13932315 0.024120769 -0.076991215 0.03703742 0.06633523 -0.1143475 -0.144215 0.10823423 0.18612783 0.13385221 -0.07141414 -0.056912825 -0.082269 0.059410244 0.043313388 0.17927246 -0.019994525 -0.10983053 -0.060772505 0.14094369 0.045259256 0.089354984 -0.041162416 0.030976484 -0.03097252 -0.062480047 0.09644923 -0.0048061404 0.13267767 0.20095605 0.11483894 -0.09694331 0.0054627047 -0.07462696 -0.2465636 0.22997984 0.08239516 0.08629599 0.11773842 -0.045966174 -0.018413775 -0.07977817 0.02011186 0.100735545 0.06446532 0.10886731 0.040308014 0.034196638 0.17346326 -0.10669482 0.22339177 -0.015259902 0.034766857 -0.04164869 -0.12864481 -0.10625663 0.087996945 -0.03666169 0.0052515077 -0.044974275 0.17449339 0.065420434 -0.22429769 -0.09813324 -0.12462505 0.012810973 -0.10677955 -0.120549776 0.06345562 -0.21856469 -0.08035446 -0.0072965263 -0.2131586 0.12518044 0.14917251 -0.13099189 -0.0033075789 0.036275513 0.028754067 0.11734144 -0.022503078 -0.056965638 -0.03603449 0.020737503 -0.12468806 -0.1178508 -0.024551498 -0.052885655 0.2968999 0.06517311 -0.04865849 0.02915989 -0.07864352 0.13344635 -0.15653133 0.021462401 -0.043398846 -0.0014444763 0.124922775 -0.11193428 -0.089504614 0.04795248 0.055432282 -0.100427374 0.16371429 -0.08317033 0.09562663 0.14092651 0.06869081 -0.03373827 -0.053982776 0.017290905 -0.08244999 0.10187194 -0.017042823 0.0528247 -0.0675245 0.20452914 -0.14765407 -0.0462332 0.108317964 0.18071735
1249 -0.022573119 -0.09782206 -0.042273406 -0.096206695 0.13586703 0.11039637 0.13411383 -0.004207737 -0.030795453 -0.050016694 0.121914215 -0.132186 -0.20945118 0.21819879 0.08251956 0.23296498 0.018983128 -0.012088019 -0.1672357 0.09092243 0.011515817 0.24113582 -0.0012226104 -0.13139229 0.007724601 0.041210797 0.0433155 0.015552766 0.08849219 0.004494863 0.014459331 0.1409672 0.04519784 -0.024681024 -0.019556625 0.20807147 0.1297585 0.040318493 0.12205968 0.09760228 -0.2825594 0.08018378 0.16053696 -0.03215675 -0.17170313 0.006148544 0.015602898 0.16502708 -0.009004828 0.1565923 0.025124138 0.09257164 -0.010085349 -0.026597025 0.054733433 -0.07077112 0.17552772 -0.07112509 -0.12684664 -0.030351715 -0.19419426 -0.07638556 0.016601287 -0.007870554 0.0025146692 0.044434495 -0.024090745 -0.038885947 -0.0042461236 -0.07656798 -0.04329349 0.0032464962 -0.17601909 0.10806876 0.09053145 -0.13171476 -0.19754362 -0.009100418 -0.14178082 -0.0130171655 0.120772995 0.028475845 0.10607441 0.14610814 -0.024007572 0.03462475 0.16602957 -0.17817262 0.04272171 -0.057329632 -0.03271518 -0.018403174 -0.0247497 -0.1135158 0.1335507 -0.02688666 -0.030984811 0.035903208 -0.027095169 0.0051535075 -0.19611724 -0.043792572 -0.0045843124 -0.02947957 0.050211027 -0.12783086 -0.059438888 0.13256897 0.06147765 -0.06452678 0.0891604 -0.059174847 -0.03685675 0.07419272 -0.044891007 -0.042436056 -0.008958923 0.118019894 -0.0011338583 -0.052257027 -0.0067344736 -0.0676292 -0.10697872 0.20062657 -0.25364646 0.02351063 0.0038475045 0.1883295
1262 0.10351311 0.067315996 -0.0016026377 0.0058889547 0.07203571 0.076022424 0.11904419 -0.01706835 -0.03516493 0.08334091 0.08002661 -0.05861433 -0.041285668 0.18992053 0.05102327 0.16311459 0.06489079 -0.15833245 -0.17336902 0.16265817 0.13758561 0.19881217 -0.039658345 -0.069774665 -0.07363528 -0.08660048 0.09797913 0.041848138 -0.06939437 0.03503207 0.0524161 -0.09268446 0.06371934 -0.06468499 0.16021208 0.21590653 0.13737488 0.04673101 -0.13037384 -0.016726796 -0.21645182 0.21632536 0.08727609 -0.080002435 -0.119582765 -0.09292741 0.072228685 -0.030352598 -0.0780365 -0.012792405 0.06786098 0.13948202 -0.06567981 -0.18310684 0.07840205 -0.061361965 0.24551862 -0.09050109 -0.037710287 -0.0897484 -0.16293289 0.022957608 -0.08538277 0.006936768 0.06733101 0.008871416 -0.027600275 0.019147623 -0.1313038 0.033847738 -0.14506502 -0.039809067 -0.18142302 0.09889868 0.025683586 -0.23376705 -0.10091824 -0.0064737443 -0.15441817 0.072126575 -0.040637396 -0.19542918 -0.04526431 0.0998394 -0.06466692 -0.03992242 0.24162738 -0.16012068 0.06491435 0.036458872 -0.02614629 0.016733132 -0.062331866 0.0021425239 0.30489996 0.07041654 0.012876294 0.028768566 -0.1003979 -0.03453022 -0.2484277 -0.045418996 -0.008225105 -0.0637885 0.12950584 -0.068180025 -0.07514262 0.1431397 0.13021728 -0.1604155 0.1348001 -0.058486674 -0.05446246 0.03269262 0.012371941 -0.012186311 -0.08744649 -0.11760787 0.026020054 -0.04223609 0.030496303 -0.0041815876 -0.04994657 0.063237235 -0.106094845 -0.011087578 0.027893355 0.069841824
1200 -0.022122854 0.043646894 0.02731318 -0.024794903 0.058660753 0.14704207 -0.011983548 0.06334546 -0.03251761 0.019240787 0.022278273 0.03236946 -0.19810426 0.25773343 0.04543285 0.14355229 0.02856411 -0.084952034 -0.123789854 0.08760411 0.26796356 0.26840818 -0.030637462 0.046752285 -0.1700037 0.059145764 -0.058766417 0.11307578 0.07802397 -0.026823945 0.012851826 0.030500542 0.13399336 -0.0057158214 0.05919228 0.21863078 0.18244378 0.06105703 0.123543315 0.05230369 -0.21806471 0.1896845 0.13864875 0.043468755 0.072515704 -0.07598012 0.0026624396 0.11189031 -0.100819595 0.15234934 -0.02943135 0.019613894 -0.010994722 0.11042734 0.14368993 -0.16036493 0.13307327 -0.12135163 -0.0945258 -0.039437197 -0.01575728 -0.07513436 -0.002511973 0.06940229 -0.01632197 0.16968767 -0.046322387 0.03682439 -0.16714892 0.01493373 -0.027588274 -0.14228979 -0.0892733 0.008663716 0.12177887 -0.11901386 0.007133877 0.015605234 -0.17590341 0.036176573 0.07747681 -0.06440057 0.07849549 0.019226925 0.016627293 -0.019021602 0.082944475 -0.06536537 -0.06287494 0.02197797 -0.064433016 0.013752756 -0.1365259 -0.01314025 0.1157737 0.05044861 -0.05771613 0.02360101 -0.079129666 0.065294415 -0.17500383 0.16969015 0.059466645 0.015081747 0.23377635 -0.1281434 -0.0028945329 0.10952855 0.12281614 -0.014082633 0.035140015 0.029420795 0.14151517 0.021957183 -0.02866716 -0.0028253745 -0.06737467 -0.059023857 -0.08354201 0.108365834 -0.04774192 -0.03267773 -0.046736713 0.028447818 -0.3750414 -0.043337688 0.11783084 0.06960553
1398 -0.13164112 -0.00678601 -0.19907072 0.1650638 0.1954305 -0.02093005 0.091052875 -0.05406675 -0.060334116 0.064299814 -0.09310329 -0.19351377 -0.011900792 0.09000288 -0.061459895 -0.042054493 -0.066775896 -0.104011595 -0.13686919 -0.15548092 0.16186137 0.11069495 -0.26145947 -0.028214687 -0.25013065 0.23803994 -0.060512476 0.20224886 0.13067904 0.02643932 -0.1336032 0.12210331 0.08611739 0.15037385 0.06158142 0.1227957 0.013901267 0.13234235 -0.05227495 0.2143773 -0.18006936 0.24998309 0.31569576 -0.022498779 -0.18285361 -0.12950501 0.07631776 0.03797592 -0.058850713 0.214479 0.04454682 0.14640868 -0.1906173 -0.21139026 -0.13509825 -0.03639046 0.17927279 -0.09648762 -0.033974487 0.0724724 0.086787574 0.16406624 0.037263226 -0.16223693 -0.056905027 0.10366629 -0.24545234 -0.089149065 -0.106268585 -0.14843962 -0.2863278 -0.089757584 -0.3741488 0.073587276 0.050575204 -0.30155808 -0.019241128 -0.003111112 -0.069942586 0.17030665 -0.11456611 -0.08496174 0.06476989 0.18000197 0.14413878 0.12068316 0.021990977 -0.09746827 -0.05855737 -0.04450386 -0.04420845 -0.11896803 0.13597243 -0.008913168 0.0767084 0.17422615 -0.009403847 0.13938569 0.04390792 0.18310921 -0.17549424 -0.06225076 0.275371 0.06032523 0.08447653 -0.01724817 0.03384264 0.23549822 -0.13148707 -0.15075973 0.022970233 -0.12244861 -0.16161448 0.025385821 0.06797464 0.22244081 0.039627675 0.027646096 0.052298725 0.19187762 -0.18717128 -0.009126101 -0.10217019 0.009056978 -0.16352315 0.070758246 -0.088070594 -0.23168479
1055 -0.11705702 -0.12392839 0.08493812 0.2035882 0.15192632 0.044163253 -0.021040378 -0.29243308 -0.12323175 0.17686282 0.25677294 -0.081246376 0.15522443 0.089703895 0.10672534 0.079065636 -0.0032662412 -0.10929519 -0.07184628 0.09794656 -0.0034453983 0.13122404 -0.03060352 -0.01051973 -0.2271704 0.12343994 -0.22101904 0.004892799 0.20926693 -0.15599018 0.07584023 -0.06607902 0.10461739 -0.025080455 0.02119281 0.08496282 0.14689323 0.029489005 0.27008685 0.18350822 -0.2945748 0.2206234 0.04160246 -0.030513166 -0.044425078 -0.14577313 -0.2001642 0.22759688 0.049646817 0.16670538 0.14007095 0.08098286 -0.02732775 -0.06797283 -0.31878528 -0.101894714 0.19411996 -0.20650914 -0.20189628 0.06320091 -0.12214652 0.07949021 -0.20943543 0.05794945 0.041905474 -0.07231256 -0.050707944 -0.1346517 0.014971715 0.14305484 -0.14034016 -0.08685303 -0.03751003 -0.13026078 0.11079763 -0.19764109 -0.17142726 -0.13842773 -0.09917144 0.21242407 -0.15093648 -0.045265533 -0.20769171 0.1347751 -0.13607912 -0.011415823 -0.02427149 -0.023461133 -0.016547397 0.082550324 0.21679713 0.14130011 -0.115796275 0.041998457 0.17344244 0.07120932 0.022300107 -0.08278068 -0.029145982 -0.04353736 -0.06557296 -0.053852115 -0.1321024 -0.17033747 0.10719948 0.012218812 0.103192285 0.23385733 0.14855622 0.17091613 0.10955458 -0.007815314 0.06883511 0.101492055 -0.16182835 -0.06476192 -0.12473939 -0.0011492543 -0.1940734 0.12567522 -0.133827 0.13613142 -0.039809216 0.30792007 -0.29693532 0.22742291 0.04153343 -0.02928269
1339 -0.027429989 0.0092426045 0.01227597 -0.095858976 0.12930587 0.100659065 0.06133119 -0.033540063 -0.09474053 -0.05033616 0.14083779 -0.08306693 -0.13955426 0.22563837 0.17608204 0.21989955 -0.0040676896 -0.12247045 -0.046128236 -0.03653233 0.30229023 0.25629276 -0.050983526 -0.23233804 -0.13852315 0.011790888 -0.11375354 0.08570892 0.12195099 -0.06773221 0.019504901 -0.09194357 0.08134571 0.07658367 0.03498745 0.090115204 0.2138542 -0.02414491 -0.022456571 -0.022299243 -0.2791402 0.11764898 0.17842522 0.02875624 -0.019365145 -0.0055693225 0.043085154 0.071254596 -0.027667424 0.09770485 -0.050767023 0.14171255 -0.050936483 0.013597603 -0.03937336 -0.07521385 0.12884164 -0.11784184 0.008739227 0.020317571 -0.14476101 0.10287623 0.1208696 -0.0028470063 -0.05125592 0.12935317 -0.10147294 0.008224531 -0.086546265 -0.12913805 0.03495418 0.029797038 -0.037298344 0.0011812386 0.13983652 -0.18527985 -0.0073340107 0.057165977 -0.17367111 -0.0020554978 0.03681199 -0.036323737 0.021766672 0.024617473 0.19270033 0.06409439 -0.0059668007 -0.00062910444 -0.047597848 -0.028407352 -0.08549239 0.04017123 -0.064523 -0.12454224 0.16543262 0.13688736 -0.00976328 -0.060904708 -0.10263617 0.01796835 -0.16916603 -0.0766257 -0.057866562 0.117299445 0.0800325 -0.029872186 -0.119843125 0.13123453 0.05954557 -0.07947452 -0.005568917 0.04828709 -0.05630125 0.10987489 0.0058873836 -0.07826735 -0.05625926 -0.11608326 -0.12701693 0.0400906 -0.005988482 0.019699676 -0.09823407 0.113350004 -0.43619832 -0.10063742 -0.0184569 0.11027014
1106 -0.061869957 -0.0068455962 -0.09147154 -0.042657148 0.12827279 -0.035345368 0.03863918 0.20674035 -0.12919529 -0.043104555 -0.060156696 -0.079346046 -0.13119845 0.20821433 0.048943996 0.21697485 -0.0042897677 -0.0113993 -0.070075415 0.056613218 0.09780693 0.17946753 0.01823601 -0.1632039 -0.15603748 -0.13995299 0.014919049 -0.025981918 -0.021571968 0.028847512 0.0271046 -0.09558391 0.18305033 -0.009929327 -0.06593397 0.2453426 -0.011042033 0.124065235 -0.15148497 0.053512797 -0.28897122 0.21597114 0.13870937 0.060998403 -0.039874468 -0.0031315926 0.12706773 0.17203584 0.063659966 0.057658117 -0.07875029 0.104833774 -0.044297647 -0.08864412 -0.14928716 0.090692125 0.15614411 -0.1224343 -0.019549765 -0.07800515 0.08662443 0.0389856 -0.030932508 0.06847637 -0.04845573 -0.09211026 0.025454618 0.06188848 -0.13684565 -0.031356752 -0.007125319 -0.07345721 -0.16278061 -0.0042050565 0.1301787 -0.17303704 -0.12827171 0.031139087 -0.16023283 0.103704505 0.08553382 0.07992927 -0.013938887 0.15800028 -0.029188946 0.14454424 0.10526856 -0.17607604 0.017629033 -0.050489824 -0.02475655 0.0046634492 -0.06731294 0.009278575 0.19848076 0.0883011 -0.05167159 0.018400606 -0.14673859 0.026786834 -0.26768717 0.006743094 -0.06948457 0.0026214912 0.059846215 -0.14339687 -0.14760654 -0.003602608 0.08357094 -0.0013108527 0.09929816 -0.1687654 -0.023250896 -0.09505624 -0.045806218 -0.07080844 -0.08987429 -0.032071177 0.013766587 -0.09290991 -0.034135792 -0.13872246 -0.15993643 0.047281343 -0.31978285 0.005702065 0.16349295 0.14677875
1073 0.11925485 -0.085822165 0.08596255 0.018979477 0.009443534 0.055182565 0.19808726 -0.029344767 0.03273264 0.042757303 0.02075813 -0.13735314 -0.20442763 0.17617004 0.23800649 0.12020796 -0.007348458 -0.19748098 -0.008209486 0.024129467 0.11188327 0.2031843 -0.08697934 -0.12553044 -0.17980453 0.036082525 -0.07850605 0.1350328 0.04214426 -0.011634661 0.0066288086 0.040404517 0.028313898 0.031240895 0.03461501 0.25224528 0.20910327 0.18313748 0.04310484 -0.04653626 -0.26647872 0.24575487 0.092680745 0.015274397 -0.092459954 -0.05539654 -0.09383646 0.014534215 -0.019181894 0.23300596 -0.07464251 0.078245066 0.018843995 0.05099494 -0.063751705 -0.15852068 0.14612311 -0.14775337 0.027135244 -0.09348439 -0.1408497 -0.08123745 0.16761225 -0.0042878687 -0.018495759 -0.012376279 -0.028830625 -0.063771464 -0.08282387 -0.11626258 -0.017470023 -0.073714234 -0.011758466 0.006808938 -0.075162835 -0.16515137 0.012942013 -0.088945694 -0.09124696 -0.019807661 -0.07206838 -0.17056048 0.07972299 0.08956159 0.10880316 0.0036563147 -0.0767118 -0.06376719 0.008890147 0.11645107 -0.17745 -0.0471341 -0.022198642 0.011122737 0.18849823 0.01667434 -0.07430639 0.013659102 0.018246172 0.21272093 -0.20590127 0.03352391 -0.097196855 0.02768438 0.17678052 -0.124823146 -0.063849725 0.1258819 0.068662204 0.12633333 -0.027125457 -0.024504723 0.04567907 -0.023439294 -0.002087485 -0.027329812 -0.067571625 -0.13166052 0.047133528 0.14095004 0.10776377 0.053761873 -0.12676163 0.10415091 -0.1925824 -0.13398221 -0.043691825 0.23136935
1101 0.10646523 0.07699772 -0.044291675 0.052970495 0.18023643 0.042872455 0.008672414 0.062345665 -0.12773135 0.06864928 0.070585996 -0.06230293 -0.0762827 0.20383754 0.11836423 0.24105565 -0.11278055 -0.21078613 -0.11904274 0.22575621 0.07925074 0.15336895 -0.17427556 -0.03383749 -0.110865965 0.04934848 0.021652777 -0.0043085804 0.051816847 -0.057851482 0.08677877 0.09136175 0.06428143 0.01440618 -0.044139206 0.2769082 0.08836856 0.0660129 -0.08540701 -0.020902464 -0.31102005 0.25219095 0.024022069 0.023518715 -0.045518626 -0.026841415 -0.10990777 0.017402787 0.010503931 0.1697033 0.055511523 -0.118357375 0.24239472 -0.07652101 -0.047405023 -0.043081306 0.10025501 -0.15178508 0.0102907065 0.026887607 -0.07158113 -0.12936825 0.027915763 0.04973163 0.044857915 0.029641598 0.1260273 0.038856868 -0.15994118 0.10112972 0.006864305 -0.011176382 -0.06735927 0.10490855 -0.00018794436 -0.1770706 -0.16622253 -0.008301166 -0.19608659 0.06902357 0.07002483 -0.19471614 0.15314399 0.02684537 0.070721686 0.04716793 -0.037592836 -0.05870993 -0.02988046 -0.005702854 0.07672468 -0.045799557 -0.07245435 -0.007304961 0.27222493 0.067555726 -0.037639797 -0.060280003 -0.027595049 0.037476875 -0.055094358 -0.048719864 0.020347338 0.029853301 0.14601772 -0.13381776 -0.1402295 0.117903925 -0.03655257 -0.08554708 0.027760545 -0.027353039 0.01960654 -0.025705582 0.011118846 -0.07278496 0.051838655 -0.13653713 0.03840279 -0.01792918 0.010941225 -0.027890617 -0.069276795 0.17607301 -0.17451094 0.06614643 0.11400019 0.17248301
1226 0.11371529 -0.19113398 0.0897762 0.07889732 0.15425497 0.22288054 0.07002788 0.07835068 -0.16999608 -0.0017684877 0.0705264 -0.09092824 -0.15896356 0.1978274 0.058087856 0.1682322 -0.030983366 -0.16164233 -0.07740831 0.058871727 0.024529286 0.22179952 -0.043416526 0.05170754 -0.02366665 0.09857089 -0.003906453 0.07762325 0.1682461 0.06306718 -0.13904734 -0.054059524 0.027040029 -0.18798135 -0.08693066 0.058615156 0.21208955 -0.05915045 -0.0670371 -0.05331607 -0.154822 0.2844312 0.2861303 -0.053334475 0.046114527 -0.09446533 0.10792221 0.028003907 -0.017889325 0.16580488 -0.053097 0.020102985 -0.04524014 -0.0022141812 0.049965385 -0.06077373 0.12116829 0.012906078 -0.09019163 -0.014122495 0.10420593 -0.042608775 0.15918261 0.046199493 0.066475 0.0030106418 0.05204026 0.02441068 6.573964e-05 0.0048132166 -0.022886831 -0.09332167 -0.09227199 -0.01532241 -0.04441166 -0.16141823 -0.09435554 -0.09845422 -0.21215034 0.0055297962 -0.12957723 0.0077740387 0.124476455 0.0335081 0.15783364 -0.013803132 0.118341535 -0.12728795 -0.0057444065 -0.023875616 0.038174402 -0.07881467 0.04385346 0.03033892 0.18232638 -0.013988154 0.040577892 0.10265309 -0.055115875 0.0694691 -0.27776408 -0.0373296 -0.101534255 0.029727694 0.14360586 -0.08087375 -0.1453913 0.2340687 0.03400402 -0.00082122185 0.10297405 -0.2043537 0.069740646 0.088970505 -0.014971304 0.015733872 0.01057163 -0.071023956 0.105452485 0.012170045 -0.01339181 -0.10262209 -0.09818651 0.06868049 -0.19427721 -0.11521149 -0.054639038 0.17859814
1246 -0.02938559 -0.011927206 -0.064414 0.038291797 0.08758357 0.015345593 0.19387543 0.07149288 -0.05452936 0.06405872 -0.04792724 -0.11251092 -0.24881507 0.051050235 -0.21969114 0.1791202 0.063336015 -0.025987685 -0.12605788 0.118894584 0.11160853 0.23008381 0.06049726 -0.12349038 -0.13379368 0.089998245 -0.0949171 0.095804796 0.0233591 -0.065291435 -0.10516419 0.053777132 0.20931263 -0.13576128 0.029349523 0.20736848 0.18987368 -0.017771745 -0.010019723 -0.04223838 -0.15556444 0.17307433 0.08693048 0.033167977 -0.022776555 -0.09740103 -0.1696698 0.06609722 0.049162716 0.17828985 0.06387403 0.06191213 -0.019353375 -0.08730954 -0.15449876 -0.18312638 0.25014833 -0.049230073 -0.051664162 0.009229442 -0.2900361 -0.12152291 0.2160009 -0.11156073 0.013480105 -0.015592103 -0.036235508 0.12566614 -0.19699635 0.111960664 -0.029522179 -0.06401254 -0.16633959 -0.029206093 -0.0043824515 -0.12464867 -0.10606421 0.05601428 -0.36773947 0.046282843 0.013215348 -0.07524465 -0.083128825 0.07013027 -0.050172705 -0.017120784 0.06922427 -0.0980047 -0.024261614 -0.0006706328 -0.029819619 0.03901963 0.02277903 0.06100028 0.2349846 0.15573241 -0.089198165 -0.07512035 -0.13835122 0.08631414 -0.13507238 -0.10690602 -0.031511746 -0.003157316 0.05819445 -0.12972127 0.008310617 0.026602767 0.08728949 -0.0121741695 0.19726373 0.13332357 -0.04065039 -0.029791007 -0.07449166 0.03596434 0.038162425 -0.017575549 -0.09985152 0.046607964 0.14744304 -0.111234695 -0.14887717 0.07099036 -0.15233958 0.034978036 0.02202463 0.1090731
1325 0.09833869 -0.15689453 0.058045167 0.0017411474 0.37776712 -0.17015058 -0.036308542 0.16202721 0.12935759 0.054243155 -0.024842763 -0.16547105 -0.0121425735 0.17941648 -0.19141741 -0.0018882648 -0.22003283 -0.26472697 -0.2564892 -0.2300535 -0.027581103 0.2510625 -0.0020665848 -0.14134763 0.028440103 -0.16743998 -0.12549044 0.23689657 0.049081605 -0.16315967 -0.025996689 0.110834815 0.26513582 -0.090272754 0.014893231 0.1470287 -0.25634485 -0.0913199 -0.08154963 0.24008088 -0.14878874 0.4499915 0.026937708 0.18197472 0.21919489 -0.17181161 -0.09169528 0.31946635 -0.12254807 -0.007994428 0.036506634 -0.061677292 -0.10677314 -0.16255051 -0.02158725 0.061924458 0.2845839 -0.08286962 -0.03795515 -0.038156193 0.12352199 0.17854086 -0.18081897 -0.14646588 0.037519768 0.016580887 -0.05895328 -0.269947 0.05634602 0.36130267 -0.17180012 0.14101693 0.026549242 -0.067370646 0.0203881 -0.23151186 -0.23157363 0.012829381 -0.14992757 0.140723 -0.33837897 0.02276774 -0.02598357 0.28322142 -0.07805426 0.05273167 -0.06505132 0.096598126 -0.11917071 -0.20824099 0.044913106 -0.103504434 -0.022917345 -0.1355023 0.21421207 0.18747161 0.06458181 -0.06794505 -0.0036987418 -0.1009801 -0.22330716 0.13091482 0.2627064 -0.15717255 0.13988173 -0.21847795 0.035742562 0.122794524 -0.24706219 -0.106835075 0.02082003 -0.11821564 -0.13032836 -0.011319423 0.23816898 -0.15178779 0.017378395 0.039284084 -0.009195966 0.1671087 -0.14249718 0.008111534 0.14026709 0.045160346 -0.2944376 0.2399446 0.04991282 0.20669016
1089 0.111423895 -0.0626964 -0.0013530486 0.1377855 0.122553356 0.12204979 -0.13773558 0.13083728 -0.20636491 -0.15581034 0.07180364 -0.016464368 -0.013373151 0.12570056 0.060979646 0.15519492 -0.08411244 -0.35431725 -0.004899708 -0.13774003 0.15900625 0.047367718 -0.0718421 0.060082447 -0.16964898 0.071620226 -0.07978134 0.026714094 -0.043148197 -0.07701294 -0.19400544 0.07475818 0.055315457 0.09337283 0.1209966 0.3444335 0.14091021 0.04970303 -0.07877382 0.04643039 -0.13406111 0.16759846 0.15070342 -0.049042106 -0.14932777 -0.35482174 0.065656185 0.27392638 0.025376309 0.14071956 0.027627738 -0.027412465 -0.14273027 -0.07514275 0.12680286 -0.010628 0.40699792 -0.11944479 -0.018098086 0.08104668 0.06138345 0.13637738 0.07309599 -0.052614294 -0.03060722 0.15032184 0.17487557 0.03344645 -0.16735017 -0.0056449603 -0.09797146 0.030779382 -0.10766701 -0.12282085 0.10676731 -0.30907527 -0.18602175 0.046932705 -0.0059507755 0.0268602 0.074245654 0.005124659 0.006672752 0.09347198 0.102321185 0.0028457905 -0.04657312 -0.09131142 -0.050237704 -0.1808471 -0.016164057 -0.015482698 0.1102174 -0.017042782 0.10590572 0.083153084 -0.13426052 0.13011944 -0.05833449 0.049465965 -0.2994303 -0.047726266 -0.16685165 0.052155547 0.052535657 -0.048822243 -0.10557913 0.089144155 -0.13644291 0.033080995 -0.16998519 0.03137502 0.0020527167 0.0386538 0.02043553 0.12765768 -0.08956242 0.022577958 -0.0014704678 0.057524163 -0.070046514 0.016780226 -0.049733546 0.15463428 -0.24783742 -0.020357758 -0.07915841 -0.05855163
1125 -0.0079178205 -0.055787914 0.027133605 -0.022278938 0.049813416 0.06640432 0.09454926 0.10998433 -0.099759765 0.14488918 0.083451726 -0.036911212 -0.15304528 0.10585544 -0.060598496 0.13061135 -0.14749855 -0.17300421 -0.092305705 0.0041079135 0.0663124 0.09882795 -0.057695065 -0.025866494 -0.0979391 0.017968886 0.08656253 0.0631066 0.09957762 -0.06099123 0.097095616 -0.00916431 0.012675959 -0.0259446 0.03649761 0.25091258 -0.10844783 0.19598293 -0.022610411 0.16606271 -0.34606117 0.12213748 0.1368549 -0.09167772 0.12024283 -0.0565218 0.08122195 0.17544709 0.014482092 0.18146487 -0.092055 -0.13124853 -0.043920342 0.101024345 -0.014104065 -0.15844798 0.25781968 -0.15485501 -0.010348818 -0.11118438 -0.012608778 -0.121445954 0.18751483 -0.08587822 -0.050069246 0.054112814 -0.032352433 -0.03669174 -0.22033061 -0.08726776 -0.08362791 0.0090058865 -0.0804385 -0.018317565 0.055062808 -0.15196383 -0.19113882 -0.14596653 -0.3241605 0.22126937 0.011607067 -0.10735207 -0.061764292 0.06826238 0.010429832 -0.019962177 0.004135727 -0.0238415 0.0007169317 0.013976128 0.13216515 0.1319973 -0.09639098 0.037137486 0.081007585 0.07454079 -0.09334025 0.045472845 -0.050371528 0.024258794 -0.12635194 0.048446022 -0.043089937 0.07583704 0.03992672 -0.15469766 -0.010945621 0.026019514 0.076259725 -0.0531982 -0.062225185 -0.20510614 0.0064657885 0.04470292 -0.04470343 0.013385621 -0.0047177766 0.11872786 -0.009000265 0.048387073 -0.059062894 -0.18366016 -0.042827252 0.000104527244 -0.28726745 -0.08287147 0.26836696 -0.0013754272
1082 0.10577576 -0.11909589 -0.11290056 0.041308563 -0.0068907556 0.051639814 0.14595702 -0.12945475 -0.03756136 -0.030756973 0.18889746 -0.15320028 -0.035210647 0.16799802 0.037281495 0.09811359 0.009375945 -0.1629092 -0.043217838 -0.029726941 0.18040457 0.22399157 -0.091680475 -0.008985532 -0.11308417 0.16681725 -0.02905137 0.12208423 0.016260473 -0.11181863 0.08403138 0.0034335621 0.07362104 -0.09418544 0.048367165 0.110643186 0.21449652 0.049981285 -0.0358733 0.018968003 -0.34332052 0.10811296 0.2643963 -0.05957879 -0.13155456 -0.04768647 -0.016368248 -0.032479513 -0.0500254 0.10352739 -0.12306991 0.10148324 -0.1685688 -0.07324749 0.002814263 -0.15913051 0.0786587 -0.09498324 -0.20129694 0.024796575 -0.050819132 -0.023432009 0.087803096 0.020751916 0.03865869 0.03643596 0.048319973 -0.029919036 -0.20821878 -0.05423612 0.046945844 -0.008397454 -0.15806982 0.07709996 -0.05302887 -0.2237949 -0.3204557 -0.06520258 -0.25570154 0.17034975 0.17947558 -0.10750868 0.06134515 0.16322781 0.009789826 -0.08172149 -0.043225747 -0.047062706 -0.015363195 -0.07303617 -0.06118938 -0.018100936 0.088901974 0.048343785 0.10854099 0.084404655 -0.034362067 -0.04044333 -0.04657922 -0.030492071 -0.12014471 -0.063720815 -0.17871769 0.057223786 0.0050932867 -0.20141791 -0.122096136 0.13988589 0.005901695 0.010208646 0.0209479 -0.004153251 0.118397504 0.019672342 0.032204255 -0.15033437 -0.022965116 0.14715843 0.01696826 0.019971006 0.081440285 -0.09942143 0.005033697 0.11933545 -0.18344474 -0.101415806 -0.06202025 0.093458995
1341 -0.07977905 0.11526409 0.0037440944 -0.16519827 0.008420993 -0.10584853 0.30734158 -0.002045298 0.19887047 -0.22108752 -0.18529302 0.11709821 0.15116662 0.26880988 -0.03427238 -0.015911363 -0.10129834 -0.019890655 -0.21121165 -0.12060185 0.10808057 0.14376637 -0.08008863 -0.08254673 -0.37596056 0.105760925 0.047379836 0.16343318 0.262333 -0.12203042 0.14264306 0.27576786 -0.24341401 0.004883014 0.14417864 -0.055434383 -0.043023504 0.026789648 0.03058166 -0.1434562 -0.32846734 0.0954817 0.22961725 0.119059496 0.17213231 -0.20378949 -0.027765103 0.07048189 0.06880471 0.001395462 -0.13997413 0.107417315 -0.21211928 -0.0904284 0.10407524 -0.08657186 0.1733011 -0.50914675 0.075449266 -0.025405152 0.038461056 0.14709453 0.044488817 0.107006975 -0.1488375 -0.30897188 -0.074523516 0.106333755 0.13366301 0.018873535 -0.11239799 0.11828295 -0.038234904 0.008621704 0.16985385 -0.5723389 -0.12954411 0.020725442 -0.07737758 0.009827292 -0.083465494 0.18623538 -0.14496434 0.07935535 0.07251157 0.02230427 0.027399657 0.20726031 -0.015621642 -0.021416452 0.23657264 -0.21842597 0.05354371 -0.13382821 0.016008727 0.07128451 -0.006866338 -0.140148 0.0677356 0.1883441 -0.16397105 -0.049119335 0.07395216 -0.077802576 0.23503046 0.009508445 -0.2060435 0.34705484 -0.10855336 -0.008594064 0.063455634 -0.011983134 -0.07946375 0.0047705392 0.03555103 -0.0483821 -0.011363421 0.023405557 -0.09861354 0.24263087 -0.28104505 -0.17650788 0.004710521 0.012838807 -0.22314906 0.088154055 -0.08146498 0.044694267
1078 -0.15147018 -0.23053065 0.063339174 0.09805253 0.1260848 0.071548745 0.008553618 -0.058841653 -0.1589165 0.11937996 0.10704292 0.0481878 -0.20681125 0.152825 0.120668724 0.18739715 -0.013446825 -0.16372886 -0.08123699 0.04994146 -0.029482048 0.028918743 -0.064529225 -0.17734513 -0.07513819 0.11630384 -0.08072106 0.13367267 0.1966835 -0.0019160431 -0.09054196 -0.09107535 0.008183999 -0.076256864 -0.008683498 0.25660986 0.06774177 0.19340833 0.063732 0.09714682 -0.28504384 0.28820127 0.25070277 0.10006042 -0.17769827 -0.005705255 -0.20241381 0.0736205 -0.026090277 0.0011583915 0.16467062 0.1286032 -0.015862374 -0.0131687615 -0.07542749 -0.19063209 0.16222692 -0.15881754 -0.17436318 0.121971376 0.0007828119 -0.055901863 -0.06823506 0.10950483 -0.12717727 -0.055753235 0.110233024 0.18971463 0.08079591 0.020511296 -0.07938797 -0.11860357 -0.027949627 -0.04880551 0.06512821 -0.076677926 -0.09952898 -0.08596706 -0.26195458 0.31850642 0.07710401 -0.055625387 -0.24208322 0.14806668 -0.08910183 -0.039178595 -0.060777105 -0.098225504 -0.020019757 -0.046808243 0.07720054 0.086098075 0.07704164 -0.030934876 0.073338725 0.1298596 0.049117792 -0.05257702 -0.074279085 0.07909074 -0.13191059 0.11589604 0.019337973 -0.17815804 -0.013055238 -0.026497884 -0.030771846 0.22055186 0.19391002 0.16889481 0.019180402 0.0682341 0.092737444 0.022991203 -0.21358863 -0.101341255 -0.11485555 -0.12740166 -0.23960389 0.11641801 -0.1597816 0.17110673 0.14916809 0.22886641 -0.16568838 0.123460256 -0.08181589 0.09334175
1417 0.020623695 -0.11718891 0.09170859 0.045362663 0.055945728 0.021112595 0.11031807 0.031806313 -0.14901796 0.03593746 0.05186464 0.00709399 -0.16615844 0.10693588 0.10246754 0.089242786 -0.030758534 -0.17101222 -0.12801899 0.11055695 0.06911512 0.12087499 0.03323635 -0.14793931 -0.005821129 0.10352263 -0.14646567 0.05484567 0.11177064 -0.03759296 0.08408025 -0.016535534 0.0001947052 -0.18935633 0.04041947 0.2537878 0.17602852 0.13263984 -0.044694617 0.11807885 -0.26430467 0.06723043 0.12946343 -0.12707175 0.027544612 -0.056442816 -0.030164098 0.06112503 -0.023799356 0.14345308 -0.02622852 -0.08903989 -0.16518277 -0.0864718 0.16317059 -0.055019666 0.062257476 -0.15099779 -0.07334026 0.06618576 -0.02924074 -0.0006467682 0.04348717 0.034474183 -0.101102225 -0.08526837 0.022506831 0.12075788 -0.26461038 0.043856516 -0.09670493 0.14580606 -0.0040240297 0.04084941 0.106889784 -0.24492238 -0.08321708 -0.22224185 -0.24535276 0.14880262 -0.08047181 -0.09556537 0.11663366 0.066908516 0.11173867 0.039768524 0.18681717 0.0055751665 0.039302915 0.059132375 -0.051324848 0.02206284 -0.1339165 -0.10395201 0.17134538 0.09737005 -0.03548426 -0.0519527 -0.034127537 -0.019584445 -0.09402662 0.14191389 0.123359114 0.17673399 -8.369344e-05 -0.109141454 -0.14273876 0.20147078 0.1401754 0.22598214 0.12985775 -0.07714239 0.09942592 0.013716287 -0.09735644 -0.13245733 0.11676186 0.06023837 0.00814694 0.06152018 -0.08365042 -0.03365141 -0.062364418 -0.014360777 -0.20079805 -0.0068980576 0.056749403 0.23310672
