1194 128
1272 0.008198524 -0.08647428 0.06244722 0.01732468 -0.012700769 -0.076979265 0.14999577 0.07668571 -0.025519142 -0.04296938 -0.013970939 -0.09538534 -0.059289906 -0.034411363 0.20139463 0.059705604 -0.13033594 -0.03468722 -0.13113958 0.05807916 0.068705335 0.22582272 -0.15326992 -0.03468747 -0.10695075 -0.09110319 0.034639876 0.08083374 0.16633663 -0.14527878 0.007899215 0.02656398 -0.027408587 0.10939167 0.11396524 0.11229544 0.07386637 -0.0010781479 -0.009779297 0.008330531 -0.1107974 0.3008564 0.0026335383 -0.02079052 0.028357554 -0.22727203 -0.0016660169 0.18767178 -0.106227085 0.07593164 -0.016055593 -0.100312725 -0.042659454 -0.1482806 -0.039658938 -0.0748 0.22485004 -0.21308331 -0.0036352 0.09386346 0.061264522 0.032160107 -0.03633602 -0.07288267 0.107981995 -0.030098733 0.0014579945 -0.104505606 -0.055242993 -0.11414463 -0.143026 0.14410059 -0.07206454 -0.051742423 -0.067551 -0.22826454 -0.09537899 0.10550768 0.011244289 0.26986554 0.018509516 -0.0017369475 0.098835856 0.17546225 0.10860865 0.067146756 0.1403562 0.065218806 0.0047119376 -0.12821892 -0.013381371 -0.32933947 -0.09124374 0.0021366095 0.18245909 0.15051463 -0.055499595 -0.03947503 -0.029094875 -0.04674204 -0.19862126 -0.11512904 0.019984575 0.010983258 0.16037579 -0.04315039 -0.14185862 0.1503787 0.10670037 -0.09019366 0.054521367 -0.057905074 0.11472143 0.13225074 0.04427829 -0.11789274 0.032179985 0.030140307 -0.032434948 0.07392191 0.029087266 -0.12740947 -0.08965665 0.10923111 -0.1329473 0.029056903 -0.026749628 -0.012413577
1327 -0.06578852 -0.086971916 0.06083947 -0.09444633 0.0006938882 -0.05317742 0.04832463 0.14673015 -0.047646236 0.0687009 -0.078767665 -0.09958445 -0.061132964 0.02475408 0.17132817 -0.01703426 -0.1425392 -0.13080649 -0.07399908 0.13664258 0.032283016 0.10343481 -0.08051721 -0.06526444 -0.025512187 0.104283944 0.05402367 0.07518718 0.027288381 -0.073244125 -0.1452644 0.04882474 -0.0269018 0.06822109 0.085848846 0.174083 0.085843705 0.0005973881 0.10984917 -0.006402768 -0.19888394 0.35065055 0.030537592 0.037720323 0.06904423 -0.12404417 0.0124483025 0.21679612 -0.1354739 0.046533022 -0.15782866 -0.040825114 -0.013547464 -0.16046521 0.0601171 -0.051382054 0.24977641 -0.20433271 -0.180334 0.02851125 0.039734654 0.081088945 -0.066234745 -0.04482173 -0.01642356 -0.020315325 0.06778212 -0.06837943 -0.04428084 -0.06359474 -0.06437691 -0.031369135 -0.015365562 -0.15402839 0.0007887811 -0.27495372 -0.2156232 0.0052991286 -0.060340196 0.2861784 0.04402488 -0.035754096 0.08249292 0.077005535 0.14968264 0.06491377 0.06183053 0.030704416 -0.061480008 -0.14193074 -0.052354846 -0.20926547 -0.018642813 0.009614898 0.19573209 0.07153234 0.05197515 -0.02326467 0.043676812 -0.043511294 -0.11420863 0.049094617 0.0052796034 -0.071650065 0.109943144 -0.07766002 -0.2000891 0.15898399 0.053630214 -0.12123579 0.06090353 -0.042840287 0.119894885 0.07239346 -0.03441248 -0.09620706 0.021220986 0.10241168 -0.035562966 0.07286371 -0.038362313 -0.17574747 -0.040363207 0.13670117 -0.17469776 0.07698137 -0.11317232 0.097668536
1407 -0.026288848 0.017504858 0.19429524 0.10552028 -0.07081804 -0.16417748 0.11746326 0.15498942 -0.020906381 -0.0018722214 -0.056485653 -0.1424456 -0.17231998 0.02536186 0.15953308 -0.008457053 -0.063219756 -0.11368357 -0.1375679 0.25083676 0.13989258 0.18304218 -0.08295519 0.027877623 -0.09401382 -0.023480872 0.032198254 0.14866094 0.25543234 -0.07959705 -0.09776758 0.09710713 0.06873921 0.036142133 0.04259244 0.13822472 0.1838342 0.17386469 0.096533485 0.00043235745 -0.17521942 0.27537233 -0.010396725 0.11391606 -0.014673961 -0.14401625 -0.049627095 0.11961188 -0.008967031 0.12165691 -0.14915048 -0.04469074 0.0355409 -0.1664694 0.0102098845 -0.103951514 0.33253023 -0.20423022 0.0013938809 0.11855558 0.09300155 0.13731794 -0.03156248 -0.025048323 0.101819456 -0.0799007 0.0080582015 -0.01324591 -0.10716155 -0.16674915 -0.12036557 0.035904028 -0.013094753 -0.024039026 -0.11743976 -0.16190575 -0.13375252 0.023884928 0.003750449 0.17262845 0.073510505 0.070068054 0.03763375 0.24627271 0.009469663 -0.002087558 0.09384073 0.057910994 0.106221974 -0.055320922 -0.08289174 -0.15804155 -0.025530918 0.03730493 0.13008586 0.19628738 0.073886395 -0.07753493 0.15089333 0.03884452 -0.19481546 -0.07394106 0.04463126 -0.14070782 0.1124975 0.079232685 -0.1778686 0.072773844 0.07411266 0.08354071 0.039260425 -0.04380841 0.02615476 0.092921615 -0.132129 -0.10775036 -0.065189146 -0.06731126 -0.052161288 0.03442559 -0.010714672 -0.09067133 -0.049348775 0.07954393 -0.21860924 -0.17788033 -0.13735116 -0.10034085
1316 -0.10030935 0.08349401 0.16595878 0.026085464 -0.1007264 -0.04780744 0.107741416 0.10435994 -0.06778264 -0.0031742705 -0.06557759 -0.06294742 -0.008961223 -0.109682105 0.061128173 0.04389187 -0.12503187 -0.03645283 -0.1734533 -0.05739175 0.1285366 0.22479105 -0.05837968 -0.042517662 -0.014482216 0.0977078 0.12383562 0.038405523 0.24123673 -0.22009028 -0.121917486 0.065299086 -0.008463106 0.0070475815 0.032881998 0.13892634 0.1887457 -0.07751094 0.08460879 0.13720068 -0.33815667 0.22353862 -0.105319135 -0.00013582662 0.22030689 -0.21852547 0.07815855 0.23283878 -0.15515184 0.008296198 -0.07530162 -0.13742778 0.092924826 -0.15938084 0.0123991305 -0.26026335 0.29277936 -0.27480963 -0.013454278 0.2338023 0.059963092 0.10068118 0.00017618784 -0.05486832 0.13412711 0.03814513 0.13276172 -0.02667207 -0.076504275 -0.033737548 -0.15171318 0.08037757 -0.077914245 -0.029611038 0.13054937 -0.19791038 -0.071232386 0.10074419 0.02066501 0.11073431 0.04137319 0.1175424 0.17112917 0.09744915 0.02140114 0.09843795 0.04051435 0.17567323 0.1724837 -0.052626852 0.017805705 -0.12208092 0.0127755115 0.18103851 0.13829526 0.093794845 -0.13763997 -0.022339208 0.16040649 -0.043277547 -0.1857356 -0.100750126 0.24385992 -0.08482999 0.06927731 -0.010012127 -0.027696842 0.16102198 -0.013371509 -0.02738637 -0.03909865 0.06794842 0.068147756 0.18353921 0.034000978 -0.012667807 -0.057460476 0.049425658 -0.119444564 0.28784266 -0.13257928 -0.045344613 0.12519342 0.12026603 -0.27069283 0.047428716 -0.070938565 0.006013961
1172 -0.18386523 0.089329734 0.22712922 0.12286359 0.071935505 -0.16831294 0.07528194 0.16740169 -0.010768845 0.008052579 -0.012916146 -0.14175671 0.024280144 0.03154541 0.11167642 0.048325803 -0.013769783 -0.05876058 -0.093615845 0.10932531 0.17109352 0.1126272 -0.060368918 0.050759047 -0.048142564 -0.08179924 0.026278773 0.15843177 0.25201347 0.0634463 -0.03773504 0.044270534 0.13040489 0.050888885 0.0566807 0.23967662 0.06338825 0.038209476 0.1135043 0.0010277298 -0.22883917 0.3816263 -0.014659899 0.112875216 -0.042545255 -0.18934372 -0.038007483 0.10899559 0.06701511 0.059609357 -0.16976312 -0.08450617 0.026338888 -0.13575655 0.098652035 -0.13973106 0.40535155 -0.29713193 -0.025788723 0.105245516 0.16541857 0.04135249 -0.10333208 -0.040489797 0.05754008 -0.015035201 0.09754395 -0.049206 -0.1645424 -0.22585157 -0.18580776 0.026628999 -0.05746135 -0.23646407 -0.05808886 -0.026018552 -0.1764533 0.027281122 0.10265536 0.13295254 0.008068818 0.002285034 -0.022510251 0.23444138 0.122774266 -0.020011555 0.15051258 0.17144904 0.25593224 -0.08162568 -0.016253587 -0.28413224 0.04039512 0.10956884 0.121763214 0.18258756 0.15612948 -0.24887559 0.059454236 0.002694007 -0.14894278 -0.17853919 -0.012568848 -0.060354896 0.10260256 0.16750266 -0.08862231 0.15183763 0.108416915 0.09858206 0.16972461 0.022476975 0.1254403 0.15991172 -0.1997871 -0.016539194 -0.026942208 0.026453715 -0.13131186 -0.020225717 0.0041951197 -0.07768958 0.06413298 0.08107231 -0.16787674 -0.14682846 -0.053052634 0.028683066
1116 -0.1294249 -0.101659425 0.08669675 -0.0133449305 -0.06646039 -0.033530593 0.17876008 0.026264872 -0.0818159 0.069426864 0.080046445 -0.0457775 -0.056958713 -0.096998885 0.20206238 0.103653535 -0.1870243 -0.059345268 -0.13088857 -0.012548369 0.1420905 0.26738346 -0.12020443 -0.008582614 -0.11709312 -0.019664 0.043981005 0.05278114 0.15831202 -0.22652242 -0.07415373 -0.02778684 0.08096818 0.05136163 0.108154655 0.17004183 0.17538367 0.027272496 -0.014223463 -0.06377614 -0.14703704 0.09587096 0.09528694 0.020921433 0.04860198 -0.062558435 0.1208548 0.07280711 -0.013233765 0.023659835 -0.03731933 -0.100366265 -0.21895555 -0.03563643 0.06275562 -0.117350996 0.18021974 -0.15599659 -0.076119214 0.1621495 -0.013060086 -0.07825786 0.037343644 -0.0020389613 0.0805728 0.014322588 0.047444787 -0.012526807 -0.11704751 0.03622162 -0.12059815 0.0034173941 -0.12000955 -0.05365608 0.031791095 -0.19449861 -0.0946583 0.11533768 -0.059943527 0.28002256 -0.0057008313 -0.07479986 -0.036227565 0.07392198 0.23088713 0.103917465 0.06705327 -0.0809088 0.04160952 -0.1176798 -0.03652837 -0.13495643 -0.050635614 -0.010079931 0.20384464 0.060657695 -0.005445472 -0.03921422 -0.038289484 0.063433364 -0.089354835 -0.01950425 0.06413948 -0.0073649804 0.23713975 -0.16052616 -0.18894719 0.10057418 -0.010466455 -0.044372857 0.016583897 -0.16501862 0.023915231 0.042715073 -0.10651664 -0.07130512 -0.0023131114 -0.023056058 -0.03440422 0.10746223 0.05156638 -0.090292536 0.01457455 -0.0024680216 -0.22208507 0.0067780833 -0.01944833 0.01636579
1329 0.013470231 -0.063619174 0.025328409 0.038526986 0.060925685 0.09786107 0.07912975 0.13797252 -0.111876816 -0.059655916 0.009176593 0.01541561 -0.20136328 0.059537295 0.14572144 0.029004412 -0.16485962 -0.14655158 -0.07816888 0.093344405 0.18358792 0.1365623 -0.1231047 -0.13453971 -0.109438635 -0.025566652 0.086852595 0.010268534 0.072985314 -0.10658983 -0.08502028 0.003967992 -0.014433832 0.14916985 -0.0063474723 0.23722726 0.21721327 -0.12688376 -0.0155980205 -0.0009598074 -0.20286372 0.36169738 -0.07075759 -0.027043633 0.054309513 -0.22117965 -0.08691328 0.2651268 -0.10761579 0.04290044 -0.07601805 -0.06825742 0.042009458 -0.058257405 0.088769905 -0.20264082 0.036790535 -0.122180246 0.07497273 0.042432304 0.11740931 -0.07979788 -0.0018925793 -0.18170995 0.05305782 0.12014205 -0.0921874 0.020162567 0.07108566 0.07832758 -0.078743495 0.027294487 0.028287409 0.050623078 0.17921427 -0.24350978 -0.079114564 -0.10533705 -0.024788778 0.1696014 -0.022346545 0.027944243 0.22561482 0.24597704 0.07568611 0.07110251 0.04031277 -0.00466296 0.08688712 -0.041752685 0.031974297 -0.22685646 0.049792275 -0.20876516 0.26552027 0.039507683 0.07541467 0.15250567 -0.0078014336 0.09944621 -0.17838524 0.007854385 -0.00021347692 -0.1256214 0.06986827 0.019921433 -0.1047457 0.23408511 -0.1162719 -0.022596018 -0.056114186 0.084873736 -0.016293498 -0.06325177 -0.060765106 -0.04067263 -0.1227279 -0.003968731 -0.070842125 -0.08387579 -0.045620598 -0.04056036 -0.039345603 0.031193236 -0.18663086 -0.104784034 -0.056178655 0.040413707
1293 -0.11624915 -0.048704594 0.16250256 0.15875629 0.039930236 -0.06002402 0.1256421 0.19759552 0.113460034 0.1636572 0.013394853 0.1620869 -0.09171552 -0.04585069 0.28294387 0.09288139 -0.13598706 -0.04562144 -0.15568535 0.08049345 0.042380713 0.21985085 -0.13337192 -0.07265785 -0.21946038 0.08746789 -0.19492194 0.06344855 0.04476991 -0.194142 -0.120405585 0.08327402 0.15904357 0.2199299 0.08139274 0.003938417 0.06371186 -0.1474715 -0.13572915 0.028139748 -0.31451407 0.29114482 -0.12862216 0.08005542 0.10606459 -0.18224847 0.077670336 0.17444476 -0.010672542 0.07184803 -0.0892505 -0.14704196 -0.17198138 -0.103265084 0.041025985 -0.06496024 0.20613767 -0.15232894 -0.024976013 0.15352422 -0.028747521 0.018719694 -0.04936061 -0.02676579 0.05567368 0.03967848 0.052325457 -0.05474454 -0.07371598 -0.051070206 -0.14461717 0.14757821 -0.074615754 -0.14558548 -0.03116214 -0.15109624 -0.2233949 0.057445906 0.14057992 0.17017992 0.13828202 -0.051667828 0.077082984 0.21812186 -0.059415855 0.0015378707 0.07374926 -0.20857538 0.13579199 -0.14175248 0.1846931 -0.20248331 -0.06738203 0.074306756 0.1138071 0.072291896 0.035520338 0.09570872 0.14909637 0.20022334 -0.22383344 -0.08088135 0.070955 -0.010258536 -0.041390914 -0.04153431 -0.13065413 0.26904067 -0.107184626 -0.08670913 -0.034841355 -0.13877486 0.019173754 0.008232723 -0.11257221 0.0780485 -0.1080009 -0.068790786 0.20324582 -0.024537515 -0.101828724 0.001997855 -0.183768 -0.048583634 -0.15244551 -0.051838312 -0.07913895 0.005502396
1306 -0.119422376 -0.20534994 0.015918117 0.04338604 -0.03289559 -0.030722495 0.08490848 0.035655092 -0.095954485 0.09327557 0.047773294 -0.052685767 -0.07980595 -0.014133104 0.18078065 0.07135801 -0.17461795 -0.15358178 -0.17730139 0.036284335 0.23420131 0.21376358 -0.019916398 -0.024154795 0.018426586 -0.023905447 0.026043955 -0.022337757 0.14988945 -0.16136865 -0.0076007834 0.059251707 -0.084498405 -0.046402235 0.09091832 0.2055017 0.10861708 0.0056976695 0.080387 0.010829745 -0.24451831 0.14781266 0.07746965 -0.013942657 0.11311052 -0.12133028 0.16010942 0.038229235 0.074478775 0.1142273 -0.046690475 -0.014096468 -0.08862683 -0.15930875 -0.04691335 -0.030700643 0.047207348 -0.093564756 -0.060448743 0.079121485 0.060212966 -0.11432227 0.053898834 -0.11076441 0.06279635 0.0368855 0.03146133 -0.02539388 -0.14921062 0.14129779 -0.037276898 0.02704757 -0.057939164 -0.06765719 0.07051093 -0.2416192 -0.05184913 0.09724265 -0.103628285 0.10896685 -0.064275905 -0.13190748 -0.06640298 0.06440856 0.1838045 0.12513515 0.13509025 -0.022058677 0.016426241 -0.15958577 -0.06341026 -0.14817004 -0.084936544 0.04103159 0.20827425 0.2637988 0.039834086 -0.031122282 0.021857468 0.065429874 -0.02929293 0.020664528 0.04382045 0.0013901648 0.28684714 -0.19518009 -0.15945151 0.04980908 0.0010893445 -0.06126442 0.06794289 -0.13090834 0.043207012 0.019097038 -0.07141863 -0.041246746 -0.16337308 -0.019210618 0.0374123 0.10705908 -0.11648705 -0.15393843 0.0023445433 0.06202118 -0.24294521 0.12504725 0.00623503 0.13211273
1404 -0.007979372 -0.09032867 -0.03762299 -0.052248325 0.02536572 -0.081419505 0.123782896 0.09213405 -0.10429285 -0.09621425 0.16131742 0.03786933 -0.02736624 -0.0072767404 0.15613692 0.14390938 -0.07194419 -0.07505975 -0.0628818 0.08291672 0.2353178 0.27401492 -0.26077145 -0.02533112 -0.10653921 -0.03193207 0.09310918 0.086010985 -0.046353802 -0.13369934 -0.091633014 -0.027165161 0.043777924 0.0054713013 0.13921997 0.13385122 0.1450991 0.13323437 -0.06993321 -0.04184263 -0.25620416 0.16239268 0.113829 -0.005210906 0.019713327 -0.1831072 -0.044293985 0.10931016 -0.026012532 0.021578757 -0.033691112 -0.09802422 -0.07209843 -0.09522703 0.07623659 0.08756912 0.3523932 -0.026744535 -0.12269087 0.13865617 -0.015480262 -0.031745087 0.095391296 -0.1353131 0.14554296 -0.048865575 -0.04551218 -0.09688345 -0.12598714 0.13940541 -0.06829868 0.11491538 -0.0011370541 -0.06755041 0.07368703 -0.12043763 -0.28008232 0.19284618 0.03347156 0.10854102 -0.14738293 -0.15096213 0.04687702 0.16234377 0.2790336 0.07365852 -0.013794012 -0.13008584 0.080746345 0.015878696 0.092214406 -0.067451 -0.13233913 -0.006762062 0.043033082 -0.0089135645 0.069553755 0.03283933 0.048295703 0.02825498 -0.006839732 -0.06793807 -0.028982928 -0.0844487 0.24526103 -0.1441009 -0.018230394 0.22330803 0.0478978 -0.030671997 -0.072824866 -0.13642739 -0.013016293 -0.085753344 0.017178474 -0.022496156 -0.08102119 -0.051504258 0.06992976 0.12704696 0.029198563 -0.34240395 -0.050302316 0.057682052 -0.20762563 0.084382944 -0.095692985 0.1328683
1421 -0.05930567 -0.010918337 0.13026603 0.050398204 -0.01448836 0.18545802 0.1574038 0.19197983 -0.16393267 0.10942604 0.092282325 6.9293186e-05 -0.29954827 0.014050512 0.21561031 -0.10139806 -0.10971052 0.0040254295 -0.11930679 0.0784268 0.10914599 0.14631794 0.033386428 -0.0072075343 -0.12938407 0.051814497 -0.08295686 0.18687825 -0.06948503 -0.13305572 -0.07165166 0.06735434 0.06049207 -0.1411863 -0.03372787 0.19546847 0.072465844 0.017670099 0.043779533 -0.15562251 -0.24589945 0.20977347 0.16681583 -0.06373072 0.12227914 -0.23658687 0.1178377 0.17405911 -0.007096688 0.14205952 -0.052180346 -0.095190324 -0.04425533 -0.10847461 0.0035752184 -0.021062749 0.12539288 -0.13791557 -0.07412796 0.051203236 0.05369473 0.10641702 -0.12443917 0.08369638 -0.04802206 0.027240628 0.05684456 -0.14921522 -0.09449403 -0.070820294 -0.14733584 0.08578314 -0.110045314 -0.073928274 -0.2141598 -0.0979197 -0.14813961 -0.061995473 -0.13666856 0.12009299 -0.04415354 -0.074753635 0.014872372 0.31243044 0.10403259 0.106769755 -0.16139825 0.046979953 -0.20221797 -0.18825577 -0.10018209 -0.141219 0.036678128 -0.052896637 0.18908088 -0.04171636 -0.07235605 -0.15124756 0.0051921154 0.10471805 -0.0886095 0.047367323 0.07326809 -0.020819798 0.17906424 -0.0863241 -0.022402026 0.19382271 0.10820386 -0.11328198 0.17880204 0.03883363 0.06447577 0.08263723 -0.077528864 0.06042734 -0.07199143 0.08398889 0.07974217 0.25890088 -0.032817785 -0.09075421 -0.15051645 0.026322346 -0.21662395 -0.12588887 -0.08290625 0.072325364
1308 0.07598922 -0.03589537 0.076880984 -0.02208052 0.022575844 -0.093278304 0.061137438 0.10824331 -0.004796777 0.038938954 0.044595443 -0.112770565 -0.14229767 0.21336365 0.28448245 0.13711171 -0.05118085 -0.09072109 -0.05761858 0.06093425 0.012677629 0.19244201 0.0072619305 -0.09987038 -0.14130111 -0.051459573 0.062357657 0.0014083162 0.02219696 -0.13330238 0.005994366 -0.00053165876 0.015591553 0.092217594 -0.014421199 -0.0022608342 0.1242438 -0.02487781 0.05078991 -0.032257177 -0.16968566 0.22819243 0.0034113864 -0.06674178 -0.078602634 -0.20874219 -0.06627235 0.09643903 -0.037047617 -0.0035842266 -0.022730105 -0.024508918 -0.07815915 0.006876465 -0.060483724 -0.07157158 0.1639443 -0.22510114 -0.005356144 0.16886884 -0.052587055 -0.03464767 0.11311459 0.16700006 -0.030573046 -0.03964141 0.025580786 0.032310564 -0.02906828 0.050537635 -0.008965999 0.06955771 -0.082054906 -0.062104974 0.019062959 -0.22723632 -0.17641892 0.0251268 -0.12057172 0.18426467 0.014056551 -0.2267817 -0.0048770197 0.2255163 0.20802724 0.026485318 -0.024953123 -0.0828215 0.08532712 -0.03433838 0.05816167 -0.14894606 0.068304725 -0.035597246 0.20537677 0.08136285 -0.10019642 0.10744897 0.12259833 0.05597774 -0.08314282 0.052643232 -0.1175889 -0.09109008 0.0074839937 -0.010989107 -0.0652455 0.22609082 -0.010937303 -0.15287393 0.13095242 0.037289973 0.07291077 0.20410761 -0.009726618 -0.060098648 -0.0831899 0.09195734 -0.014549529 -0.03151513 -0.056391858 -0.22134493 -0.24385546 0.09915346 -0.12844405 0.12664145 -0.040767085 0.16600096
1276 -0.117223315 0.012823507 0.047027245 -0.08286023 -0.08915522 0.005197841 0.2522129 0.10557987 0.020383373 0.13685916 0.034383815 -0.12832166 0.0103097055 -0.08743884 0.13185295 -0.057743188 0.117272735 -0.3155261 -0.13566075 -0.024687087 0.24110143 0.21383105 0.13452668 -0.1496824 -0.08529744 0.0012264772 0.123824924 -0.08561425 0.13234162 -0.13347852 -0.21413335 0.055351768 0.09996911 -0.032720376 -0.057416625 0.20135197 0.09214272 -0.046849817 0.08475548 0.008948446 -0.103327826 0.366846 0.0667961 -0.09334377 -0.02622012 -0.1932937 0.004951962 0.14203914 0.041574255 -0.008701432 -0.109439135 -0.053025864 -0.13617368 -0.039733298 -0.056287102 -0.01902137 0.23502605 -0.22721167 -0.15556766 0.10497969 0.0075231344 -0.062345337 -0.089394175 -0.07623145 0.05100447 0.0050548585 -0.0656204 -0.11025786 -0.002681222 -0.022660498 -0.32042858 0.12820749 -0.072481506 -0.046337783 -0.12243036 -0.044043515 -0.046330318 0.06727554 -0.09968188 0.18728006 0.01245394 -0.15879954 -0.068488516 0.17576481 0.06104029 0.13592531 0.052609447 0.00948179 -0.006368513 -0.077252366 0.07040647 -0.15035534 -0.106950484 0.1306867 0.13227665 0.14520599 -0.07431399 -0.011184918 0.01349312 0.16444395 -0.08116234 0.004401166 0.023266908 0.038306087 0.08440997 0.024625137 -0.09978201 0.19585136 -0.04744044 -0.15713632 0.22381453 0.19767778 0.11477292 0.054760527 0.08924579 0.066193245 -0.057245143 0.06186829 -0.020786226 -0.013111496 -0.25131744 -0.2264949 -0.18077573 -0.01873523 -0.4095754 0.15852694 0.101918764 -0.127669
1237 -0.11564088 -0.124294125 -0.0012951194 -0.06493501 0.02190778 0.06505885 0.024257666 0.08088435 -0.17409515 -0.033187788 -0.031896733 -0.089374445 -0.108742714 0.13733894 0.21043186 0.23941639 -0.17766547 0.024375357 -0.119045705 0.026475983 0.13042966 0.24705325 -0.0010378816 0.005828809 0.011192227 -0.0019150921 0.06928811 0.03327545 0.04216145 -0.10681883 -0.034539778 -0.063024916 0.13592258 0.047526557 0.017278494 0.27003753 0.21679619 0.051281143 0.08981571 -0.06748156 -0.29495326 0.15675218 0.15657403 -0.032449048 0.08065284 -0.18449084 -0.049506232 0.10407349 -0.10589947 0.13274853 -0.06121095 -0.08203253 -0.04730792 -0.070887 -0.017856594 0.04400155 0.24159999 -0.0066469894 0.10090897 0.12562741 -0.049659885 -0.0020071098 -0.00086652016 0.12020333 0.0856582 0.058808677 0.111537196 -0.045839857 0.0861181 0.045524865 -0.033708055 0.040492952 -0.13156368 -0.0642113 0.01383044 -0.15743999 -0.21456924 -0.16896455 0.022740068 0.06226527 -0.08550661 -0.056078833 -0.051200587 0.2872651 0.09937926 0.11721438 -0.000623854 -0.07257994 -0.0024506245 0.017158402 0.02187121 -0.049875412 0.022710226 0.0063312016 0.11068697 0.10535673 -0.10127619 -0.11205115 -0.046766173 0.20884559 -0.1466788 0.0050007114 0.04650867 0.01363778 0.16618231 -0.010276655 -0.107669845 0.12394837 0.147486 -0.11916936 0.027730444 0.006396 0.056443576 0.13578442 0.00846302 -0.047360767 0.00011329386 -0.06204616 -0.08099872 0.06319722 -0.11133919 -0.06637966 0.0018225216 0.1768144 -0.11728613 0.0497827 -0.034811206 0.018643463
1103 0.04503717 -0.055993885 -0.006038924 -0.003879958 -0.14373569 -0.044466842 0.29937455 -0.0008444015 -0.14050142 0.063475065 -0.12031667 0.062491935 -0.030705925 -0.17184187 0.19459149 0.023335414 -0.18832137 -0.1978214 -0.10652706 0.17937501 0.10548596 0.32330763 0.054616943 0.06428851 -0.13433495 0.12195932 0.07440959 0.10689243 0.1978145 -0.1696214 -0.01796381 -0.14500588 0.23882197 0.090954915 0.04714419 0.29408938 0.10547826 -0.006809407 -0.028402597 -0.062266704 -0.20800984 0.18697223 0.1165241 0.055331685 -0.12635028 -0.13417505 -0.051246397 0.045304514 0.02495968 0.15015602 -0.013029591 -0.025259981 0.025900448 -0.11218875 -0.08529959 -0.13586056 0.23632884 -0.23340762 -0.19103165 0.23058377 0.07570564 -0.020075528 -0.0712647 0.12705712 0.009049382 0.059550893 0.114417836 0.017648239 -0.016004555 -0.18267009 -0.049406774 0.11171585 -0.018512912 0.08185527 -0.14553647 -0.055563852 -0.26148754 0.09226633 -0.119837396 0.32544643 0.18449627 -0.05045144 0.15032277 0.20211571 0.033423755 0.061595373 -0.068794064 0.021955052 0.08903517 0.046020146 -0.045742735 -0.03730261 -0.033332616 0.043323264 0.10834604 0.17021547 0.09652585 -0.14158255 0.12719695 0.053739794 0.009634288 0.029960105 0.032377403 -0.07744122 0.087904476 -0.18746135 0.021028956 0.11207173 0.19757609 -0.055806424 0.039876666 0.009702765 0.022937566 0.15512078 0.007452338 -0.05881398 -0.00053317327 -0.0133805685 0.0070328484 0.014446428 -0.006863236 -0.2849727 0.041225623 0.06283279 -0.28538707 0.059377942 0.00053066056 -0.113161534
1287 -0.12894504 0.047736824 0.13269046 0.15812945 -0.069363624 -0.09810372 -0.08757611 0.22774291 -0.06438635 0.07053962 -0.17438571 -0.1432169 -0.092342734 0.0347527 -0.0076831533 0.051164586 0.062050175 -0.10688083 -0.011376806 -0.044358358 0.060167324 0.21051171 -0.2297147 -0.052666914 -0.19027098 -0.12403688 0.007176438 -0.16135642 0.103761114 -0.20261283 -0.03539459 0.024851527 0.1509929 -0.16582783 0.12031861 0.12939224 0.054553833 0.05954953 0.052987512 0.018029882 -0.26083976 0.27204335 0.07011562 0.06717203 -0.056732744 -0.09858639 0.052085984 0.1449352 -0.13969277 0.05410288 -0.19169337 0.06792252 -0.057968102 -0.03513543 0.020105068 0.005927035 0.27509207 -0.2559998 -0.0655305 0.010102765 -0.11314105 0.09175837 -0.10173526 0.005115162 0.007014305 0.0050587053 0.14833806 0.05048196 -0.037501875 0.04763804 -0.29132184 0.048845127 -0.07503798 -0.100461915 0.019588638 -0.2721164 -0.10626135 0.12082028 -0.05515184 0.19314002 -0.110934556 0.13111238 -0.12129329 0.26308203 0.08051616 0.1323948 0.01540678 0.03863615 0.088558055 -0.020921249 0.107116856 -0.11940039 -0.09482886 0.03127873 0.20921466 0.09649407 -0.106740564 0.148819 -0.09305518 0.21950981 -0.19018692 -0.03818706 -0.13165213 0.036965035 0.17429242 0.22353554 -0.15608399 0.23337631 -0.2430967 0.061827295 0.15507221 0.020956177 -0.24742019 0.12416892 0.067496516 -0.005718183 0.073164195 0.1844733 -0.0014974636 -0.06994878 -0.08326019 0.054367404 -0.07559768 0.12921616 -0.25153884 0.045578577 0.0071633677 0.0897589
1164 -0.06412392 -0.07862731 0.08550892 -0.07841141 -0.070704535 0.046382174 -0.07238555 0.027755557 0.007902579 0.068549156 0.08010252 -0.11009706 -0.10815438 -0.0143490955 0.06686492 0.27436998 -0.0031677764 -0.064397186 -0.13322924 0.10869891 0.068310864 0.32549256 0.007562859 -0.036369275 -0.21038403 0.034343284 -0.06121218 0.095156744 0.10235824 -0.12618393 -0.07942307 0.06873275 0.022454862 -0.18261375 -0.02791957 0.17348737 0.118047595 0.05906384 0.085924305 -0.085814245 -0.16141666 0.13347454 0.091012985 0.10055071 0.028524397 -0.10093541 0.08581779 0.092602976 -0.20525362 0.17715922 0.01446257 0.0024726419 -0.06096361 0.0016945039 0.0265452 0.035961084 0.2106945 -0.100682 -0.070946425 -0.029389994 -0.07023151 0.056609076 0.080411345 0.042324506 -0.010521834 0.09645698 -0.09545978 0.053082917 0.03926567 0.035696518 -0.17307687 -0.16577332 0.013499186 -0.12685062 0.036478803 -0.1980701 -0.10638184 -0.15235332 -0.1444878 0.19729982 -0.008278551 -0.047345474 -0.013531692 0.12780635 0.077497095 0.083333716 0.07359336 -0.10044678 -0.0055128927 -0.14386582 -0.06531674 -0.09590649 0.00883693 -0.18883136 0.26352277 0.20249787 0.049606163 0.09464063 -0.17119813 -0.07004578 -0.077416375 -0.09109566 0.1336082 -0.0635801 0.12464566 -0.009470703 0.03458131 0.18935567 0.08353686 -0.1816332 0.022771109 -0.01776827 0.14905785 0.15952446 -0.12944983 -0.098005086 -0.006724196 0.12112969 0.15938208 0.112322 0.043374 -0.14693372 -0.06365381 0.15561512 -0.1801555 0.041574374 0.10559735 0.099279076
1140 -0.03800713 -0.11725271 0.06527107 0.038497582 0.015511896 -0.015196277 0.19139048 0.053223517 -0.028614953 0.11765698 0.039572768 0.04107448 -0.083651446 0.17838718 0.30243883 0.24221683 -0.04428027 -0.12903656 -0.065646365 0.12723823 0.043287057 0.13608783 -0.13569792 -0.028768957 -0.09551252 -0.011585894 0.052458595 0.1667424 -0.023008535 -0.009431155 0.008677852 0.034267653 0.050670195 -0.048171755 0.1847766 0.1328506 0.16153389 -0.05254315 0.09933669 -0.0024182377 -0.19922203 0.15307991 0.094051935 0.010658098 -0.09943749 -0.09495628 0.19707319 0.09345668 -0.17678915 0.025650373 0.021364989 -0.027400307 0.014762873 -0.031187229 0.037885327 -0.00017309224 0.060586423 -0.14139543 0.069246955 0.16718441 -0.10490159 -0.102045305 0.1024576 0.011380177 -0.0043226336 0.049416624 0.054427117 0.008515059 0.07263106 0.07220426 -0.09031733 -0.05444182 -0.16636176 -0.012423605 -0.09126239 -0.16631289 -0.23948751 0.020864984 -0.049977772 0.050473556 -0.0066138147 -0.24664687 0.005959635 0.24500781 0.10568078 0.063048966 0.05144766 -0.13346705 0.076386824 -0.10673798 0.0026013942 -0.12067212 0.048227847 -0.012562867 0.10340573 0.16734925 -0.054291166 0.07399658 -0.031773284 0.022466425 -0.11227427 0.06383039 0.08819838 -0.046371162 -0.05655544 -0.19166133 -0.10032059 0.12879343 -0.07365058 -0.13925564 0.013355417 -0.044364415 -0.034659702 0.032230392 -0.03640946 -0.15607175 -0.0605789 -0.08809227 0.018204894 0.06240312 -0.10479203 -0.046326585 -0.1702922 0.07552227 -0.13178457 0.03798917 0.077041544 0.14088292
1156 -0.1734446 -0.011310946 0.104053095 0.06186879 0.03559195 0.06937903 0.20012505 0.11523254 -0.15695299 0.043522153 0.06579268 -0.10256386 -0.04873836 0.07757244 0.14892228 0.08174328 -0.03868865 -0.024882073 0.07859351 0.1848822 0.018189857 0.06394626 -0.059047498 -0.02390994 -0.37508065 0.13749357 0.074754536 0.106286496 0.17125712 -0.15012902 -0.103570014 0.072771356 -0.0136645455 0.047169346 0.10808868 0.23490055 0.087653615 -0.041342165 -0.023707768 0.020970473 -0.27992272 0.30467126 -0.07410114 -0.024625314 0.22406954 -0.09137504 0.038253296 0.07085576 0.096032225 0.067839526 0.04230631 -0.13443199 0.14587037 -0.015246555 0.2156966 -0.074903555 0.12827815 -0.24113695 -0.061195675 0.15252723 0.1116429 0.15039472 -0.0033897278 0.06652504 0.3103729 0.036508545 0.014445965 -0.062591106 0.072591744 -0.10767958 -0.17767182 -0.04451079 -0.027313467 -0.06102554 0.18021668 -0.04149776 -0.2517506 -0.023046916 -0.12545751 0.113302894 -0.021159755 -0.03805227 0.062154893 0.14633903 -0.034579385 0.055549476 0.13808228 -0.04981633 -0.021041373 0.11366796 -0.07335801 -0.070467025 -0.09630337 -0.03125651 0.017878864 0.16963279 0.12021185 0.0059723603 -0.16145131 0.2453914 -0.031582844 0.04231772 -0.02273654 -0.04264034 0.1389502 -0.016619869 -0.08872358 0.24022701 0.09967792 0.006447497 0.015673425 -0.033989266 -0.03276841 0.14510722 -0.09667913 0.016676417 0.047735594 -0.13063274 -0.13735127 -0.03011961 -0.052361384 -0.08706029 -0.041286435 0.120025806 -0.12142754 -0.0016575136 0.080462985 0.039504692
1297 -0.081367746 -0.17581071 -0.0012098406 -0.026801568 0.008244923 0.07091374 0.09409366 -0.08355702 0.02542638 0.027445626 -0.017095044 -0.094016254 -0.2735886 0.059221268 0.3320917 0.19758502 -0.04571391 0.048982807 -0.21065705 0.13662195 0.11268545 0.19878162 -0.13777618 -0.046223164 -0.1444847 -0.008330866 0.0017857843 0.03826755 0.033025987 -0.0023750765 -0.11350836 -0.036534533 0.054821216 0.036409676 0.06124334 0.2281852 0.18220325 -0.11744241 0.12360538 -0.043091346 -0.1619585 0.13127808 0.021086464 -0.026228951 -0.08069351 -0.1931486 0.03352719 0.10637431 -0.10038409 0.067205034 0.09274716 -0.019651096 0.031708065 -0.026930012 0.035236865 -0.06003905 0.20495078 -0.114676975 0.051133245 0.072346464 -0.076546356 -0.10689589 0.09811737 -0.18629214 0.03189733 0.12326715 -0.05023746 0.027857855 -0.019457202 -0.017471757 0.073121406 -0.001250743 0.049694903 0.007992115 0.20223778 -0.22358093 -0.009578466 -0.13215992 -0.16112417 0.058884047 0.010830217 -0.15361454 0.02200904 0.08451409 0.04213 0.09704219 0.018654099 -0.092764035 0.07683809 -0.1155601 -0.056181822 -0.09943689 0.017755577 -0.03420907 0.05486992 -0.010144458 0.039152022 -0.050560363 -0.0781593 0.09752421 -0.11259623 -0.012484739 -0.01712287 -0.057900596 0.15639412 -0.07483774 -0.11283755 0.23809463 -0.0055811736 -0.139853 0.09251308 0.0515813 0.007143643 0.100693814 -0.010004167 -0.07602461 0.03908339 -0.06677105 -0.027795762 0.04151749 -0.11473738 0.021086937 -0.09140033 0.1124725 -0.016333083 -0.030105665 -0.04325709 0.10711942
1271 -0.08837423 -0.13921683 0.028151441 -0.023950148 -0.005531211 0.030941116 0.15381043 -0.05451128 -0.026474586 0.09487892 0.012604572 -0.044471495 -0.18497403 0.1517794 0.2601771 0.27235532 0.008411121 0.013723912 -0.08652424 0.039975394 0.09345415 0.20575659 -0.027405681 -0.078700736 0.008476002 0.049304374 -0.015470309 0.087676376 0.08131923 -0.09984431 -0.013490083 0.026889957 0.014694155 -0.05185871 0.11473867 0.19389455 0.15969434 -0.0806798 0.18873079 -0.061433546 -0.1936289 0.15711184 0.11169121 0.055258006 0.007943511 -0.0377639 -0.0048475885 0.1382514 -0.09142034 0.021018682 -0.06799285 0.042901672 0.061750706 -0.11879773 -0.017235618 -0.076978646 0.09757354 0.0504116 0.04835634 0.08270934 -0.07246229 -0.048476655 0.20798959 0.0029028344 0.07313496 0.034662623 -0.034764938 0.1433616 -0.14224592 0.08539515 -0.12967217 -0.03466008 -0.021415928 -0.074187964 0.14541253 -0.26633066 0.047857568 -0.013534105 -0.104307875 0.22974943 -0.053821076 -0.20449412 -0.007322123 0.2172219 0.059410334 0.011987516 0.028798856 -0.07337761 0.008564497 -0.0455233 -0.0967391 -0.014999659 -0.013886861 0.028633041 0.15957683 0.12042279 -0.020764628 0.028659867 -0.10630726 0.06725675 -0.16070147 0.14056875 0.037936024 -0.011152501 0.15405428 -0.04257168 -0.15696001 0.15547934 -0.023329273 -0.067495406 -0.017308148 -0.0077198795 -0.003120227 0.09128715 0.029355386 -0.22431478 -0.04585119 0.018217377 -0.0051439293 -0.06262471 -0.08572255 0.0063829785 -0.018124962 0.13039747 -0.080785945 0.09480149 -0.057812728 0.12428794
1145 0.04309237 -0.08742139 -0.010054501 -0.05104185 -0.06587282 -0.11119543 0.052903064 -0.007566626 0.013607197 0.112324074 0.018996587 -0.13793202 -0.17651732 0.19010958 0.23467255 0.29085332 -0.04283417 -0.052783422 -0.06574273 0.09857184 0.01692728 0.20849599 -0.03881922 -0.10690108 -0.07061712 -0.085259706 0.06550437 0.027887216 0.09222417 -0.11276221 -0.03989106 -0.035255294 0.012385511 -0.075093366 0.027740348 0.16150703 0.20639558 0.04756903 0.038142107 -0.027452223 -0.24388407 0.2680675 0.09433209 -0.02412832 -0.054501016 -0.08163937 0.094515845 0.034451343 0.012682793 0.065404505 0.04502617 0.002332973 -0.0055108313 -0.05410828 0.063590184 -0.10233861 0.13045472 -0.13938412 -0.036914136 0.008902706 -0.06191172 -0.14275625 0.1012155 0.027942609 0.12685454 0.13067392 0.13798918 0.18617702 0.048265856 0.15526168 0.021146743 -0.06064504 -0.079510115 -0.010737209 0.08431769 -0.13038011 -0.07833167 -0.030602174 -0.14416663 0.10367614 -0.006740921 -0.00977661 0.02294031 0.14220853 0.15196246 0.08159238 0.11822346 0.032419156 -0.037253708 -0.17509028 -0.101852685 -0.13889062 -0.11972229 -0.0983507 0.13878644 0.16410743 0.023172421 0.039924722 -0.10115039 0.039289504 -0.19504288 0.05041796 -0.13266754 -0.20410286 0.042914726 -0.023659538 -0.121575505 0.07905275 -0.010600131 0.037652694 -0.029724568 -0.009747582 0.053765904 0.22495027 -0.059563074 -0.11625526 0.02282196 -0.09153782 0.053956907 0.018792983 -0.009230982 -0.14190246 -0.08715223 0.061101794 -0.1420737 0.05098477 -0.09347199 0.121402055
1413 -0.005956113 0.03423054 0.03223796 -0.09308595 -0.086612225 0.039879825 0.065382175 0.0089137275 -0.1934074 0.07311784 0.044887204 -0.1553658 -0.19882552 0.21152826 0.18028583 0.16277868 -0.05477301 -0.0057640807 -0.093275234 0.054204907 0.05808517 0.19483598 -0.21615714 -0.21798506 -0.090875156 -0.035624053 0.06622382 -0.044612836 0.074049756 -0.023334589 0.04729449 0.011112533 0.013478465 -0.048038222 0.1250177 0.25137848 0.14512888 0.03380623 0.10423043 -0.0015967976 -0.1435431 0.03419772 0.026720114 0.047555067 0.03478154 -0.1828626 -0.032739054 0.0666161 -0.11160998 0.05432595 -0.059449174 -0.013476685 -0.062634915 0.01906686 -0.028694851 -0.056591492 0.13181022 -0.08184873 -0.06984438 0.1589688 -0.0201053 -0.10299029 0.1669849 -0.021074507 0.10174011 0.15830335 0.051849477 0.03680373 -0.06574134 0.17256206 -0.05683133 -0.007375612 0.031478077 -0.07935503 0.09132574 -0.14569406 -0.15004215 -0.0024815877 -0.055355623 0.15902539 -0.031008454 -0.14883244 0.08326635 0.029239116 0.10763459 -0.010921362 0.1155366 -0.03553852 0.13489144 -0.07266909 0.0331382 -0.073003255 -0.002697269 -0.011101791 0.09261149 0.09609507 0.064689524 0.018006265 -0.21729892 -0.124648646 -0.26575336 -0.092390485 0.15231463 -0.066404976 0.1404372 -0.0254329 -0.1744296 0.13519114 -0.00769756 -0.14364235 -0.091376774 -0.058575507 0.17615198 0.15149184 0.15369353 -0.16178408 -0.07310487 -0.13701123 -0.09044223 0.10817142 0.0009361796 -0.1270735 -0.043710865 0.040423185 -0.25928825 -0.010952649 -0.043536663 0.20843188
1238 -0.0722647 -0.15736097 0.04378944 -0.04025765 -0.07031794 -0.014001499 0.1835368 -0.062215175 -0.07411935 -0.0067950315 0.09966215 0.015082512 -0.19530363 0.14329709 0.19274786 0.25225943 -0.01905447 0.00081670965 -0.074925005 0.109054394 0.11779402 0.09057072 -0.04177247 -0.07710273 -0.04082279 0.12401884 0.021638006 -0.058998425 0.086345494 -0.089765124 -0.028556015 -0.114115685 0.029133555 0.069942854 0.07226967 0.27882606 0.11167005 0.083329156 0.01992455 -0.09315709 -0.18895121 0.076749064 0.10287208 0.051669747 -0.06283126 -0.23874445 0.0319875 0.15062952 -0.042745594 0.2004464 0.030944645 0.057786807 -0.09006698 0.004632327 -0.007958188 -0.003183461 0.10045605 -0.09493842 -0.030359235 0.04934954 -0.13639927 -0.14422008 0.08526319 -0.048570834 0.04859941 0.0797727 -0.010752899 0.064233884 -0.033657733 0.0100736385 -0.07124748 0.022526117 -0.09133313 -0.0040593175 0.0782982 -0.17725445 -0.10837319 -0.07133933 -0.15882602 0.20066075 -0.05148395 -0.17832386 0.048507575 0.17075826 0.080049984 -0.007564414 0.0763396 -0.1446547 0.08576407 -0.074936226 0.028333448 -0.047738552 0.0033139787 -0.11219267 0.22153513 -0.013397843 0.0500336 -0.04861695 -0.03611757 -0.040166568 -0.10395604 0.008926572 -0.024848042 0.047768023 0.16800937 -0.1504779 -0.08508355 0.16536936 -0.08004822 -0.044765625 0.036204346 -0.0087785125 0.13625222 0.086211406 0.08897625 -0.15075587 -0.040192574 -0.054282434 0.02213642 -0.045927428 0.08402269 -0.13405894 -0.07882304 0.15097895 -0.075752266 -0.13215229 0.0493539 0.11008053
1370 0.004303914 -0.04532503 0.04781852 0.019837953 -0.01095888 0.12090482 0.08344821 0.109949745 -0.047772095 0.05038724 0.053172767 -0.10662961 -0.21216844 0.14150223 0.2690339 0.20554914 0.07664636 -0.03642604 0.06451137 0.07147819 0.09996755 0.13076815 -0.05365513 0.016561378 0.02037659 -0.008605284 -0.023832355 0.038735118 0.1629894 0.021647187 -0.05707173 0.0050056227 0.04813084 -0.06987389 0.04179895 0.17113277 0.14729732 0.008242914 0.08157189 0.10589194 -0.205379 0.22351292 0.16973497 0.022599189 -0.06562582 -0.2009717 0.07003914 0.04706756 -0.087161586 0.04275851 -0.022302851 -0.0034270089 0.01918293 0.01993906 -0.04916807 -0.030333154 0.23161438 0.012680726 0.022539916 -0.010004792 -0.08510674 -0.10084197 0.12509792 -0.028658535 0.04203904 0.010453277 -0.023634227 0.07182584 -0.097209156 0.08521453 -0.10588547 0.11866853 -0.041957587 -0.04501202 0.14069021 -0.28844392 -0.045899365 -0.030841688 -0.043202523 0.12287404 0.036799654 -0.19565323 0.10125413 0.1679313 0.14522502 -0.010747335 0.042232253 -0.114261836 0.060243737 -0.13119864 -0.076260425 0.02122554 0.0076319077 -0.09067938 0.048544426 0.054585457 -0.012982927 0.06713467 -0.097879134 -0.010748822 -0.14010195 0.096983604 0.08202013 -0.084480666 0.21927716 -0.0487989 -0.050099265 0.19048677 0.053353403 -0.10925501 -0.096204415 -0.0611709 0.0010111596 0.15002769 0.06327925 -0.074566 -0.005422072 -0.086235486 0.11348017 0.15135135 -0.016747298 -0.00016935289 -0.12933218 0.05651145 -0.17860214 0.016510738 -0.030322531 0.0884643
1197 -0.044035662 -0.2147237 0.12868004 0.09397723 -0.072633184 -0.04382161 0.108041696 -0.1698419 -0.036770772 -0.08762861 0.07224709 0.05298765 -0.23107347 0.16548613 0.22110279 0.20940022 -0.028515276 -0.049404703 -0.19714315 0.14952806 0.09739307 0.1618442 0.0180594 -0.09774825 -0.16853224 0.026625507 0.015359091 0.10645437 0.07761895 0.010929025 -0.103656895 0.010184291 0.16448778 -0.11992138 0.054895326 0.16587922 0.15219678 -0.09070187 0.081739925 -0.07562279 -0.16714212 0.19546707 0.014787779 0.016651046 -0.03572612 -0.073975556 -0.033714402 0.15461944 -0.028352916 0.028093183 0.13121723 -0.0013620256 -0.035424314 -0.194661 -0.029320216 0.039093345 0.16108847 -0.17360783 -0.020376163 0.026175003 -0.097128704 -0.13677433 0.06846446 0.021538572 0.0076729595 0.072909705 0.011699173 0.051451456 -0.10521603 0.07397097 0.021144273 -0.03915388 -0.13342018 0.00367024 0.044438254 -0.15504846 -0.124114625 -0.0038557136 -0.14970234 0.044518374 0.022569766 -0.0050490135 0.08585724 0.078722514 0.16161025 0.13478974 -0.00938839 -0.08036282 0.01934104 -0.13546765 -0.09213195 -0.12222599 0.057335448 -0.08199282 0.07493496 0.06807823 0.055006117 0.09175892 -0.059536353 0.017467503 -0.07768794 -0.057156492 -0.07525793 -0.068520375 0.18267305 -0.05210167 -0.074670196 0.13832347 0.08695053 -0.08710965 0.14059706 0.063110285 0.09911448 0.087037355 -0.1357384 -0.15715994 -0.05600945 0.0063434737 -0.015963862 0.055265177 0.037133954 -0.11200664 -0.14095661 0.1397908 -0.11137991 0.096177906 -0.011078461 0.13238996
1199 -0.037656307 -0.07881195 0.024327533 -0.023542734 0.031176832 -0.034328353 0.17102216 0.09115332 -0.047763433 -0.10141526 -0.005316563 -0.08941687 -0.30246356 0.22577159 0.22385253 0.26493147 0.04379524 0.04742632 -0.15717815 -0.00022502134 0.030901894 0.06076721 0.08480434 0.007985608 -0.04589552 -0.09282175 -0.086393416 0.12256382 0.14637911 -0.09094142 -0.029695718 0.0060312296 0.06262769 -0.05337136 -0.037468106 0.118052825 0.1485415 0.05360497 -0.00013667373 -0.017434388 -0.113972455 0.23798399 0.04044949 0.0656349 -0.22094972 -0.21426208 0.09019975 0.0865593 -0.04026835 0.15866475 0.026257386 0.109242186 -0.030540321 0.06988596 0.024786707 0.012140317 0.23931764 -0.23455347 -0.11070439 -0.05946533 -0.020664256 -0.10312956 0.089110196 0.029810315 0.13395862 0.044545304 0.06967658 0.07019582 0.05094566 0.00880403 -0.075284205 0.069533646 0.056693055 0.011900001 0.030803388 -0.097750634 -0.09656373 -0.12470536 -0.20537663 0.10605288 -0.030248262 -0.18535578 -0.009501959 0.07271273 0.11710177 0.13491718 0.067276366 -0.1387124 -0.029641384 -0.20555493 -0.016978463 -0.05619866 0.037113883 -0.046356365 0.12565859 0.11878299 0.031735964 -0.0055278353 -0.053045128 0.07560648 0.032838363 0.009220178 0.14148492 -0.076438546 0.030513184 -0.19314805 -0.096788935 0.20552364 0.051549908 -0.12518768 0.18010019 0.06996649 -0.02670175 0.09826399 -0.07468782 -0.0433115 -0.13338646 -0.09606242 0.018001953 0.0513159 -0.017564142 -0.0028582287 -0.015705235 0.04958752 -0.21096522 0.037950702 0.015902333 0.14507131
1146 -0.065015234 -0.1533676 0.05611762 -0.06937666 0.011723292 0.013574644 0.138863 0.003061224 -0.055476215 0.030254986 0.06513113 -0.052232664 -0.109059155 0.16655852 0.22228701 0.31103748 -0.034492373 0.061086327 -0.06580577 0.12808079 0.07922703 0.20616181 -0.05114691 -0.037167888 -0.045078374 0.042204507 0.005073908 0.051692516 0.11917591 -0.057401937 -0.056492787 0.08004397 0.05659783 0.010529791 0.08550901 0.20099036 0.23958647 -0.112205595 0.12894589 -0.0566636 -0.23425658 0.06446232 0.0070603266 0.019915285 -0.05238022 -0.15063833 0.003641898 0.051515814 -0.072745554 0.12543172 0.04615964 0.005718521 0.045625724 -0.09679587 -0.00684487 -0.12648103 0.07018865 -0.1147423 0.12773637 0.042632718 -0.036126953 -0.075935945 0.15646544 -0.0057343836 -0.0047777067 0.073207736 0.0076238555 0.07346672 -0.016672947 0.062367566 0.007840519 0.016905995 -0.088248916 0.0013123138 0.0055541922 -0.15594034 -0.13601115 0.005962177 -0.18633384 0.14433753 -0.040013585 -0.05086263 0.03607213 0.090365335 0.10373003 0.017839072 0.04934165 -0.05953132 -0.08364311 -0.10092529 0.06458246 -0.14619373 -0.09257509 -0.117919326 0.17207046 0.10090262 -0.07491182 0.012739115 -0.099118285 -0.017380144 -0.083201066 -0.00641183 0.016957005 -0.00035561124 0.2457868 -0.065002665 -0.08031288 0.16057481 0.014360651 0.023405204 0.039696645 0.01255327 0.015869103 0.15135628 -0.10421225 -0.2554794 0.0072852867 0.027965516 -0.061105277 0.070649795 -0.027888373 -0.0077255135 -0.07511439 0.03716227 -0.15869825 0.019924143 -0.0035247968 0.10171936
1286 -0.045059863 -0.10418108 0.05736517 -0.06542256 0.030213386 -0.105647326 0.022397272 0.09676743 -0.122555606 0.036137708 0.079693265 -0.09320908 -0.10953894 0.2725292 0.23551036 0.2639314 -0.027175805 -0.08854922 -0.1360456 0.12338607 0.029406605 0.17492566 -0.12484362 0.024127094 0.048492175 0.15473334 0.02642804 0.013849848 0.15706377 -0.10065249 0.025476443 0.06261694 0.0030051062 -0.04515657 0.18184298 0.16475108 0.12406869 0.008624983 0.026129276 0.026182529 -0.20718977 0.22175665 0.017744932 0.03332073 0.036174063 -0.08958036 0.10902611 0.22970814 -0.06447631 0.1305854 -0.0076404177 -0.014806576 -0.03696044 -0.17154522 0.24732178 0.00989786 0.09713637 -0.123184286 0.026560823 0.012833565 -0.02811837 -0.15463485 0.14697047 -0.0042010406 0.027972855 0.030936603 0.07123135 0.09157887 -0.074501395 0.05635854 0.0096775135 -0.021630447 -0.064964235 -0.078597076 0.121021844 -0.12239201 -0.054251462 -0.060844738 -0.15209097 0.059481982 -0.1428301 -0.123659484 0.14814372 0.108883284 0.13564132 0.01360252 0.034116786 -0.092285745 0.038298402 -0.101212636 -0.084934756 -0.005875398 0.101400025 -0.10936965 0.03059843 0.12469891 0.11717483 0.020182688 -0.09401302 0.059556134 -0.12220775 0.029710948 -0.0068458873 -0.06936163 0.067948595 0.050535418 -0.13179053 0.21986482 -0.06943644 -0.017146407 -0.036010254 -0.07464415 0.08824664 0.13950455 -0.17510553 -0.21450536 -0.049841236 0.05880188 -0.05244077 -0.04060226 -0.0131332865 -0.0046618734 -0.1005297 0.0158587 -0.08787824 0.098521076 0.025149489 0.21196167
1128 -0.040373735 -0.02532738 0.019025728 -0.016811708 0.052521896 0.050530076 0.21314633 -0.12248655 -0.17061204 0.09930563 -0.053786904 -0.038003948 -0.14843608 0.22257428 0.24876426 0.20883478 -0.1384318 0.03413156 -0.15508802 0.053739987 0.0703552 0.19976647 -0.13009174 -0.024284398 -0.07865799 -0.11304553 0.04374112 0.033224426 0.1563639 -0.074044995 0.023801653 -0.042084686 0.038015418 -0.014795085 0.016463866 0.18057926 0.09571663 0.09828592 0.010038244 0.0963532 -0.27776897 0.12066651 0.10081186 0.01173661 -0.005059358 -0.094681576 0.14546129 0.05169169 -0.035008173 -0.0107889 0.016702509 -0.04680497 0.010291479 -0.0049805897 -0.0012962851 -0.03037145 0.20548542 -0.18316738 -0.014931754 0.028633984 -0.0006620925 -0.03516611 0.08308454 -0.035827678 0.121378854 -0.05114915 0.049293976 0.032135703 -0.09175761 0.050703075 -0.07601695 0.006129405 -0.12662801 0.045645658 0.058823805 -0.19377238 -0.07756964 -0.05587933 -0.13196525 0.071623914 0.07691452 -0.072644696 0.07653418 0.06944087 0.12168457 0.12014016 -0.017050428 -0.100534946 0.042050872 -0.18943778 -0.14859106 -0.01456177 0.07457939 0.007348414 0.08425117 0.09953412 0.1168165 -0.0025895315 -0.15594083 -0.043306638 -0.14162862 0.15328747 0.07596681 -0.1670632 0.2234989 -0.11165312 -0.027023403 0.106019124 -0.00038445124 -0.105313815 -0.002805178 -0.0009857743 -0.008558129 0.006652746 0.01573637 -0.17051461 -0.11034391 -0.019501407 0.008838869 0.03967931 0.0475806 -0.016979976 -0.0410811 0.041184183 -0.18281509 -0.04153565 -0.04554479 -0.016816491
1144 -0.043129284 -0.07779792 0.06095277 -0.070573166 0.060976576 -0.04005231 0.13927308 0.036343858 -0.049074795 0.053999748 0.112676665 -0.014543168 -0.1521478 0.21159206 0.24164991 0.2609724 0.03653629 -0.017418245 -0.23124887 0.1343312 0.07290276 0.046476547 -0.061326664 -0.060074013 0.014053006 0.12733765 0.046356387 0.06971553 0.08331325 -0.115015216 -0.071071275 -0.06996931 -0.017739378 -0.074929655 0.044496283 0.14814761 0.1161708 -0.015540035 -0.016765708 0.023804763 -0.18316154 0.21465099 0.05004963 0.06965398 0.01679771 -0.14218752 0.09402105 0.050541557 -0.08507035 0.028579613 0.0017936616 0.046341714 -0.008750198 -0.03887873 -0.02479524 -0.068314694 0.16854312 -0.10907466 0.0045308485 0.10338256 -0.025573032 -0.006495923 0.12854667 -0.019055026 0.09442495 0.04001351 0.05849193 0.10275175 -0.061516594 0.09411672 -0.013508419 -0.060155433 -0.016933594 -0.057891928 0.026810687 -0.24091297 -0.09847783 -0.06994366 -0.16480178 0.12195504 -0.10828402 -0.17090368 0.012178471 0.025072958 0.07125141 0.010779555 0.0011605533 -0.09460783 0.06028416 -0.1423829 0.036727294 -0.097489394 0.05616434 -0.093154825 0.015004341 0.12406903 0.0718179 0.09837609 -0.09922441 -0.03946586 -0.14532848 0.09205588 0.10239492 -0.0917843 0.20686528 -0.041351635 -0.092020825 0.14357051 -0.07272311 -0.08438776 0.06616861 0.020280035 0.03536896 0.16674542 -0.028053349 -0.06710232 -0.06188949 -0.0019949712 -0.0959538 -0.036780372 -0.016760753 -0.11052557 -0.059135158 0.09048991 -0.065505534 0.051174764 0.091126725 0.11932882
1352 -0.024591627 -0.11662335 -0.021454763 0.0062061767 -0.02771603 0.035566688 0.10987052 -0.036710776 -0.14278148 0.005124586 0.12903306 -0.016113333 -0.17105658 0.09556655 0.24054396 0.18940689 -0.06892017 -0.03904944 -0.10264007 0.14024226 -0.045028407 0.1913959 0.094342954 0.02939025 -0.03187373 0.04949632 -0.03856741 0.08808407 0.03444779 -0.1526171 -0.04673918 -0.05806532 0.052297764 0.0063909055 -0.0019692285 0.17633466 0.17353974 -0.038303643 0.04418999 0.014629724 -0.3034222 0.15435402 0.14886414 0.10981609 0.064632915 -0.23916392 -0.06403419 0.04486683 -0.053456966 0.14596324 -0.07113617 -0.008214884 0.0008874054 -0.06725971 0.037458476 0.036566924 0.13835046 -0.14410336 -0.12525022 0.06085379 0.044168662 -0.1104525 0.16383183 0.019047737 0.12432099 0.011697989 0.066140905 0.11642803 -0.008545045 0.077727966 -0.03287956 -0.038562424 -0.081238806 0.00070147996 0.0026341903 -0.19300556 -0.12717494 -0.07444389 -0.24343449 0.21819836 -0.021487094 -0.017271422 0.1544702 -0.00055969047 0.10828845 0.04281418 -0.07815502 -0.02833189 -0.0051626433 -0.099829584 0.015543855 -0.057268426 -0.07714425 -0.030047998 0.086936206 0.10471523 -0.06162636 -0.03791588 -0.17559008 0.016651144 -0.019277241 0.06813982 -0.008039919 -0.20832336 0.19890419 -0.0686937 -0.11875083 0.19003265 -0.08434369 -0.07189153 -0.04523263 -0.1061539 -0.1056335 -0.053366818 -0.04143867 -0.09904781 0.021594817 0.024922306 0.1350403 0.008426688 -0.029294351 -0.042908777 0.052541714 0.13257273 -0.21511151 -0.06701009 -0.04729772 0.14459546
1348 0.061995782 -0.08438064 0.13277781 0.23540206 -0.022755941 0.060118873 0.21858467 0.042363916 -0.024835737 -0.00890982 -0.11014117 -0.047614567 -0.24270509 0.089340396 0.21211606 -0.06600426 -0.06947341 -0.0766794 -0.07624783 0.0072590616 0.20961379 0.07181155 -0.10792966 -0.07391223 -0.17560624 -0.06841654 0.076346874 0.024968823 0.014340297 -0.024182225 0.06162146 -0.047372192 0.03954121 0.0065026847 -0.06362493 0.19209513 0.22590733 -0.2167001 0.030046958 0.04943629 -0.2874676 0.33418208 -0.05882704 -0.019757645 0.085095055 -0.13789485 -0.0693186 0.1702312 -0.067052886 0.11698484 -0.058072377 -0.16205972 0.11594537 -0.17044741 0.013759725 -0.12114856 0.12408415 -0.21196564 0.070361085 -0.020418577 0.1252597 -0.14691383 -0.064271286 -0.12636065 0.08443831 0.15966842 -0.03345187 -0.09981209 0.07852435 0.01770844 0.018947514 -0.047915097 -0.23038942 0.13455997 0.094700344 -0.20223404 -0.13113743 -0.041069545 -0.023581918 -0.08666058 0.10037938 0.13795052 0.31501812 0.15942815 0.1737697 -0.03216646 0.028373105 0.028473075 0.17141332 -0.25271186 0.08061885 -0.19268556 -0.006384912 -0.2957734 0.14713833 0.0115557695 -0.003183289 0.08347763 -0.1799978 0.12585838 -0.24149722 -0.08893322 0.097421944 -0.20418274 0.017979186 0.012332774 -0.07116844 0.20196798 -0.10698026 0.022930916 -0.077288665 -0.011875483 0.01850451 -0.07252474 0.04630963 -0.024288762 -0.16656066 -0.114906065 -0.077996135 0.017124856 -0.08551768 -0.07121656 -0.098423354 0.1082863 -0.14007825 -0.16913822 0.04701612 0.21686137
1167 0.040063653 -0.18488574 0.050230633 -0.10120634 0.02482665 0.0071567 0.047385074 -0.011125955 0.018219374 -0.0458814 -0.0031922553 -0.08996877 -0.16209386 0.23952949 0.215101 0.17864491 -0.093899034 -0.008208972 -0.114169516 0.18535274 0.037080873 0.16496849 -0.03905662 -0.08603734 0.026037885 0.016782442 -0.019083664 0.009795912 0.06865534 -0.061005693 0.012154741 -0.044584446 -0.031280436 0.10432247 0.09267116 0.12900823 0.15605725 -0.003868821 0.015077018 0.0035653852 -0.18046589 0.10600712 0.060493894 -0.023470353 -0.051347435 -0.24039575 0.11554674 0.12815559 0.0030440236 0.11049747 -0.042892143 0.02099442 0.01193509 0.0030019872 0.007435592 -0.002943455 0.19744977 -0.08607121 -0.0897812 0.0037155794 -0.0019325282 -0.09467078 0.18677576 -0.010370858 0.09750811 0.08067753 -0.012342992 0.06173689 -0.034463465 0.05584153 0.009274043 0.017716981 -0.10093807 -0.0959839 0.12043983 -0.14580159 -0.146544 -0.058112517 -0.14497082 0.13352697 -0.0027221318 -0.11778578 0.06369259 0.06759454 0.20528932 0.09544649 -0.04241928 -0.085095115 0.12605894 -0.09986583 -0.044065624 -0.090773545 -0.079564944 -0.06927211 0.17723823 0.16930534 -0.020807076 0.036109544 -0.1412881 0.019657727 -0.008491009 0.089686215 0.060156375 -0.14553656 0.05998154 -0.08582726 -0.0875295 0.27604422 -0.02203814 -0.022690311 0.081494235 -0.017630063 0.01379644 0.10937294 -0.09290721 -0.031094009 -0.059734147 -0.06580179 0.01967322 0.037127323 -0.09462029 0.009658642 -0.15246738 0.06548927 -0.16779241 0.069032006 -0.0035579992 0.12587956
1390 -0.003330319 -0.09091634 0.06815656 0.031974096 -0.11688312 0.11208145 0.08482947 -0.06561287 -0.09419843 0.08953016 -0.016130146 -0.14767048 -0.17760412 0.15720823 0.26173902 0.18997753 0.0015565869 -0.07185285 -0.060926765 0.095453516 0.10507607 0.1900762 -0.032240637 -0.09051639 -0.06520008 0.03480043 0.085603885 0.03499937 0.019648205 -0.0383445 0.0006479985 -0.070508346 0.08434879 -0.0058858767 0.049857482 0.101140946 0.14585678 0.046496656 0.15912545 0.005529735 -0.24681136 0.23950063 0.105174944 -0.074546486 -0.029010423 -0.16600621 -0.033482894 -0.055570964 -0.09026694 -0.019728478 0.08063109 0.14894241 -0.07127727 -0.065211706 0.049178272 -0.019365294 0.07164457 -0.14604339 0.012709068 -0.00022401605 -0.027716825 -0.076821886 0.035374165 -0.06020601 0.12054875 0.120807506 0.010520793 0.0071726143 -0.13819547 0.12817891 0.047775067 -0.0122086415 -0.042689994 -0.16415435 0.024012813 -0.2618704 -0.10516236 -0.15847832 -0.1720896 0.10379387 -0.05741376 -0.08387511 0.088957995 0.011452243 0.20291442 0.057379905 -0.06417774 -0.079185024 0.05321266 -0.03044509 0.055806354 -0.099701166 0.14220667 -0.1502892 0.17403194 0.06674807 -0.13570914 0.02110199 -0.11840828 -0.03336871 -0.2328816 0.13719822 -0.0023069337 -0.034041587 0.20518906 -0.06140792 -0.106756814 0.21903764 0.0272023 -0.16954808 0.008237063 -0.049757916 -0.02773172 0.09518238 -0.010024153 -0.10259127 -0.06471109 0.025002636 0.036955502 0.059672337 -0.050805744 -0.120865986 0.0039243684 0.048097942 -0.084364355 0.110791735 0.0132538965 0.06473688
1273 -0.09348836 -0.13931622 -0.00076304167 -0.05500282 0.021921538 0.027413787 0.22158885 0.03522675 -0.16076186 -0.042241354 0.13255003 0.007695834 -0.22553115 0.25743458 0.23601441 0.16128598 -0.040814728 -0.043715443 -0.13409694 0.23918098 0.1470931 0.12715209 -0.061433148 -0.07237242 0.01247829 -0.061050784 0.02554421 0.033851076 0.09690221 -0.09491867 -0.075113975 0.052397713 0.084087804 0.111706905 0.002438185 0.2261344 0.19338053 0.008178666 -0.014159372 -0.026768936 -0.23770507 0.11971053 0.07825 0.019520875 -0.045528658 -0.21600209 -0.0027027174 0.015300892 0.06338217 0.04742194 -0.01692345 -0.027093759 -0.042298704 -0.08519775 0.06308848 0.054141346 0.07895675 -0.12772013 -0.0011027672 -0.00045265869 -0.019578718 -0.057221048 0.08928605 -0.07357133 0.07474802 -0.07096914 0.10862786 0.10942869 -0.052455362 0.0459453 -0.066934235 -0.0124312835 -0.15478523 0.045397297 0.064084195 -0.1913405 -0.26906618 0.023042733 -0.20417626 0.12588567 0.03236972 -0.07660376 0.13717642 0.07384229 0.042640403 0.03222239 -0.07138034 -0.15967551 -0.05928319 -0.083547056 -0.059235323 0.00916254 0.031585556 -0.002854341 0.08571639 0.14264852 -0.11969266 -0.08490585 -0.14505595 -0.09816137 -0.1503105 0.067917325 0.06779395 -0.16919598 0.21749416 -0.03466131 -0.16809088 0.0995936 0.05873601 -0.03046811 -0.10758552 -0.020354182 -0.04844599 0.03872637 0.08186827 -0.036837477 0.025073418 -0.037723884 0.03212607 0.031097313 -0.046813406 0.004456301 -0.18718454 0.094029285 -0.09898759 0.02358154 0.013072328 0.013182661
1367 0.019543817 -0.08979408 -0.012717855 -0.1464527 0.0022310645 0.10769497 0.09197259 0.023211058 -0.13241962 -0.01419068 0.04227837 -0.06296915 -0.08848312 0.18950252 0.34880152 0.23136829 -0.0031993694 -0.0554904 -0.082492225 0.04852701 0.0388618 0.091044895 -0.14667481 -0.09457265 -0.06464545 0.028236391 0.049518805 0.0025158387 0.0908776 -0.025372257 -0.082794026 -0.019823415 -0.051103637 -0.064171 0.067396335 0.16968763 0.13558866 -0.03356517 0.029693795 0.011960446 -0.26471588 0.12840341 0.06941643 0.030525524 0.10443492 -0.13963251 0.06851289 0.05491087 -0.03893349 0.013364613 0.01006303 -0.10972846 0.00422931 -0.24700122 0.06251707 -0.008544097 0.19163917 -0.1185969 -0.03701406 0.04074425 0.07819017 -0.11876213 0.116636105 0.063704036 -0.03798901 -0.0030996834 0.047067717 0.06758024 0.04528853 0.19405332 0.0035124512 -0.073791444 -0.03149544 -0.06170445 0.13344817 -0.23469523 -0.0812773 -0.027759265 -0.20255695 0.12759164 -0.15188079 -0.008298161 0.03348959 0.13977344 0.12522154 0.055964004 -0.029786041 -0.098127775 0.08928559 0.0012185146 0.006311599 -0.09276934 0.04227029 -0.0006430411 0.10600607 0.02919213 0.010225576 0.03398467 -0.18128432 0.0012656683 -0.11690923 0.02893788 -0.056016393 -0.14636938 0.19209123 0.022856642 0.009832404 0.20507295 -0.02339511 0.022369169 0.012628478 0.008700143 -0.053770013 0.141523 0.0504252 -0.119121745 -0.014381061 -0.006212212 0.033636108 0.10029358 -0.09840964 0.00025667337 -0.12955485 0.05725937 -0.21489982 0.09394219 -0.018123047 0.13443309
1147 -0.07829713 -0.092843756 0.08755325 -0.03877199 0.12737927 -0.023732768 0.12924783 0.037219666 -0.054593258 0.067218356 -0.0009565638 -0.116109736 -0.17735185 0.13974063 0.35939255 0.20913838 0.04693801 -0.08194496 -0.13444191 -0.06290511 0.060760822 0.21848232 -0.0770237 -0.22492895 -0.08105404 -0.02172415 -0.027592896 -0.075355 0.1868507 -0.046674248 0.08064943 -0.030727532 0.04818904 -0.09080084 0.13713954 0.06252074 0.14043051 0.0024371722 0.0046790736 0.05799617 -0.24573894 0.20822665 0.079337515 0.058931362 0.024055328 -0.12717326 0.057141185 0.19362518 -0.11960266 0.13367563 0.08840501 -0.13824126 0.0035182321 -0.09288594 0.056409054 -0.008390181 0.17388369 -0.07447259 -0.052077133 -0.023306474 -0.120619155 -0.08854635 0.11243206 -0.119538926 0.1599327 0.01997057 -0.004418331 -0.006248069 0.06689683 0.15467212 -0.12864147 -0.060763106 0.00035680397 -0.11896343 -0.11454636 -0.1971429 -0.023909884 -0.056922637 -0.16103588 0.13742477 -0.059723888 -0.11228821 0.0817303 -0.029927516 0.04835691 -0.026005536 -0.009285665 -0.10361001 0.04412697 -0.04491583 -0.02235452 0.011107751 -0.027398668 -0.109184526 0.10751523 0.012628155 0.06175992 0.004070365 -0.06965501 -0.01943016 -0.10023 0.037893884 0.040343132 -0.04763938 0.2113668 -0.21481735 -0.040688973 0.14052472 0.04762632 -0.07538895 0.017123334 0.10101371 0.09754753 0.027653223 0.023103878 -0.112721086 -0.03797872 0.048044667 0.09675228 -0.009006663 -0.060892235 0.030013775 -0.15507437 0.058602978 -0.12121442 0.105002195 -0.09813364 0.16512084
1323 -0.023296764 -0.055964142 0.06376495 0.13859293 -0.0017985872 -0.0036763335 0.16615131 -0.10177256 -0.09464541 0.08970084 0.0939545 -0.061417896 -0.011152727 0.16149974 0.14626662 0.34609482 0.017614622 0.014731379 -0.08040203 0.080099136 0.19152842 0.24646834 -0.090607196 -0.019271888 -0.08907597 0.089632526 -0.036023844 0.044971474 0.2711762 -0.05633683 -0.08088948 0.0013758375 -0.06182593 -0.08414566 0.2153412 0.21043168 0.24005078 0.015797619 -0.052498035 0.062204696 -0.21636528 0.19112848 -0.056805525 -0.055951674 0.101474635 -0.1065321 -0.08524496 -0.00095773145 -0.04466367 0.057663597 0.1514641 -0.05114143 -0.027587792 -0.058182348 -0.12415705 0.14581007 0.12125755 -0.018683856 -0.031011665 -0.04631024 0.049413208 -0.118154824 0.060660936 -0.019479949 0.12944706 -0.0016895748 0.059279688 -0.011943874 0.0731203 -0.10713055 -0.04735691 0.1039928 -0.24685532 -0.05566344 0.048622105 -0.12256437 -0.2343547 0.0039318427 -0.040522333 0.108332686 -0.030040788 -0.15518382 0.21874966 0.013297702 0.1160274 -0.047057245 0.09196396 -0.001999478 0.04028985 -0.1537652 -0.037764024 -0.13014714 -0.10956701 -0.0152377775 0.24577886 0.20550857 -0.10677614 0.11323999 -0.039646853 0.06912901 -0.04635231 0.014604426 -0.067123786 -0.02698366 0.23633243 -0.0034344606 -0.20543967 0.07474375 -0.02462197 0.009038223 0.13000824 -0.18502054 0.1054763 0.08159689 -0.078935176 0.12412179 -0.015150226 -0.07013495 0.05764439 0.0098603405 -0.10862049 0.053084135 -0.22487152 0.16406249 -0.1360822 -0.22537675 0.043902963 0.027342835
1368 0.027920248 -0.04634455 -0.03567043 -0.038263675 -0.045950826 0.036614496 0.03474343 0.01994246 -0.100572355 0.024786144 0.074629575 -0.04862851 -0.19346394 0.11830842 0.217322 0.120914586 -0.070037745 -0.037747666 0.046455983 0.13398443 0.013349977 0.12553862 -0.15585478 -0.12021088 0.004870602 0.022078006 -0.053063523 0.0931493 0.17949983 -0.1494539 -0.08520098 0.027719 -0.004651498 0.055849336 0.010883048 0.2624903 0.1339789 -0.090769954 0.01966888 0.10349366 -0.2422125 0.17807145 0.05515786 -0.042189375 -0.081791915 -0.1723694 -0.006611396 0.19839391 -0.010212879 -0.014781365 -0.013479657 0.047425784 0.017362522 -0.13918431 0.002657836 -0.097143635 0.035201732 -0.13824014 -0.024409778 -0.06384515 -0.10203822 -0.100900196 0.111705825 -0.031604905 0.14875333 0.0028789681 0.018070556 0.16045885 -0.25057924 0.08285106 -0.087625444 0.048390888 -0.016065 -0.03231837 -0.023762532 -0.2175263 -0.10574531 -0.03931195 -0.13220279 0.114737876 -0.090185575 -0.15180385 0.09851473 0.08881085 0.10556945 -0.055339415 -0.05732162 -0.08225325 -0.0039820643 -0.12084378 0.03334366 -0.08462307 0.016071271 -0.16501895 0.04156792 0.15640171 -0.073371366 0.1515344 -0.046474744 0.0732363 -0.0715101 0.025252743 0.111316346 0.05944882 0.24407473 -0.15535183 -0.11116197 0.13609281 0.10730739 0.0010598453 -0.010955852 -0.031884305 0.02448263 0.13790476 -0.07917092 -0.03785074 -0.09835036 -0.073572665 -0.0034780202 -0.023151105 -0.024704617 -0.023336314 -0.08846902 0.15786512 -0.12102777 -0.1663488 0.07348052 0.12234096
1356 0.010959324 -0.08291267 -0.15195683 -0.12588762 0.039948735 -0.05241801 0.11094044 0.06952967 -0.10644174 -0.04644487 -0.026691372 -0.076320335 -0.15694788 0.23528206 0.26567408 0.33947116 -0.0706628 -0.11025651 -0.13990004 0.1464195 0.008298761 0.07371482 0.043120198 -0.09851924 0.07578821 0.20619042 -0.057103287 0.005874269 0.10969579 -0.016151201 0.043557756 -0.047896884 0.15233615 0.014544907 -0.007868451 0.22368988 0.12612663 -0.04580786 0.010852879 0.036592137 -0.34851587 0.15244226 0.12463676 0.048402295 -0.007907446 -0.023318416 0.058952726 0.120898984 -0.11785307 0.05533641 -0.016757902 -0.01062298 -0.08892656 -0.116519794 0.019674618 0.004929525 0.07599103 -0.13651527 -0.11672307 0.08467309 0.04245692 -0.13927628 0.13932954 -0.12630896 0.026273577 0.13286904 -0.06904762 0.06738136 -0.030309174 0.05220363 -0.15932767 -0.06008246 -0.03863648 -0.11269169 0.04131639 -0.088046715 0.024804784 0.12838691 -0.06136025 0.13692304 -0.05087554 0.025828779 0.0924933 0.18700731 0.108446516 0.040321272 0.071332924 -0.05606479 0.1403449 -0.11269475 -0.01773883 -0.093460865 -0.122845605 -0.09256058 0.033025503 0.123351455 0.016681826 0.050898865 -0.13104577 0.08480256 -0.04738196 -0.04890544 0.047828212 -0.019984186 0.14284208 -0.1278812 -0.067133285 0.17951126 -0.08488353 -0.14164501 0.0003925491 -0.17344417 0.060847316 0.022798032 1.8781187e-05 -0.16390994 -0.11075545 -0.042301584 0.082428895 0.0043982575 -0.11016402 -0.015192194 -0.02816857 0.12551546 -0.10927367 0.0044478592 -0.09287273 0.22229825
1406 -0.16466609 -0.044701867 0.14759287 0.120432094 -0.1148908 -0.012801245 0.15971981 0.21638158 0.043625824 0.08640218 -0.0089239115 -0.2304189 -0.14382298 0.23311843 0.06934896 0.11075018 -0.036736626 -0.07654908 -0.121191986 0.18802966 0.056199502 0.09110348 -0.16640963 -0.08178226 -0.09141259 -0.001000416 -0.04560498 -0.0070105284 0.16064599 -0.03764298 -0.017856179 -0.0073545077 0.05639107 -0.20941852 0.059069004 0.11470454 0.05497825 -0.034405846 0.057487357 0.07277447 -0.24759038 0.26852667 0.09394708 0.09206325 0.17091316 -0.13266866 0.11351993 -0.04675041 -0.14640974 0.015246396 -0.16173932 -0.05467255 0.13159512 0.12190278 0.10644305 -0.072507836 0.2586695 -0.21732369 -0.09175479 0.010392901 0.06316085 0.036226574 -0.02860132 -0.045029607 0.12195548 -0.033962265 0.16136576 0.11145505 -0.07881636 0.010949356 -0.27536088 -0.03494389 -0.036885947 -0.035349607 0.093793616 -0.20206502 0.0045031365 0.044546705 -0.006183527 0.078538366 -0.007736753 0.0437228 0.04730101 0.08183397 0.12209565 0.24797577 0.07729849 -0.10321556 -0.010076906 0.066659294 -0.080747 -0.0136368275 -0.029659439 -0.020964213 -0.02154492 0.091702595 0.12157974 0.12080528 -0.11819542 0.20910539 -0.12627238 0.16789398 -0.04373894 -0.09761539 0.14640558 0.21377958 -0.15827002 0.392166 -0.21521561 0.002195614 0.02907534 -0.15992397 -0.26634356 0.14899132 -0.096779525 0.0912423 0.22763382 -0.11685923 -0.06676656 0.04822838 -0.062339175 0.115923434 -0.035695985 0.19334331 -0.047585964 -0.0018049424 0.19101603 0.040291317
1259 0.015386979 -0.029137515 -0.021473551 -0.08351866 0.013546087 -0.043650918 0.16700214 -0.06614338 -0.026732327 0.007129141 0.110439725 -0.0997532 -0.22093055 0.13365626 0.2079559 0.17112382 -0.13487555 -0.087174945 -0.0393444 0.12881322 0.051700044 0.009553884 -0.027082544 -0.13701016 -0.16593784 0.011479339 0.09012828 -0.013859514 0.10696478 -0.039424304 -0.15000296 -0.032873206 0.057614982 0.036150526 0.0028084575 0.2290294 0.17411362 -0.019755479 0.021873899 -0.03693497 -0.15110989 0.20327705 0.1459109 -0.053364232 -0.03383187 -0.1939287 0.16635688 0.057451855 -0.09130422 0.1062918 -0.09403291 0.045339983 0.023971738 -0.026958125 -0.02901899 -0.08151798 0.12767603 -0.13073243 -0.1751368 -0.08200788 -0.079577185 -0.06427292 0.1122236 0.095770225 0.04984958 0.034162708 0.06816449 0.012273717 -0.13044955 0.15964723 0.07336586 -0.05967372 -0.026153004 0.0106880125 0.09620221 -0.20866582 -0.17185447 0.0011620263 -0.094644286 0.09825434 0.028306147 -0.16460696 -0.015023943 0.11045929 0.06789138 -0.15784344 -0.04390698 -0.12373674 0.10125205 0.026274422 0.1089443 -0.11233527 0.0518321 -0.11394244 0.17093381 0.043363523 0.046219062 0.002182764 -0.20579955 -0.049038343 -0.13647135 -0.03103219 0.004618417 -0.06344172 0.037197266 -0.13851166 -0.17903216 0.16045469 0.0018553972 -0.18927993 0.10243893 0.0032309156 0.10574839 0.103820436 -0.0316623 -0.049694803 0.00033538553 -0.025730046 0.06616876 -0.069054216 -0.11597721 -0.019276038 -0.1374181 0.21290585 -0.111060195 -0.059175998 0.043420807 0.086567745
1283 -0.05885219 -0.022906847 0.34594944 0.08019195 -0.011356628 0.045219827 0.054947596 -0.037656453 0.04501347 0.19598226 0.11819976 -0.24844672 0.06081314 -0.01132739 0.1728412 0.14781632 -0.23879601 -0.045143858 -0.043485172 -0.0038635202 -0.05970162 0.09105807 -0.06739116 0.062282 -0.2829771 0.07001457 0.007291606 -0.01462176 -0.060296033 -0.1985332 0.028151233 0.09773088 0.068822466 -0.0331095 0.046760704 0.18080823 0.04900491 -0.13241403 -0.10057558 0.1152527 -0.25239095 0.23450051 0.026440652 -0.009634384 -0.1124959 -0.19772321 0.04696306 0.008316221 -0.0051867706 0.043449096 -0.17551975 0.017510083 -0.2414744 -0.08779158 0.029482376 -0.26612583 0.30297634 -0.27290484 -0.085584775 -0.06811085 -0.11016995 0.13885035 0.0781937 0.06722219 0.055886567 -0.15575102 0.013663406 -0.089300066 -0.19219798 -0.07677706 -0.17841813 -0.029698145 -0.15217915 -0.045922644 0.010365607 -0.20151897 -0.107437305 -0.048509136 -0.17581801 0.32214373 -0.060422447 -0.11487171 -0.11769324 0.06206549 0.10707722 -0.09833878 0.038015828 0.08367595 -0.06593686 0.037270367 -0.011207084 -0.12663941 0.020740867 0.006184489 0.038851477 -0.062710926 0.033644263 0.035270363 0.045639098 -0.02886299 -0.22589047 -0.08690656 -0.0001772693 0.20534846 0.13814665 0.073279336 -0.012976726 0.106742784 -0.016774394 -0.02501572 0.1174519 -0.0702639 0.073183365 0.14856775 -0.085890174 -0.053072244 -0.119171284 0.0685876 -0.060542837 0.15869914 -0.113701105 -0.31631702 -0.11026239 0.062180523 -0.031658825 0.073989585 -0.063970685 0.10922179
1277 0.027061181 -0.1422379 0.053202998 -0.05436908 0.034562882 0.054021686 0.10327192 0.06651273 -0.061603867 0.13979429 0.07706995 -0.0723331 -0.05405042 0.16826144 0.22991501 0.30935264 -0.033373 -0.05545463 -0.033370417 0.11879761 0.10326887 0.15110262 0.009262593 -0.06581497 0.034669664 0.10390682 -0.0003295254 0.10323834 0.0782486 -0.21112701 0.1141073 -0.00824133 0.05067598 -0.03163027 0.19649966 0.21710233 0.22855665 -0.035974298 0.029313957 -0.04465275 -0.17404984 0.17754933 0.21193543 -0.021827832 0.1281053 -0.20671818 0.11580672 0.10184888 -0.15530877 0.119386196 -0.017564246 -0.008446835 -0.07727345 0.021956198 -0.00062742835 -0.09716678 -0.019783752 -0.08297662 -0.005495807 0.050500616 -0.15860339 0.0019886491 0.073106624 -0.04561965 -0.032073397 -0.05599932 0.07639441 0.112394385 -0.08990941 0.18993787 -0.058485787 -0.0034474635 -0.04604229 0.006340615 0.013585925 -0.11502839 -0.23100173 -0.06781106 -0.20766373 0.1807726 0.09375294 -0.053807024 -0.04430351 0.17052005 0.050090108 0.059484906 -0.030064503 -0.04798208 -0.088968895 -0.076922745 -0.087602 -0.004569476 0.038172677 -0.03399773 0.11461773 0.041179806 0.0056182267 0.04236977 -0.028472554 -0.06137357 -0.042151492 0.040684335 0.030812176 -0.054968987 0.14446762 -0.07381309 -0.024542496 0.18478326 -0.009586058 -0.08756359 0.17600878 -0.024302792 0.02294749 0.13438323 -0.09324478 -0.00079697004 -0.10815639 -0.073459074 -0.016026529 -0.050245862 0.0076743644 -0.02408469 0.114466414 0.081531785 -0.18658666 0.016230823 -0.030545194 0.29810843
1189 0.02255386 -0.083912976 0.054869406 0.050587907 0.08831687 0.09211359 0.1294661 0.1133264 -0.0121742785 0.12318854 -0.027166255 -0.06041496 -0.015172359 0.21997675 0.19903803 0.13360597 -0.14245883 -0.14560246 -0.09527583 -0.045145024 0.15686557 0.19244538 -0.05537158 -0.07138852 -0.027396444 -0.05928488 -0.007953321 0.07759194 0.09069375 0.022141907 -0.04435244 0.029442312 0.09777682 -0.04720318 0.09291002 0.14799558 0.13468166 -0.04786402 0.13791762 -0.0679921 -0.22337225 0.11996627 0.014106369 0.10339362 -0.028085371 -0.22653614 0.10692121 0.10658219 0.05063547 0.08140612 0.047116186 0.059012007 -0.07605189 -0.068085745 -0.07522907 -0.009860938 0.087416396 -0.19560915 -0.07429397 0.10641397 0.12848216 -0.038407225 0.059759904 0.03823317 0.061683275 0.04590427 -0.0046995915 0.15568118 0.00862672 0.059359457 -0.03694237 0.027192656 -0.19125226 0.04486166 0.20386054 -0.2080558 -0.06449951 0.12128731 -0.08752655 0.16359937 -0.06833726 -0.027693098 -0.03516016 0.15653722 0.07603397 0.066945545 -0.13648023 -0.02985883 -0.03371421 -0.15545616 -0.052626066 -0.119156614 0.0526056 -0.25035357 0.1675052 0.10922717 0.061447386 0.11709574 -0.032440003 -0.027774476 -0.14949529 0.07599079 0.03006201 -0.042928997 0.22118604 -0.04567557 -0.05610551 0.16709131 0.017658133 -0.20308489 -0.0073045664 0.17961682 -0.003219007 0.1142438 -0.01545782 -0.014831608 -0.16667962 -0.07179161 -0.1897921 0.1039364 -0.06707579 -0.117654406 -0.21964116 0.029899225 -0.068303704 0.097136565 0.17856446 0.04633143
1085 0.02097838 -0.09058933 0.018895501 -0.02119833 0.0118332235 -0.027452543 0.15028542 -0.017507587 -0.070714466 0.051411193 0.097440235 -0.0136634465 -0.15546563 0.028767522 0.26196975 0.24489689 0.07241724 -0.06653994 -0.15278563 -0.041305084 0.003965967 0.2048364 -0.019725638 -0.12332798 -0.117201425 0.0013752413 0.009948773 0.020430919 0.12641399 0.08945587 -0.13983305 -0.107789315 0.052526895 0.034216646 0.11119943 0.11287575 0.11508854 -0.100863636 0.022927245 -0.01048359 -0.20106089 0.24648674 0.09013839 -0.054492574 0.19091262 -0.031735465 0.16594228 -0.068088464 0.015301174 0.117417745 -0.02021248 0.06619355 -0.089237005 -0.011449578 0.015250236 0.009981749 0.17398143 -0.23306598 -0.07730627 -0.09378704 -0.19181174 -0.10249073 0.088957176 -0.0666618 0.086234055 -0.021348251 0.020534528 0.07110255 -0.22137998 0.06123086 -0.08363795 7.293666e-05 -0.0749491 -0.02764369 0.06548561 -0.2300568 -0.077394634 -0.07492675 -0.12666053 -0.01565804 -0.075576134 -0.14101538 0.090191334 0.06805764 0.14860271 -0.03785639 -0.1779367 -0.05201329 0.09052502 -0.18415798 0.045324467 -0.1236589 0.07797799 0.033185497 0.17944033 0.07346772 -0.047481712 0.10289572 -0.16648431 -0.03760998 -0.15877001 0.03544592 -0.050637 -0.13148282 0.15120606 -0.08372899 -0.03948673 0.1495291 -0.064395 -0.14489657 0.024259418 0.04711965 0.01883276 0.097346224 0.020703392 -0.12666851 -0.016966883 -0.04428655 -0.0725355 0.024589496 -0.074645974 0.004141698 0.008646391 0.13301054 -0.15787469 0.0020316134 0.08444654 0.13489401
1249 0.018309407 -0.121448435 -0.006844329 -0.052182153 0.06934086 0.07184468 0.11147493 -0.09348378 0.028082242 0.08201475 0.03184474 0.08263524 -0.21294732 0.25015578 0.20424914 0.13174328 0.0007034205 -0.009179327 -0.12153217 0.1981457 0.22311662 0.04881739 0.07351386 -0.18250188 -0.061922975 -0.066727124 0.0013127564 -0.05491844 0.060825482 -0.17719293 -0.018316668 -0.021957006 -0.039526705 -0.09422497 0.14865004 0.12684125 0.22703016 0.023767622 0.11367824 0.01894962 -0.26334256 0.03911039 0.1562071 0.0039634597 -0.094738595 -0.053390276 0.040062543 -0.0068184747 -0.09885154 0.13385062 -0.04682052 -0.05233486 0.040086843 -0.050824992 0.056111127 -0.21221565 0.24379155 -0.05550621 -0.05824145 0.031192798 -0.05821211 -0.02466214 0.160547 -0.015560013 -0.0025685658 -0.012617607 0.031777035 0.11090206 0.026127754 0.17441368 0.04399699 -0.0019930222 -0.1264468 0.024550488 0.010323659 -0.13894978 -0.19346052 -0.011671744 -0.10077998 0.14751828 -0.06945723 -0.036325514 0.08153029 0.19336301 0.09065927 0.046034176 0.09952949 -0.14866178 0.091016494 -0.122161254 -0.052716453 -0.10791529 0.03908281 -0.02496567 0.07616877 0.17156942 -0.080040835 -0.07825661 -0.10266017 0.023713227 -0.18905196 0.01766848 -0.017256677 -0.11511479 0.041861515 -0.13002096 -0.023985134 0.21090649 -0.116686404 -0.07418458 0.09004912 -0.02760152 -0.01354164 0.031956982 0.06791787 -0.04006548 -0.03633774 0.033787988 0.0044845315 0.005296363 -0.10048416 -0.09681624 0.017974917 0.054136146 -0.17607461 0.077577986 -0.02864265 0.18966708
1262 -0.03947991 0.009409871 0.023609193 -0.13051462 -0.022824815 0.08612767 0.15856296 -0.039271396 0.0071520787 0.10913597 -0.062207013 -0.08505441 -0.060972847 0.12018169 0.33468544 0.22774655 -0.09472261 0.037123434 -0.092709124 -0.031759888 0.05008075 0.0914695 -0.1657054 -0.155653 -0.07248257 0.09477922 0.084680624 -0.072881415 0.0067082774 -0.0063326624 0.04120557 -0.018512018 0.08584997 -0.042819183 0.056628365 0.14642045 0.10355474 -0.06331039 0.002955077 -0.032558043 -0.20677358 0.05739849 0.12113367 -0.027676348 -0.18872559 -0.10834335 0.11010891 0.042657796 0.0014234049 0.13780805 -0.025593998 -0.015781233 -0.0876309 -0.058378108 0.049186096 -0.16457933 0.0654686 -0.13856947 -0.09349344 -0.03609551 -0.0993938 -0.14649798 0.18072896 -0.10873741 0.112986684 -0.022479348 0.06852829 0.061202016 -0.12579659 0.0482807 -0.235585 0.023534419 0.0018281556 0.0063678003 -0.067453735 -0.12395237 -0.0019572522 0.06644469 -0.18604136 0.2073656 -0.09839839 -0.07100318 0.022608986 0.2892967 -0.026311368 -0.005944234 -0.023781847 -0.118929625 0.028368283 -0.031982303 -0.045046926 -0.016179604 -0.04263226 0.0045687617 0.023685867 0.22553262 0.12608923 0.019479975 -0.11811489 0.09795624 -0.15390776 0.046614904 -0.058821496 -0.112311885 0.29767498 0.08549772 -0.16863719 0.04576365 -0.055988055 -0.079688214 0.041706998 -0.03775947 0.024527788 0.029330755 -0.013114415 -0.09599975 -0.081092596 0.038504455 0.022147382 0.09640608 -0.099746585 -0.04659589 -0.089109465 0.078796156 -0.17777148 -0.11138037 0.07603833 0.16091113
1200 -0.02835651 -0.050890002 -0.09618072 -0.031870455 -0.13119374 0.03934205 0.12811781 0.16059774 -0.018172601 0.0069435136 0.0569995 -0.20006713 -0.24076046 0.15472816 0.16667609 0.10718591 0.07378812 -0.022409016 -0.098383516 0.25909123 0.14542761 0.118836045 0.0034101866 -0.15360887 -0.059315942 0.0011465189 -0.04239975 0.11478551 0.079362854 -0.018745283 0.041531246 0.080061056 0.08019052 -0.1919899 0.011347108 0.124834545 0.16201507 0.009160892 0.17056775 0.032681156 -0.27832025 0.26815903 0.06133263 0.1138408 -0.015853802 -0.046351638 0.03449093 -0.071447246 -0.041776907 -0.005800116 0.0546136 0.0008522193 -0.05960893 -0.082674675 0.06996752 -0.14668897 0.19194376 -0.17872187 -0.048244294 0.02317756 -0.07087815 -0.047331832 0.17138442 -0.13096426 0.10862495 0.09922231 0.0241768 0.0031332087 -0.019056972 0.15930215 -0.13270025 0.032878164 0.015045438 0.011928221 0.05192942 -0.17340448 -0.008255088 0.057934746 -0.11767949 0.058098093 -0.04146042 -0.09812784 0.11586617 0.11059099 0.04441875 0.11793085 0.11099647 -0.09748851 0.04436133 0.023878055 -0.02190324 -0.059351735 -0.025510661 -0.05120968 0.033170182 0.14969507 -0.037059896 0.053451955 -0.1968214 -0.11938218 -0.11458631 0.15662691 0.13933828 -0.088599205 0.13416022 -0.15328702 -0.17518713 0.12003153 0.08930228 -0.15839902 -0.05413483 -0.12473312 0.055073816 0.059764087 -0.086512215 -0.07251835 -0.050152183 -0.16448802 0.117188916 -0.0077023543 -0.01822477 -0.12417457 0.017395152 0.13877246 -0.07345277 -0.06922428 -0.08657192 0.0674162
1398 -0.06975292 0.038830828 -0.048673507 0.016651649 -0.087049104 0.09610829 0.018973878 0.14220221 0.07680561 0.25678092 -0.07203162 -0.10379881 0.19535123 0.15023597 -0.13593839 0.048778147 -0.0660273 -0.032923687 -0.1848131 0.18809764 0.14090309 0.26987255 -0.114132814 -0.03728853 -0.12066939 0.0587758 -0.013178706 -0.08061538 0.08325253 0.06350036 -0.03164697 0.21051593 0.07114914 0.018123457 -0.012914507 0.123188384 0.06931038 -0.04760514 -0.08116506 0.041252352 -0.39367533 0.27889547 -0.046892654 -0.027176065 -0.06780295 -0.3296497 0.19905356 0.08822903 0.017244352 0.33855626 -0.035774805 -0.19269153 -0.07675028 -0.10033237 -0.08741932 -0.19576088 0.1191809 -0.33770007 0.015790379 0.094618544 0.071711175 0.1823909 0.040904228 0.02961827 -0.027712166 -0.18866803 -0.025558146 -0.02831952 0.0295894 -0.043711156 -0.13581996 0.09486882 -0.09487161 -0.12442084 0.018805278 -0.0880158 -0.113275096 0.010720288 0.13742979 0.12444065 0.109805174 0.055402912 0.16376662 0.19101508 0.23140512 0.1400633 0.041946284 -0.15196446 -0.06422619 -0.03323802 -0.12901743 -0.31904614 0.19764303 0.014149972 0.09328337 0.17843929 -0.016839376 0.30383316 0.1375266 -0.04011113 -0.09882461 0.016841663 0.22078349 -0.09541394 -0.030230952 -0.07281893 -0.2754 0.29179877 -0.032281216 -0.08199611 0.026964622 -0.25196087 0.031760387 -0.043566275 0.0025351937 -0.010198027 0.1375751 -0.11628094 -0.06854851 -0.13912936 -0.085970365 -0.18355548 -0.03229625 -0.04774361 -0.25089577 0.17565724 0.18399142 -0.020725545
1055 -0.09762823 -0.06670671 0.2114227 -0.04876631 0.022850074 -0.056924127 0.22780687 -0.1241059 -0.10384955 0.034142483 -0.009713855 0.062136114 0.09581326 0.20675468 0.2361769 -0.101420395 -0.24159634 -0.1346719 0.017821925 -0.03929327 0.11078474 0.08126892 -0.101724215 0.24462534 -0.27970424 0.05342181 0.004599176 -0.08091459 0.13462685 0.040485658 -0.11552635 -0.01026232 0.12887101 -0.032560878 -0.078840725 0.26575142 0.088747956 0.053232815 0.13793415 0.13670205 -0.30901545 0.46797898 -0.06559668 0.04222281 0.036963746 -0.21511789 -0.19725755 0.22561088 -0.02383342 -0.015907878 0.09885517 0.063126154 0.07336067 0.002115866 0.084393956 -0.36091632 0.14639993 -0.21727122 -0.024269791 0.21486361 0.049854297 0.032421134 0.021487894 0.1420279 0.122237 0.0064880606 -0.031813785 0.0063833375 -0.012696389 0.10061465 -0.15526909 0.059068587 -0.062435683 -0.06499968 0.18458837 -0.15887818 -0.13587368 -0.014694827 -0.23942672 0.2455721 -0.0014652683 -0.22437556 0.2065529 0.14814237 -0.050554954 0.002882934 0.09462287 -0.062442996 -0.1267043 0.091909006 0.20583485 0.02228551 -0.1258115 -0.08205539 -0.05023445 -0.021549273 0.009538955 0.11281707 -0.05095845 0.08248292 -0.14800331 -0.13120243 -0.18105836 -0.08211797 -0.005524051 0.029134758 0.19197315 0.11206939 0.12817729 0.0812755 0.012643756 -0.16402587 0.035632536 0.22883163 0.12050503 -0.11521194 -0.1547848 0.00058245 -0.21120827 0.09500763 -0.08509283 -0.08329702 0.02070246 0.046407633 -0.16833207 0.06116788 0.016448006 0.20040663
1339 -0.023626136 -0.07670288 -0.06217019 -0.073382154 -0.0032601976 0.08183567 0.07183355 -0.018050002 -0.1993366 -0.015917221 0.052851297 -0.04713816 -0.07140984 0.1204372 0.27502865 0.29071555 0.010701903 0.031983387 -0.12328971 0.07522643 0.22641535 0.14269663 -0.013180926 -0.2283209 0.024412086 0.009097479 0.07718838 0.034357153 0.07981144 0.006219132 -0.066474326 -0.105488375 -0.031709213 0.038684037 0.1572729 0.20202315 0.16006154 -0.008136038 -0.00079865434 -0.0036077828 -0.31683284 0.15392281 -0.015781697 0.074933685 0.0824701 -0.10346469 0.047950134 0.16507772 0.038219787 0.07381086 0.003586545 -0.02973074 0.030070588 -0.114866555 0.054507118 -0.08605101 0.13906857 -0.18446971 -0.2144782 0.073147476 -0.10526239 -0.046469286 0.1964337 -0.048208073 -0.025916057 0.043763828 -0.04294092 0.049200375 -0.13322663 0.10792702 -0.06031282 -0.020961242 0.03916112 -0.035534546 0.055733655 -0.0719619 -0.12898448 0.039164133 -0.15731694 -0.09902959 -0.15031113 -0.0032227794 0.09166353 0.115708195 0.14616357 0.2175281 0.012869031 -0.062466804 0.1627061 0.021899896 0.013883767 -0.011323096 -0.053036287 -0.1401239 0.043631226 0.18601185 -0.042465247 -0.09570027 -0.08158077 -0.08555374 -0.15494542 -0.030696042 0.03614106 -0.16582446 0.09198016 -0.15390502 -0.14841452 0.13152064 -0.1270369 -0.11533242 -0.06421095 -0.0611444 -0.026458275 0.13557814 0.008507588 -0.026816335 0.029457442 -0.24239455 -0.035117533 0.12636583 -0.023836207 0.06673626 -0.056243442 0.012689363 -0.15462567 0.09860469 -0.018521078 0.07686019
1106 -0.067443125 -0.13292654 -0.15576863 -0.006088708 0.031316664 0.004858742 0.13570859 0.10112942 -0.08492414 -0.033192392 -0.14080852 -0.14891422 -0.08199439 0.19673894 0.20393711 0.29683128 0.11084611 0.084402725 0.019051515 0.046616066 0.23980291 0.07180612 -0.029587517 -0.25345743 -0.10403742 0.08294627 0.047250863 0.019720195 0.21014313 -0.050061606 -0.0031203066 -0.07820658 0.015850464 -0.11330454 0.008586441 0.1816444 0.079070695 0.030486006 0.116625816 0.0019336587 -0.30042726 0.12210543 0.12667002 -0.07332146 -0.10181674 -0.12436657 0.047466412 0.075828984 0.016499985 0.13772093 -0.05306242 0.02252264 0.027019897 -0.06908462 0.026274405 0.010008159 0.1111161 -0.11301461 -0.08474723 0.051186398 0.0131832855 -0.11082243 0.08632254 0.01613817 0.01546399 0.039828517 -0.060121614 0.016381213 -0.10742769 0.059106383 0.016646741 -0.04618415 -0.09148395 -0.10256831 -0.22122398 -0.1999766 -0.12865904 0.040636644 -0.15935673 0.13555636 -0.0020492892 -0.05571265 0.1553269 0.20268647 -0.051359423 -0.011651652 0.08781103 -0.13840818 0.10894016 0.03244978 -0.037273485 -0.08890207 -0.01562522 -0.13243781 -0.117454804 0.14755835 -0.051607233 -0.1603784 -0.12157599 0.100536376 -0.1645408 0.096743464 0.02872891 -0.16055597 0.27719733 -0.051181905 0.06347939 0.118215606 -0.075136684 -0.074204035 0.059190016 -0.10544963 0.06680921 0.21206364 0.07516063 0.037642065 -0.12621087 -0.10885836 -0.095336005 -0.035162516 0.08045081 -0.04234897 -0.13048981 0.059587635 -0.16165037 -0.05722519 0.10939692 0.09212279
1073 -0.023119528 -0.10251829 -0.09207216 -0.04675908 0.032910455 0.0068818135 0.17596197 -0.09445133 -0.12996303 0.1164122 0.121856205 -0.0821531 -0.09976486 0.2387004 0.21645653 0.18210025 0.02738041 -0.11849493 -0.08924509 -0.0917476 0.13567959 0.12260026 -0.02256846 -0.09174891 -0.024138242 0.1645128 -0.11241082 0.016130311 0.022582911 -0.009476584 -0.14752373 -0.05199112 -0.034745168 -0.01661486 0.08981253 0.31059548 0.038006686 -0.1194765 0.12058855 0.017637437 -0.22180396 0.11894544 -0.023683527 0.00031429782 -0.01548768 -0.06615025 0.0428561 0.19603066 -0.0069796 0.17513813 0.0070286267 0.1439672 -0.08400815 0.095769994 -0.06043546 0.05161317 0.06390098 -0.21387741 -0.030636223 -0.051348712 -0.1047017 -0.08186556 0.071695864 -0.047855295 0.082422055 0.11694114 0.039246358 0.06531103 -0.18119459 0.08872216 -0.13168481 -0.07543394 -0.06841246 0.017301762 0.14140034 -0.10521307 -0.035828482 0.0028477213 -0.14410691 -0.0040293853 -0.040639114 -0.23507361 0.05921974 0.1780433 0.052797984 0.09923422 -0.03021068 -0.10840124 -0.1082284 -0.15222034 -0.018771432 -0.104169376 0.0026061756 -0.039635442 0.19138967 0.08548252 -0.08935362 0.045966018 -0.020810464 -0.09135233 -0.1894879 0.047809664 0.08886551 -0.032547835 0.16500852 -0.12680364 -0.14279123 0.2108714 0.005875462 -0.20770912 -0.0233916 0.012808284 -0.037714038 -0.061316453 -0.067221835 -0.12153092 -0.03996987 -0.02798728 -0.007977873 0.03547837 -0.04101948 0.02010326 -0.14437997 -0.12888049 -0.24062411 -0.11899256 -0.019384699 0.073414184
1101 0.00045217082 -0.13027184 0.18038611 0.05831101 -0.002597313 0.14697403 0.037573118 0.09654499 0.0046094693 0.020497087 -0.07965042 -0.16255651 -0.14428604 0.1179657 0.14995134 0.1709974 0.025590835 -0.07192697 -0.11924398 0.19411601 0.1104541 0.272493 -0.03900703 -0.2884681 -0.10284194 -0.17487314 -0.0780113 0.13661481 0.10234791 -0.0020047154 -0.109558925 0.029126694 -0.031798694 -0.009435988 0.032970075 0.19992025 0.16849317 -0.029392045 0.03696264 -0.047629587 -0.2715047 0.16494754 0.119393885 -0.1032278 -0.016505787 -0.030395104 0.042313732 0.110329315 -0.116740756 0.04946245 -0.07404252 0.03549086 -0.05867221 0.015727801 -0.03630436 0.04332168 0.080711216 -0.10541962 -0.029267503 -0.014574479 -0.13041756 -0.22034042 0.13676327 -0.0088647315 0.085589156 -1.1050157e-05 0.049574714 0.060757548 -0.1030626 0.14089617 -0.069357745 -0.021951877 -0.08679784 0.026011877 -0.033320874 -0.12615715 -0.0068065454 -0.00068669446 -0.30272254 -0.0022898042 -0.115564965 -0.019126426 0.14607331 0.20786987 0.21512057 -0.02138862 0.053873464 -0.07513646 -0.06741653 -0.30284333 0.058021 0.09299038 -0.0169252 0.05063913 0.0921991 0.018497838 0.028981566 0.02726894 -0.18005216 0.053769477 -0.05426418 -0.014631898 0.007084766 -0.11713871 0.22175986 0.018853936 0.017875303 0.12727237 -0.07743434 -0.13628924 0.09171527 -0.019943543 0.016989218 0.14438449 -0.019619258 -0.22508812 -0.0954248 -0.0102622295 0.01597097 0.020686284 -0.07628828 -0.045211855 -0.10573226 0.06662556 -0.05083498 -0.043967 0.011282616 0.06519831
1226 -0.046858575 -0.031227428 0.028778018 0.059054926 -0.008410602 0.15599443 -0.07923454 -0.0642643 0.062378235 -0.0260167 0.03788921 -0.10158506 -0.13271494 0.18284506 0.09206183 0.30560753 -0.0019419945 -0.07418793 -0.079603255 0.14952753 0.09334629 0.19252427 -0.03716424 -0.012090047 -0.031983495 0.119684085 0.023848275 -0.04019414 0.045971375 -0.12693317 -0.026878096 -0.05687518 0.017713776 -0.037074454 0.09565276 0.29914013 0.10216707 -0.040563304 -0.073234394 -0.21137907 -0.238641 0.19241914 0.023216285 0.1295055 -0.014411365 -0.11349487 0.055040944 0.17891052 0.028564472 0.10379502 -0.024232322 0.042566657 0.04259601 -0.049449906 -0.03181666 0.047074493 0.23685725 0.005176733 -0.09033275 0.13567968 -0.10607349 -0.09261337 0.17703964 -0.054600436 0.22063425 0.04489261 0.096363805 0.06505493 -0.09324498 0.041568916 -0.10223014 -0.04404238 -0.0813133 -0.02068169 0.14116761 -0.18938388 -0.10162051 -0.03829551 -0.12109077 0.076901674 -0.055247918 -0.13830043 -0.03515011 0.09756445 0.0035744486 0.19675048 -0.013487038 -0.21301113 0.07474628 -0.12648608 -0.06411363 -0.015432881 -0.12006878 -0.05765529 0.13553336 -0.07329308 0.0011425904 0.02549406 -0.14399955 0.0011663956 -0.09670132 0.016582873 0.0034679286 -0.05609529 0.19530047 -0.012290868 -0.0902859 0.26312506 -0.06432997 -0.02088086 -0.005580058 -0.012348666 -0.020330094 0.035670348 -0.0995449 -0.09041906 -0.019286467 0.04068434 0.06930625 -0.111910135 0.039033506 0.011793607 -0.1965581 -0.052951492 -0.14732097 0.029448312 0.022564793 0.09679762
1246 -0.07556224 -0.12983502 -0.01763197 0.05541333 -0.052900244 -0.003413551 0.27421764 0.04825944 -0.104787126 0.20255771 0.048586518 -0.07841033 -0.18069972 0.17375024 0.09578708 0.13589361 -0.16838653 -0.0452649 -0.029486367 0.09689121 0.091289975 0.23680162 0.0034822102 -0.001912014 -0.0908869 -0.046773076 -0.04089351 0.17876336 0.02481209 -0.027172225 -0.03951843 -0.12963381 -0.03640581 -0.08858304 -0.04176707 0.063783355 0.0732704 -0.062579386 0.01906489 0.09995229 -0.14026049 0.173944 0.27276364 -0.07371647 -0.008015889 -0.27975234 -0.019692732 -0.010468961 -0.008865735 0.1775295 0.066175155 -0.04647928 -0.0033912456 -0.002034104 0.09144326 0.07007829 0.28105804 0.0068434416 -0.10496931 0.024253653 -0.07526393 -0.13328612 0.19727103 0.025915734 0.085165836 -0.07032117 -0.11943354 0.058955498 -0.107914306 0.059386693 0.0032796303 0.085845456 -0.079007536 0.031007724 0.061145857 -0.21601547 -0.15424465 -0.0507093 -0.28122303 0.02635157 -0.14008921 -0.14623348 0.19656141 0.07200679 0.058776043 -0.09741026 0.0008009522 -0.1721086 -0.054968018 0.03387913 -0.10411608 -0.11464291 0.048633844 -0.07720781 0.06981643 0.04368132 0.10064671 -0.046923917 -0.06681649 0.008581362 -0.19326185 -0.025644531 0.12006933 -0.047811497 0.13263232 -0.2339279 -0.09197807 -0.012289856 -0.11396362 -0.059814706 0.0872036 -0.19760995 0.0034032702 -0.07301122 0.10904277 -0.14518876 0.123487055 -0.06747416 -0.18659529 -0.0116458675 -0.035631545 -0.078880034 -0.1455757 0.2076446 -0.26827255 -0.12640336 0.04417391 0.11477915
1325 0.08159429 -0.04252485 -0.0031054567 -0.1252084 -0.11472091 0.04765446 0.0871728 0.06759163 0.18582675 0.12228554 -0.10122108 -0.00029707298 0.16195074 -0.20558953 0.058875762 -0.013034172 -0.14915259 -0.17939565 -0.279663 0.10886502 0.25096032 0.16331199 -0.06396287 -0.06286772 -0.18786857 0.07732691 -0.043977875 0.15521806 0.15973319 0.07552993 -0.0022473768 0.07541053 0.10743085 0.087839834 0.023320856 0.16888055 0.22894362 -0.36004424 -0.12701316 -0.1657129 -0.20346019 0.32157698 -0.07321998 -0.020029943 -0.00043393337 -0.29174528 -0.18040463 0.13000001 -0.24802774 -0.06033143 -0.33846474 -0.24692231 -0.13149703 -0.3255944 0.12959746 -0.059222836 0.21838817 -0.37882462 -0.10438092 0.21685122 0.01961696 0.09963292 0.13353038 0.11508222 -0.04060648 0.04932483 0.09509334 -0.24435216 0.048439134 -0.033896144 -0.09837768 0.24268669 -0.08360393 -0.015611453 -0.19060013 -0.26570693 -0.3757349 0.26650453 0.041642055 0.13063239 -0.19940627 -0.0040410263 0.051241033 0.36907497 0.0030379684 0.1165668 0.34553286 -0.07032718 0.13876611 0.05586339 0.063755594 -0.2994103 0.09966668 0.12846108 0.22376072 0.13597605 0.052851625 -0.034065485 0.14733706 0.067071885 -0.2268656 -0.00459437 -0.055672824 0.080510214 0.08346747 -0.032104604 0.061977413 -0.10323004 -0.042168427 0.027229996 0.030801194 0.18262026 0.10843573 0.34444678 -0.08890233 -0.103588566 0.029970782 0.09022359 -0.05284747 -0.14464873 -0.14383516 -0.12565234 -0.033886455 0.173433 -0.015616729 -0.120262764 0.064076126 -0.038797878
1089 -0.08531563 0.18689078 -0.038391717 0.11757765 0.12078616 0.14463492 0.041100807 0.18036345 -0.040697627 -0.03243998 -0.04677329 -0.14540714 -0.053060975 0.15794972 0.13644883 0.23256254 -0.01594646 -0.02359928 -0.05035891 0.27535254 0.110915765 0.29277834 -0.19383772 0.055504195 -0.09162204 0.17300123 -0.08295 0.021880249 -0.052252404 -0.08210671 -0.06343818 -0.01162062 0.0069972053 -0.08511916 0.07435093 0.40374178 0.14885159 -0.025922293 -0.19983631 0.010577333 -0.23946324 0.3025058 0.08362926 -0.010631406 0.2074703 -0.1935369 0.0027352008 0.16594431 -0.033558674 0.08520273 0.026156828 0.090908706 -0.084122315 -0.06504612 0.1522268 0.03374187 0.28541243 0.011891522 0.035528436 0.2184495 -0.117965035 0.07795091 -0.017809264 -0.019208184 0.106814265 -0.023098588 0.14778079 0.08399257 -0.120097406 0.0024614097 -0.08646379 0.11998249 -0.14310402 -0.015478832 -0.12186449 -0.22134094 -0.08241025 -0.11703216 0.009479819 -0.066800274 0.13270399 0.112569384 0.14062846 0.4615868 0.058769386 0.06349029 -0.09968756 0.14010584 0.26899105 0.009201286 -0.16316928 -0.077542715 0.0785774 -0.029940201 0.10521512 0.14942114 -0.19939888 0.13750663 -0.06465446 0.19131379 -0.07525546 -0.017351463 0.056070834 -0.15573968 0.08708736 -0.050643247 -0.040573623 0.12000165 0.061410494 -0.044397723 0.10847852 -0.052887432 -0.068249404 -0.01712679 0.036581207 0.014886814 -0.11676874 0.00014531518 0.01959918 0.045692064 -0.1509644 0.10718127 -0.104244076 0.04158753 0.012954979 0.022984713 0.06991021 0.05746413
1125 -0.083795264 0.021543687 -0.072513 0.0982196 0.10544353 0.034999333 0.21565588 0.105453394 -0.044296086 0.0069232066 0.063262 -0.03378651 -0.08659635 0.32859218 0.08098324 0.17323427 0.1494172 0.016492482 -0.046275754 0.14831756 0.118231535 0.25301176 -0.030213837 -0.112400025 -0.04494502 0.11870375 0.057619978 0.06521176 0.0027470102 -0.034169782 -0.0018359344 -0.038547307 0.11959537 0.0036522492 0.06632888 0.06191626 0.26047722 0.012718901 0.2069951 0.010248432 -0.33808333 0.11844959 -0.040096167 -0.02771709 0.029883254 -0.053390134 0.008737561 0.083756246 -0.10758782 0.03104648 -0.09533506 0.1068526 -0.060928036 -0.12993224 0.024532996 -0.035453863 0.07340139 -0.21712573 -0.08642966 0.09065657 -0.107625596 -0.08585536 0.040869165 0.031780068 -0.008985657 -0.026934836 -0.0043469328 0.059630103 -0.034982827 -0.03826212 -0.022101285 0.052488573 -0.110197455 0.110632144 0.106228106 -0.24504949 0.06196284 0.037057757 -0.15562835 0.089044414 -0.058833275 0.017153356 0.13262749 0.27746817 0.05707204 -0.087592915 0.06397261 0.019380327 0.06264099 -0.06866236 0.1020866 -0.075497665 -0.047544356 -0.09843757 -0.06560329 0.027294341 0.060664926 0.035333417 -0.056027677 0.029596852 -0.09912232 0.04131205 0.0909609 -0.06539569 0.18852325 -0.0014114059 -0.14648578 0.3200405 -0.0039890585 -0.08488618 -0.11935101 -0.057674844 0.05385739 0.20913143 -0.046535682 -0.069654964 -0.05961878 -0.041625135 -0.07614502 -0.00094327814 0.084750846 -0.13520524 -0.08299309 0.013779046 -0.06775144 0.051239483 0.07125913 0.09503783
1082 0.032240342 -0.10484801 -0.016629038 0.063828275 0.02309151 0.09929227 0.11233107 -0.09245013 -0.064368755 0.059051584 0.10754209 -0.02178951 -0.07514911 0.12217298 0.29114842 0.18368044 -0.08113912 0.08846171 -0.03731162 0.051248815 0.10383862 0.25770438 0.08936039 0.017962592 -0.04288599 0.12225185 0.006884184 -0.12384483 -0.074888304 -0.059495747 -0.008720386 -0.083408415 0.13238181 -0.12771973 0.15557398 0.20584527 0.30570096 -0.09800765 -0.039544728 0.113790736 -0.34457883 0.06622741 0.12649193 -0.028873755 0.05385377 -0.09540747 0.16810034 0.012995245 -0.111673735 0.119817615 0.04721135 -0.029841024 -0.060571145 0.02870314 0.14699203 -0.0030615765 0.13027819 0.024589593 -0.16037418 0.13169748 -0.01293547 -0.118096456 0.045988034 -0.019847449 0.055909593 0.0008793813 0.10840689 -0.032910224 -0.06916375 -0.069526844 -0.10982292 0.10828082 -0.088265605 0.11747288 0.10473073 -0.27725995 -0.09729648 -0.085827835 -0.1591724 0.12582807 -0.030477025 -0.2108796 0.14330669 0.15541194 -0.042102743 0.027608698 0.15191066 0.055233955 -0.041994363 -0.029682646 0.0700333 0.0019581132 -0.008541488 -0.013511699 0.13870123 0.10615916 -0.0718187 0.0056437184 -0.14289223 -0.07242542 -0.015779508 0.008306435 0.08803658 -0.049548298 0.05090618 -0.031398334 -0.12016458 0.27648315 -0.0944274 -0.041060254 0.04807088 -0.048410863 0.15022172 0.066328764 -0.000432923 -0.031612664 0.055768758 0.048362024 -0.05276936 -0.052889634 -0.10702296 -0.0411742 -0.14014861 0.007952664 -0.20254579 0.06677933 -0.025220463 0.10730501
1341 -0.16332543 -0.15358995 0.034756046 0.009954506 0.052894592 0.09029965 0.17245041 -0.1492763 0.071440734 0.034448672 -0.17278527 0.06328793 0.1855976 -0.10763448 0.14447564 -0.0028613738 -0.17043176 -0.22085233 -0.28745493 0.22880901 0.27589655 0.04221997 -0.037079535 0.028779935 -0.13027202 0.18482396 0.039549388 0.021921176 0.07974929 -0.14163746 0.11399948 0.14638348 -0.041794553 0.18832476 0.19035591 0.08164054 0.12270002 -0.006604877 0.061380226 0.029604638 -0.35780808 0.17125814 -0.08592975 -0.049645565 0.26018366 -0.14685068 0.24187896 0.09222487 -0.016739087 -0.19558866 0.056002762 0.08674515 0.03772586 -0.15866406 -0.24863185 -0.1455077 0.3860105 -0.027132621 -0.031763997 -0.101722844 0.21007288 -0.061935443 -0.16251709 0.033073477 0.025127545 -0.009601548 0.06876962 -0.1697309 -0.10814787 -0.24954677 -0.34094572 0.39464533 -0.1259659 -0.31168225 -0.07806211 -0.19795662 -0.2732059 0.13615225 0.085827336 0.06214155 0.13949992 -0.047300547 -0.031244187 0.074798994 0.31477728 0.10452201 -0.0983802 0.06936594 -0.074196704 0.12992327 -0.037691038 -0.19698153 -0.06956236 0.013452087 0.025807736 0.061770506 -0.011688929 -0.11669747 -0.030362558 0.18718821 -0.07751643 -0.03200694 0.07704408 0.08008652 0.0803657 -0.017915638 -0.335877 0.2038205 -0.04678969 -0.1867113 -0.13213466 -0.20255114 -0.05663852 0.23774292 -0.041414276 -0.14252888 0.2156848 -0.21409775 -0.0040073683 -0.0761725 -0.324599 -0.030815115 0.08163242 -0.070821226 -0.41961432 0.13179845 -0.1323946 -0.036410034
1078 -0.15418349 -0.030745104 0.28033435 0.038873293 -0.05998847 0.070102684 0.14626753 -0.092178315 -0.06252315 0.033362076 0.016624045 0.014840493 -0.06630125 0.037970945 0.11017696 0.06729764 -0.11842551 -0.09879861 -0.15468581 0.00946281 0.30914566 0.09327981 -0.02583655 0.06440138 -0.20692688 0.048610814 -0.0022772339 0.015177326 0.093006015 0.056377575 0.0021770806 -0.2447231 0.15583766 -0.17723697 -0.018314319 0.19514397 0.013051438 0.13447474 0.08576456 0.16678324 -0.39790645 0.34191766 0.024514388 0.011826562 0.019908028 -0.10851114 0.12438065 0.077842735 0.0075611533 -0.04798998 0.24982855 0.08067071 0.0582082 0.061464652 -0.03296898 -0.20115514 0.057814553 -0.24764757 -0.08502265 0.13502337 0.052229125 0.02742725 0.03671128 0.09739655 0.10669947 0.0746764 -0.0395417 0.02546626 -0.10167432 0.139958 -0.11625634 0.04868952 -0.13070981 0.06841483 0.14199726 -0.19020532 -0.14707896 -0.090038374 -0.21188198 0.20466729 0.074941956 -0.17881995 0.15061836 0.06385139 -0.02750179 0.15614769 -0.048745822 -0.254947 -0.08885836 0.1323023 0.036104303 0.029551776 0.053544506 0.05395285 0.07409177 0.04602924 0.0061451043 -0.06424499 -0.092850596 0.10325615 0.012246578 -0.13575967 -0.06670636 -0.19717371 0.05795232 0.014589083 0.1001994 0.25949645 0.15801014 0.01871554 0.067236885 -0.030977393 0.11509398 0.12163239 0.047987934 -0.13033894 -0.12916844 -0.08356587 -0.03386368 0.026011126 -0.13063982 0.02442752 0.25559977 0.009368438 -0.09176472 0.01570147 0.067226574 0.3179593
1417 -0.025821624 -0.12833 0.065377876 0.046903543 -0.056635547 0.22149919 0.12105042 -0.11355355 -0.039823033 -0.018212127 -0.088864334 0.06854514 -0.20452611 0.28410977 0.31890222 0.06981893 -0.0641934 -0.09663649 -0.13936242 0.0576861 0.22249305 0.15859053 0.0227019 -0.0023545648 0.05730858 0.19361784 0.05030609 -0.043319903 0.17787667 0.06467052 0.14428599 -0.13085125 0.12238347 -0.038775258 0.052202426 0.15541425 -0.0031759006 0.0027103997 -0.046959944 0.111660115 -0.17851482 0.061332192 0.079457305 -0.0003601266 0.09730477 -0.062141478 0.0546771 0.12218477 -0.14909615 0.06289708 -0.0036931974 -0.023069551 -0.12386461 0.04049276 0.10761838 0.090453096 0.18254077 -0.2217823 -0.11375268 0.04761055 -0.12718059 -0.027302735 0.091915764 0.048721805 0.12304464 -0.07879594 0.02923534 -0.009611793 0.0149014145 0.07843543 -0.17810033 0.10575049 -0.08923629 -0.11456898 0.13684036 -0.23464079 -0.21050921 0.058576237 -0.14673623 0.015220758 -0.08619971 0.050289392 0.12099393 0.08957003 0.0043660905 0.066488154 0.053901017 0.05093498 0.14898528 -0.1165014 0.06327679 -0.03129828 0.022703346 -0.06440783 0.027169254 0.18834232 0.07865185 -0.029657459 -0.18573292 -0.048516024 -0.124763705 -0.054170806 0.09287816 0.02784209 0.15612839 -0.08289728 -0.099537134 0.2267738 0.10327461 -0.09190073 0.12370504 0.020320948 -0.025357217 0.19397473 -0.056183476 0.0076540606 -0.009341367 0.069333784 0.0068143005 0.039156407 0.061227642 -0.01802781 -0.015817728 -0.004036516 -0.18691151 -0.11594703 -0.10417439 0.16267577
